[{"feature":[13,11,4,-2,0,-2,0,-2,-2,9,-2,10,-2,-2,1,12,9,10,0,-2,-2,-2,-2,0,-2,-2,12,0,-2,-2,7,-2,-2],"threshold":[-124.254856,172.114143,113.752499,-2.0,-75.723234,-2.0,146.335327,-2.0,-2.0,101.363503,-2.0,-176.679535,-2.0,-2.0,176.523323,178.522423,169.912544,-177.793396,-175.26165,-2.0,-2.0,-2.0,-2.0,-29.700352,-2.0,-2.0,175.346191,-176.547829,-2.0,-2.0,-178.050026,-2.0,-2.0],"children_left":[1,2,3,-1,5,-1,7,-1,-1,10,-1,12,-1,-1,15,16,17,18,19,-1,-1,-1,-1,24,-1,-1,27,28,-1,-1,31,-1,-1],"children_right":[14,9,4,-1,6,-1,8,-1,-1,11,-1,13,-1,-1,26,23,22,21,20,-1,-1,-1,-1,25,-1,-1,30,29,-1,-1,32,-1,-1],"value":[[0.480418,0.519582],[0.203426,0.796574],[0.114558,0.885442],[1.0,0.0],[0.031332,0.968668],[1.0,0.0],[0.005362,0.994638],[0.0,1.0],[0.333333,0.666667],[0.979167,0.020833],[1.0,0.0],[0.928571,0.071429],[0.833333,0.166667],[1.0,0.0],[0.913043,0.086957],[0.969466,0.030534],[0.979757,0.020243],[0.991632,0.008368],[0.857143,0.142857],[1.0,0.0],[0.666667,0.333333],[1.0,0.0],[0.625,0.375],[0.8,0.2],[1.0,0.0],[0.666667,0.333333],[0.513514,0.486486],[0.944444,0.055556],[0.833333,0.166667],[1.0,0.0],[0.105263,0.894737],[0.0,1.0],[0.4,0.6]]},{"feature":[10,12,9,0,-2,3,-2,-2,-2,5,4,-2,-2,2,0,4,0,-2,-2,-2,-2,-2,7,1,-2,-2,-2],"threshold":[-155.264137,78.453222,162.575302,-4.619427,-2.0,108.164383,-2.0,-2.0,-2.0,-171.338959,177.605278,-2.0,-2.0,-14.861997,150.654823,139.428246,37.615047,-2.0,-2.0,-2.0,-2.0,-2.0,-177.555046,42.371208,-2.0,-2.0,-2.0],"children_left":[1,2,3,4,-1,6,-1,-1,-1,10,11,-1,-1,14,15,16,17,-1,-1,-1,-1,-1,23,24,-1,-1,-1],"children_right":[22,9,8,5,-1,7,-1,-1,-1,13,12,-1,-1,21,20,19,18,-1,-1,-1,-1,-1,26,25,-1,-1,-1],"value":[[0.509138,0.490862],[0.315299,0.684701],[0.957265,0.042735],[0.981651,0.018349],[1.0,0.0],[0.913043,0.086957],[0.6,0.4],[1.0,0.0],[0.625,0.375],[0.136038,0.863962],[0.923077,0.076923],[1.0,0.0],[0.571429,0.428571],[0.055263,0.944737],[0.024457,0.975543],[0.008357,0.991643],[0.051724,0.948276],[0.5,0.5],[0.0,1.0],[0.0,1.0],[0.666667,0.333333],[1.0,0.0],[0.96087,0.03913],[0.4,0.6],[0.857143,0.142857],[0.0,1.0],[1.0,0.0]]},{"feature":[12,9,-2,12,-2,12,4,10,3,-2,-2,-2,-2,-2,1,13,11,-2,-2,13,-2,-2,7,13,10,-2,-2,-2,4,-2,-2],"threshold":[122.163776,99.358044,-2.0,-179.479546,-2.0,83.739128,178.043068,-169.73896,59.566181,-2.0,-2.0,-2.0,-2.0,-2.0,-14.369707,-42.108149,171.732788,-2.0,-2.0,175.067474,-2.0,-2.0,-177.555046,178.810188,179.394966,-2.0,-2.0,-2.0,176.269516,-2.0,-2.0],"children_left":[1,2,-1,4,-1,6,7,8,9,-1,-1,-1,-1,-1,15,16,17,-1,-1,20,-1,-1,23,24,25,-1,-1,-1,29,-1,-1],"children_right":[14,3,-1,5,-1,13,12,11,10,-1,-1,-1,-1,-1,22,19,18,-1,-1,21,-1,-1,28,27,26,-1,-1,-1,30,-1,-1],"value":[[0.481723,0.518277],[0.965157,0.034843],[1.0,0.0],[0.925926,0.074074],[0.333333,0.666667],[0.968254,0.031746],[0.983333,0.016667],[0.991304,0.008696],[0.961538,0.038462],[1.0,0.0],[0.75,0.25],[1.0,0.0],[0.8,0.2],[0.666667,0.333333],[0.192067,0.807933],[0.058228,0.941772],[0.008043,0.991957],[0.0,1.0],[0.6,0.4],[0.909091,0.090909],[1.0,0.0],[0.6,0.4],[0.821429,0.178571],[0.44,0.56],[0.133333,0.866667],[0.333333,0.666667],[0.0,1.0],[0.9,0.1],[0.983051,0.016949],[1.0,0.0],[0.75,0.25]]},{"feature":[0,6,2,-2,-2,13,0,-2,-2,3,-2,-2,4,11,-2,-2,3,0,-2,8,-2,9,-2,-2,5,-2,-2],"threshold":[22.934691,-179.452278,-12.178141,-2.0,-2.0,178.42688,8.574721,-2.0,-2.0,17.928984,-2.0,-2.0,114.585644,173.300789,-2.0,-2.0,126.625519,147.183029,-2.0,-95.019001,-2.0,-135.098415,-2.0,-2.0,-156.21051,-2.0,-2.0],"children_left":[1,2,3,-1,-1,6,7,-1,-1,10,-1,-1,13,14,-1,-1,17,18,-1,20,-1,22,-1,-1,25,-1,-1],"children_right":[12,5,4,-1,-1,9,8,-1,-1,11,-1,-1,16,15,-1,-1,24,19,-1,21,-1,23,-1,-1,26,-1,-1],"value":[[0.483029,0.516971],[0.959821,0.040179],[0.647059,0.352941],[1.0,0.0],[0.142857,0.857143],[0.985507,0.014493],[0.994595,0.005405],[1.0,0.0],[0.888889,0.111111],[0.909091,0.090909],[0.6,0.4],[1.0,0.0],[0.285978,0.714022],[0.966387,0.033613],[1.0,0.0],[0.333333,0.666667],[0.094563,0.905437],[0.033333,0.966667],[0.0,1.0],[0.764706,0.235294],[0.4,0.6],[0.916667,0.083333],[0.833333,0.166667],[1.0,0.0],[0.818182,0.181818],[1.0,0.0],[0.5,0.5]]},{"feature":[10,12,12,-2,-2,4,3,-2,6,5,-2,-2,4,3,-2,-2,-2,4,8,-2,-2,-2,4,-2,-2],"threshold":[-155.264137,78.919571,-179.647041,-2.0,-2.0,169.349335,17.6424,-2.0,-177.063042,-166.386147,-2.0,-2.0,139.428246,38.145847,-2.0,-2.0,-2.0,177.986687,-109.677036,-2.0,-2.0,-2.0,-177.783379,-2.0,-2.0],"children_left":[1,2,3,-1,-1,6,7,-1,9,10,-1,-1,13,14,-1,-1,-1,18,19,-1,-1,-1,23,-1,-1],"children_right":[22,5,4,-1,-1,17,8,-1,12,11,-1,-1,16,15,-1,-1,-1,21,20,-1,-1,-1,24,-1,-1],"value":[[0.480418,0.519582],[0.279926,0.720074],[0.981481,0.018519],[0.5,0.5],[1.0,0.0],[0.105747,0.894253],[0.030303,0.969697],[0.8,0.2],[0.02046,0.97954],[0.461538,0.538462],[0.285714,0.714286],[0.666667,0.333333],[0.005291,0.994709],[0.027778,0.972222],[0.285714,0.714286],[0.0,1.0],[0.0,1.0],[0.871795,0.128205],[0.96875,0.03125],[0.8,0.2],[1.0,0.0],[0.428571,0.571429],[0.96861,0.03139],[0.0,1.0],[1.0,0.0]]},{"feature":[7,1,10,12,-2,-2,4,-2,5,9,-2,-2,-2,1,12,-2,-2,-2,12,3,-2,0,-2,-2,11,3,-2,12,-2,-2,6,-2,-2],"threshold":[124.746296,176.523323,-177.793396,-178.995522,-2.0,-2.0,-169.145142,-2.0,-165.384987,115.705936,-2.0,-2.0,-2.0,178.246628,179.304001,-2.0,-2.0,-2.0,14.177795,95.726551,-2.0,142.205078,-2.0,-2.0,172.763641,22.185923,-2.0,178.161354,-2.0,-2.0,-178.573395,-2.0,-2.0],"children_left":[1,2,3,4,-1,-1,7,-1,9,10,-1,-1,-1,14,15,-1,-1,-1,19,20,-1,22,-1,-1,25,26,-1,28,-1,-1,31,-1,-1],"children_right":[18,13,6,5,-1,-1,8,-1,12,11,-1,-1,-1,17,16,-1,-1,-1,24,21,-1,23,-1,-1,30,27,-1,29,-1,-1,32,-1,-1],"value":[[0.446475,0.553525],[0.911765,0.088235],[0.978541,0.021459],[0.8,0.2],[0.5,0.5],[1.0,0.0],[0.990826,0.009174],[0.75,0.25],[0.995327,0.004673],[0.970588,0.029412],[1.0,0.0],[0.75,0.25],[1.0,0.0],[0.512821,0.487179],[0.095238,0.904762],[0.25,0.75],[0.0,1.0],[1.0,0.0],[0.190283,0.809717],[0.985075,0.014925],[1.0,0.0],[0.962963,0.037037],[0.857143,0.142857],[1.0,0.0],[0.065574,0.934426],[0.007481,0.992519],[0.4,0.6],[0.002525,0.997475],[0.0,1.0],[0.25,0.75],[0.961538,0.038462],[1.0,0.0],[0.857143,0.142857]]},{"feature":[12,7,9,-2,-2,-2,11,-2,5,10,1,8,-2,-2,-2,-2,0,-2,0,6,-2,-2,-2],"threshold":[117.124958,-177.585777,117.085346,-2.0,-2.0,-2.0,154.644783,-2.0,-169.698395,7.572578,177.958572,-114.752728,-2.0,-2.0,-2.0,-2.0,24.203556,-2.0,136.340309,-178.322678,-2.0,-2.0,-2.0],"children_left":[1,2,3,-1,-1,-1,7,-1,9,10,11,12,-1,-1,-1,-1,17,-1,19,20,-1,-1,-1],"children_right":[6,5,4,-1,-1,-1,8,-1,16,15,14,13,-1,-1,-1,-1,18,-1,22,21,-1,-1,-1],"value":[[0.493473,0.506527],[0.977612,0.022388],[0.860465,0.139535],[1.0,0.0],[0.142857,0.857143],[1.0,0.0],[0.232932,0.767068],[1.0,0.0],[0.103286,0.896714],[0.77551,0.22449],[0.926829,0.073171],[0.971429,0.028571],[0.8,0.2],[1.0,0.0],[0.666667,0.333333],[0.0,1.0],[0.015915,0.984085],[0.428571,0.571429],[0.008108,0.991892],[0.002732,0.997268],[0.166667,0.833333],[0.0,1.0],[0.5,0.5]]},{"feature":[6,13,1,4,-2,12,-2,-2,4,-2,-2,13,-2,10,1,-2,-2,-2,8,-2,4,-2,8,-2,-2],"threshold":[-117.124958,-121.054565,-20.410116,123.338715,-2.0,178.732948,-2.0,-2.0,176.25251,-2.0,-2.0,177.555046,-2.0,69.826956,30.129646,-2.0,-2.0,-2.0,-171.61084,-2.0,177.79879,-2.0,-100.556202,-2.0,-2.0],"children_left":[1,2,3,4,-1,6,-1,-1,9,-1,-1,12,-1,14,15,-1,-1,-1,19,-1,21,-1,23,-1,-1],"children_right":[18,11,8,5,-1,7,-1,-1,10,-1,-1,13,-1,17,16,-1,-1,-1,20,-1,22,-1,24,-1,-1],"value":[[0.501305,0.498695],[0.220374,0.779626],[0.071611,0.928389],[0.005495,0.994505],[0.125,0.875],[0.002809,0.997191],[0.0,1.0],[0.111111,0.888889],[0.962963,0.037037],[1.0,0.0],[0.8,0.2],[0.866667,0.133333],[1.0,0.0],[0.428571,0.571429],[0.6,0.4],[0.285714,0.714286],[0.875,0.125],[0.0,1.0],[0.975439,0.024561],[0.375,0.625],[0.99278,0.00722],[1.0,0.0],[0.913043,0.086957],[0.666667,0.333333],[1.0,0.0]]},{"feature":[4,0,12,-2,-2,-2,7,10,-2,9,6,-2,-2,-2,13,11,12,-2,-2,12,9,-2,-2,-2,0,-2,2,-2,-2],"threshold":[115.852695,178.064285,179.276024,-2.0,-2.0,-2.0,120.338966,-178.887573,-2.0,139.213284,-178.513,-2.0,-2.0,-2.0,-177.34626,171.975548,-3.353233,-2.0,-2.0,177.890396,94.657593,-2.0,-2.0,-2.0,22.460305,-2.0,-117.168346,-2.0,-2.0],"children_left":[1,2,3,-1,-1,-1,7,8,-1,10,11,-1,-1,-1,15,16,17,-1,-1,20,21,-1,-1,-1,25,-1,27,-1,-1],"children_right":[6,5,4,-1,-1,-1,14,9,-1,13,12,-1,-1,-1,24,19,18,-1,-1,23,22,-1,-1,-1,26,-1,28,-1,-1],"value":[[0.454308,0.545692],[0.985714,0.014286],[0.990244,0.009756],[1.0,0.0],[0.5,0.5],[0.8,0.2],[0.253597,0.746403],[0.87963,0.12037],[0.4,0.6],[0.928571,0.071429],[0.956989,0.043011],[0.75,0.25],[1.0,0.0],[0.4,0.6],[0.102679,0.897321],[0.672414,0.327586],[0.307692,0.692308],[1.0,0.0],[0.0,1.0],[0.96875,0.03125],[0.888889,0.111111],[1.0,0.0],[0.75,0.25],[1.0,0.0],[0.017949,0.982051],[0.75,0.25],[0.002618,0.997382],[0.142857,0.857143],[0.0,1.0]]},{"feature":[4,1,13,-2,-2,11,-2,-2,1,1,2,-2,9,6,-2,-2,-2,7,-2,2,-2,7,-2,-2,13,9,4,12,-2,7,-2,-2,-2,-2,-2],"threshold":[116.420292,176.686882,177.843613,-2.0,-2.0,173.35598,-2.0,-2.0,-28.173675,-136.113724,-143.881531,-2.0,101.164215,-38.198881,-2.0,-2.0,-2.0,-178.406586,-2.0,-121.113968,-2.0,178.596107,-2.0,-2.0,178.986633,102.419243,177.568329,167.877106,-2.0,177.963631,-2.0,-2.0,-2.0,-2.0,-2.0],"children_left":[1,2,3,-1,-1,6,-1,-1,9,10,11,-1,13,14,-1,-1,-1,18,-1,20,-1,22,-1,-1,25,26,27,28,-1,30,-1,-1,-1,-1,-1],"children_right":[8,5,4,-1,-1,7,-1,-1,24,17,12,-1,16,15,-1,-1,-1,19,-1,21,-1,23,-1,-1,34,33,32,29,-1,31,-1,-1,-1,-1,-1],"value":[[0.501305,0.498695],[0.971564,0.028436],[0.989796,0.010204],[1.0,0.0],[0.714286,0.285714],[0.733333,0.266667],[1.0,0.0],[0.0,1.0],[0.322523,0.677477],[0.145199,0.854801],[0.857143,0.142857],[0.5,0.5],[0.909091,0.090909],[0.978261,0.021739],[0.75,0.25],[1.0,0.0],[0.555556,0.444444],[0.021978,0.978022],[0.6,0.4],[0.013928,0.986072],[0.571429,0.428571],[0.002841,0.997159],[0.0,1.0],[0.1,0.9],[0.914062,0.085938],[0.947826,0.052174],[0.904762,0.095238],[0.946429,0.053571],[1.0,0.0],[0.88,0.12],[0.571429,0.428571],[1.0,0.0],[0.571429,0.428571],[1.0,0.0],[0.615385,0.384615]]},{"feature":[3,11,11,-2,2,-2,-2,4,4,-2,8,0,-2,-2,13,-2,-2,-2,4,-2,13,12,-2,5,-2,2,-2,-2,4,1,-2,-2,-2],"threshold":[30.864444,168.478424,160.648354,-2.0,-17.10666,-2.0,-2.0,179.273109,-179.483452,-2.0,-96.368015,19.169528,-2.0,-2.0,178.270149,-2.0,-2.0,-2.0,104.7938,-2.0,-121.027191,-28.40992,-2.0,-170.859215,-2.0,-117.597145,-2.0,-2.0,172.862282,-126.321587,-2.0,-2.0,-2.0],"children_left":[1,2,3,-1,5,-1,-1,8,9,-1,11,12,-1,-1,15,-1,-1,-1,19,-1,21,22,-1,24,-1,26,-1,-1,29,30,-1,-1,-1],"children_right":[18,7,4,-1,6,-1,-1,17,10,-1,14,13,-1,-1,16,-1,-1,-1,20,-1,28,23,-1,25,-1,27,-1,-1,32,31,-1,-1,-1],"value":[[0.460836,0.539164],[0.893536,0.106464],[0.987879,0.012121],[1.0,0.0],[0.9375,0.0625],[0.6,0.4],[1.0,0.0],[0.734694,0.265306],[0.835294,0.164706],[0.25,0.75],[0.896104,0.103896],[0.766667,0.233333],[1.0,0.0],[0.0,1.0],[0.978723,0.021277],[1.0,0.0],[0.75,0.25],[0.076923,0.923077],[0.234592,0.765408],[1.0,0.0],[0.14823,0.85177],[0.04798,0.95202],[1.0,0.0],[0.020779,0.979221],[1.0,0.0],[0.005277,0.994723],[0.222222,0.777778],[0.0,1.0],[0.857143,0.142857],[0.692308,0.307692],[1.0,0.0],[0.272727,0.727273],[1.0,0.0]]},{"feature":[13,2,1,-2,1,5,1,-2,-2,-2,-2,4,-2,-2,0,13,-2,-2,10,12,-2,5,11,-2,-2,-2,-2],"threshold":[-120.839497,-15.144906,-158.278511,-2.0,-20.410116,-127.351208,-141.229706,-2.0,-2.0,-2.0,-2.0,176.925079,-2.0,-2.0,-177.366386,177.882141,-2.0,-2.0,177.510323,-179.634315,-2.0,-170.099075,169.474518,-2.0,-2.0,-2.0,-2.0],"children_left":[1,2,3,-1,5,6,7,-1,-1,-1,-1,12,-1,-1,15,16,-1,-1,19,20,-1,22,23,-1,-1,-1,-1],"children_right":[14,11,4,-1,10,9,8,-1,-1,-1,-1,13,-1,-1,18,17,-1,-1,26,21,-1,25,24,-1,-1,-1,-1],"value":[[0.483029,0.516971],[0.226531,0.773469],[0.098086,0.901914],[1.0,0.0],[0.040712,0.959288],[0.010499,0.989501],[0.00266,0.99734],[0.166667,0.833333],[0.0,1.0],[0.6,0.4],[1.0,0.0],[0.972222,0.027778],[1.0,0.0],[0.666667,0.333333],[0.938406,0.061594],[0.565217,0.434783],[1.0,0.0],[0.285714,0.714286],[0.972332,0.027668],[0.97992,0.02008],[0.6,0.4],[0.987705,0.012295],[0.914286,0.085714],[0.5,0.5],[1.0,0.0],[1.0,0.0],[0.5,0.5]]},{"feature":[7,12,4,5,8,-2,10,-2,-2,-2,-2,2,-2,2,-2,-2,6,12,13,10,-2,-2,11,-2,-2,5,-2,-2,4,-2,4,-2,-2],"threshold":[120.535751,179.228477,178.821602,-160.114883,-132.936348,-2.0,-177.692192,-2.0,-2.0,-2.0,-2.0,-11.229517,-2.0,-8.740819,-2.0,-2.0,-14.177795,178.445267,-177.404579,-166.032936,-2.0,-2.0,171.66288,-2.0,-2.0,-165.18055,-2.0,-2.0,161.124611,-2.0,172.732002,-2.0,-2.0],"children_left":[1,2,3,4,5,-1,7,-1,-1,-1,-1,12,-1,14,-1,-1,17,18,19,20,-1,-1,23,-1,-1,26,-1,-1,29,-1,31,-1,-1],"children_right":[16,11,10,9,6,-1,8,-1,-1,-1,-1,13,-1,15,-1,-1,28,25,22,21,-1,-1,24,-1,-1,27,-1,-1,30,-1,32,-1,-1],"value":[[0.462141,0.537859],[0.908475,0.091525],[0.966543,0.033457],[0.977273,0.022727],[0.918919,0.081081],[0.0,1.0],[0.985507,0.014493],[0.857143,0.142857],[1.0,0.0],[1.0,0.0],[0.4,0.6],[0.307692,0.692308],[0.666667,0.333333],[0.117647,0.882353],[0.0,1.0],[0.333333,0.666667],[0.18259,0.81741],[0.051852,0.948148],[0.007772,0.992228],[0.08,0.92],[0.0,1.0],[0.25,0.75],[0.00277,0.99723],[0.0,1.0],[0.25,0.75],[0.947368,0.052632],[1.0,0.0],[0.75,0.25],[0.984848,0.015152],[1.0,0.0],[0.952381,0.047619],[0.75,0.25],[1.0,0.0]]},{"feature":[7,4,-2,10,-2,5,8,-2,10,9,-2,-2,-2,-2,6,1,11,4,-2,-2,-2,10,-2,-2,9,-2,-2],"threshold":[124.254856,-177.508339,-2.0,-178.531563,-2.0,-165.384987,-138.594109,-2.0,152.180511,116.053928,-2.0,-2.0,-2.0,-2.0,-14.177795,-23.325544,171.834763,123.863892,-2.0,-2.0,-2.0,-176.894661,-2.0,-2.0,-134.938774,-2.0,-2.0],"children_left":[1,2,-1,4,-1,6,7,-1,9,10,-1,-1,-1,-1,15,16,17,18,-1,-1,-1,22,-1,-1,25,-1,-1],"children_right":[14,3,-1,5,-1,13,8,-1,12,11,-1,-1,-1,-1,24,21,20,19,-1,-1,-1,23,-1,-1,26,-1,-1],"value":[[0.492167,0.507833],[0.94,0.06],[0.125,0.875],[0.962329,0.037671],[0.636364,0.363636],[0.975089,0.024911],[0.902778,0.097222],[0.6,0.4],[0.925373,0.074627],[0.951613,0.048387],[1.0,0.0],[0.5,0.5],[0.6,0.4],[1.0,0.0],[0.203863,0.796137],[0.063291,0.936709],[0.010753,0.989247],[0.002725,0.997275],[0.25,0.75],[0.0,1.0],[0.6,0.4],[0.913043,0.086957],[0.666667,0.333333],[1.0,0.0],[0.985915,0.014085],[0.8,0.2],[1.0,0.0]]},{"feature":[2,13,2,6,-2,-2,0,-2,6,-2,-2,11,-2,9,-2,-2,12,6,2,-2,1,-2,-2,-2,3,-2,-2],"threshold":[-20.98681,-89.638906,-119.000896,7.604172,-2.0,-2.0,20.16556,-2.0,-120.991837,-2.0,-2.0,164.192207,-2.0,109.175583,-2.0,-2.0,179.417984,-150.681923,-14.514623,-2.0,177.067032,-2.0,-2.0,-2.0,11.839742,-2.0,-2.0],"children_left":[1,2,3,4,-1,-1,7,-1,9,-1,-1,12,-1,14,-1,-1,17,18,19,-1,21,-1,-1,-1,25,-1,-1],"children_right":[16,11,6,5,-1,-1,8,-1,10,-1,-1,13,-1,15,-1,-1,24,23,20,-1,22,-1,-1,-1,26,-1,-1],"value":[[0.464752,0.535248],[0.238835,0.761165],[0.072115,0.927885],[0.869565,0.130435],[0.625,0.375],[1.0,0.0],[0.025445,0.974555],[1.0,0.0],[0.010336,0.989664],[0.0,1.0],[0.571429,0.428571],[0.939394,0.060606],[1.0,0.0],[0.777778,0.222222],[1.0,0.0],[0.0,1.0],[0.928287,0.071713],[0.961864,0.038136],[0.785714,0.214286],[0.222222,0.777778],[0.939394,0.060606],[1.0,0.0],[0.5,0.5],[1.0,0.0],[0.4,0.6],[0.0,1.0],[1.0,0.0]]},{"feature":[0,6,11,-2,-2,-2,7,5,0,-2,11,-2,-2,-2,12,9,-2,-2,12,12,-2,9,8,-2,-2,-2,-2],"threshold":[19.25771,-179.452278,175.438019,-2.0,-2.0,-2.0,83.919909,-162.021484,154.69558,-2.0,175.673584,-2.0,-2.0,-2.0,-5.725166,-125.314415,-2.0,-2.0,178.540726,172.055946,-2.0,127.200478,-110.011765,-2.0,-2.0,-2.0,-2.0],"children_left":[1,2,3,-1,-1,-1,7,8,9,-1,11,-1,-1,-1,15,16,-1,-1,19,20,-1,22,23,-1,-1,-1,-1],"children_right":[6,5,4,-1,-1,-1,14,13,10,-1,12,-1,-1,-1,18,17,-1,-1,26,21,-1,25,24,-1,-1,-1,-1],"value":[[0.494778,0.505222],[0.968468,0.031532],[0.588235,0.411765],[1.0,0.0],[0.3,0.7],[1.0,0.0],[0.301471,0.698529],[0.92,0.08],[0.705882,0.294118],[0.0,1.0],[0.888889,0.111111],[0.75,0.25],[1.0,0.0],[1.0,0.0],[0.116945,0.883055],[0.975,0.025],[0.857143,0.142857],[1.0,0.0],[0.026385,0.973615],[0.010811,0.989189],[0.0,1.0],[0.08,0.92],[0.190476,0.809524],[0.444444,0.555556],[0.0,1.0],[0.0,1.0],[0.666667,0.333333]]},{"feature":[13,0,-2,12,8,-2,-2,12,-2,-2,13,-2,10,6,8,12,-2,-2,-2,0,-2,7,-2,-2,-2],"threshold":[-124.254856,18.817687,-2.0,-5.938438,-128.92033,-2.0,-2.0,178.540726,-2.0,-2.0,177.481659,-2.0,176.498375,6.187279,-92.495682,178.82946,-2.0,-2.0,-2.0,15.625416,-2.0,-178.732491,-2.0,-2.0,-2.0],"children_left":[1,2,-1,4,5,-1,-1,8,-1,-1,11,-1,13,14,15,16,-1,-1,-1,20,-1,22,-1,-1,-1],"children_right":[10,3,-1,7,6,-1,-1,9,-1,-1,12,-1,24,19,18,17,-1,-1,-1,21,-1,23,-1,-1,-1],"value":[[0.502611,0.497389],[0.264529,0.735471],[1.0,0.0],[0.109223,0.890777],[0.97561,0.02439],[0.8,0.2],[1.0,0.0],[0.013477,0.986523],[0.0,1.0],[0.833333,0.166667],[0.947566,0.052434],[1.0,0.0],[0.833333,0.166667],[0.909091,0.090909],[0.807692,0.192308],[0.888889,0.111111],[0.6,0.4],[1.0,0.0],[0.625,0.375],[0.960784,0.039216],[1.0,0.0],[0.882353,0.117647],[1.0,0.0],[0.5,0.5],[0.0,1.0]]},{"feature":[12,4,9,-2,-2,-2,5,4,1,2,-2,12,-2,11,-2,-2,12,-2,-2,2,10,-2,-2,-2,-2],"threshold":[111.5868,179.037674,171.725258,-2.0,-2.0,-2.0,-82.83271,174.987862,59.696764,-123.720352,-2.0,176.098389,-2.0,166.093033,-2.0,-2.0,179.298134,-2.0,-2.0,-11.742449,-177.838699,-2.0,-2.0,-2.0,-2.0],"children_left":[1,2,3,-1,-1,-1,7,8,9,10,-1,12,-1,14,-1,-1,17,-1,-1,20,21,-1,-1,-1,-1],"children_right":[6,5,4,-1,-1,-1,24,19,16,11,-1,13,-1,15,-1,-1,18,-1,-1,23,22,-1,-1,-1,-1],"value":[[0.490862,0.509138],[0.992647,0.007353],[0.996241,0.003759],[1.0,0.0],[0.875,0.125],[0.833333,0.166667],[0.214575,0.785425],[0.108046,0.891954],[0.02799,0.97201],[0.007937,0.992063],[0.2,0.8],[0.002717,0.997283],[0.0,1.0],[0.04,0.96],[0.2,0.8],[0.0,1.0],[0.533333,0.466667],[1.0,0.0],[0.0,1.0],[0.857143,0.142857],[0.972222,0.027778],[0.75,0.25],[1.0,0.0],[0.166667,0.833333],[1.0,0.0]]},{"feature":[13,5,-2,11,-2,2,13,2,-2,-2,1,13,7,-2,-2,-2,-2,-2,12,13,-2,12,0,13,-2,-2,2,-2,-2,-2,6,8,-2,-2,-2],"threshold":[-120.90913,-170.69091,-2.0,153.389252,-2.0,-14.861997,-177.534088,-138.54229,-2.0,-2.0,-26.852763,-176.080612,176.537201,-2.0,-2.0,-2.0,-2.0,-2.0,179.340111,177.585777,-2.0,176.596016,113.375031,179.216255,-2.0,-2.0,-113.176876,-2.0,-2.0,-2.0,-179.676987,-105.04369,-2.0,-2.0,-2.0],"children_left":[1,2,-1,4,-1,6,7,8,-1,-1,11,12,13,-1,-1,-1,-1,-1,19,20,-1,22,23,24,-1,-1,27,-1,-1,-1,31,32,-1,-1,-1],"children_right":[18,3,-1,5,-1,17,10,9,-1,-1,16,15,14,-1,-1,-1,-1,-1,30,21,-1,29,26,25,-1,-1,28,-1,-1,-1,34,33,-1,-1,-1],"value":[[0.511749,0.488251],[0.227373,0.772627],[1.0,0.0],[0.131514,0.868486],[1.0,0.0],[0.071618,0.928382],[0.030471,0.969529],[0.291667,0.708333],[1.0,0.0],[0.0,1.0],[0.011869,0.988131],[0.00303,0.99697],[0.066667,0.933333],[0.25,0.75],[0.0,1.0],[0.0,1.0],[0.428571,0.571429],[1.0,0.0],[0.923323,0.076677],[0.965398,0.034602],[1.0,0.0],[0.848485,0.151515],[0.913793,0.086207],[0.975,0.025],[1.0,0.0],[0.857143,0.142857],[0.777778,0.222222],[1.0,0.0],[0.2,0.8],[0.375,0.625],[0.416667,0.583333],[0.692308,0.307692],[1.0,0.0],[0.2,0.8],[0.090909,0.909091]]},{"feature":[8,10,12,-2,11,-2,-2,-2,6,1,1,2,-2,2,-2,-2,4,4,-2,-2,-2,10,7,-2,12,-2,-2,-2,13,6,-2,-2,8,-2,-2],"threshold":[-128.430115,-130.914585,-26.061249,-2.0,171.745865,-2.0,-2.0,-2.0,-131.532883,-30.981874,-138.948288,-136.850426,-2.0,-47.211672,-2.0,-2.0,168.936676,129.724098,-2.0,-2.0,-2.0,179.281906,-178.236778,-2.0,153.532181,-2.0,-2.0,-2.0,179.204086,179.634315,-2.0,-2.0,127.593803,-2.0,-2.0],"children_left":[1,2,3,-1,5,-1,-1,-1,9,10,11,12,-1,14,-1,-1,17,18,-1,-1,-1,22,23,-1,25,-1,-1,-1,29,30,-1,-1,33,-1,-1],"children_right":[8,7,4,-1,6,-1,-1,-1,28,21,16,13,-1,15,-1,-1,20,19,-1,-1,-1,27,24,-1,26,-1,-1,-1,32,31,-1,-1,34,-1,-1],"value":[[0.5,0.5],[0.099265,0.900735],[0.023904,0.976096],[0.833333,0.166667],[0.004082,0.995918],[0.0,1.0],[0.142857,0.857143],[1.0,0.0],[0.720648,0.279352],[0.441176,0.558824],[0.178808,0.821192],[0.851852,0.148148],[0.5,0.5],[0.952381,0.047619],[1.0,0.0],[0.8,0.2],[0.032258,0.967742],[0.008475,0.991525],[0.166667,0.833333],[0.0,1.0],[0.5,0.5],[0.896552,0.103448],[0.95122,0.04878],[0.571429,0.428571],[0.986667,0.013333],[0.888889,0.111111],[1.0,0.0],[0.0,1.0],[0.980469,0.019531],[0.995708,0.004292],[1.0,0.0],[0.833333,0.166667],[0.826087,0.173913],[0.6,0.4],[1.0,0.0]]},{"feature":[3,13,1,11,-2,3,-2,4,-2,-2,-2,4,4,-2,-2,-2,7,5,11,-2,-2,-2,12,4,-2,-2,6,-2,-2],"threshold":[30.923598,177.869217,-20.410116,155.586548,-2.0,14.807815,-2.0,148.885353,-2.0,-2.0,-2.0,176.264198,63.358732,-2.0,-2.0,-2.0,124.400291,-165.283211,169.474518,-2.0,-2.0,-2.0,-5.725166,161.124611,-2.0,-2.0,-178.699684,-2.0,-2.0],"children_left":[1,2,3,4,-1,6,-1,8,-1,-1,-1,12,13,-1,-1,-1,17,18,19,-1,-1,-1,23,24,-1,-1,27,-1,-1],"children_right":[16,11,10,5,-1,7,-1,9,-1,-1,-1,15,14,-1,-1,-1,22,21,20,-1,-1,-1,26,25,-1,-1,28,-1,-1],"value":[[0.501305,0.498695],[0.922807,0.077193],[0.954198,0.045802],[0.844156,0.155844],[1.0,0.0],[0.428571,0.571429],[1.0,0.0],[0.076923,0.923077],[0.2,0.8],[0.0,1.0],[1.0,0.0],[0.565217,0.434783],[0.75,0.25],[0.333333,0.666667],[1.0,0.0],[0.142857,0.857143],[0.251559,0.748441],[0.956044,0.043956],[0.894737,0.105263],[0.555556,0.444444],[1.0,0.0],[1.0,0.0],[0.087179,0.912821],[0.941176,0.058824],[1.0,0.0],[0.75,0.25],[0.005618,0.994382],[0.285714,0.714286],[0.0,1.0]]},{"feature":[7,10,10,-2,2,3,8,-2,10,-2,-2,-2,-2,-2,6,12,2,11,-2,-2,-2,8,-2,-2,2,13,-2,-2,-2],"threshold":[124.400291,178.564575,-178.887573,-2.0,-57.730345,93.152695,-79.199155,-2.0,-103.090652,-2.0,-2.0,-2.0,-2.0,-2.0,-14.177795,178.345963,-21.422696,171.66288,-2.0,-2.0,-2.0,-96.262547,-2.0,-2.0,-92.900528,-178.189369,-2.0,-2.0,-2.0],"children_left":[1,2,3,-1,5,6,7,-1,9,-1,-1,-1,-1,-1,15,16,17,18,-1,-1,-1,22,-1,-1,25,26,-1,-1,-1],"children_right":[14,13,4,-1,12,11,8,-1,10,-1,-1,-1,-1,-1,24,21,20,19,-1,-1,-1,23,-1,-1,28,27,-1,-1,-1],"value":[[0.481723,0.518277],[0.944637,0.055363],[0.978495,0.021505],[0.6,0.4],[0.985401,0.014599],[0.95,0.05],[0.894737,0.105263],[0.571429,0.428571],[0.967742,0.032258],[0.75,0.25],[1.0,0.0],[1.0,0.0],[1.0,0.0],[0.0,1.0],[0.201258,0.798742],[0.07767,0.92233],[0.010444,0.989556],[0.002674,0.997326],[0.0,1.0],[0.142857,0.857143],[0.333333,0.666667],[0.965517,0.034483],[0.833333,0.166667],[1.0,0.0],[0.984615,0.015385],[0.928571,0.071429],[1.0,0.0],[0.8,0.2],[1.0,0.0]]},{"feature":[13,6,1,4,-2,10,-2,-2,11,-2,-2,9,-2,-2,12,6,9,-2,-2,-2,7,8,4,-2,-2,0,-2,-2,-2],"threshold":[-121.054565,-14.177795,-28.173675,123.57444,-2.0,-171.636734,-2.0,-2.0,170.435165,-2.0,-2.0,-105.70562,-2.0,-2.0,178.466522,179.600639,167.664322,-2.0,-2.0,-2.0,-174.586426,-93.268894,174.004715,-2.0,-2.0,-175.485703,-2.0,-2.0,-2.0],"children_left":[1,2,3,4,-1,6,-1,-1,9,-1,-1,12,-1,-1,15,16,17,-1,-1,-1,21,22,23,-1,-1,26,-1,-1,-1],"children_right":[14,11,8,5,-1,7,-1,-1,10,-1,-1,13,-1,-1,20,19,18,-1,-1,-1,28,25,24,-1,-1,27,-1,-1,-1],"value":[[0.476501,0.523499],[0.19958,0.80042],[0.059406,0.940594],[0.005291,0.994709],[0.25,0.75],[0.002674,0.997326],[0.25,0.75],[0.0,1.0],[0.846154,0.153846],[0.333333,0.666667],[1.0,0.0],[0.986111,0.013889],[0.8,0.2],[1.0,0.0],[0.931034,0.068966],[0.968504,0.031496],[0.979675,0.020325],[1.0,0.0],[0.444444,0.555556],[0.625,0.375],[0.666667,0.333333],[0.478261,0.521739],[0.833333,0.166667],[0.5,0.5],[1.0,0.0],[0.090909,0.909091],[0.0,1.0],[0.2,0.8],[1.0,0.0]]},{"feature":[5,6,3,9,4,-2,2,4,6,-2,-2,-2,-2,-2,5,-2,1,-2,3,-2,-2,4,0,-2,12,3,-2,-2,-2,-2,-2],"threshold":[-123.414276,-111.800072,28.204301,109.757645,-175.312225,-2.0,-11.664917,177.050346,-164.798622,-2.0,-2.0,-2.0,-2.0,-2.0,-172.653694,-2.0,-138.948288,-2.0,30.935798,-2.0,-2.0,178.955559,16.103065,-2.0,-174.059525,126.693661,-2.0,-2.0,-2.0,-2.0,-2.0],"children_left":[1,2,3,4,5,-1,7,8,9,-1,-1,-1,-1,-1,15,-1,17,-1,19,-1,-1,22,23,-1,25,26,-1,-1,-1,-1,-1],"children_right":[30,21,14,13,6,-1,12,11,10,-1,-1,-1,-1,-1,16,-1,18,-1,20,-1,-1,29,24,-1,28,27,-1,-1,-1,-1,-1],"value":[[0.467363,0.532637],[0.30137,0.69863],[0.111111,0.888889],[0.647059,0.352941],[0.733333,0.266667],[0.0,1.0],[0.825,0.175],[0.911765,0.088235],[0.965517,0.034483],[1.0,0.0],[0.8,0.2],[0.6,0.4],[0.333333,0.666667],[0.0,1.0],[0.042607,0.957393],[1.0,0.0],[0.007792,0.992208],[0.25,0.75],[0.002653,0.997347],[0.2,0.8],[0.0,1.0],[0.940299,0.059701],[0.97619,0.02381],[1.0,0.0],[0.918919,0.081081],[0.833333,0.166667],[0.5,0.5],[1.0,0.0],[1.0,0.0],[0.375,0.625],[1.0,0.0]]},{"feature":[6,7,7,11,-2,0,-2,-2,-2,3,-2,12,13,13,-2,-2,10,-2,-2,1,-2,-2,7,8,9,-2,-2,1,-2,-2,12,5,-2,12,-2,-2,-2],"threshold":[-111.5868,120.90913,-177.555046,172.968826,-2.0,170.808922,-2.0,-2.0,-2.0,14.795111,-2.0,177.710182,-177.417091,-177.727737,-2.0,-2.0,-170.608307,-2.0,-2.0,-34.09783,-2.0,-2.0,-177.412132,-101.366714,104.791317,-2.0,-2.0,178.450478,-2.0,-2.0,-177.350578,-160.941612,-2.0,-178.872177,-2.0,-2.0,-2.0],"children_left":[1,2,3,4,-1,6,-1,-1,-1,10,-1,12,13,14,-1,-1,17,-1,-1,20,-1,-1,23,24,25,-1,-1,28,-1,-1,31,32,-1,34,-1,-1,-1],"children_right":[22,9,8,5,-1,7,-1,-1,-1,11,-1,19,16,15,-1,-1,18,-1,-1,21,-1,-1,30,27,26,-1,-1,29,-1,-1,36,33,-1,35,-1,-1,-1],"value":[[0.494778,0.505222],[0.240481,0.759519],[0.836364,0.163636],[0.28,0.72],[0.6,0.4],[0.066667,0.933333],[0.0,1.0],[0.25,0.75],[1.0,0.0],[0.071979,0.928021],[1.0,0.0],[0.026954,0.973046],[0.011142,0.988858],[0.214286,0.785714],[0.0,1.0],[0.5,0.5],[0.002899,0.997101],[0.1,0.9],[0.0,1.0],[0.5,0.5],[0.142857,0.857143],[1.0,0.0],[0.970037,0.029963],[0.890625,0.109375],[0.7,0.3],[1.0,0.0],[0.333333,0.666667],[0.977273,0.022727],[1.0,0.0],[0.833333,0.166667],[0.995074,0.004926],[0.965517,0.034483],[1.0,0.0],[0.888889,0.111111],[1.0,0.0],[0.75,0.25],[1.0,0.0]]},{"feature":[0,13,-2,0,3,-2,-2,-2,5,2,5,12,-2,4,-2,-2,-2,3,1,7,-2,1,-2,-2,-2,-2,-2],"threshold":[18.817687,177.875824,-2.0,-176.601601,22.729917,-2.0,-2.0,-2.0,-106.3092,-120.798714,-157.128227,-4.052094,-2.0,166.256599,-2.0,-2.0,-2.0,125.467709,70.197077,-24.831203,-2.0,-128.834568,-2.0,-2.0,-2.0,-2.0,-2.0],"children_left":[1,2,-1,4,5,-1,-1,-1,9,10,11,12,-1,14,-1,-1,-1,18,19,20,-1,22,-1,-1,-1,-1,-1],"children_right":[8,3,-1,7,6,-1,-1,-1,26,17,16,13,-1,15,-1,-1,-1,25,24,21,-1,23,-1,-1,-1,-1,-1],"value":[[0.47389,0.52611],[0.981735,0.018265],[1.0,0.0],[0.882353,0.117647],[0.666667,0.333333],[0.428571,0.571429],[1.0,0.0],[1.0,0.0],[0.270567,0.729433],[0.103371,0.896629],[0.75,0.25],[0.892857,0.107143],[1.0,0.0],[0.666667,0.333333],[0.4,0.6],[1.0,0.0],[0.25,0.75],[0.046455,0.953545],[0.020101,0.979899],[0.007732,0.992268],[0.25,0.75],[0.002632,0.997368],[0.2,0.8],[0.0,1.0],[0.5,0.5],[1.0,0.0],[1.0,0.0]]},{"feature":[6,10,11,0,-2,3,-2,12,-2,-2,1,-2,-2,10,7,-2,-2,-2,12,-2,8,-2,-2],"threshold":[-117.33823,-154.067345,171.881714,-74.60533,-2.0,28.383844,-2.0,176.934433,-2.0,-2.0,177.691444,-2.0,-2.0,179.281906,-177.846703,-2.0,-2.0,-2.0,-179.491844,-2.0,-171.248138,-2.0,-2.0],"children_left":[1,2,3,4,-1,6,-1,8,-1,-1,11,-1,-1,14,15,-1,-1,-1,19,-1,21,-1,-1],"children_right":[18,13,10,5,-1,7,-1,9,-1,-1,12,-1,-1,17,16,-1,-1,-1,20,-1,22,-1,-1],"value":[[0.475196,0.524804],[0.213439,0.786561],[0.103926,0.896074],[0.025381,0.974619],[1.0,0.0],[0.010309,0.989691],[0.5,0.5],[0.002618,0.997382],[0.0,1.0],[0.1,0.9],[0.897436,0.102564],[1.0,0.0],[0.555556,0.444444],[0.863014,0.136986],[0.984375,0.015625],[0.75,0.25],[1.0,0.0],[0.0,1.0],[0.984615,0.015385],[0.666667,0.333333],[0.992126,0.007874],[0.666667,0.333333],[1.0,0.0]]},{"feature":[6,10,4,12,3,-2,-2,-2,13,-2,0,3,-2,-2,-2,6,-2,-2,7,-2,10,3,-2,-2,12,12,-2,-2,-2],"threshold":[-111.5868,-154.067345,168.049957,177.014008,24.646567,-2.0,-2.0,-2.0,-178.62339,-2.0,26.407018,9.75007,-2.0,-2.0,-2.0,-179.246101,-2.0,-2.0,-179.383179,-2.0,-177.793396,29.855971,-2.0,-2.0,-177.374092,-177.80587,-2.0,-2.0,-2.0],"children_left":[1,2,3,4,5,-1,-1,-1,9,-1,11,12,-1,-1,-1,16,-1,-1,19,-1,21,22,-1,-1,25,26,-1,-1,-1],"children_right":[18,15,8,7,6,-1,-1,-1,10,-1,14,13,-1,-1,-1,17,-1,-1,20,-1,24,23,-1,-1,28,27,-1,-1,-1],"value":[[0.513055,0.486945],[0.25102,0.74898],[0.133971,0.866029],[0.019444,0.980556],[0.005682,0.994318],[0.4,0.6],[0.0,1.0],[0.625,0.375],[0.844828,0.155172],[1.0,0.0],[0.763158,0.236842],[0.875,0.125],[0.333333,0.666667],[1.0,0.0],[0.166667,0.833333],[0.930556,0.069444],[0.375,0.625],[1.0,0.0],[0.978261,0.021739],[0.727273,0.272727],[0.988679,0.011321],[0.904762,0.095238],[0.6,0.4],[1.0,0.0],[0.995902,0.004098],[0.979167,0.020833],[1.0,0.0],[0.8,0.2],[1.0,0.0]]},{"feature":[3,10,7,0,-2,12,-2,-2,7,1,-2,-2,8,13,-2,-2,-2,3,-2,-2,6,10,-2,10,6,11,-2,-2,-2,-2,9,7,-2,-2,-2],"threshold":[30.864444,178.589882,154.850273,-177.699059,-2.0,-179.048676,-2.0,-2.0,173.288757,-34.41379,-2.0,-2.0,-96.458061,-177.851791,-2.0,-2.0,-2.0,17.181098,-2.0,-2.0,-86.207447,-176.292076,-2.0,-154.106445,-177.317764,165.741959,-2.0,-2.0,-2.0,-2.0,167.631523,173.81617,-2.0,-2.0,-2.0],"children_left":[1,2,3,4,-1,6,-1,-1,9,10,-1,-1,13,14,-1,-1,-1,18,-1,-1,21,22,-1,24,25,26,-1,-1,-1,-1,31,32,-1,-1,-1],"children_right":[20,17,8,5,-1,7,-1,-1,12,11,-1,-1,16,15,-1,-1,-1,19,-1,-1,30,23,-1,29,28,27,-1,-1,-1,-1,34,33,-1,-1,-1],"value":[[0.51436,0.48564],[0.897059,0.102941],[0.926641,0.073359],[0.979592,0.020408],[0.571429,0.428571],[0.994709,0.005291],[0.75,0.25],[1.0,0.0],[0.761905,0.238095],[0.071429,0.928571],[0.2,0.8],[0.0,1.0],[0.959184,0.040816],[0.818182,0.181818],[0.857143,0.142857],[0.75,0.25],[1.0,0.0],[0.307692,0.692308],[0.0,1.0],[0.8,0.2],[0.303644,0.696356],[0.088235,0.911765],[1.0,0.0],[0.047486,0.952514],[0.014451,0.985549],[0.5,0.5],[1.0,0.0],[0.166667,0.833333],[0.0,1.0],[1.0,0.0],[0.975,0.025],[0.99115,0.00885],[1.0,0.0],[0.923077,0.076923],[0.714286,0.285714]]},{"feature":[12,8,-2,5,5,10,-2,-2,13,-2,-2,-2,10,0,13,-2,-2,12,-2,3,-2,-2,1,-2,-2],"threshold":[117.124958,-171.337479,-2.0,-171.476295,-175.951561,-178.099174,-2.0,-2.0,178.083946,-2.0,-2.0,-2.0,-154.067345,18.214139,178.48214,-2.0,-2.0,177.666977,-2.0,108.694805,-2.0,-2.0,175.875496,-2.0,-2.0],"children_left":[1,2,-1,4,5,6,-1,-1,9,-1,-1,-1,13,14,15,-1,-1,18,-1,20,-1,-1,23,-1,-1],"children_right":[12,3,-1,11,8,7,-1,-1,10,-1,-1,-1,22,17,16,-1,-1,19,-1,21,-1,-1,24,-1,-1],"value":[[0.466057,0.533943],[0.977011,0.022989],[0.5,0.5],[0.984436,0.015564],[0.935484,0.064516],[0.98,0.02],[0.8,0.2],[1.0,0.0],[0.75,0.25],[1.0,0.0],[0.5,0.5],[1.0,0.0],[0.20198,0.79802],[0.083916,0.916084],[0.964286,0.035714],[1.0,0.0],[0.8,0.2],[0.022444,0.977556],[0.0,1.0],[0.692308,0.307692],[0.333333,0.666667],[1.0,0.0],[0.868421,0.131579],[1.0,0.0],[0.0,1.0]]},{"feature":[12,8,-2,10,6,-2,-2,-2,7,0,-2,10,10,12,-2,-2,-2,-2,1,6,-2,2,-2,7,-2,-2,10,-2,-2],"threshold":[117.124958,-169.071129,-2.0,-177.705704,179.231247,-2.0,-2.0,-2.0,121.054565,-176.601601,-2.0,178.152016,-158.182617,177.544739,-2.0,-2.0,-2.0,-2.0,-14.369707,-177.301865,-2.0,-45.586143,-2.0,177.404579,-2.0,-2.0,-177.173996,-2.0,-2.0],"children_left":[1,2,-1,4,5,-1,-1,-1,9,10,-1,12,13,14,-1,-1,-1,-1,19,20,-1,22,-1,24,-1,-1,27,-1,-1],"children_right":[8,3,-1,7,6,-1,-1,-1,18,11,-1,17,16,15,-1,-1,-1,-1,26,21,-1,23,-1,25,-1,-1,28,-1,-1],"value":[[0.479112,0.520888],[0.988281,0.011719],[0.833333,0.166667],[0.992,0.008],[0.904762,0.095238],[1.0,0.0],[0.5,0.5],[1.0,0.0],[0.223529,0.776471],[0.887755,0.112245],[0.142857,0.857143],[0.945055,0.054945],[0.976471,0.023529],[0.909091,0.090909],[0.6,0.4],[1.0,0.0],[1.0,0.0],[0.5,0.5],[0.065534,0.934466],[0.010336,0.989664],[0.375,0.625],[0.002639,0.997361],[0.0,1.0],[0.009901,0.990099],[0.0,1.0],[0.25,0.75],[0.92,0.08],[0.666667,0.333333],[1.0,0.0]]},{"feature":[13,12,6,-2,11,-2,-2,5,-2,10,2,-2,-2,-2,12,7,13,-2,-2,8,-2,-2,13,-2,7,-2,5,-2,-2],"threshold":[-120.984932,14.177795,177.374092,-2.0,165.902031,-2.0,-2.0,-170.859215,-2.0,-155.894638,-18.666375,-2.0,-2.0,-2.0,178.522423,-179.183884,179.347046,-2.0,-2.0,-172.92807,-2.0,-2.0,177.359924,-2.0,-179.274445,-2.0,-176.511131,-2.0,-2.0],"children_left":[1,2,3,-1,5,-1,-1,8,-1,10,11,-1,-1,-1,15,16,17,-1,-1,20,-1,-1,23,-1,25,-1,27,-1,-1],"children_right":[14,7,4,-1,6,-1,-1,9,-1,13,12,-1,-1,-1,22,19,18,-1,-1,21,-1,-1,24,-1,26,-1,28,-1,-1],"value":[[0.51436,0.48564],[0.227074,0.772926],[0.987179,0.012821],[1.0,0.0],[0.956522,0.043478],[0.8,0.2],[1.0,0.0],[0.071053,0.928947],[1.0,0.0],[0.008427,0.991573],[0.002857,0.997143],[0.0,1.0],[0.2,0.8],[0.333333,0.666667],[0.941558,0.058442],[0.982143,0.017857],[0.8125,0.1875],[0.571429,0.428571],[1.0,0.0],[0.992424,0.007576],[0.6,0.4],[1.0,0.0],[0.535714,0.464286],[1.0,0.0],[0.277778,0.722222],[0.571429,0.428571],[0.090909,0.909091],[0.2,0.8],[0.0,1.0]]},{"feature":[7,13,-2,6,3,-2,-2,7,7,9,-2,-2,-2,-2,6,6,1,-2,-2,10,0,-2,-2,11,-2,-2,2,2,-2,-2,-2],"threshold":[120.079945,177.585777,-2.0,-176.596016,10.418145,-2.0,-2.0,-177.799774,-179.183884,-7.716835,-2.0,-2.0,-2.0,-2.0,-14.391068,-177.723564,-34.09783,-2.0,-2.0,-170.599342,42.582445,-2.0,-2.0,155.464195,-2.0,-2.0,-97.193024,-131.011719,-2.0,-2.0,-2.0],"children_left":[1,2,-1,4,5,-1,-1,8,9,10,-1,-1,-1,-1,15,16,17,-1,-1,20,21,-1,-1,24,-1,-1,27,28,-1,-1,-1],"children_right":[14,3,-1,7,6,-1,-1,13,12,11,-1,-1,-1,-1,26,19,18,-1,-1,23,22,-1,-1,25,-1,-1,30,29,-1,-1,-1],"value":[[0.466057,0.533943],[0.928826,0.071174],[1.0,0.0],[0.74359,0.25641],[0.347826,0.652174],[0.0,1.0],[0.615385,0.384615],[0.909091,0.090909],[0.9375,0.0625],[0.863636,0.136364],[1.0,0.0],[0.625,0.375],[1.0,0.0],[0.714286,0.285714],[0.197938,0.802062],[0.078385,0.921615],[0.707317,0.292683],[0.142857,0.857143],[1.0,0.0],[0.010526,0.989474],[0.2,0.8],[0.6,0.4],[0.0,1.0],[0.00274,0.99726],[0.166667,0.833333],[0.0,1.0],[0.984375,0.015625],[0.9375,0.0625],[1.0,0.0],[0.8,0.2],[1.0,0.0]]},{"feature":[6,5,10,1,-2,-2,0,1,7,-2,11,-2,-2,10,-2,-2,-2,-2,0,-2,6,-2,3,-2,-2],"threshold":[-117.124958,-109.073471,-173.476387,178.752991,-2.0,-2.0,159.070396,63.697313,126.719379,-2.0,171.745865,-2.0,-2.0,179.281906,-2.0,-2.0,-2.0,-2.0,72.263693,-2.0,177.466057,-2.0,110.018402,-2.0,-2.0],"children_left":[1,2,3,4,-1,-1,7,8,9,-1,11,-1,-1,14,-1,-1,-1,-1,19,-1,21,-1,23,-1,-1],"children_right":[18,17,6,5,-1,-1,16,13,10,-1,12,-1,-1,15,-1,-1,-1,-1,20,-1,22,-1,24,-1,-1],"value":[[0.520888,0.479112],[0.265306,0.734694],[0.156909,0.843091],[0.980769,0.019231],[1.0,0.0],[0.833333,0.166667],[0.042667,0.957333],[0.024931,0.975069],[0.008646,0.991354],[0.4,0.6],[0.002924,0.997076],[0.0,1.0],[0.25,0.75],[0.428571,0.571429],[1.0,0.0],[0.0,1.0],[0.5,0.5],[1.0,0.0],[0.974638,0.025362],[1.0,0.0],[0.922222,0.077778],[1.0,0.0],[0.666667,0.333333],[0.3,0.7],[1.0,0.0]]},{"feature":[13,6,5,1,-2,-2,10,2,0,-2,-2,-2,-2,-2,4,-2,9,1,-2,11,-2,-2,7,-2,-2],"threshold":[-120.984932,-2.194496,-170.859215,176.270935,-2.0,-2.0,-155.58593,-15.32321,143.49894,-2.0,-2.0,-2.0,-2.0,-2.0,-178.594711,-2.0,167.664322,176.492523,-2.0,173.928322,-2.0,-2.0,-152.674541,-2.0,-2.0],"children_left":[1,2,3,4,-1,-1,7,8,9,-1,-1,-1,-1,-1,15,-1,17,18,-1,20,-1,-1,23,-1,-1],"children_right":[14,13,6,5,-1,-1,12,11,10,-1,-1,-1,-1,-1,16,-1,22,19,-1,21,-1,-1,24,-1,-1],"value":[[0.460836,0.539164],[0.215726,0.784274],[0.078199,0.921801],[0.96,0.04],[1.0,0.0],[0.833333,0.166667],[0.02267,0.97733],[0.012788,0.987212],[0.002597,0.997403],[0.0,1.0],[0.2,0.8],[0.666667,0.333333],[0.666667,0.333333],[1.0,0.0],[0.911111,0.088889],[0.25,0.75],[0.94186,0.05814],[0.971074,0.028926],[1.0,0.0],[0.758621,0.241379],[1.0,0.0],[0.363636,0.636364],[0.5,0.5],[0.0,1.0],[1.0,0.0]]},{"feature":[12,8,-2,13,-2,11,-2,-2,13,11,5,2,-2,-2,-2,2,-2,-2,5,1,-2,-2,9,-2,-2],"threshold":[117.124958,-168.816307,-2.0,179.051888,-2.0,177.340828,-2.0,-2.0,-121.054565,172.089622,-128.018742,-21.352647,-2.0,-2.0,-2.0,-13.025938,-2.0,-2.0,-175.135742,176.011894,-2.0,-2.0,163.428818,-2.0,-2.0],"children_left":[1,2,-1,4,-1,6,-1,-1,9,10,11,12,-1,-1,-1,16,-1,-1,19,20,-1,-1,23,-1,-1],"children_right":[8,3,-1,5,-1,7,-1,-1,18,15,14,13,-1,-1,-1,17,-1,-1,22,21,-1,-1,24,-1,-1],"value":[[0.48564,0.51436],[0.98893,0.01107],[0.714286,0.285714],[0.996212,0.003788],[1.0,0.0],[0.941176,0.058824],[1.0,0.0],[0.8,0.2],[0.210101,0.789899],[0.069479,0.930521],[0.005319,0.994681],[0.002703,0.997297],[0.0,1.0],[0.142857,0.857143],[0.166667,0.833333],[0.962963,0.037037],[1.0,0.0],[0.888889,0.111111],[0.826087,0.173913],[0.263158,0.736842],[1.0,0.0],[0.0,1.0],[0.972603,0.027397],[1.0,0.0],[0.5,0.5]]},{"feature":[6,1,10,12,2,-2,-2,-2,5,-2,-2,2,12,-2,-2,10,0,-2,-2,-2,8,-2,-2],"threshold":[-117.124958,-30.81136,-126.753033,178.82946,-117.628078,-2.0,-2.0,-2.0,46.579023,-2.0,-2.0,-11.229517,156.000183,-2.0,-2.0,170.192902,-176.916313,-2.0,-2.0,-2.0,-171.935219,-2.0,-2.0],"children_left":[1,2,3,4,5,-1,-1,-1,9,-1,-1,12,13,-1,-1,16,17,-1,-1,-1,21,-1,-1],"children_right":[20,11,8,7,6,-1,-1,-1,10,-1,-1,15,14,-1,-1,19,18,-1,-1,-1,22,-1,-1],"value":[[0.488251,0.511749],[0.218182,0.781818],[0.050633,0.949367],[0.026042,0.973958],[0.010638,0.989362],[0.666667,0.333333],[0.0,1.0],[0.75,0.25],[0.909091,0.090909],[0.75,0.25],[1.0,0.0],[0.88,0.12],[0.985294,0.014706],[0.923077,0.076923],[1.0,0.0],[0.65625,0.34375],[0.913043,0.086957],[0.5,0.5],[1.0,0.0],[0.0,1.0],[0.98155,0.01845],[0.166667,0.833333],[1.0,0.0]]},{"feature":[7,10,4,13,4,-2,-2,-2,-2,-2,6,11,6,-2,-2,-2,8,-2,-2],"threshold":[124.254856,179.227997,178.807495,179.499748,177.825417,-2.0,-2.0,-2.0,-2.0,-2.0,-14.177795,172.114143,-177.823555,-2.0,-2.0,-2.0,-122.684322,-2.0,-2.0],"children_left":[1,2,3,4,5,-1,-1,-1,-1,-1,11,12,13,-1,-1,-1,17,-1,-1],"children_right":[10,9,8,7,6,-1,-1,-1,-1,-1,16,15,14,-1,-1,-1,18,-1,-1],"value":[[0.490862,0.509138],[0.953237,0.046763],[0.981481,0.018519],[0.992424,0.007576],[0.996139,0.003861],[1.0,0.0],[0.923077,0.076923],[0.8,0.2],[0.5,0.5],[0.0,1.0],[0.227459,0.772541],[0.082927,0.917073],[0.002653,0.997347],[0.166667,0.833333],[0.0,1.0],[1.0,0.0],[0.987179,0.012821],[0.8,0.2],[1.0,0.0]]},{"feature":[6,13,4,10,12,4,11,-2,-2,-2,-2,-2,12,-2,-2,5,0,-2,10,-2,-2,-2,6,8,-2,-2,-2],"threshold":[-117.33823,-120.90913,171.572021,-155.739449,177.650787,139.272125,159.946266,-2.0,-2.0,-2.0,-2.0,-2.0,178.740097,-2.0,-2.0,-155.633087,-175.736176,-2.0,-173.835762,-2.0,-2.0,-2.0,179.60141,-172.92807,-2.0,-2.0,-2.0],"children_left":[1,2,3,4,5,6,7,-1,-1,-1,-1,-1,13,-1,-1,16,17,-1,19,-1,-1,-1,23,24,-1,-1,-1],"children_right":[22,15,12,11,10,9,8,-1,-1,-1,-1,-1,14,-1,-1,21,18,-1,20,-1,-1,-1,26,25,-1,-1,-1],"value":[[0.503916,0.496084],[0.225673,0.774327],[0.09596,0.90404],[0.029891,0.970109],[0.01662,0.98338],[0.002857,0.997143],[0.023256,0.976744],[0.0,1.0],[0.25,0.75],[0.0,1.0],[0.454545,0.545455],[0.714286,0.285714],[0.964286,0.035714],[0.875,0.125],[1.0,0.0],[0.816092,0.183908],[0.333333,0.666667],[0.0,1.0],[0.444444,0.555556],[1.0,0.0],[0.166667,0.833333],[1.0,0.0],[0.978799,0.021201],[0.985455,0.014545],[0.428571,0.571429],[1.0,0.0],[0.75,0.25]]},{"feature":[6,1,5,7,-2,12,-2,-2,-2,11,-2,11,-2,-2,12,-2,4,2,8,-2,-2,-2,-2],"threshold":[-111.800072,-20.410116,-51.796639,-25.34375,-2.0,177.325317,-2.0,-2.0,-2.0,174.306808,-2.0,176.058479,-2.0,-2.0,-179.60141,-2.0,179.0075,-97.94558,-169.071129,-2.0,-2.0,-2.0,-2.0],"children_left":[1,2,3,4,-1,6,-1,-1,-1,10,-1,12,-1,-1,15,-1,17,18,19,-1,-1,-1,-1],"children_right":[14,9,8,5,-1,7,-1,-1,-1,11,-1,13,-1,-1,16,-1,22,21,20,-1,-1,-1,-1],"value":[[0.475196,0.524804],[0.206,0.794],[0.078385,0.921615],[0.02267,0.97733],[0.857143,0.142857],[0.007692,0.992308],[0.0,1.0],[0.375,0.625],[1.0,0.0],[0.886076,0.113924],[1.0,0.0],[0.7,0.3],[0.25,0.75],[1.0,0.0],[0.981203,0.018797],[0.714286,0.285714],[0.988417,0.011583],[0.992095,0.007905],[0.965517,0.034483],[0.666667,0.333333],[1.0,0.0],[1.0,0.0],[0.833333,0.166667]]},{"feature":[7,10,12,-2,6,9,-2,6,-2,-2,8,9,-2,-2,7,8,-2,-2,-2,-2,2,1,12,-2,-2,1,5,5,-2,-2,-2,-2,4,-2,-2],"threshold":[120.90913,179.193077,-179.600639,-2.0,-178.522423,51.154914,-2.0,-179.583389,-2.0,-2.0,-146.974808,167.031372,-2.0,-2.0,-179.183884,159.165344,-2.0,-2.0,-2.0,-2.0,-14.923029,-148.233101,-177.435196,-2.0,-2.0,-14.369707,-127.348827,-169.523346,-2.0,-2.0,-2.0,-2.0,177.282219,-2.0,-2.0],"children_left":[1,2,3,-1,5,6,-1,8,-1,-1,11,12,-1,-1,15,16,-1,-1,-1,-1,21,22,23,-1,-1,26,27,28,-1,-1,-1,-1,33,-1,-1],"children_right":[20,19,4,-1,10,7,-1,9,-1,-1,14,13,-1,-1,18,17,-1,-1,-1,-1,32,25,24,-1,-1,31,30,29,-1,-1,-1,-1,34,-1,-1],"value":[[0.480418,0.519582],[0.944444,0.055556],[0.967972,0.032028],[0.625,0.375],[0.978022,0.021978],[0.875,0.125],[1.0,0.0],[0.727273,0.272727],[1.0,0.0],[0.4,0.6],[0.987952,0.012048],[0.75,0.25],[1.0,0.0],[0.5,0.5],[0.995851,0.004149],[0.954545,0.045455],[1.0,0.0],[0.8,0.2],[1.0,0.0],[0.0,1.0],[0.200837,0.799163],[0.059406,0.940594],[0.909091,0.090909],[1.0,0.0],[0.8,0.2],[0.035623,0.964377],[0.013021,0.986979],[0.002667,0.997333],[0.166667,0.833333],[0.0,1.0],[0.444444,0.555556],[1.0,0.0],[0.972973,0.027027],[1.0,0.0],[0.714286,0.285714]]},{"feature":[6,7,1,13,-2,9,-2,-2,-2,12,0,-2,-2,8,-2,-2,11,-2,6,8,-2,-2,-2],"threshold":[-117.124958,120.90913,176.380409,177.814804,-2.0,139.213284,-2.0,-2.0,-2.0,178.113419,19.25771,-2.0,-2.0,-100.935055,-2.0,-2.0,163.470993,-2.0,179.182106,-156.825623,-2.0,-2.0,-2.0],"children_left":[1,2,3,4,-1,6,-1,-1,-1,10,11,-1,-1,14,-1,-1,17,-1,19,20,-1,-1,-1],"children_right":[16,9,8,5,-1,7,-1,-1,-1,13,12,-1,-1,15,-1,-1,18,-1,22,21,-1,-1,-1],"value":[[0.483029,0.516971],[0.232283,0.767717],[0.893617,0.106383],[0.953488,0.046512],[1.0,0.0],[0.692308,0.307692],[1.0,0.0],[0.2,0.8],[0.25,0.75],[0.082126,0.917874],[0.028205,0.971795],[1.0,0.0],[0.0,1.0],[0.958333,0.041667],[0.8,0.2],[1.0,0.0],[0.976744,0.023256],[1.0,0.0],[0.946903,0.053097],[0.981132,0.018868],[0.5,0.5],[1.0,0.0],[0.428571,0.571429]]},{"feature":[5,0,3,9,-2,7,-2,-2,-2,0,10,-2,-2,6,3,-2,12,-2,-2,-2,-2],"threshold":[-123.628212,18.817687,9.588653,93.988487,-2.0,-178.28817,-2.0,-2.0,-2.0,136.111526,-156.216774,-2.0,-2.0,-109.595608,58.099545,-2.0,177.964104,-2.0,-2.0,-2.0,-2.0],"children_left":[1,2,3,4,-1,6,-1,-1,-1,10,11,-1,-1,14,15,-1,17,-1,-1,-1,-1],"children_right":[20,9,8,5,-1,7,-1,-1,-1,13,12,-1,-1,19,16,-1,18,-1,-1,-1,-1],"value":[[0.51436,0.48564],[0.32852,0.67148],[0.951049,0.048951],[0.681818,0.318182],[1.0,0.0],[0.363636,0.636364],[0.142857,0.857143],[0.75,0.25],[1.0,0.0],[0.111922,0.888078],[0.002833,0.997167],[0.0,1.0],[0.2,0.8],[0.775862,0.224138],[0.409091,0.590909],[0.0,1.0],[0.75,0.25],[0.4,0.6],[1.0,0.0],[1.0,0.0],[1.0,0.0]]},{"feature":[7,7,10,12,-2,9,12,-2,5,-2,-2,-2,-2,-2,6,11,6,-2,-2,-2,2,1,-2,-2,-2],"threshold":[124.254856,-177.700134,130.190586,-174.78653,-2.0,168.829857,178.06411,-2.0,-176.472534,-2.0,-2.0,-2.0,-2.0,-2.0,-14.177795,172.114143,-178.492477,-2.0,-2.0,-2.0,-92.900528,-124.079525,-2.0,-2.0,-2.0],"children_left":[1,2,3,4,-1,6,7,-1,9,-1,-1,-1,-1,-1,15,16,17,-1,-1,-1,21,22,-1,-1,-1],"children_right":[14,13,12,5,-1,11,8,-1,10,-1,-1,-1,-1,-1,20,19,18,-1,-1,-1,24,23,-1,-1,-1],"value":[[0.48564,0.51436],[0.930796,0.069204],[0.761905,0.238095],[0.888889,0.111111],[1.0,0.0],[0.636364,0.363636],[0.75,0.25],[1.0,0.0],[0.6,0.4],[0.8,0.2],[0.4,0.6],[0.333333,0.666667],[0.0,1.0],[1.0,0.0],[0.215933,0.784067],[0.060453,0.939547],[0.007979,0.992021],[0.6,0.4],[0.0,1.0],[1.0,0.0],[0.9875,0.0125],[0.941176,0.058824],[1.0,0.0],[0.833333,0.166667],[1.0,0.0]]},{"feature":[12,2,5,12,-2,3,-2,-2,-2,-2,0,4,-2,-2,0,10,-2,-2,5,1,-2,8,-2,-2,-2],"threshold":[122.221649,-91.387341,-160.719116,-177.959412,-2.0,43.87332,-2.0,-2.0,-2.0,-2.0,18.114322,177.517868,-2.0,-2.0,130.602768,-154.067345,-2.0,-2.0,-65.671031,-172.441391,-2.0,137.075134,-2.0,-2.0,-2.0],"children_left":[1,2,3,4,-1,6,-1,-1,-1,-1,11,12,-1,-1,15,16,-1,-1,19,20,-1,22,-1,-1,-1],"children_right":[10,9,8,5,-1,7,-1,-1,-1,-1,14,13,-1,-1,18,17,-1,-1,24,21,-1,23,-1,-1,-1],"value":[[0.490862,0.509138],[0.975439,0.024561],[0.9125,0.0875],[0.787879,0.212121],[1.0,0.0],[0.5625,0.4375],[1.0,0.0],[0.222222,0.777778],[1.0,0.0],[1.0,0.0],[0.203742,0.796258],[0.966667,0.033333],[1.0,0.0],[0.666667,0.333333],[0.095012,0.904988],[0.02122,0.97878],[0.0,1.0],[1.0,0.0],[0.727273,0.272727],[0.428571,0.571429],[1.0,0.0],[0.25,0.75],[0.0,1.0],[0.571429,0.428571],[1.0,0.0]]},{"feature":[13,12,-2,2,0,-2,2,13,-2,-2,13,2,-2,-2,-2,11,-2,-2,10,9,10,-2,7,-2,10,12,-2,-2,-2,-2,-2],"threshold":[-124.254856,14.177795,-2.0,-14.861997,19.25771,-2.0,-120.623318,-172.318436,-2.0,-2.0,-177.417091,-46.410891,-2.0,-2.0,-2.0,176.673683,-2.0,-2.0,179.227997,169.912544,-178.961411,-2.0,-179.557793,-2.0,177.379631,-179.491844,-2.0,-2.0,-2.0,-2.0,-2.0],"children_left":[1,2,-1,4,5,-1,7,8,-1,-1,11,12,-1,-1,-1,16,-1,-1,19,20,21,-1,23,-1,25,26,-1,-1,-1,-1,-1],"children_right":[18,3,-1,15,6,-1,10,9,-1,-1,14,13,-1,-1,-1,17,-1,-1,30,29,22,-1,24,-1,28,27,-1,-1,-1,-1,-1],"value":[[0.5,0.5],[0.220557,0.779443],[1.0,0.0],[0.085427,0.914573],[0.037234,0.962766],[1.0,0.0],[0.021622,0.978378],[0.466667,0.533333],[1.0,0.0],[0.0,1.0],[0.002817,0.997183],[0.076923,0.923077],[0.0,1.0],[0.2,0.8],[0.0,1.0],[0.909091,0.090909],[1.0,0.0],[0.75,0.25],[0.936455,0.063545],[0.952381,0.047619],[0.964789,0.035211],[0.375,0.625],[0.981884,0.018116],[0.666667,0.333333],[0.988889,0.011111],[0.996154,0.003846],[0.8,0.2],[1.0,0.0],[0.8,0.2],[0.6,0.4],[0.0,1.0]]},{"feature":[13,2,4,11,-2,11,1,-2,12,-2,-2,-2,-2,1,-2,-2,12,9,10,-2,-2,-2,7,3,-2,-2,-2],"threshold":[-121.054565,-14.923029,170.449272,153.021584,-2.0,171.788765,-141.402092,-2.0,178.161354,-2.0,-2.0,-2.0,-2.0,179.020004,-2.0,-2.0,178.341675,167.664322,-178.961411,-2.0,-2.0,-2.0,-177.899506,22.559556,-2.0,-2.0,-2.0],"children_left":[1,2,3,4,-1,6,7,-1,9,-1,-1,-1,-1,14,-1,-1,17,18,19,-1,-1,-1,23,24,-1,-1,-1],"children_right":[16,13,12,5,-1,11,8,-1,10,-1,-1,-1,-1,15,-1,-1,22,21,20,-1,-1,-1,26,25,-1,-1,-1],"value":[[0.469974,0.530026],[0.23506,0.76494],[0.113426,0.886574],[0.044888,0.955112],[1.0,0.0],[0.012887,0.987113],[0.005249,0.994751],[0.2,0.8],[0.00266,0.99734],[0.0,1.0],[0.142857,0.857143],[0.428571,0.571429],[1.0,0.0],[0.985714,0.014286],[1.0,0.0],[0.833333,0.166667],[0.916667,0.083333],[0.957983,0.042017],[0.991111,0.008889],[0.6,0.4],[1.0,0.0],[0.384615,0.615385],[0.538462,0.461538],[0.294118,0.705882],[0.0,1.0],[0.833333,0.166667],[1.0,0.0]]},{"feature":[12,6,10,-2,9,-2,-2,-2,13,10,0,-2,-2,3,-2,1,-2,-2,1,11,-2,4,-2,2,-2,-2,0,-2,-2],"threshold":[117.124958,179.528885,-178.961411,-2.0,167.631523,-2.0,-2.0,-2.0,-120.839497,-173.483536,53.624925,-2.0,-2.0,22.053207,-2.0,-30.0991,-2.0,-2.0,176.21685,158.052849,-2.0,162.485474,-2.0,-38.034407,-2.0,-2.0,-175.63649,-2.0,-2.0],"children_left":[1,2,3,-1,5,-1,-1,-1,9,10,11,-1,-1,14,-1,16,-1,-1,19,20,-1,22,-1,24,-1,-1,27,-1,-1],"children_right":[8,7,4,-1,6,-1,-1,-1,18,13,12,-1,-1,15,-1,17,-1,-1,26,21,-1,23,-1,25,-1,-1,28,-1,-1],"value":[[0.484334,0.515666],[0.97479,0.02521],[0.987013,0.012987],[0.833333,0.166667],[0.991111,0.008889],[1.0,0.0],[0.777778,0.222222],[0.571429,0.428571],[0.263258,0.736742],[0.102689,0.897311],[0.947368,0.052632],[1.0,0.0],[0.8,0.2],[0.016173,0.983827],[0.5,0.5],[0.010899,0.989101],[0.0,1.0],[0.571429,0.428571],[0.815126,0.184874],[0.928571,0.071429],[1.0,0.0],[0.730769,0.269231],[0.166667,0.833333],[0.9,0.1],[0.75,0.25],[1.0,0.0],[0.285714,0.714286],[0.0,1.0],[0.666667,0.333333]]},{"feature":[13,12,-2,0,-2,-2,6,8,-2,-2,10,9,10,13,-2,-2,-2,-2,-2],"threshold":[-124.744354,14.177795,-2.0,16.923764,-2.0,-2.0,-179.246101,-99.756676,-2.0,-2.0,-162.901161,162.575302,-177.793396,178.844131,-2.0,-2.0,-2.0,-2.0,-2.0],"children_left":[1,2,-1,4,-1,-1,7,8,-1,-1,11,12,13,14,-1,-1,-1,-1,-1],"children_right":[6,3,-1,5,-1,-1,10,9,-1,-1,18,17,16,15,-1,-1,-1,-1,-1],"value":[[0.483029,0.516971],[0.188841,0.811159],[1.0,0.0],[0.059701,0.940299],[1.0,0.0],[0.0,1.0],[0.94,0.06],[0.5,0.5],[1.0,0.0],[0.111111,0.888889],[0.964789,0.035211],[0.88764,0.11236],[0.963415,0.036585],[0.785714,0.214286],[0.666667,0.333333],[0.875,0.125],[1.0,0.0],[0.0,1.0],[1.0,0.0]]},{"feature":[12,12,-2,8,-2,-2,1,1,-2,13,12,2,-2,10,-2,-2,-2,-2,10,8,7,-2,-2,-2,-2],"threshold":[111.5868,-179.600639,-2.0,-169.676086,-2.0,-2.0,-28.42578,-157.612473,-2.0,5.632126,178.211899,-45.586143,-2.0,-156.00074,-2.0,-2.0,-2.0,-2.0,179.281906,-107.964359,135.757816,-2.0,-2.0,-2.0,-2.0],"children_left":[1,2,-1,4,-1,-1,7,8,-1,10,11,12,-1,14,-1,-1,-1,-1,19,20,21,-1,-1,-1,-1],"children_right":[6,3,-1,5,-1,-1,18,9,-1,17,16,13,-1,15,-1,-1,-1,-1,24,23,22,-1,-1,-1,-1],"value":[[0.506527,0.493473],[0.981481,0.018519],[0.4,0.6],[0.992453,0.007547],[0.666667,0.333333],[1.0,0.0],[0.247984,0.752016],[0.081013,0.918987],[1.0,0.0],[0.018919,0.981081],[0.005495,0.994505],[0.002793,0.997207],[0.0,1.0],[0.011765,0.988235],[0.0,1.0],[0.166667,0.833333],[0.166667,0.833333],[0.833333,0.166667],[0.90099,0.09901],[0.968085,0.031915],[0.842105,0.157895],[1.0,0.0],[0.5,0.5],[1.0,0.0],[0.0,1.0]]},{"feature":[7,4,10,2,8,3,-2,-2,13,-2,1,-2,-2,-2,-2,-2,6,12,11,10,-2,-2,-2,2,-2,-2,8,-2,-2],"threshold":[124.744354,179.53447,179.193077,-57.10717,-131.74736,30.430333,-2.0,-2.0,179.183884,-2.0,-178.465927,-2.0,-2.0,-2.0,-2.0,-2.0,-14.177795,177.723564,171.763916,-155.759438,-2.0,-2.0,-2.0,-68.225672,-2.0,-2.0,-124.324474,-2.0,-2.0],"children_left":[1,2,3,4,5,6,-1,-1,9,-1,11,-1,-1,-1,-1,-1,17,18,19,20,-1,-1,-1,24,-1,-1,27,-1,-1],"children_right":[16,15,14,13,8,7,-1,-1,10,-1,12,-1,-1,-1,-1,-1,26,23,22,21,-1,-1,-1,25,-1,-1,28,-1,-1],"value":[[0.476501,0.523499],[0.940741,0.059259],[0.969466,0.030534],[0.988327,0.011673],[0.965116,0.034884],[0.833333,0.166667],[1.0,0.0],[0.6,0.4],[0.986486,0.013514],[1.0,0.0],[0.909091,0.090909],[1.0,0.0],[0.75,0.25],[1.0,0.0],[0.0,1.0],[0.0,1.0],[0.22379,0.77621],[0.054187,0.945813],[0.010363,0.989637],[0.002632,0.997368],[0.0,1.0],[0.166667,0.833333],[0.5,0.5],[0.9,0.1],[0.6,0.4],[1.0,0.0],[0.988889,0.011111],[0.8,0.2],[1.0,0.0]]},{"feature":[0,13,-2,6,-2,1,-2,-2,0,10,-2,-2,4,-2,5,6,2,-2,6,-2,-2,6,-2,-2,-2],"threshold":[18.817687,177.762306,-2.0,-178.054688,-2.0,152.321014,-2.0,-2.0,135.58284,-88.470489,-2.0,-2.0,-175.568382,-2.0,-153.951591,-129.243637,-138.762405,-2.0,-177.5942,-2.0,-2.0,178.799995,-2.0,-2.0,-2.0],"children_left":[1,2,-1,4,-1,6,-1,-1,9,10,-1,-1,13,-1,15,16,17,-1,19,-1,-1,22,-1,-1,-1],"children_right":[8,3,-1,5,-1,7,-1,-1,12,11,-1,-1,14,-1,24,21,18,-1,20,-1,-1,23,-1,-1,-1],"value":[[0.462141,0.537859],[0.96,0.04],[1.0,0.0],[0.8125,0.1875],[0.466667,0.533333],[0.969697,0.030303],[1.0,0.0],[0.75,0.25],[0.255083,0.744917],[0.02799,0.97201],[0.0,1.0],[1.0,0.0],[0.858108,0.141892],[0.142857,0.857143],[0.893617,0.106383],[0.680851,0.319149],[0.4,0.6],[0.111111,0.888889],[0.636364,0.363636],[0.857143,0.142857],[0.25,0.75],[0.888889,0.111111],[1.0,0.0],[0.5,0.5],[1.0,0.0]]},{"feature":[13,3,12,-2,12,2,-2,-2,-2,12,12,-2,-2,11,13,5,-2,-2,-2,-2,1,5,9,12,-2,6,-2,-2,-2,6,-2,-2,4,4,-2,-2,-2],"threshold":[-124.400291,30.298736,144.194771,-2.0,177.772469,-18.666375,-2.0,-2.0,-2.0,-5.938438,-177.374092,-2.0,-2.0,172.150688,-177.535851,-167.185501,-2.0,-2.0,-2.0,-2.0,176.523323,-165.384987,157.08567,-179.39476,-2.0,-178.610641,-2.0,-2.0,-2.0,-178.522423,-2.0,-2.0,176.766533,-69.134468,-2.0,-2.0,-2.0],"children_left":[1,2,3,-1,5,6,-1,-1,-1,10,11,-1,-1,14,15,16,-1,-1,-1,-1,21,22,23,24,-1,26,-1,-1,-1,30,-1,-1,33,34,-1,-1,-1],"children_right":[20,9,4,-1,8,7,-1,-1,-1,13,12,-1,-1,19,18,17,-1,-1,-1,-1,32,29,28,25,-1,27,-1,-1,-1,31,-1,-1,36,35,-1,-1,-1],"value":[[0.486945,0.513055],[0.246436,0.753564],[0.870968,0.129032],[1.0,0.0],[0.684211,0.315789],[0.142857,0.857143],[0.0,1.0],[0.4,0.6],[1.0,0.0],[0.100503,0.899497],[0.935484,0.064516],[0.75,0.25],[1.0,0.0],[0.029973,0.970027],[0.005587,0.994413],[0.105263,0.894737],[0.0,1.0],[0.4,0.6],[0.0,1.0],[1.0,0.0],[0.916364,0.083636],[0.963265,0.036735],[0.864407,0.135593],[0.941176,0.058824],[0.714286,0.285714],[0.977273,0.022727],[0.857143,0.142857],[1.0,0.0],[0.375,0.625],[0.994624,0.005376],[0.9,0.1],[1.0,0.0],[0.533333,0.466667],[0.761905,0.238095],[0.166667,0.833333],[1.0,0.0],[0.0,1.0]]},{"feature":[1,12,8,-2,-2,12,10,-2,-2,9,5,-2,-2,-2,10,4,1,-2,-2,-2,-2],"threshold":[-24.501747,102.743473,-170.06398,-2.0,-2.0,177.290398,-154.067345,-2.0,-2.0,112.257549,-127.5411,-2.0,-2.0,-2.0,179.281906,179.221169,-20.352986,-2.0,-2.0,-2.0,-2.0],"children_left":[1,2,3,-1,-1,6,7,-1,-1,10,11,-1,-1,-1,15,16,17,-1,-1,-1,-1],"children_right":[14,5,4,-1,-1,9,8,-1,-1,13,12,-1,-1,-1,20,19,18,-1,-1,-1,-1],"value":[[0.462141,0.537859],[0.277978,0.722022],[0.953846,0.046154],[0.142857,0.857143],[1.0,0.0],[0.070755,0.929245],[0.030303,0.969697],[0.0,1.0],[1.0,0.0],[0.642857,0.357143],[0.857143,0.142857],[0.625,0.375],[1.0,0.0],[0.0,1.0],[0.943396,0.056604],[0.980296,0.019704],[0.994924,0.005076],[0.8,0.2],[1.0,0.0],[0.5,0.5],[0.111111,0.888889]]},{"feature":[10,12,0,-2,12,2,-2,-2,-2,0,10,-2,-2,7,-2,5,-2,-2,13,-2,10,-2,-2],"threshold":[-155.303238,78.23995,0.793659,-2.0,-174.602425,-108.932804,-2.0,-2.0,-2.0,19.25771,-177.468102,-2.0,-2.0,127.210819,-2.0,-173.087395,-2.0,-2.0,177.468788,-2.0,130.190586,-2.0,-2.0],"children_left":[1,2,3,-1,5,6,-1,-1,-1,10,11,-1,-1,14,-1,16,-1,-1,19,-1,21,-1,-1],"children_right":[18,9,4,-1,8,7,-1,-1,-1,13,12,-1,-1,15,-1,17,-1,-1,20,-1,22,-1,-1],"value":[[0.45953,0.54047],[0.26,0.74],[0.921053,0.078947],[1.0,0.0],[0.763158,0.236842],[0.625,0.375],[1.0,0.0],[0.181818,0.818182],[1.0,0.0],[0.087156,0.912844],[0.939394,0.060606],[0.714286,0.285714],[1.0,0.0],[0.01737,0.98263],[0.75,0.25],[0.010025,0.989975],[0.8,0.2],[0.0,1.0],[0.967593,0.032407],[1.0,0.0],[0.461538,0.538462],[1.0,0.0],[0.0,1.0]]},{"feature":[1,0,10,13,1,-2,12,-2,-2,8,-2,10,-2,-2,-2,7,13,10,-2,-2,-2,-2,1,-2,7,4,-2,11,-2,-2,-2],"threshold":[-24.501747,136.111526,-154.695793,23.692131,-134.212799,-2.0,177.710182,-2.0,-2.0,-127.895672,-2.0,-170.853416,-2.0,-2.0,-2.0,176.861839,179.111954,-166.413498,-2.0,-2.0,-2.0,-2.0,176.523323,-2.0,-177.869217,-7.829674,-2.0,175.721779,-2.0,-2.0,-2.0],"children_left":[1,2,3,4,5,-1,7,-1,-1,10,-1,12,-1,-1,-1,16,17,18,-1,-1,-1,-1,23,-1,25,26,-1,28,-1,-1,-1],"children_right":[22,15,14,9,6,-1,8,-1,-1,11,-1,13,-1,-1,-1,21,20,19,-1,-1,-1,-1,24,-1,30,27,-1,29,-1,-1,-1],"value":[[0.47389,0.52611],[0.276753,0.723247],[0.148559,0.851441],[0.047146,0.952854],[0.013123,0.986877],[0.6,0.4],[0.005319,0.994681],[0.0,1.0],[0.25,0.75],[0.636364,0.363636],[0.25,0.75],[0.857143,0.142857],[1.0,0.0],[0.714286,0.285714],[1.0,0.0],[0.912088,0.087912],[0.974684,0.025316],[0.986486,0.013514],[0.875,0.125],[1.0,0.0],[0.8,0.2],[0.5,0.5],[0.950893,0.049107],[1.0,0.0],[0.78,0.22],[0.3125,0.6875],[0.0,1.0],[0.555556,0.444444],[0.5,0.5],[0.6,0.4],[1.0,0.0]]},{"feature":[12,1,12,-2,0,-2,0,-2,-2,-2,10,1,1,-2,5,-2,-2,4,0,-2,-2,-2,11,-2,-2],"threshold":[117.124958,178.711098,-179.634315,-2.0,72.263693,-2.0,143.378792,-2.0,-2.0,-2.0,-128.128765,-24.501747,-136.113724,-2.0,-169.61525,-2.0,-2.0,176.802284,14.823544,-2.0,-2.0,-2.0,173.487892,-2.0,-2.0],"children_left":[1,2,3,-1,5,-1,7,-1,-1,-1,11,12,13,-1,15,-1,-1,18,19,-1,-1,-1,23,-1,-1],"children_right":[10,9,4,-1,6,-1,8,-1,-1,-1,22,17,14,-1,16,-1,-1,21,20,-1,-1,-1,24,-1,-1],"value":[[0.498695,0.501305],[0.977941,0.022059],[0.984848,0.015152],[0.75,0.25],[0.988462,0.011538],[1.0,0.0],[0.962963,0.037037],[0.5,0.5],[1.0,0.0],[0.75,0.25],[0.234818,0.765182],[0.106796,0.893204],[0.021563,0.978437],[0.857143,0.142857],[0.005495,0.994505],[0.333333,0.666667],[0.0,1.0],[0.878049,0.121951],[0.970588,0.029412],[1.0,0.0],[0.75,0.25],[0.428571,0.571429],[0.878049,0.121951],[1.0,0.0],[0.090909,0.909091]]},{"feature":[1,7,8,-2,4,8,-2,-2,-2,12,-2,4,-2,-2,10,1,4,1,-2,-2,-2,-2,-2],"threshold":[-24.998709,101.166203,-144.599983,-2.0,178.481308,163.555946,-2.0,-2.0,-2.0,2.194496,-2.0,170.492813,-2.0,-2.0,177.474319,179.411736,178.278206,89.962925,-2.0,-2.0,-2.0,-2.0,-2.0],"children_left":[1,2,3,-1,5,6,-1,-1,-1,10,-1,12,-1,-1,15,16,17,18,-1,-1,-1,-1,-1],"children_right":[14,9,4,-1,8,7,-1,-1,-1,11,-1,13,-1,-1,22,21,20,19,-1,-1,-1,-1,-1],"value":[[0.511749,0.488251],[0.307985,0.692015],[0.945946,0.054054],[0.666667,0.333333],[0.970588,0.029412],[0.979592,0.020408],[1.0,0.0],[0.75,0.25],[0.75,0.25],[0.137349,0.862651],[1.0,0.0],[0.013774,0.986226],[0.0,1.0],[0.625,0.375],[0.958333,0.041667],[0.982684,0.017316],[0.991071,0.008929],[0.995392,0.004608],[0.875,0.125],[1.0,0.0],[0.857143,0.142857],[0.714286,0.285714],[0.333333,0.666667]]},{"feature":[0,4,-2,6,-2,4,-2,-2,5,2,3,-2,2,-2,-2,6,10,4,-2,-2,-2,9,-2,-2,-2],"threshold":[18.214139,-179.483452,-2.0,-179.771271,-2.0,179.037674,-2.0,-2.0,-105.882622,-120.798714,134.323685,-2.0,-139.460747,-2.0,-2.0,-3.571812,-154.106445,169.41037,-2.0,-2.0,-2.0,94.062897,-2.0,-2.0,-2.0],"children_left":[1,2,-1,4,-1,6,-1,-1,9,10,11,-1,13,-1,-1,16,17,18,-1,-1,-1,22,-1,-1,-1],"children_right":[8,3,-1,5,-1,7,-1,-1,24,15,12,-1,14,-1,-1,21,20,19,-1,-1,-1,23,-1,-1,-1],"value":[[0.509138,0.490862],[0.965385,0.034615],[0.444444,0.555556],[0.984064,0.015936],[0.5,0.5],[0.995918,0.004082],[1.0,0.0],[0.9,0.1],[0.274704,0.725296],[0.093827,0.906173],[0.875,0.125],[0.6,0.4],[0.947368,0.052632],[0.75,0.25],[1.0,0.0],[0.044619,0.955381],[0.016393,0.983607],[0.002786,0.997214],[0.0,1.0],[0.166667,0.833333],[0.714286,0.285714],[0.733333,0.266667],[1.0,0.0],[0.333333,0.666667],[1.0,0.0]]},{"feature":[11,-2,6,3,7,-2,3,-2,-2,12,10,-2,-2,1,-2,8,-2,-2,4,1,9,8,-2,-2,-2,-2,-2],"threshold":[154.652962,-2.0,-111.5868,13.765127,-178.345673,-2.0,9.269122,-2.0,-2.0,176.934433,-170.599342,-2.0,-2.0,-132.120636,-2.0,-112.088848,-2.0,-2.0,179.140938,8.699364,114.391621,-115.221798,-2.0,-2.0,-2.0,-2.0,-2.0],"children_left":[1,-1,3,4,5,-1,7,-1,-1,10,11,-1,-1,14,-1,16,-1,-1,19,20,21,22,-1,-1,-1,-1,-1],"children_right":[2,-1,18,9,6,-1,8,-1,-1,13,12,-1,-1,15,-1,17,-1,-1,26,25,24,23,-1,-1,-1,-1,-1],"value":[[0.493473,0.506527],[1.0,0.0],[0.309609,0.690391],[0.082126,0.917874],[0.814815,0.185185],[0.428571,0.571429],[0.95,0.05],[0.875,0.125],[1.0,0.0],[0.031008,0.968992],[0.00274,0.99726],[0.2,0.8],[0.0,1.0],[0.5,0.5],[1.0,0.0],[0.3125,0.6875],[0.0,1.0],[0.555556,0.444444],[0.945946,0.054054],[0.965035,0.034965],[0.897959,0.102041],[0.97561,0.02439],[0.75,0.25],[1.0,0.0],[0.5,0.5],[1.0,0.0],[0.4,0.6]]},{"feature":[12,5,1,9,-2,5,-2,-2,-2,-2,7,4,-2,0,13,-2,-2,-2,0,-2,0,7,7,-2,6,-2,-2,-2,-2],"threshold":[111.800072,-170.099075,18.435604,-11.405113,-2.0,-178.639328,-2.0,-2.0,-2.0,-2.0,120.839497,-175.674782,-2.0,175.604973,178.421936,-2.0,-2.0,-2.0,17.363787,-2.0,164.68206,178.693977,177.535851,-2.0,-175.668526,-2.0,-2.0,-2.0,-2.0],"children_left":[1,2,3,4,-1,6,-1,-1,-1,-1,11,12,-1,14,15,-1,-1,-1,19,-1,21,22,23,-1,25,-1,-1,-1,-1],"children_right":[10,9,8,5,-1,7,-1,-1,-1,-1,18,13,-1,17,16,-1,-1,-1,20,-1,28,27,24,-1,26,-1,-1,-1,-1],"value":[[0.477807,0.522193],[0.981752,0.018248],[0.939024,0.060976],[0.875,0.125],[1.0,0.0],[0.615385,0.384615],[1.0,0.0],[0.166667,0.833333],[1.0,0.0],[1.0,0.0],[0.197154,0.802846],[0.875,0.125],[0.0,1.0],[0.945946,0.054054],[0.971014,0.028986],[1.0,0.0],[0.666667,0.333333],[0.6,0.4],[0.065534,0.934466],[1.0,0.0],[0.020356,0.979644],[0.007752,0.992248],[0.002625,0.997375],[0.0,1.0],[0.043478,0.956522],[0.0,1.0],[0.25,0.75],[0.333333,0.666667],[0.833333,0.166667]]},{"feature":[3,10,4,1,12,-2,8,-2,-2,-2,-2,11,-2,-2,7,11,-2,7,8,-2,-2,-2,4,-2,11,1,12,-2,-2,-2,-2],"threshold":[30.905894,178.56572,177.778336,-24.501747,107.73447,-2.0,9.73872,-2.0,-2.0,-2.0,-2.0,175.099518,-2.0,-2.0,120.839497,167.551407,-2.0,-178.420624,143.633804,-2.0,-2.0,-2.0,39.089304,-2.0,173.550743,-33.078989,121.417618,-2.0,-2.0,-2.0,-2.0],"children_left":[1,2,3,4,5,-1,7,-1,-1,-1,-1,12,-1,-1,15,16,-1,18,19,-1,-1,-1,23,-1,25,26,27,-1,-1,-1,-1],"children_right":[14,11,10,9,6,-1,8,-1,-1,-1,-1,13,-1,-1,22,17,-1,21,20,-1,-1,-1,24,-1,30,29,28,-1,-1,-1,-1],"value":[[0.432115,0.567885],[0.900433,0.099567],[0.944954,0.055046],[0.966667,0.033333],[0.897059,0.102941],[1.0,0.0],[0.695652,0.304348],[0.0,1.0],[1.0,0.0],[1.0,0.0],[0.375,0.625],[0.153846,0.846154],[0.5,0.5],[0.0,1.0],[0.229907,0.770093],[0.934783,0.065217],[1.0,0.0],[0.76,0.24],[0.944444,0.055556],[1.0,0.0],[0.75,0.25],[0.285714,0.714286],[0.083521,0.916479],[1.0,0.0],[0.04918,0.95082],[0.014563,0.985437],[0.004963,0.995037],[0.4,0.6],[0.0,1.0],[0.444444,0.555556],[1.0,0.0]]},{"feature":[13,12,-2,1,5,-2,13,9,-2,-2,-2,-2,4,6,10,-2,-2,5,8,-2,10,-2,-2,-2,-2],"threshold":[-124.400291,-0.815033,-2.0,57.600686,-173.039551,-2.0,-177.535851,129.000019,-2.0,-2.0,-2.0,-2.0,179.273109,-179.626991,-171.095917,-2.0,-2.0,-165.957657,-127.577972,-2.0,-177.793396,-2.0,-2.0,-2.0,-2.0],"children_left":[1,2,-1,4,5,-1,7,8,-1,-1,-1,-1,13,14,15,-1,-1,18,19,-1,21,-1,-1,-1,-1],"children_right":[12,3,-1,11,6,-1,10,9,-1,-1,-1,-1,24,17,16,-1,-1,23,20,-1,22,-1,-1,-1,-1],"value":[[0.458225,0.541775],[0.211577,0.788423],[1.0,0.0],[0.077103,0.922897],[0.019851,0.980149],[1.0,0.0],[0.007538,0.992462],[0.130435,0.869565],[0.375,0.625],[0.0,1.0],[0.0,1.0],[1.0,0.0],[0.924528,0.075472],[0.953125,0.046875],[0.588235,0.411765],[1.0,0.0],[0.125,0.875],[0.979079,0.020921],[0.925373,0.074627],[0.5,0.5],[0.983051,0.016949],[0.833333,0.166667],[1.0,0.0],[1.0,0.0],[0.111111,0.888889]]},{"feature":[12,7,9,-2,-2,-2,10,1,5,-2,3,-2,7,-2,-2,1,-2,13,-2,-2,10,-2,-2],"threshold":[117.124958,-177.488892,117.085346,-2.0,-2.0,-2.0,-154.067345,-30.124586,-173.283371,-2.0,29.84197,-2.0,127.308086,-2.0,-2.0,-5.024363,-2.0,177.630882,-2.0,-2.0,179.281906,-2.0,-2.0],"children_left":[1,2,3,-1,-1,-1,7,8,9,-1,11,-1,13,-1,-1,16,-1,18,-1,-1,21,-1,-1],"children_right":[6,5,4,-1,-1,-1,20,15,10,-1,12,-1,14,-1,-1,17,-1,19,-1,-1,22,-1,-1],"value":[[0.52611,0.47389],[0.992958,0.007042],[0.957447,0.042553],[1.0,0.0],[0.5,0.5],[1.0,0.0],[0.251037,0.748963],[0.15311,0.84689],[0.035813,0.964187],[1.0,0.0],[0.016854,0.983146],[0.5,0.5],[0.008571,0.991429],[0.428571,0.571429],[0.0,1.0],[0.927273,0.072727],[0.714286,0.285714],[0.958333,0.041667],[1.0,0.0],[0.777778,0.222222],[0.890625,0.109375],[1.0,0.0],[0.0,1.0]]},{"feature":[0,4,12,-2,6,-2,-2,-2,13,0,10,-2,-2,0,-2,8,-2,-2,11,-2,8,-2,-2],"threshold":[22.934691,178.969841,148.335907,-2.0,-167.668533,-2.0,-2.0,-2.0,-124.254856,156.398994,-155.546829,-2.0,-2.0,163.557205,-2.0,-41.827792,-2.0,-2.0,164.192207,-2.0,-101.310226,-2.0,-2.0],"children_left":[1,2,3,-1,5,-1,-1,-1,9,10,11,-1,-1,14,-1,16,-1,-1,19,-1,21,-1,-1],"children_right":[8,7,4,-1,6,-1,-1,-1,18,13,12,-1,-1,15,-1,17,-1,-1,20,-1,22,-1,-1],"value":[[0.510444,0.489556],[0.975207,0.024793],[0.995671,0.004329],[1.0,0.0],[0.981132,0.018868],[1.0,0.0],[0.8,0.2],[0.545455,0.454545],[0.295802,0.704198],[0.110024,0.889976],[0.01108,0.98892],[0.0,1.0],[0.8,0.2],[0.854167,0.145833],[0.615385,0.384615],[0.942857,0.057143],[0.714286,0.285714],[1.0,0.0],[0.956522,0.043478],[1.0,0.0],[0.814815,0.185185],[0.0,1.0],[1.0,0.0]]},{"feature":[12,6,5,6,8,-2,-2,-2,-2,-2,11,-2,2,12,10,-2,6,6,-2,-2,10,-2,-2,8,-2,-2,0,7,-2,-2,-2],"threshold":[117.124958,179.60141,-170.14856,175.14727,-101.742222,-2.0,-2.0,-2.0,-2.0,-2.0,154.372337,-2.0,-14.861997,178.818382,-174.578835,-2.0,-177.02504,-177.896042,-2.0,-2.0,-170.608307,-2.0,-2.0,15.631298,-2.0,-2.0,5.311684,-178.13765,-2.0,-2.0,-2.0],"children_left":[1,2,3,4,5,-1,-1,-1,-1,-1,11,-1,13,14,15,-1,17,18,-1,-1,21,-1,-1,24,-1,-1,27,28,-1,-1,-1],"children_right":[10,9,8,7,6,-1,-1,-1,-1,-1,12,-1,26,23,16,-1,20,19,-1,-1,22,-1,-1,25,-1,-1,30,29,-1,-1,-1],"value":[[0.47389,0.52611],[0.992366,0.007634],[0.996094,0.003906],[0.985915,0.014085],[0.941176,0.058824],[0.75,0.25],[1.0,0.0],[1.0,0.0],[1.0,0.0],[0.833333,0.166667],[0.204365,0.795635],[1.0,0.0],[0.088636,0.911364],[0.041463,0.958537],[0.020101,0.979899],[0.75,0.25],[0.01269,0.98731],[0.2,0.8],[0.0,1.0],[0.6,0.4],[0.005277,0.994723],[0.166667,0.833333],[0.0,1.0],[0.75,0.25],[0.5,0.5],[0.875,0.125],[0.733333,0.266667],[0.875,0.125],[0.25,0.75],[1.0,0.0],[0.166667,0.833333]]},{"feature":[12,1,7,-2,0,-2,-2,-2,11,-2,0,0,2,-2,-2,-2,12,-2,9,-2,2,-2,-2],"threshold":[111.5868,179.427231,173.81617,-2.0,72.263693,-2.0,-2.0,-2.0,123.282269,-2.0,16.709792,-176.601601,-9.042332,-2.0,-2.0,-2.0,177.097443,-2.0,-6.981274,-2.0,-39.816177,-2.0,-2.0],"children_left":[1,2,3,-1,5,-1,-1,-1,9,-1,11,12,13,-1,-1,-1,17,-1,19,-1,21,-1,-1],"children_right":[8,7,4,-1,6,-1,-1,-1,10,-1,16,15,14,-1,-1,-1,18,-1,20,-1,22,-1,-1],"value":[[0.466057,0.533943],[0.984615,0.015385],[0.988189,0.011811],[1.0,0.0],[0.911765,0.088235],[1.0,0.0],[0.625,0.375],[0.833333,0.166667],[0.199605,0.800395],[1.0,0.0],[0.09396,0.90604],[0.744186,0.255814],[0.266667,0.733333],[0.444444,0.555556],[0.0,1.0],[1.0,0.0],[0.024752,0.975248],[0.0,1.0],[0.416667,0.583333],[0.818182,0.181818],[0.076923,0.923077],[0.2,0.8],[0.0,1.0]]},{"feature":[7,7,8,4,10,2,-2,-2,-2,-2,0,-2,-2,-2,8,5,0,-2,-2,-2,7,1,-2,2,-2,-2,3,-2,0,-2,-2],"threshold":[124.647087,-177.67009,-87.736298,179.222511,13.343163,-67.177107,-2.0,-2.0,-2.0,-2.0,133.462914,-2.0,-2.0,-2.0,-102.22245,-112.333012,18.817687,-2.0,-2.0,-2.0,175.882912,-149.129135,-2.0,-97.668152,-2.0,-2.0,15.322555,-2.0,-12.522133,-2.0,-2.0],"children_left":[1,2,3,4,5,6,-1,-1,-1,-1,11,-1,-1,-1,15,16,17,-1,-1,-1,21,22,-1,24,-1,-1,27,-1,29,-1,-1],"children_right":[14,13,10,9,8,7,-1,-1,-1,-1,12,-1,-1,-1,20,19,18,-1,-1,-1,26,23,-1,25,-1,-1,28,-1,30,-1,-1],"value":[[0.503916,0.496084],[0.941581,0.058419],[0.806818,0.193182],[0.692308,0.307692],[0.818182,0.181818],[0.923077,0.076923],[0.5,0.5],[1.0,0.0],[0.0,1.0],[0.0,1.0],[0.972222,0.027778],[0.909091,0.090909],[1.0,0.0],[1.0,0.0],[0.235789,0.764211],[0.088319,0.911681],[0.041916,0.958084],[1.0,0.0],[0.0,1.0],[1.0,0.0],[0.653226,0.346774],[0.372881,0.627119],[1.0,0.0],[0.026316,0.973684],[0.0,1.0],[0.25,0.75],[0.907692,0.092308],[1.0,0.0],[0.727273,0.272727],[1.0,0.0],[0.5,0.5]]},{"feature":[7,7,6,8,0,-2,-2,-2,1,-2,3,12,-2,-2,-2,-2,3,12,-2,12,-2,4,-2,-2,12,1,-2,-2,6,-2,6,10,-2,-2,-2],"threshold":[124.254856,-177.488892,-5.24437,-93.268894,-29.700352,-2.0,-2.0,-2.0,-107.664528,-2.0,36.547039,-178.367729,-2.0,-2.0,-2.0,-2.0,30.298736,156.717964,-2.0,173.740646,-2.0,172.177353,-2.0,-2.0,-7.162903,-124.079525,-2.0,-2.0,-179.157326,-2.0,-172.055946,-162.376564,-2.0,-2.0,-2.0],"children_left":[1,2,3,4,5,-1,-1,-1,9,-1,11,12,-1,-1,-1,-1,17,18,-1,20,-1,22,-1,-1,25,26,-1,-1,29,-1,31,32,-1,-1,-1],"children_right":[16,15,8,7,6,-1,-1,-1,10,-1,14,13,-1,-1,-1,-1,24,19,-1,21,-1,23,-1,-1,28,27,-1,-1,30,-1,34,33,-1,-1,-1],"value":[[0.466057,0.533943],[0.918149,0.081851],[0.732558,0.267442],[0.333333,0.666667],[0.571429,0.428571],[1.0,0.0],[0.142857,0.857143],[0.076923,0.923077],[0.915254,0.084746],[1.0,0.0],[0.791667,0.208333],[0.944444,0.055556],[0.833333,0.166667],[1.0,0.0],[0.333333,0.666667],[1.0,0.0],[0.204124,0.795876],[0.875,0.125],[1.0,0.0],[0.678571,0.321429],[0.0,1.0],[0.95,0.05],[0.8,0.2],[1.0,0.0],[0.087167,0.912833],[0.966667,0.033333],[1.0,0.0],[0.888889,0.111111],[0.018277,0.981723],[0.75,0.25],[0.002667,0.997333],[0.017857,0.982143],[0.0,1.0],[0.2,0.8],[0.0,1.0]]},{"feature":[7,12,9,13,-2,5,-2,-2,-2,4,-2,-2,10,0,-2,6,-2,12,-2,-2,-2],"threshold":[124.400291,179.424171,170.137733,179.383179,-2.0,-176.33609,-2.0,-2.0,-2.0,-6.078293,-2.0,-2.0,-154.695793,16.709792,-2.0,-178.598289,-2.0,121.204346,-2.0,-2.0,-2.0],"children_left":[1,2,3,4,-1,6,-1,-1,-1,10,-1,-1,13,14,-1,16,-1,18,-1,-1,-1],"children_right":[12,9,8,5,-1,7,-1,-1,-1,11,-1,-1,20,15,-1,17,-1,19,-1,-1,-1],"value":[[0.496084,0.503916],[0.958621,0.041379],[0.98913,0.01087],[0.996226,0.003774],[1.0,0.0],[0.923077,0.076923],[1.0,0.0],[0.75,0.25],[0.818182,0.181818],[0.357143,0.642857],[0.0,1.0],[0.714286,0.285714],[0.214286,0.785714],[0.130233,0.869767],[1.0,0.0],[0.033592,0.966408],[0.75,0.25],[0.010667,0.989333],[0.5,0.5],[0.0,1.0],[1.0,0.0]]},{"feature":[13,1,-2,5,-2,4,-2,13,6,-2,-2,2,-2,-2,6,12,-2,-2,7,5,1,-2,-2,-2,10,-2,1,-2,9,-2,-2],"threshold":[-124.400291,-154.738724,-2.0,-170.859215,-2.0,81.618082,-2.0,-177.713425,2.582695,-2.0,-2.0,-17.510332,-2.0,-2.0,-179.424171,179.699455,-2.0,-2.0,-179.183884,-171.684456,-175.48999,-2.0,-2.0,-2.0,-177.631027,-2.0,177.867134,-2.0,98.329693,-2.0,-2.0],"children_left":[1,2,-1,4,-1,6,-1,8,9,-1,-1,12,-1,-1,15,16,-1,-1,19,20,21,-1,-1,-1,25,-1,27,-1,29,-1,-1],"children_right":[14,3,-1,5,-1,7,-1,11,10,-1,-1,13,-1,-1,18,17,-1,-1,24,23,22,-1,-1,-1,26,-1,28,-1,30,-1,-1],"value":[[0.471279,0.528721],[0.197917,0.802083],[1.0,0.0],[0.108796,0.891204],[1.0,0.0],[0.0375,0.9625],[1.0,0.0],[0.017857,0.982143],[0.277778,0.722222],[0.0,1.0],[1.0,0.0],[0.005348,0.994652],[0.0,1.0],[0.4,0.6],[0.93007,0.06993],[0.266667,0.733333],[0.090909,0.909091],[0.75,0.25],[0.96679,0.03321],[0.787879,0.212121],[0.904762,0.095238],[1.0,0.0],[0.666667,0.333333],[0.583333,0.416667],[0.991597,0.008403],[0.857143,0.142857],[0.995671,0.004329],[1.0,0.0],[0.9375,0.0625],[1.0,0.0],[0.833333,0.166667]]},{"feature":[0,12,-2,0,-2,-2,13,12,-2,12,10,-2,-2,-2,13,-2,6,-2,0,-2,-2],"threshold":[22.934691,179.424171,-2.0,-177.068024,-2.0,-2.0,-124.254856,-5.938438,-2.0,178.540726,-155.652679,-2.0,-2.0,-2.0,177.555046,-2.0,-178.338516,-2.0,163.743919,-2.0,-2.0],"children_left":[1,2,-1,4,-1,-1,7,8,-1,10,11,-1,-1,-1,15,-1,17,-1,19,-1,-1],"children_right":[6,3,-1,5,-1,-1,14,9,-1,13,12,-1,-1,-1,16,-1,18,-1,20,-1,-1],"value":[[0.501305,0.498695],[0.97541,0.02459],[1.0,0.0],[0.73913,0.26087],[0.25,0.75],[1.0,0.0],[0.279693,0.720307],[0.111111,0.888889],[1.0,0.0],[0.018667,0.981333],[0.002725,0.997275],[0.0,1.0],[0.2,0.8],[0.75,0.25],[0.925926,0.074074],[1.0,0.0],[0.68,0.32],[0.142857,0.857143],[0.888889,0.111111],[0.6,0.4],[1.0,0.0]]},{"feature":[7,7,3,0,8,-2,8,-2,-2,-2,-2,-2,0,-2,4,-2,6,4,3,-2,-2,-2,-2],"threshold":[124.254856,-177.585777,91.979149,2.168339,-93.268894,-2.0,-88.746742,-2.0,-2.0,-2.0,-2.0,-2.0,16.923764,-2.0,112.748173,-2.0,26.335846,175.589706,135.828041,-2.0,-2.0,-2.0,-2.0],"children_left":[1,2,3,4,5,-1,7,-1,-1,-1,-1,-1,13,-1,15,-1,17,18,19,-1,-1,-1,-1],"children_right":[12,11,10,9,6,-1,8,-1,-1,-1,-1,-1,14,-1,16,-1,22,21,20,-1,-1,-1,-1],"value":[[0.494778,0.505222],[0.933566,0.066434],[0.784091,0.215909],[0.693548,0.306452],[0.77551,0.22449],[1.0,0.0],[0.388889,0.611111],[0.0,1.0],[0.7,0.3],[0.384615,0.615385],[1.0,0.0],[1.0,0.0],[0.233333,0.766667],[1.0,0.0],[0.104623,0.895377],[1.0,0.0],[0.039164,0.960836],[0.013441,0.986559],[0.00274,0.99726],[0.0,1.0],[0.2,0.8],[0.571429,0.428571],[0.909091,0.090909]]},{"feature":[2,10,6,6,5,6,-2,-2,-2,13,-2,-2,8,-2,-2,11,-2,-2,4,0,5,12,-2,7,-2,-2,-2,-2,-2],"threshold":[-19.428523,-154.695793,-63.387308,-177.097443,-164.210007,-178.129257,-2.0,-2.0,-2.0,-26.640381,-2.0,-2.0,-111.182545,-2.0,-2.0,155.486168,-2.0,-2.0,179.221169,178.311279,-147.141792,43.771629,-2.0,169.045853,-2.0,-2.0,-2.0,-2.0,-2.0],"children_left":[1,2,3,4,5,6,-1,-1,-1,10,-1,-1,13,-1,-1,16,-1,-1,19,20,21,22,-1,24,-1,-1,-1,-1,-1],"children_right":[18,15,12,9,8,7,-1,-1,-1,11,-1,-1,14,-1,-1,17,-1,-1,28,27,26,23,-1,25,-1,-1,-1,-1,-1],"value":[[0.468668,0.531332],[0.278899,0.721101],[0.136564,0.863436],[0.06747,0.93253],[0.75,0.25],[0.95,0.05],[1.0,0.0],[0.8,0.2],[0.25,0.75],[0.018088,0.981912],[0.0,1.0],[0.583333,0.416667],[0.871795,0.128205],[0.583333,0.416667],[1.0,0.0],[0.989011,0.010989],[1.0,0.0],[0.857143,0.142857],[0.936652,0.063348],[0.971564,0.028436],[0.975845,0.024155],[0.952381,0.047619],[1.0,0.0],[0.791667,0.208333],[0.5,0.5],[1.0,0.0],[1.0,0.0],[0.75,0.25],[0.2,0.8]]},{"feature":[13,6,1,11,10,-2,-2,-2,8,-2,-2,2,13,-2,-2,-2,10,12,10,-2,9,-2,-2,13,-2,11,-2,-2,-2],"threshold":[-124.254856,-14.177795,59.696764,171.831337,-155.894638,-2.0,-2.0,-2.0,-96.458061,-2.0,-2.0,-88.808598,-176.934059,-2.0,-2.0,-2.0,179.059349,178.522423,-178.7827,-2.0,167.631523,-2.0,-2.0,177.952477,-2.0,176.66394,-2.0,-2.0,-2.0],"children_left":[1,2,3,4,5,-1,-1,-1,9,-1,-1,12,13,-1,-1,-1,17,18,19,-1,21,-1,-1,24,-1,26,-1,-1,-1],"children_right":[16,11,8,7,6,-1,-1,-1,10,-1,-1,15,14,-1,-1,-1,28,23,20,-1,22,-1,-1,25,-1,27,-1,-1,-1],"value":[[0.451697,0.548303],[0.190763,0.809237],[0.062937,0.937063],[0.021951,0.978049],[0.004988,0.995012],[0.0,1.0],[0.285714,0.714286],[0.777778,0.222222],[0.947368,0.052632],[0.833333,0.166667],[1.0,0.0],[0.985507,0.014493],[0.952381,0.047619],[1.0,0.0],[0.8,0.2],[1.0,0.0],[0.936567,0.063433],[0.972868,0.027132],[0.987288,0.012712],[0.8,0.2],[0.991342,0.008658],[1.0,0.0],[0.818182,0.181818],[0.818182,0.181818],[1.0,0.0],[0.692308,0.307692],[0.5,0.5],[0.857143,0.142857],[0.0,1.0]]},{"feature":[10,6,5,2,-2,-2,12,1,7,-2,-2,-2,9,2,-2,-2,-2,8,-2,10,13,-2,-2,-2,10,-2,4,-2,-2],"threshold":[-155.264137,-78.919571,-170.69091,-12.823758,-2.0,-2.0,177.097443,-26.033413,127.308086,-2.0,-2.0,-2.0,118.021526,-54.443967,-2.0,-2.0,-2.0,-127.433895,-2.0,-177.705704,47.237732,-2.0,-2.0,-2.0,178.589882,-2.0,-177.783379,-2.0,-2.0],"children_left":[1,2,3,4,-1,-1,7,8,9,-1,-1,-1,13,14,-1,-1,-1,18,-1,20,21,-1,-1,-1,25,-1,27,-1,-1],"children_right":[24,17,6,5,-1,-1,12,11,10,-1,-1,-1,16,15,-1,-1,-1,19,-1,23,22,-1,-1,-1,26,-1,28,-1,-1],"value":[[0.483029,0.516971],[0.276952,0.723048],[0.106729,0.893271],[0.868421,0.131579],[1.0,0.0],[0.545455,0.454545],[0.033079,0.966921],[0.008043,0.991957],[0.002717,0.997283],[0.2,0.8],[0.0,1.0],[0.4,0.6],[0.5,0.5],[0.666667,0.333333],[0.444444,0.555556],[1.0,0.0],[0.0,1.0],[0.962617,0.037383],[0.666667,0.333333],[0.980198,0.019802],[0.875,0.125],[1.0,0.0],[0.714286,0.285714],[1.0,0.0],[0.969298,0.030702],[1.0,0.0],[0.461538,0.538462],[0.0,1.0],[1.0,0.0]]},{"feature":[6,3,12,7,5,-2,-2,8,11,-2,-2,-2,9,-2,-2,11,-2,1,-2,11,-2,-2,6,9,13,11,-2,-2,-2,3,-2,-2,-2],"threshold":[-111.5868,30.232117,179.622269,142.622765,-175.135742,-2.0,-2.0,-96.071594,162.25428,-2.0,-2.0,-2.0,99.618134,-2.0,-2.0,154.372337,-2.0,-162.835304,-2.0,171.750839,-2.0,-2.0,179.60141,167.631523,-173.81617,165.550941,-2.0,-2.0,-2.0,26.911062,-2.0,-2.0,-2.0],"children_left":[1,2,3,4,5,-1,-1,8,9,-1,-1,-1,13,-1,-1,16,-1,18,-1,20,-1,-1,23,24,25,26,-1,-1,-1,30,-1,-1,-1],"children_right":[22,15,12,7,6,-1,-1,11,10,-1,-1,-1,14,-1,-1,17,-1,19,-1,21,-1,-1,32,29,28,27,-1,-1,-1,31,-1,-1,-1],"value":[[0.458225,0.541775],[0.184,0.816],[0.757895,0.242105],[0.839506,0.160494],[0.931034,0.068966],[0.6,0.4],[1.0,0.0],[0.608696,0.391304],[0.181818,0.818182],[0.0,1.0],[0.333333,0.666667],[1.0,0.0],[0.285714,0.714286],[0.6,0.4],[0.111111,0.888889],[0.049383,0.950617],[1.0,0.0],[0.020356,0.979644],[1.0,0.0],[0.005168,0.994832],[0.0,1.0],[0.333333,0.666667],[0.973684,0.026316],[0.984496,0.015504],[0.995951,0.004049],[0.970588,0.029412],[0.833333,0.166667],[1.0,0.0],[1.0,0.0],[0.727273,0.272727],[1.0,0.0],[0.4,0.6],[0.625,0.375]]},{"feature":[7,6,0,-2,9,-2,9,-2,-2,13,-2,7,10,-2,8,-2,-2,4,-2,-2,2,0,-2,1,-2,3,-2,11,6,-2,-2,-2,-2],"threshold":[121.231728,-178.341675,-177.325279,-2.0,52.715331,-2.0,104.922276,-2.0,-2.0,177.402725,-2.0,-178.126244,-178.7827,-2.0,143.615303,-2.0,-2.0,170.900925,-2.0,-2.0,-14.923029,16.923764,-2.0,-160.447067,-2.0,22.053207,-2.0,171.806816,-121.85046,-2.0,-2.0,-2.0,-2.0],"children_left":[1,2,3,-1,5,-1,7,-1,-1,10,-1,12,13,-1,15,-1,-1,18,-1,-1,21,22,-1,24,-1,26,-1,28,29,-1,-1,-1,-1],"children_right":[20,9,4,-1,6,-1,8,-1,-1,11,-1,17,14,-1,16,-1,-1,19,-1,-1,32,23,-1,25,-1,27,-1,31,30,-1,-1,-1,-1],"value":[[0.493473,0.506527],[0.906355,0.093645],[0.5,0.5],[0.0,1.0],[0.72,0.28],[1.0,0.0],[0.5625,0.4375],[0.25,0.75],[0.666667,0.333333],[0.961977,0.038023],[1.0,0.0],[0.861111,0.138889],[0.915254,0.084746],[0.571429,0.428571],[0.961538,0.038462],[1.0,0.0],[0.714286,0.285714],[0.615385,0.384615],[1.0,0.0],[0.375,0.625],[0.229122,0.770878],[0.081633,0.918367],[1.0,0.0],[0.037433,0.962567],[1.0,0.0],[0.016393,0.983607],[0.6,0.4],[0.00831,0.99169],[0.002817,0.997183],[0.0,1.0],[0.166667,0.833333],[0.333333,0.666667],[1.0,0.0]]},{"feature":[5,0,4,3,-2,-2,-2,0,5,-2,13,-2,-2,8,-2,9,-2,1,-2,-2,-2],"threshold":[-123.414276,18.817687,179.303284,7.909523,-2.0,-2.0,-2.0,136.924278,-170.091843,-2.0,-126.719379,-2.0,-2.0,-87.06897,-2.0,-142.604866,-2.0,-153.887169,-2.0,-2.0,-2.0],"children_left":[1,2,3,4,-1,-1,-1,8,9,-1,11,-1,-1,14,-1,16,-1,18,-1,-1,-1],"children_right":[20,7,6,5,-1,-1,-1,13,10,-1,12,-1,-1,15,-1,17,-1,19,-1,-1,-1],"value":[[0.460836,0.539164],[0.294017,0.705983],[0.954887,0.045113],[0.992,0.008],[0.8,0.2],[1.0,0.0],[0.375,0.625],[0.099558,0.900442],[0.012755,0.987245],[0.5,0.5],[0.005181,0.994819],[0.0,1.0],[0.4,0.6],[0.666667,0.333333],[0.0625,0.9375],[0.886364,0.113636],[0.571429,0.428571],[0.945946,0.054054],[1.0,0.0],[0.8,0.2],[1.0,0.0]]},{"feature":[12,9,12,-2,0,-2,13,9,-2,-2,-2,-2,11,-2,12,1,-2,-2,2,10,11,-2,-2,2,-2,9,-2,-2,-2],"threshold":[111.5868,173.69252,-179.590477,-2.0,-178.721741,-2.0,-173.81617,-151.886711,-2.0,-2.0,-2.0,-2.0,123.126583,-2.0,177.097443,57.600686,-2.0,-2.0,-10.715977,-172.864647,176.8461,-2.0,-2.0,-114.437397,-2.0,107.340496,-2.0,-2.0,-2.0],"children_left":[1,2,3,-1,5,-1,7,8,-1,-1,-1,-1,13,-1,15,16,-1,-1,19,20,21,-1,-1,24,-1,26,-1,-1,-1],"children_right":[12,11,4,-1,6,-1,10,9,-1,-1,-1,-1,14,-1,18,17,-1,-1,28,23,22,-1,-1,25,-1,27,-1,-1,-1],"value":[[0.469974,0.530026],[0.976744,0.023256],[0.984064,0.015936],[0.666667,0.333333],[0.991837,0.008163],[0.888889,0.111111],[0.995763,0.004237],[0.972222,0.027778],[0.75,0.25],[1.0,0.0],[1.0,0.0],[0.714286,0.285714],[0.212598,0.787402],[1.0,0.0],[0.118943,0.881057],[0.020942,0.979058],[0.0,1.0],[1.0,0.0],[0.638889,0.361111],[0.754098,0.245902],[0.969697,0.030303],[0.9,0.1],[1.0,0.0],[0.5,0.5],[1.0,0.0],[0.263158,0.736842],[0.444444,0.555556],[0.1,0.9],[0.0,1.0]]},{"feature":[1,6,13,7,5,-2,-2,-2,11,-2,-2,9,-2,13,-2,-2,13,7,-2,9,-2,0,-2,-2,4,-2,8,-2,-2],"threshold":[-31.565091,-92.205402,-50.784415,178.59758,-128.131184,-2.0,-2.0,-2.0,165.290451,-2.0,-2.0,102.215931,-2.0,177.210045,-2.0,-2.0,177.659164,156.21801,-2.0,101.552773,-2.0,22.809028,-2.0,-2.0,-71.192099,-2.0,-92.478191,-2.0,-2.0],"children_left":[1,2,3,4,5,-1,-1,-1,9,-1,-1,12,-1,14,-1,-1,17,18,-1,20,-1,22,-1,-1,25,-1,27,-1,-1],"children_right":[16,11,8,7,6,-1,-1,-1,10,-1,-1,13,-1,15,-1,-1,24,19,-1,21,-1,23,-1,-1,26,-1,28,-1,-1],"value":[[0.464752,0.535248],[0.26257,0.73743],[0.078014,0.921986],[0.025126,0.974874],[0.005236,0.994764],[0.0,1.0],[0.333333,0.666667],[0.5,0.5],[0.92,0.08],[1.0,0.0],[0.777778,0.222222],[0.947368,0.052632],[1.0,0.0],[0.76,0.24],[1.0,0.0],[0.25,0.75],[0.938865,0.061135],[0.984043,0.015957],[1.0,0.0],[0.951613,0.048387],[1.0,0.0],[0.842105,0.157895],[1.0,0.0],[0.5,0.5],[0.731707,0.268293],[0.125,0.875],[0.878788,0.121212],[1.0,0.0],[0.428571,0.571429]]},{"feature":[12,6,-2,-2,4,12,-2,-2,4,1,13,11,-2,-2,-2,-2,4,10,-2,-2,8,-2,-2],"threshold":[117.124958,179.647041,-2.0,-2.0,110.28912,179.298134,-2.0,-2.0,170.363602,63.697313,-29.858856,171.745865,-2.0,-2.0,-2.0,-2.0,177.605278,-174.092857,-2.0,-2.0,-87.396004,-2.0,-2.0],"children_left":[1,2,-1,-1,5,6,-1,-1,9,10,11,12,-1,-1,-1,-1,17,18,-1,-1,21,-1,-1],"children_right":[4,3,-1,-1,8,7,-1,-1,16,15,14,13,-1,-1,-1,-1,20,19,-1,-1,22,-1,-1],"value":[[0.505222,0.494778],[0.99278,0.00722],[1.0,0.0],[0.5,0.5],[0.229039,0.770961],[0.867647,0.132353],[1.0,0.0],[0.0,1.0],[0.125891,0.874109],[0.04,0.96],[0.013699,0.986301],[0.002793,0.997207],[0.0,1.0],[0.125,0.875],[0.571429,0.428571],[1.0,0.0],[0.826087,0.173913],[0.941176,0.058824],[1.0,0.0],[0.6,0.4],[0.5,0.5],[0.0,1.0],[1.0,0.0]]},{"feature":[10,12,10,-2,8,-2,-2,1,13,4,-2,-2,-2,7,-2,0,-2,-2,13,-2,8,-2,-2],"threshold":[-155.303238,99.649876,-179.358231,-2.0,-126.138248,-2.0,-2.0,-30.0991,5.142628,168.957298,-2.0,-2.0,-2.0,-177.630882,-2.0,13.533169,-2.0,-2.0,177.658188,-2.0,-87.756672,-2.0,-2.0],"children_left":[1,2,3,-1,5,-1,-1,8,9,10,-1,-1,-1,14,-1,16,-1,-1,19,-1,21,-1,-1],"children_right":[18,7,4,-1,6,-1,-1,13,12,11,-1,-1,-1,15,-1,17,-1,-1,20,-1,22,-1,-1],"value":[[0.490862,0.509138],[0.290807,0.709193],[0.964912,0.035088],[0.666667,0.333333],[0.981481,0.018519],[0.666667,0.333333],[1.0,0.0],[0.107399,0.892601],[0.021108,0.978892],[0.002703,0.997297],[0.0,1.0],[0.2,0.8],[0.777778,0.222222],[0.925,0.075],[0.5,0.5],[0.972222,0.027778],[1.0,0.0],[0.75,0.25],[0.948498,0.051502],[1.0,0.0],[0.25,0.75],[0.0,1.0],[0.8,0.2]]},{"feature":[0,10,10,-2,-2,-2,0,13,13,7,-2,-2,-2,7,-2,-2,6,-2,0,13,-2,11,-2,-2,-2],"threshold":[18.214139,179.024429,-178.961411,-2.0,-2.0,-2.0,132.571045,3.8354,-177.417091,178.302917,-2.0,-2.0,-2.0,-177.286537,-2.0,-2.0,-179.188019,-2.0,155.473999,-148.903328,-2.0,61.360937,-2.0,-2.0,-2.0],"children_left":[1,2,3,-1,-1,-1,7,8,9,10,-1,-1,-1,14,-1,-1,17,-1,19,20,-1,22,-1,-1,-1],"children_right":[6,5,4,-1,-1,-1,16,13,12,11,-1,-1,-1,15,-1,-1,18,-1,24,21,-1,23,-1,-1,-1],"value":[[0.515666,0.484334],[0.9625,0.0375],[0.995633,0.004367],[0.916667,0.083333],[1.0,0.0],[0.272727,0.727273],[0.311787,0.688213],[0.035813,0.964187],[0.005747,0.994253],[0.166667,0.833333],[0.4,0.6],[0.0,1.0],[0.0,1.0],[0.733333,0.266667],[0.2,0.8],[1.0,0.0],[0.92638,0.07362],[0.25,0.75],[0.96129,0.03871],[0.823529,0.176471],[0.166667,0.833333],[0.964286,0.035714],[1.0,0.0],[0.857143,0.142857],[1.0,0.0]]},{"feature":[10,0,4,-2,-2,2,4,-2,9,-2,-2,6,12,-2,-2,-2,10,-2,12,-2,-2],"threshold":[-154.695793,18.817687,179.355949,-2.0,-2.0,-122.869747,163.052612,-2.0,-139.209412,-2.0,-2.0,175.785599,178.211899,-2.0,-2.0,-2.0,179.193077,-2.0,2.812889,-2.0,-2.0],"children_left":[1,2,3,-1,-1,6,7,-1,9,-1,-1,12,13,-1,-1,-1,17,-1,19,-1,-1],"children_right":[16,5,4,-1,-1,11,8,-1,10,-1,-1,15,14,-1,-1,-1,18,-1,20,-1,-1],"value":[[0.509138,0.490862],[0.299228,0.700772],[0.984252,0.015748],[1.0,0.0],[0.6,0.4],[0.076726,0.923274],[0.896552,0.103448],[0.5,0.5],[0.96,0.04],[0.8,0.2],[1.0,0.0],[0.01105,0.98895],[0.002801,0.997199],[0.0,1.0],[0.25,0.75],[0.6,0.4],[0.947581,0.052419],[1.0,0.0],[0.380952,0.619048],[1.0,0.0],[0.0,1.0]]},{"feature":[6,11,-2,11,1,7,-2,-2,-2,4,-2,0,-2,-2,8,-2,4,-2,-2],"threshold":[-117.124958,154.489098,-2.0,171.881714,76.599276,-8.450546,-2.0,-2.0,-2.0,-175.312225,-2.0,-174.765244,-2.0,-2.0,-171.337479,-2.0,179.758728,-2.0,-2.0],"children_left":[1,2,-1,4,5,6,-1,-1,-1,10,-1,12,-1,-1,15,-1,17,-1,-1],"children_right":[14,3,-1,9,8,7,-1,-1,-1,11,-1,13,-1,-1,16,-1,18,-1,-1],"value":[[0.488251,0.511749],[0.224449,0.775551],[1.0,0.0],[0.095794,0.904206],[0.028721,0.971279],[0.013263,0.986737],[0.714286,0.285714],[0.0,1.0],[1.0,0.0],[0.666667,0.333333],[0.0,1.0],[0.909091,0.090909],[0.4,0.6],[1.0,0.0],[0.981273,0.018727],[0.4,0.6],[0.992366,0.007634],[1.0,0.0],[0.6,0.4]]},{"feature":[12,10,7,-2,-2,8,-2,-2,7,10,7,5,-2,-2,-2,-2,1,13,-2,0,-2,2,-2,4,-2,-2,4,-2,-2],"threshold":[103.05658,-177.793396,-179.216255,-2.0,-2.0,-172.92807,-2.0,-2.0,120.90913,178.152016,-177.952477,-176.433647,-2.0,-2.0,-2.0,-2.0,-20.410116,-178.616142,-2.0,23.971601,-2.0,-45.586143,-2.0,129.579613,-2.0,-2.0,176.537949,-2.0,-2.0],"children_left":[1,2,3,-1,-1,6,-1,-1,9,10,11,12,-1,-1,-1,-1,17,18,-1,20,-1,22,-1,24,-1,-1,27,-1,-1],"children_right":[8,5,4,-1,-1,7,-1,-1,16,15,14,13,-1,-1,-1,-1,26,19,-1,21,-1,23,-1,25,-1,-1,28,-1,-1],"value":[[0.454308,0.545692],[0.951613,0.048387],[0.647059,0.352941],[0.333333,0.666667],[0.818182,0.181818],[0.974026,0.025974],[0.142857,0.857143],[1.0,0.0],[0.216216,0.783784],[0.821053,0.178947],[0.939759,0.060241],[0.705882,0.294118],[1.0,0.0],[0.5,0.5],[1.0,0.0],[0.0,1.0],[0.080378,0.919622],[0.02267,0.97733],[0.666667,0.333333],[0.007732,0.992268],[0.25,0.75],[0.005208,0.994792],[0.0,1.0],[0.024096,0.975904],[0.4,0.6],[0.0,1.0],[0.961538,0.038462],[1.0,0.0],[0.8,0.2]]},{"feature":[7,10,9,11,10,-2,-2,0,-2,-2,-2,-2,0,-2,10,6,-2,11,-2,-2,-2],"threshold":[120.90913,178.152016,167.631523,176.659004,-177.705704,-2.0,-2.0,-177.263161,-2.0,-2.0,-2.0,-2.0,19.25771,-2.0,-128.723591,-178.540726,-2.0,171.763916,-2.0,-2.0,-2.0],"children_left":[1,2,3,4,5,-1,-1,8,-1,-1,-1,-1,13,-1,15,16,-1,18,-1,-1,-1],"children_right":[12,11,10,7,6,-1,-1,9,-1,-1,-1,-1,14,-1,20,17,-1,19,-1,-1,-1],"value":[[0.498695,0.501305],[0.927835,0.072165],[0.967626,0.032374],[0.981413,0.018587],[0.995726,0.004274],[0.833333,0.166667],[1.0,0.0],[0.885714,0.114286],[0.666667,0.333333],[1.0,0.0],[0.555556,0.444444],[0.076923,0.923077],[0.235789,0.764211],[1.0,0.0],[0.099256,0.900744],[0.032,0.968],[1.0,0.0],[0.010899,0.989101],[0.0,1.0],[0.5,0.5],[1.0,0.0]]},{"feature":[1,6,12,11,-2,-2,2,1,-2,-2,-2,8,-2,-2,5,3,12,-2,-2,4,-2,-2,-2],"threshold":[-21.648143,-102.743473,177.653595,154.372337,-2.0,-2.0,-36.91713,-164.242027,-2.0,-2.0,-2.0,-158.360733,-2.0,-2.0,-176.122459,9.673276,179.408188,-2.0,-2.0,177.517868,-2.0,-2.0,-2.0],"children_left":[1,2,3,4,-1,-1,7,8,-1,-1,-1,12,-1,-1,15,16,17,-1,-1,20,-1,-1,-1],"children_right":[14,11,6,5,-1,-1,10,9,-1,-1,-1,13,-1,-1,22,19,18,-1,-1,21,-1,-1,-1],"value":[[0.498695,0.501305],[0.297348,0.702652],[0.06801,0.93199],[0.031662,0.968338],[1.0,0.0],[0.0,1.0],[0.833333,0.166667],[0.928571,0.071429],[1.0,0.0],[0.75,0.25],[0.5,0.5],[0.992366,0.007634],[0.857143,0.142857],[1.0,0.0],[0.945378,0.054622],[0.711111,0.288889],[0.3125,0.6875],[0.714286,0.285714],[0.0,1.0],[0.931034,0.068966],[1.0,0.0],[0.6,0.4],[1.0,0.0]]},{"feature":[13,2,11,6,1,-2,-2,-2,-2,4,-2,-2,8,10,4,13,-2,2,12,-2,-2,-2,-2,-2,-2],"threshold":[-121.054565,-14.514623,172.089622,25.047737,-28.160907,-2.0,-2.0,-2.0,-2.0,176.421059,-2.0,-2.0,-87.183582,178.340714,179.169846,177.585777,-2.0,-21.417612,-173.784927,-2.0,-2.0,-2.0,-2.0,-2.0,-2.0],"children_left":[1,2,3,4,5,-1,-1,-1,-1,10,-1,-1,13,14,15,16,-1,18,19,-1,-1,-1,-1,-1,-1],"children_right":[12,9,8,7,6,-1,-1,-1,-1,11,-1,-1,24,23,22,17,-1,21,20,-1,-1,-1,-1,-1,-1],"value":[[0.479112,0.520888],[0.219207,0.780793],[0.090244,0.909756],[0.053299,0.946701],[0.007979,0.992021],[0.0,1.0],[0.5,0.5],[1.0,0.0],[1.0,0.0],[0.985507,0.014493],[1.0,0.0],[0.857143,0.142857],[0.912892,0.087108],[0.848485,0.151515],[0.909091,0.090909],[0.952381,0.047619],[1.0,0.0],[0.815789,0.184211],[0.533333,0.466667],[0.142857,0.857143],[0.875,0.125],[1.0,0.0],[0.0,1.0],[0.0,1.0],[1.0,0.0]]},{"feature":[5,2,5,-2,1,1,-2,9,1,-2,-2,-2,-2,4,-2,7,-2,6,6,-2,-2,-2,-2],"threshold":[-123.628212,-18.962338,-174.065979,-2.0,-14.369707,-162.008591,-2.0,-147.621452,-137.520462,-2.0,-2.0,-2.0,-2.0,-178.843315,-2.0,-178.980881,-2.0,-178.198242,-178.843147,-2.0,-2.0,-2.0,-2.0],"children_left":[1,2,3,-1,5,6,-1,8,9,-1,-1,-1,-1,14,-1,16,-1,18,19,-1,-1,-1,-1],"children_right":[22,13,4,-1,12,7,-1,11,10,-1,-1,-1,-1,15,-1,17,-1,21,20,-1,-1,-1,-1],"value":[[0.498695,0.501305],[0.316726,0.683274],[0.166292,0.833708],[1.0,0.0],[0.067839,0.932161],[0.031332,0.968668],[0.888889,0.111111],[0.010695,0.989305],[0.052632,0.947368],[1.0,0.0],[0.0,1.0],[0.0,1.0],[1.0,0.0],[0.888889,0.111111],[0.0,1.0],[0.971963,0.028037],[0.777778,0.222222],[0.989796,0.010204],[0.933333,0.066667],[1.0,0.0],[0.833333,0.166667],[1.0,0.0],[1.0,0.0]]},{"feature":[7,4,-2,6,0,-2,9,6,-2,-2,2,-2,-2,-2,6,5,-2,13,-2,3,4,-2,-2,4,-2,-2,-2],"threshold":[121.301361,-178.594711,-2.0,179.600639,-178.866333,-2.0,167.664322,-179.669823,-2.0,-2.0,-118.057632,-2.0,-2.0,-2.0,-14.82391,-172.200951,-2.0,-179.077553,-2.0,30.232117,166.224518,-2.0,-2.0,124.073132,-2.0,-2.0,-2.0],"children_left":[1,2,-1,4,5,-1,7,8,-1,-1,11,-1,-1,-1,15,16,-1,18,-1,20,21,-1,-1,24,-1,-1,-1],"children_right":[14,3,-1,13,6,-1,10,9,-1,-1,12,-1,-1,-1,26,17,-1,19,-1,23,22,-1,-1,25,-1,-1,-1],"value":[[0.480418,0.519582],[0.926829,0.073171],[0.166667,0.833333],[0.96,0.04],[0.97037,0.02963],[0.727273,0.272727],[0.980695,0.019305],[0.995918,0.004082],[0.75,0.25],[1.0,0.0],[0.714286,0.285714],[1.0,0.0],[0.2,0.8],[0.4,0.6],[0.212944,0.787056],[0.064516,0.935484],[1.0,0.0],[0.015666,0.984334],[0.6,0.4],[0.007937,0.992063],[0.181818,0.818182],[0.0,1.0],[0.5,0.5],[0.002725,0.997275],[0.166667,0.833333],[0.0,1.0],[1.0,0.0]]},{"feature":[7,1,10,2,9,-2,-2,-2,-2,5,-2,-2,2,2,6,13,-2,-2,-2,10,-2,3,-2,10,-2,-2,-2],"threshold":[124.254856,176.523323,177.568573,-78.75543,167.031372,-2.0,-2.0,-2.0,-2.0,-174.008812,-2.0,-2.0,-14.923029,-117.168346,9.686142,-176.041855,-2.0,-2.0,-2.0,-175.938408,-2.0,22.053207,-2.0,-155.807869,-2.0,-2.0,-2.0],"children_left":[1,2,3,4,5,-1,-1,-1,-1,10,-1,-1,13,14,15,16,-1,-1,-1,20,-1,22,-1,24,-1,-1,-1],"children_right":[12,9,8,7,6,-1,-1,-1,-1,11,-1,-1,26,19,18,17,-1,-1,-1,21,-1,23,-1,25,-1,-1,-1],"value":[[0.503916,0.496084],[0.925424,0.074576],[0.988142,0.011858],[0.991837,0.008163],[0.967213,0.032787],[1.0,0.0],[0.75,0.25],[1.0,0.0],[0.875,0.125],[0.547619,0.452381],[0.0,1.0],[1.0,0.0],[0.239915,0.760085],[0.07732,0.92268],[0.766667,0.233333],[0.3,0.7],[0.75,0.25],[0.0,1.0],[1.0,0.0],[0.019553,0.980447],[1.0,0.0],[0.008475,0.991525],[0.285714,0.714286],[0.002882,0.997118],[0.0,1.0],[0.2,0.8],[1.0,0.0]]},{"feature":[2,7,9,9,-2,2,-2,-2,-2,1,0,4,6,11,-2,-2,-2,-2,-2,-2,12,-2,10,12,-2,7,-2,1,-2,-2,-2],"threshold":[-22.72165,87.751236,170.137733,117.435295,-2.0,-50.538498,-2.0,-2.0,-2.0,-30.0991,166.927162,170.492813,-122.258171,155.464195,-2.0,-2.0,-2.0,-2.0,-2.0,-2.0,149.717079,-2.0,179.114937,159.121094,-2.0,-178.081848,-2.0,-20.352986,-2.0,-2.0,-2.0],"children_left":[1,2,3,4,-1,6,-1,-1,-1,10,11,12,13,14,-1,-1,-1,-1,-1,-1,21,-1,23,24,-1,26,-1,28,-1,-1,-1],"children_right":[20,9,8,5,-1,7,-1,-1,-1,19,18,17,16,15,-1,-1,-1,-1,-1,-1,22,-1,30,25,-1,27,-1,29,-1,-1,-1],"value":[[0.484334,0.515666],[0.282243,0.717757],[0.964912,0.035088],[0.990826,0.009174],[1.0,0.0],[0.956522,0.043478],[1.0,0.0],[0.75,0.25],[0.4,0.6],[0.097387,0.902613],[0.052369,0.947631],[0.023136,0.976864],[0.010444,0.989556],[0.005305,0.994695],[0.285714,0.714286],[0.0,1.0],[0.333333,0.666667],[0.833333,0.166667],[1.0,0.0],[1.0,0.0],[0.952381,0.047619],[1.0,0.0],[0.803571,0.196429],[0.846154,0.153846],[0.25,0.75],[0.895833,0.104167],[0.625,0.375],[0.95,0.05],[0.6,0.4],[1.0,0.0],[0.25,0.75]]},{"feature":[7,7,4,1,11,5,-2,-2,-2,9,-2,-2,-2,-2,12,7,13,-2,-2,-2,0,-2,6,-2,12,-2,4,-2,-2],"threshold":[124.254856,-177.875824,179.53447,176.21685,171.161629,-161.752861,-2.0,-2.0,-2.0,95.748714,-2.0,-2.0,-2.0,-2.0,14.177795,174.190147,-166.871643,-2.0,-2.0,-2.0,18.817687,-2.0,-178.540726,-2.0,172.004486,-2.0,165.149948,-2.0,-2.0],"children_left":[1,2,3,4,5,6,-1,-1,-1,10,-1,-1,-1,-1,15,16,17,-1,-1,-1,21,-1,23,-1,25,-1,27,-1,-1],"children_right":[14,13,12,9,8,7,-1,-1,-1,11,-1,-1,-1,-1,20,19,18,-1,-1,-1,22,-1,24,-1,26,-1,28,-1,-1],"value":[[0.493473,0.506527],[0.934483,0.065517],[0.712121,0.287879],[0.810345,0.189655],[0.916667,0.083333],[0.777778,0.222222],[0.636364,0.363636],[1.0,0.0],[1.0,0.0],[0.3,0.7],[0.75,0.25],[0.0,1.0],[0.0,1.0],[1.0,0.0],[0.22479,0.77521],[0.988095,0.011905],[0.971429,0.028571],[0.833333,0.166667],[1.0,0.0],[1.0,0.0],[0.061224,0.938776],[1.0,0.0],[0.016043,0.983957],[0.714286,0.285714],[0.002725,0.997275],[0.0,1.0],[0.022727,0.977273],[0.2,0.8],[0.0,1.0]]},{"feature":[5,6,11,7,4,-2,-2,2,-2,-2,10,-2,-2,1,8,-2,-2,-2,-2],"threshold":[-123.628212,-27.748993,172.044342,121.054565,168.889114,-2.0,-2.0,-19.533118,-2.0,-2.0,174.966591,-2.0,-2.0,178.469948,-128.225502,-2.0,-2.0,-2.0,-2.0],"children_left":[1,2,3,4,5,-1,-1,8,-1,-1,11,-1,-1,14,15,-1,-1,-1,-1],"children_right":[18,13,10,7,6,-1,-1,9,-1,-1,12,-1,-1,17,16,-1,-1,-1,-1],"value":[[0.466057,0.533943],[0.297251,0.702749],[0.113537,0.886463],[0.036765,0.963235],[0.866667,0.133333],[0.833333,0.166667],[0.888889,0.111111],[0.005089,0.994911],[0.0,1.0],[0.2,0.8],[0.74,0.26],[1.0,0.0],[0.071429,0.928571],[0.975806,0.024194],[0.991379,0.008621],[0.8,0.2],[1.0,0.0],[0.75,0.25],[1.0,0.0]]},{"feature":[7,4,4,-2,11,-2,6,3,9,-2,-2,-2,11,2,-2,-2,-2,-2,4,-2,11,12,-2,1,-2,-2,0,-2,-2],"threshold":[124.254856,179.801994,-178.594711,-2.0,165.250847,-2.0,-130.450058,51.984878,104.315495,-2.0,-2.0,-2.0,171.166214,-12.572754,-2.0,-2.0,-2.0,-2.0,114.432667,-2.0,172.114143,-25.047737,-2.0,-27.341557,-2.0,-2.0,86.540181,-2.0,-2.0],"children_left":[1,2,3,-1,5,-1,7,8,9,-1,-1,-1,13,14,-1,-1,-1,-1,19,-1,21,22,-1,24,-1,-1,27,-1,-1],"children_right":[18,17,4,-1,6,-1,12,11,10,-1,-1,-1,16,15,-1,-1,-1,-1,20,-1,26,23,-1,25,-1,-1,28,-1,-1],"value":[[0.497389,0.502611],[0.927336,0.072664],[0.946809,0.053191],[0.0,1.0],[0.963899,0.036101],[1.0,0.0],[0.89011,0.10989],[0.681818,0.318182],[0.846154,0.153846],[0.5,0.5],[1.0,0.0],[0.444444,0.555556],[0.956522,0.043478],[0.85,0.15],[0.4,0.6],[1.0,0.0],[1.0,0.0],[0.142857,0.857143],[0.236897,0.763103],[1.0,0.0],[0.120773,0.879227],[0.049738,0.950262],[1.0,0.0],[0.01626,0.98374],[0.0,1.0],[0.666667,0.333333],[0.96875,0.03125],[1.0,0.0],[0.8,0.2]]},{"feature":[6,3,10,3,4,-2,-2,11,-2,6,-2,-2,-2,13,4,1,-2,-2,9,-2,-2,1,-2,13,-2,-2,12,-2,10,-2,9,8,-2,-2,10,-2,-2],"threshold":[-117.124958,30.232117,174.153778,14.758931,177.160408,-2.0,-2.0,157.505745,-2.0,-174.019836,-2.0,-2.0,-2.0,-119.687714,168.063507,-33.056509,-2.0,-2.0,2.417957,-2.0,-2.0,-126.521187,-2.0,177.084373,-2.0,-2.0,-179.647041,-2.0,-178.961411,-2.0,167.631523,-151.221313,-2.0,-2.0,-93.616581,-2.0,-2.0],"children_left":[1,2,3,4,5,-1,-1,8,-1,10,-1,-1,-1,14,15,16,-1,-1,19,-1,-1,22,-1,24,-1,-1,27,-1,29,-1,31,32,-1,-1,35,-1,-1],"children_right":[26,13,12,7,6,-1,-1,9,-1,11,-1,-1,-1,21,18,17,-1,-1,20,-1,-1,23,-1,25,-1,-1,28,-1,30,-1,34,33,-1,-1,36,-1,-1],"value":[[0.493473,0.506527],[0.221311,0.778689],[0.804348,0.195652],[0.880952,0.119048],[0.983333,0.016667],[1.0,0.0],[0.75,0.25],[0.625,0.375],[1.0,0.0],[0.4,0.6],[0.555556,0.444444],[0.166667,0.833333],[0.0,1.0],[0.085859,0.914141],[0.019126,0.980874],[0.002809,0.997191],[0.0,1.0],[0.25,0.75],[0.6,0.4],[0.8,0.2],[0.4,0.6],[0.9,0.1],[1.0,0.0],[0.8125,0.1875],[1.0,0.0],[0.4,0.6],[0.971223,0.028777],[0.333333,0.666667],[0.985294,0.014706],[0.833333,0.166667],[0.988722,0.011278],[0.996,0.004],[0.888889,0.111111],[1.0,0.0],[0.875,0.125],[0.666667,0.333333],[1.0,0.0]]},{"feature":[6,10,11,1,6,-2,-2,-2,3,-2,4,-2,-2,5,-2,-2,4,8,-2,-2,-2],"threshold":[-117.550739,-154.067345,172.086197,51.143336,-177.097443,-2.0,-2.0,-2.0,9.931991,-2.0,177.17025,-2.0,-2.0,-174.964897,-2.0,-2.0,179.758728,-170.255287,-2.0,-2.0,-2.0],"children_left":[1,2,3,4,5,-1,-1,-1,9,-1,11,-1,-1,14,-1,-1,17,18,-1,-1,-1],"children_right":[16,13,8,7,6,-1,-1,-1,10,-1,12,-1,-1,15,-1,-1,20,19,-1,-1,-1],"value":[[0.48564,0.51436],[0.211694,0.788306],[0.113164,0.886836],[0.05,0.95],[0.010417,0.989583],[0.5,0.5],[0.0,1.0],[1.0,0.0],[0.878788,0.121212],[0.4,0.6],[0.964286,0.035714],[1.0,0.0],[0.833333,0.166667],[0.888889,0.111111],[0.0,1.0],[1.0,0.0],[0.988889,0.011111],[0.996212,0.003788],[0.8,0.2],[1.0,0.0],[0.666667,0.333333]]},{"feature":[6,7,7,1,1,-2,-2,-2,-2,1,4,13,0,-2,-2,-2,7,-2,-2,4,-2,-2,8,-2,12,-2,-2],"threshold":[-117.124958,120.90913,-177.873611,176.380409,-95.331165,-2.0,-2.0,-2.0,-2.0,-20.410116,168.063507,-177.342087,77.601421,-2.0,-2.0,-2.0,177.739456,-2.0,-2.0,176.778198,-2.0,-2.0,-172.884338,-2.0,-179.634315,-2.0,-2.0],"children_left":[1,2,3,4,5,-1,-1,-1,-1,10,11,12,13,-1,-1,-1,17,-1,-1,20,-1,-1,23,-1,25,-1,-1],"children_right":[22,9,8,7,6,-1,-1,-1,-1,19,16,15,14,-1,-1,-1,18,-1,-1,21,-1,-1,24,-1,26,-1,-1],"value":[[0.498695,0.501305],[0.211297,0.788703],[0.87013,0.12987],[0.565217,0.434783],[0.764706,0.235294],[0.555556,0.444444],[1.0,0.0],[0.0,1.0],[1.0,0.0],[0.084788,0.915212],[0.01084,0.98916],[0.002786,0.997214],[0.090909,0.909091],[0.0,1.0],[0.2,0.8],[0.0,1.0],[0.3,0.7],[0.4,0.6],[0.2,0.8],[0.9375,0.0625],[1.0,0.0],[0.666667,0.333333],[0.975694,0.024306],[0.166667,0.833333],[0.992908,0.007092],[0.6,0.4],[1.0,0.0]]},{"feature":[7,13,-2,10,0,5,4,-2,-2,-2,2,-2,-2,-2,2,7,6,5,-2,10,6,-2,-2,-2,10,-2,-2,6,10,-2,4,-2,-2,-2,12,-2,7,-2,-2],"threshold":[124.254856,177.585777,-2.0,129.812946,59.102642,-176.379547,178.245079,-2.0,-2.0,-2.0,-96.341557,-2.0,-2.0,-2.0,-18.962338,177.717293,25.114059,-169.460678,-2.0,-170.608307,-150.351433,-2.0,-2.0,-2.0,-129.792271,-2.0,-2.0,5.639915,-176.330887,-2.0,168.086128,-2.0,-2.0,-2.0,16.376862,-2.0,178.072998,-2.0,-2.0],"children_left":[1,2,-1,4,5,6,7,-1,-1,-1,11,-1,-1,-1,15,16,17,18,-1,20,21,-1,-1,-1,25,-1,-1,28,29,-1,31,-1,-1,-1,35,-1,37,-1,-1],"children_right":[14,3,-1,13,10,9,8,-1,-1,-1,12,-1,-1,-1,34,27,24,19,-1,23,22,-1,-1,-1,26,-1,-1,33,30,-1,32,-1,-1,-1,36,-1,38,-1,-1],"value":[[0.466057,0.533943],[0.921933,0.078067],[1.0,0.0],[0.686567,0.313433],[0.807018,0.192982],[0.954545,0.045455],[0.904762,0.095238],[1.0,0.0],[0.6,0.4],[1.0,0.0],[0.307692,0.692308],[0.8,0.2],[0.0,1.0],[0.0,1.0],[0.219316,0.780684],[0.095794,0.904206],[0.035806,0.964194],[0.007937,0.992063],[0.285714,0.714286],[0.002695,0.997305],[0.066667,0.933333],[0.0,1.0],[0.25,0.75],[0.0,1.0],[0.846154,0.153846],[0.6,0.4],[1.0,0.0],[0.72973,0.27027],[0.5,0.5],[1.0,0.0],[0.090909,0.909091],[0.0,1.0],[0.2,0.8],[1.0,0.0],[0.985507,0.014493],[1.0,0.0],[0.944444,0.055556],[0.8,0.2],[1.0,0.0]]},{"feature":[12,4,4,-2,2,3,-2,-2,-2,8,-2,-2,0,0,-2,-2,7,6,13,-2,-2,0,-2,-2,10,-2,-2],"threshold":[117.33823,177.79879,164.046852,-2.0,-79.03285,135.339066,-2.0,-2.0,-2.0,-84.33173,-2.0,-2.0,22.3013,-177.190285,-2.0,-2.0,29.858856,-176.596016,177.868019,-2.0,-2.0,118.291164,-2.0,-2.0,-174.333778,-2.0,-2.0],"children_left":[1,2,3,-1,5,6,-1,-1,-1,10,-1,-1,13,14,-1,-1,17,18,19,-1,-1,22,-1,-1,25,-1,-1],"children_right":[12,9,4,-1,8,7,-1,-1,-1,11,-1,-1,16,15,-1,-1,24,21,20,-1,-1,23,-1,-1,26,-1,-1],"value":[[0.506527,0.493473],[0.98227,0.01773],[0.991903,0.008097],[1.0,0.0],[0.969697,0.030303],[0.818182,0.181818],[0.5,0.5],[1.0,0.0],[1.0,0.0],[0.914286,0.085714],[0.727273,0.272727],[1.0,0.0],[0.229339,0.770661],[0.922078,0.077922],[0.4,0.6],[1.0,0.0],[0.09828,0.90172],[0.8125,0.1875],[0.428571,0.571429],[0.714286,0.285714],[0.142857,0.857143],[0.970588,0.029412],[0.8,0.2],[1.0,0.0],[0.002786,0.997214],[0.2,0.8],[0.0,1.0]]},{"feature":[12,6,4,-2,3,-2,8,-2,-2,-2,5,4,7,5,-2,-2,0,-2,12,-2,-2,4,11,-2,4,-2,-2,-2,-2],"threshold":[117.33823,179.597275,164.046852,-2.0,59.566181,-2.0,-132.23106,-2.0,-2.0,-2.0,-109.50243,169.298203,-25.023579,-175.056061,-2.0,-2.0,23.981162,-2.0,177.975494,-2.0,-2.0,178.077049,170.590912,-2.0,177.605278,-2.0,-2.0,-2.0,-2.0],"children_left":[1,2,3,-1,5,-1,7,-1,-1,-1,11,12,13,14,-1,-1,17,-1,19,-1,-1,22,23,-1,25,-1,-1,-1,-1],"children_right":[10,9,4,-1,6,-1,8,-1,-1,-1,28,21,16,15,-1,-1,18,-1,20,-1,-1,27,24,-1,26,-1,-1,-1,-1],"value":[[0.506527,0.493473],[0.981132,0.018868],[0.988372,0.011628],[1.0,0.0],[0.969697,0.030303],[1.0,0.0],[0.921053,0.078947],[0.25,0.75],[1.0,0.0],[0.714286,0.285714],[0.255489,0.744511],[0.136574,0.863426],[0.026954,0.973046],[0.263158,0.736842],[0.0,1.0],[0.714286,0.285714],[0.014205,0.985795],[0.8,0.2],[0.002882,0.997118],[0.0,1.0],[0.2,0.8],[0.803279,0.196721],[0.867925,0.132075],[0.615385,0.384615],[0.95,0.05],[1.0,0.0],[0.666667,0.333333],[0.375,0.625],[1.0,0.0]]},{"feature":[7,13,-2,3,4,-2,2,9,-2,-2,10,-2,-2,-2,5,-2,11,-2,12,11,-2,-2,8,-2,1,-2,-2],"threshold":[124.400291,177.585777,-2.0,90.023846,-130.137997,-2.0,-56.116329,167.481873,-2.0,-2.0,-177.936859,-2.0,-2.0,-2.0,-170.673271,-2.0,153.389252,-2.0,-6.608986,167.589508,-2.0,-2.0,-105.219879,-2.0,54.231133,-2.0,-2.0],"children_left":[1,2,-1,4,5,-1,7,8,-1,-1,11,-1,-1,-1,15,-1,17,-1,19,20,-1,-1,23,-1,25,-1,-1],"children_right":[14,3,-1,13,6,-1,10,9,-1,-1,12,-1,-1,-1,16,-1,18,-1,22,21,-1,-1,24,-1,26,-1,-1],"value":[[0.515666,0.484334],[0.939103,0.060897],[1.0,0.0],[0.771084,0.228916],[0.634615,0.365385],[0.0,1.0],[0.733333,0.266667],[0.272727,0.727273],[0.6,0.4],[0.0,1.0],[0.882353,0.117647],[0.428571,0.571429],[1.0,0.0],[1.0,0.0],[0.22467,0.77533],[1.0,0.0],[0.137255,0.862745],[1.0,0.0],[0.068783,0.931217],[0.909091,0.090909],[0.666667,0.333333],[1.0,0.0],[0.016854,0.983146],[0.0,1.0],[0.084507,0.915493],[0.0,1.0],[1.0,0.0]]},{"feature":[7,4,-2,10,-2,9,10,-2,-2,-2,12,9,-2,-2,1,3,10,-2,-2,-2,4,11,-2,-2,-2],"threshold":[124.647087,-178.594711,-2.0,-179.140327,-2.0,172.625488,-177.793396,-2.0,-2.0,-2.0,14.177795,-149.054527,-2.0,-2.0,-28.173675,126.486546,-156.130096,-2.0,-2.0,-2.0,176.537949,170.47171,-2.0,-2.0,-2.0],"children_left":[1,2,-1,4,-1,6,7,-1,-1,-1,11,12,-1,-1,15,16,17,-1,-1,-1,21,22,-1,-1,-1],"children_right":[10,3,-1,5,-1,9,8,-1,-1,-1,14,13,-1,-1,20,19,18,-1,-1,-1,24,23,-1,-1,-1],"value":[[0.51436,0.48564],[0.963455,0.036545],[0.166667,0.833333],[0.979661,0.020339],[0.5,0.5],[0.989619,0.010381],[0.996454,0.003546],[0.9375,0.0625],[1.0,0.0],[0.714286,0.285714],[0.223656,0.776344],[0.986842,0.013158],[0.75,0.25],[1.0,0.0],[0.07455,0.92545],[0.00838,0.99162],[0.002833,0.997167],[0.0,1.0],[0.166667,0.833333],[0.4,0.6],[0.83871,0.16129],[0.916667,0.083333],[0.6,0.4],[1.0,0.0],[0.571429,0.428571]]},{"feature":[7,6,8,-2,1,-2,-2,9,12,-2,1,10,9,-2,-2,-2,-2,-2,0,-2,10,0,13,-2,-2,-2,-2],"threshold":[124.647087,-179.246101,-97.480103,-2.0,177.179161,-2.0,-2.0,169.510658,-179.259537,-2.0,178.558342,-171.227158,119.280247,-2.0,-2.0,-2.0,-2.0,-2.0,16.709792,-2.0,-128.723591,166.927162,-178.458534,-2.0,-2.0,-2.0,-2.0],"children_left":[1,2,3,-1,5,-1,-1,8,9,-1,11,12,13,-1,-1,-1,-1,-1,19,-1,21,22,23,-1,-1,-1,-1],"children_right":[18,7,4,-1,6,-1,-1,17,10,-1,16,15,14,-1,-1,-1,-1,-1,20,-1,26,25,24,-1,-1,-1,-1],"value":[[0.498695,0.501305],[0.932624,0.067376],[0.409091,0.590909],[1.0,0.0],[0.071429,0.928571],[0.166667,0.833333],[0.0,1.0],[0.976923,0.023077],[0.988189,0.011811],[0.75,0.25],[0.992,0.008],[0.995918,