[{"feature":[13,10,4,0,7,-2,-2,-2,-2,3,7,1,3,7,-2,-2,1,0,-2,-2,-2,6,-2,-2,-2,-2,-2],"threshold":[53.894077,-162.684364,117.329552,66.844265,107.064356,-2.0,-2.0,-2.0,-2.0,60.504475,76.441923,162.770454,-9.622905,40.733698,-2.0,-2.0,-171.397934,-177.48201,-2.0,-2.0,-2.0,59.094509,-2.0,-2.0,-2.0,-2.0,-2.0],"children_left":[1,2,3,4,5,-1,-1,-1,-1,10,11,12,13,14,-1,-1,17,18,-1,-1,-1,22,-1,-1,-1,-1,-1],"children_right":[26,9,8,7,6,-1,-1,-1,-1,25,24,21,16,15,-1,-1,20,19,-1,-1,-1,23,-1,-1,-1,-1,-1],"value":[[0.476389,0.523611],[0.336268,0.663732],[0.651316,0.348684],[0.231884,0.768116],[0.695652,0.304348],[0.0,1.0],[1.0,0.0],[0.0,1.0],[1.0,0.0],[0.221154,0.778846],[0.164948,0.835052],[0.1,0.9],[0.286957,0.713043],[0.045455,0.954545],[0.428571,0.571429],[0.0,1.0],[0.612245,0.387755],[0.095238,0.904762],[0.4,0.6],[0.0,1.0],[1.0,0.0],[0.012245,0.987755],[0.0,1.0],[0.5,0.5],[1.0,0.0],[1.0,0.0],[1.0,0.0]]},{"feature":[10,11,9,0,-2,-2,4,-2,5,-2,-2,4,2,-2,-2,11,4,-2,9,-2,2,-2,-2,-2,7,9,-2,8,-2,9,-2,-2,-2],"threshold":[122.473835,-116.701942,110.655548,-170.667778,-2.0,-2.0,52.77042,-2.0,84.59787,-2.0,-2.0,-75.826496,-30.27861,-2.0,-2.0,179.123131,-54.447016,-2.0,161.842651,-2.0,-51.592877,-2.0,-2.0,-2.0,76.050062,-30.587082,-2.0,-119.590435,-2.0,117.346798,-2.0,-2.0,-2.0],"children_left":[1,2,3,4,-1,-1,7,-1,9,-1,-1,12,13,-1,-1,16,17,-1,19,-1,21,-1,-1,-1,25,26,-1,28,-1,30,-1,-1,-1],"children_right":[24,11,6,5,-1,-1,8,-1,10,-1,-1,15,14,-1,-1,23,18,-1,20,-1,22,-1,-1,-1,32,27,-1,29,-1,31,-1,-1,-1],"value":[[0.5,0.5],[0.672489,0.327511],[0.220994,0.779006],[0.941176,0.058824],[1.0,0.0],[0.8,0.2],[0.054422,0.945578],[0.857143,0.142857],[0.014286,0.985714],[0.0,1.0],[0.4,0.6],[0.967509,0.032491],[0.791667,0.208333],[0.0,1.0],[1.0,0.0],[0.98419,0.01581],[0.991837,0.008163],[0.9,0.1],[0.995745,0.004255],[1.0,0.0],[0.952381,0.047619],[1.0,0.0],[0.8,0.2],[0.75,0.25],[0.198473,0.801527],[0.135802,0.864198],[1.0,0.0],[0.090909,0.909091],[0.0,1.0],[0.265823,0.734177],[1.0,0.0],[0.0,1.0],[1.0,0.0]]},{"feature":[5,-2,2,-2,12,12,-2,7,1,1,4,-2,13,-2,-2,-2,-2,-2,-2],"threshold":[-112.238739,-2.0,-51.593069,-2.0,59.319153,-67.303844,-2.0,52.328863,160.90461,-169.811501,-46.440521,-2.0,27.182307,-2.0,-2.0,-2.0,-2.0,-2.0,-2.0],"children_left":[1,-1,3,-1,5,6,-1,8,9,10,11,-1,13,-1,-1,-1,-1,-1,-1],"children_right":[2,-1,4,-1,18,7,-1,17,16,15,12,-1,14,-1,-1,-1,-1,-1,-1],"value":[[0.490278,0.509722],[1.0,0.0],[0.302281,0.697719],[1.0,0.0],[0.219149,0.780851],[0.138498,0.861502],[1.0,0.0],[0.044271,0.955729],[0.029333,0.970667],[0.102804,0.897196],[0.030612,0.969388],[0.0,1.0],[0.071429,0.928571],[0.5,0.5],[0.0,1.0],[0.888889,0.111111],[0.0,1.0],[0.666667,0.333333],[1.0,0.0]]},{"feature":[2,9,2,-2,13,10,-2,-2,-2,3,8,-2,2,-2,-2,8,-2,-2,2,4,-2,-2,-2],"threshold":[16.595212,59.612705,-48.46176,-2.0,-33.331745,111.028015,-2.0,-2.0,-2.0,43.919846,-89.854637,-2.0,7.88743,-2.0,-2.0,-100.921028,-2.0,-2.0,59.137691,48.591509,-2.0,-2.0,-2.0],"children_left":[1,2,3,-1,5,6,-1,-1,-1,10,11,-1,13,-1,-1,16,-1,-1,19,20,-1,-1,-1],"children_right":[18,9,4,-1,8,7,-1,-1,-1,15,12,-1,14,-1,-1,17,-1,-1,22,21,-1,-1,-1],"value":[[0.475,0.525],[0.656716,0.343284],[0.3875,0.6125],[1.0,0.0],[0.086957,0.913043],[0.02,0.98],[0.272727,0.727273],[0.0,1.0],[1.0,0.0],[0.938865,0.061135],[0.994872,0.005128],[1.0,0.0],[0.982759,0.017241],[1.0,0.0],[0.75,0.25],[0.617647,0.382353],[1.0,0.0],[0.0,1.0],[0.135458,0.864542],[0.0181,0.9819],[0.666667,0.333333],[0.0,1.0],[1.0,0.0]]},{"feature":[1,10,12,3,2,-2,-2,-2,6,-2,8,4,-2,-2,-2,3,-2,4,-2,-2,7,-2,13,-2,9,-2,7,-2,-2],"threshold":[165.634842,138.729759,-56.305029,0.522668,-112.039604,-2.0,-2.0,-2.0,-52.365669,-2.0,47.230965,6.049006,-2.0,-2.0,-2.0,-4.967444,-2.0,83.268005,-2.0,-2.0,-57.445883,-2.0,-60.494059,-2.0,35.719679,-2.0,-50.205544,-2.0,-2.0],"children_left":[1,2,3,4,5,-1,-1,-1,9,-1,11,12,-1,-1,-1,16,-1,18,-1,-1,21,-1,23,-1,25,-1,27,-1,-1],"children_right":[20,15,8,7,6,-1,-1,-1,10,-1,14,13,-1,-1,-1,17,-1,19,-1,-1,22,-1,24,-1,26,-1,28,-1,-1],"value":[[0.486111,0.513889],[0.706186,0.293814],[0.840678,0.159322],[0.992593,0.007407],[0.928571,0.071429],[1.0,0.0],[0.75,0.25],[1.0,0.0],[0.7125,0.2875],[1.0,0.0],[0.192982,0.807018],[0.061224,0.938776],[0.272727,0.727273],[0.0,1.0],[1.0,0.0],[0.27957,0.72043],[0.0,1.0],[0.8125,0.1875],[1.0,0.0],[0.142857,0.857143],[0.228916,0.771084],[1.0,0.0],[0.123288,0.876712],[1.0,0.0],[0.007752,0.992248],[0.25,0.75],[0.003937,0.996063],[0.25,0.75],[0.0,1.0]]},{"feature":[7,-2,7,13,3,4,-2,-2,1,-2,-2,5,-2,-2,-2],"threshold":[-57.320135,-2.0,53.790758,12.304606,-0.397797,-52.327059,-2.0,-2.0,-170.151909,-2.0,-2.0,53.568941,-2.0,-2.0,-2.0],"children_left":[1,-1,3,4,5,6,-1,-1,9,-1,-1,12,-1,-1,-1],"children_right":[2,-1,14,11,8,7,-1,-1,10,-1,-1,13,-1,-1,-1],"value":[[0.480556,0.519444],[1.0,0.0],[0.33452,0.66548],[0.103118,0.896882],[0.190955,0.809045],[0.02439,0.97561],[0.0,1.0],[0.571429,0.428571],[0.971429,0.028571],[0.75,0.25],[1.0,0.0],[0.022936,0.977064],[0.833333,0.166667],[0.0,1.0],[1.0,0.0]]},{"feature":[12,-2,12,9,-2,2,-2,4,3,12,-2,8,-2,-2,0,-2,-2,12,-2,-2,-2],"threshold":[-62.371397,-2.0,56.321375,-32.148115,-2.0,-46.221928,-2.0,50.94562,-0.397797,-57.316023,-2.0,-133.568214,-2.0,-2.0,-150.036484,-2.0,-2.0,24.561372,-2.0,-2.0,-2.0],"children_left":[1,-1,3,4,-1,6,-1,8,9,10,-1,12,-1,-1,15,-1,-1,18,-1,-1,-1],"children_right":[2,-1,20,5,-1,7,-1,17,14,11,-1,13,-1,-1,16,-1,-1,19,-1,-1,-1],"value":[[0.541667,0.458333],[1.0,0.0],[0.359223,0.640777],[0.083333,0.916667],[1.0,0.0],[0.057143,0.942857],[0.428571,0.571429],[0.049563,0.950437],[0.095238,0.904762],[0.019608,0.980392],[0.181818,0.818182],[0.007042,0.992958],[0.0,1.0],[0.25,0.75],[0.866667,0.133333],[1.0,0.0],[0.5,0.5],[0.005714,0.994286],[0.2,0.8],[0.0,1.0],[1.0,0.0]]},{"feature":[6,6,-2,7,8,4,4,13,-2,-2,-2,-2,-2,-2,-2],"threshold":[62.371397,-57.338438,-2.0,55.973221,51.037663,21.235146,-45.998577,-52.590132,-2.0,-2.0,-2.0,-2.0,-2.0,-2.0,-2.0],"children_left":[1,2,-1,4,5,6,7,8,-1,-1,-1,-1,-1,-1,-1],"children_right":[14,3,-1,13,12,11,10,9,-1,-1,-1,-1,-1,-1,-1],"value":[[0.4875,0.5125],[0.316667,0.683333],[1.0,0.0],[0.08209,0.91791],[0.072864,0.927136],[0.044041,0.955959],[0.097143,0.902857],[0.0125,0.9875],[0.2,0.8],[0.0,1.0],[1.0,0.0],[0.0,1.0],[1.0,0.0],[1.0,0.0],[1.0,0.0]]},{"feature":[4,8,12,7,1,9,-2,6,-2,3,5,-2,-2,-2,7,-2,-2,-2,-2,-2,-2],"threshold":[109.873363,-6.23735,56.321375,55.023527,163.109322,56.429865,-2.0,-26.185172,-2.0,1.909861,-31.325825,-2.0,-2.0,-2.0,-49.991167,-2.0,-2.0,-2.0,-2.0,-2.0,-2.0],"children_left":[1,2,3,4,5,6,-1,8,-1,10,11,-1,-1,-1,15,-1,-1,-1,-1,-1,-1],"children_right":[20,19,18,17,14,7,-1,9,-1,13,12,-1,-1,-1,16,-1,-1,-1,-1,-1,-1],"value":[[0.455556,0.544444],[0.289855,0.710145],[0.216,0.784],[0.119101,0.880899],[0.066667,0.933333],[0.164557,0.835443],[0.0,1.0],[0.371429,0.628571],[0.0,1.0],[0.896552,0.103448],[0.75,0.25],[0.4,0.6],[1.0,0.0],[1.0,0.0],[0.007634,0.992366],[0.333333,0.666667],[0.0,1.0],[1.0,0.0],[1.0,0.0],[1.0,0.0],[1.0,0.0]]},{"feature":[4,1,13,-2,11,1,10,-2,-2,0,-2,-2,12,-2,4,7,-2,-2,0,9,-2,-2,-2,13,7,7,-2,12,-2,-2,-2,6,-2,-2,-2],"threshold":[108.781158,166.065559,-53.583555,-2.0,108.739391,-175.147171,-14.692528,-2.0,-2.0,-177.293861,-2.0,-2.0,-72.612289,-2.0,-55.055458,40.110596,-2.0,-2.0,34.075096,76.048325,-2.0,-2.0,-2.0,54.945198,53.126757,-3.194304,-2.0,-39.230572,-2.0,-2.0,-2.0,-76.350491,-2.0,-2.0,-2.0],"children_left":[1,2,3,-1,5,6,7,-1,-1,10,-1,-1,13,-1,15,16,-1,-1,19,20,-1,-1,-1,24,25,26,-1,28,-1,-1,-1,32,-1,-1,-1],"children_right":[34,23,4,-1,12,9,8,-1,-1,11,-1,-1,14,-1,18,17,-1,-1,22,21,-1,-1,-1,31,30,27,-1,29,-1,-1,-1,33,-1,-1,-1],"value":[[0.497222,0.502778],[0.327138,0.672862],[0.565056,0.434944],[1.0,0.0],[0.423645,0.576355],[0.715789,0.284211],[0.166667,0.833333],[0.0,1.0],[0.625,0.375],[0.969231,0.030769],[0.6,0.4],[1.0,0.0],[0.166667,0.833333],[1.0,0.0],[0.1,0.9],[0.028986,0.971014],[0.5,0.5],[0.0,1.0],[0.258065,0.741935],[0.533333,0.466667],[0.125,0.875],[1.0,0.0],[0.0,1.0],[0.089219,0.910781],[0.024,0.976],[0.004115,0.995885],[0.0,1.0],[0.011765,0.988235],[0.0,1.0],[0.2,0.8],[0.714286,0.285714],[0.947368,0.052632],[1.0,0.0],[0.833333,0.166667],[1.0,0.0]]},{"feature":[10,11,9,1,-2,-2,7,-2,-2,4,8,3,-2,-2,-2,11,5,-2,13,-2,-2,-2,8,4,-2,2,-2,4,-2,-2,-2],"threshold":[138.884026,-116.948658,110.16394,166.566849,-2.0,-2.0,31.407968,-2.0,-2.0,-48.90687,-119.601486,-6.034385,-2.0,-2.0,-2.0,179.494408,67.091194,-2.0,76.004223,-2.0,-2.0,-2.0,-1.540698,-81.248016,-2.0,-19.36484,-2.0,34.289112,-2.0,-2.0,-2.0],"children_left":[1,2,3,4,-1,-1,7,-1,-1,10,11,12,-1,-1,-1,16,17,-1,19,-1,-1,-1,23,24,-1,26,-1,28,-1,-1,-1],"children_right":[22,9,6,5,-1,-1,8,-1,-1,15,14,13,-1,-1,-1,21,18,-1,20,-1,-1,-1,30,25,-1,27,-1,29,-1,-1,-1],"value":[[0.497222,0.502778],[0.650794,0.349206],[0.193182,0.806818],[0.965517,0.034483],[1.0,0.0],[0.857143,0.142857],[0.040816,0.959184],[0.0,1.0],[1.0,0.0],[0.896341,0.103659],[0.442308,0.557692],[0.09375,0.90625],[0.0,1.0],[0.428571,0.571429],[1.0,0.0],[0.981884,0.018116],[0.996283,0.003717],[1.0,0.0],[0.966667,0.033333],[0.75,0.25],[1.0,0.0],[0.428571,0.571429],[0.138889,0.861111],[0.046154,0.953846],[0.5,0.5],[0.031746,0.968254],[0.0,1.0],[0.088235,0.911765],[1.0,0.0],[0.0,1.0],[1.0,0.0]]},{"feature":[6,2,-2,7,13,5,5,2,-2,-2,-2,-2,-2,-2,6,-2,-2],"threshold":[61.275362,-46.919765,-2.0,56.180424,57.320135,29.099086,-28.642563,-18.178007,-2.0,-2.0,-2.0,-2.0,-2.0,-2.0,66.885197,-2.0,-2.0],"children_left":[1,2,-1,4,5,6,7,8,-1,-1,-1,-1,-1,-1,15,-1,-1],"children_right":[14,3,-1,13,12,11,10,9,-1,-1,-1,-1,-1,-1,16,-1,-1],"value":[[0.498611,0.501389],[0.304264,0.695736],[1.0,0.0],[0.202222,0.797778],[0.12439,0.87561],[0.045213,0.954787],[0.10241,0.89759],[0.044872,0.955128],[0.0,1.0],[1.0,0.0],[1.0,0.0],[0.0,1.0],[1.0,0.0],[1.0,0.0],[0.990196,0.009804],[0.857143,0.142857],[1.0,0.0]]},{"feature":[5,-2,12,6,2,-2,8,8,11,-2,-2,10,-2,-2,-2,1,-2,-2,-2],"threshold":[-111.694141,-2.0,57.357365,61.369982,-100.151722,-2.0,-83.275402,-121.367264,122.624073,-2.0,-2.0,-16.125301,-2.0,-2.0,-2.0,-172.642876,-2.0,-2.0,-2.0],"children_left":[1,-1,3,4,5,-1,7,8,9,-1,-1,12,-1,-1,-1,16,-1,-1,-1],"children_right":[2,-1,18,15,6,-1,14,11,10,-1,-1,13,-1,-1,-1,17,-1,-1,-1],"value":[[0.505556,0.494444],[1.0,0.0],[0.300589,0.699411],[0.168224,0.831776],[0.070866,0.929134],[1.0,0.0],[0.053476,0.946524],[0.136986,0.863014],[0.008065,0.991935],[0.2,0.8],[0.0,1.0],[0.863636,0.136364],[0.571429,0.428571],[1.0,0.0],[0.0,1.0],[0.957447,0.042553],[0.6,0.4],[1.0,0.0],[1.0,0.0]]},{"feature":[4,9,-2,1,7,7,-2,1,9,-2,-2,3,-2,-2,1,-2,-2,12,12,-2,2,-2,11,1,-2,-2,-2,9,-2,-2,-2],"threshold":[108.875645,27.388653,-2.0,163.901718,52.289825,-62.701752,-2.0,-170.460869,161.164711,-2.0,-2.0,-1.329858,-2.0,-2.0,-164.716949,-2.0,-2.0,54.020834,-64.456432,-2.0,-43.149134,-2.0,-167.180138,177.708153,-2.0,-2.0,-2.0,150.852173,-2.0,-2.0,-2.0],"children_left":[1,2,-1,4,5,6,-1,8,9,-1,-1,12,-1,-1,15,-1,-1,18,19,-1,21,-1,23,24,-1,-1,-1,28,-1,-1,-1],"children_right":[30,3,-1,17,14,7,-1,11,10,-1,-1,13,-1,-1,16,-1,-1,27,20,-1,22,-1,26,25,-1,-1,-1,29,-1,-1,-1],"value":[[0.516667,0.483333],[0.342155,0.657845],[1.0,0.0],[0.264271,0.735729],[0.475728,0.524272],[0.329114,0.670886],[1.0,0.0],[0.184615,0.815385],[0.018692,0.981308],[0.0,1.0],[0.333333,0.666667],[0.956522,0.043478],[0.75,0.25],[1.0,0.0],[0.958333,0.041667],[0.6,0.4],[1.0,0.0],[0.101124,0.898876],[0.048,0.952],[1.0,0.0],[0.020576,0.979424],[0.666667,0.333333],[0.004219,0.995781],[0.043478,0.956522],[0.25,0.75],[0.0,1.0],[0.0,1.0],[0.882353,0.117647],[0.6,0.4],[1.0,0.0],[1.0,0.0]]},{"feature":[2,5,-2,13,9,8,6,-2,13,-2,-2,-2,9,-2,-2,9,-2,6,-2,6,-2,-2,12,-2,3,-2,-2],"threshold":[19.667163,-111.2756,-2.0,-35.338608,60.457912,-127.859707,57.005787,-2.0,-42.321659,-2.0,-2.0,-2.0,67.016792,-2.0,-2.0,111.451466,-2.0,-51.598629,-2.0,-43.058689,-2.0,-2.0,-19.252448,-2.0,56.133171,-2.0,-2.0],"children_left":[1,2,-1,4,5,6,7,-1,9,-1,-1,-1,13,-1,-1,16,-1,18,-1,20,-1,-1,23,-1,25,-1,-1],"children_right":[22,3,-1,15,12,11,8,-1,10,-1,-1,-1,14,-1,-1,17,-1,19,-1,21,-1,-1,24,-1,26,-1,-1],"value":[[0.530556,0.469444],[0.705508,0.294492],[1.0,0.0],[0.510563,0.489437],[0.247059,0.752941],[0.052239,0.947761],[0.015625,0.984375],[0.0,1.0],[0.153846,0.846154],[0.4,0.6],[0.0,1.0],[0.833333,0.166667],[0.972222,0.027778],[0.75,0.25],[1.0,0.0],[0.903509,0.096491],[1.0,0.0],[0.75,0.25],[1.0,0.0],[0.083333,0.916667],[0.25,0.75],[0.0,1.0],[0.197581,0.802419],[1.0,0.0],[0.00995,0.99005],[0.0,1.0],[0.4,0.6]]},{"feature":[2,-2,6,6,-2,7,5,4,-2,-2,-2,-2,-2],"threshold":[-47.112682,-2.0,62.084604,-59.784372,-2.0,52.572376,27.04444,-46.522894,-2.0,-2.0,-2.0,-2.0,-2.0],"children_left":[1,-1,3,4,-1,6,7,8,-1,-1,-1,-1,-1],"children_right":[2,-1,12,5,-1,11,10,9,-1,-1,-1,-1,-1],"value":[[0.486111,0.513889],[1.0,0.0],[0.382304,0.617696],[0.233954,0.766046],[1.0,0.0],[0.051282,0.948718],[0.041558,0.958442],[0.095808,0.904192],[0.0,1.0],[1.0,0.0],[0.0,1.0],[0.8,0.2],[1.0,0.0]]},{"feature":[5,-2,2,-2,12,2,-2,-2,12,13,10,-2,-2,10,9,8,-2,-2,-2,3,-2,5,-2,-2,-2],"threshold":[-112.238739,-2.0,-49.776232,-2.0,-62.42452,-19.766283,-2.0,-2.0,59.319153,-52.590132,5.3125,-2.0,-2.0,171.883614,93.296143,-126.125198,-2.0,-2.0,-2.0,-4.943162,-2.0,44.602592,-2.0,-2.0,-2.0],"children_left":[1,-1,3,-1,5,6,-1,-1,9,10,11,-1,-1,14,15,16,-1,-1,-1,20,-1,22,-1,-1,-1],"children_right":[2,-1,4,-1,8,7,-1,-1,24,13,12,-1,-1,19,18,17,-1,-1,-1,21,-1,23,-1,-1,-1],"value":[[0.5,0.5],[1.0,0.0],[0.318182,0.681818],[1.0,0.0],[0.205298,0.794702],[0.911111,0.088889],[0.5,0.5],[1.0,0.0],[0.127451,0.872549],[0.055703,0.944297],[0.636364,0.363636],[0.8,0.2],[0.5,0.5],[0.038251,0.961749],[0.01875,0.98125],[0.045113,0.954887],[0.0,1.0],[0.857143,0.142857],[0.0,1.0],[0.173913,0.826087],[0.0,1.0],[0.347826,0.652174],[1.0,0.0],[0.0,1.0],[1.0,0.0]]},{"feature":[12,12,-2,-2,1,6,-2,3,1,2,-2,9,-2,-2,6,-2,-2,-2,12,2,-2,-2,3,-2,-2],"threshold":[-62.371397,-66.885197,-2.0,-2.0,165.535339,-50.756317,-2.0,107.959789,-168.376793,-15.041977,-2.0,137.604599,-2.0,-2.0,19.906468,-2.0,-2.0,-2.0,53.856375,-43.216747,-2.0,-2.0,24.718901,-2.0,-2.0],"children_left":[1,2,-1,-1,5,6,-1,8,9,10,-1,12,-1,-1,15,-1,-1,-1,19,20,-1,-1,23,-1,-1],"children_right":[4,3,-1,-1,18,7,-1,17,14,11,-1,13,-1,-1,16,-1,-1,-1,22,21,-1,-1,24,-1,-1],"value":[[0.488889,0.511111],[0.984456,0.015544],[1.0,0.0],[0.666667,0.333333],[0.3074,0.6926],[0.551282,0.448718],[1.0,0.0],[0.179688,0.820312],[0.132231,0.867769],[0.028846,0.971154],[0.0,1.0],[0.09375,0.90625],[0.6,0.4],[0.0,1.0],[0.764706,0.235294],[0.2,0.8],[1.0,0.0],[1.0,0.0],[0.112628,0.887372],[0.003846,0.996154],[0.166667,0.833333],[0.0,1.0],[0.969697,0.030303],[1.0,0.0],[0.857143,0.142857]]},{"feature":[13,13,-2,9,-2,5,5,2,4,-2,-2,-2,9,10,-2,-2,-2,-2,-2],"threshold":[54.08157,-53.790758,-2.0,-32.148115,-2.0,27.689746,-41.578348,-18.607188,-82.770565,-2.0,-2.0,-2.0,78.607212,114.136475,-2.0,-2.0,-2.0,-2.0,-2.0],"children_left":[1,2,-1,4,-1,6,7,8,9,-1,-1,-1,13,14,-1,-1,-1,-1,-1],"children_right":[18,3,-1,5,-1,17,12,11,10,-1,-1,-1,16,15,-1,-1,-1,-1,-1],"value":[[0.501389,0.498611],[0.358929,0.641071],[1.0,0.0],[0.111386,0.888614],[1.0,0.0],[0.079487,0.920513],[0.169399,0.830601],[0.039735,0.960265],[0.006849,0.993151],[0.166667,0.833333],[0.0,1.0],[1.0,0.0],[0.78125,0.21875],[0.461538,0.538462],[1.0,0.0],[0.0,1.0],[1.0,0.0],[0.0,1.0],[1.0,0.0]]},{"feature":[4,2,-2,12,-2,5,6,1,-2,-2,3,2,-2,-2,-2,3,-2,-2,-2],"threshold":[110.183323,-51.672131,-2.0,-66.885197,-2.0,56.90679,30.026953,-44.08757,-2.0,-2.0,-0.397797,-21.865002,-2.0,-2.0,-2.0,27.032382,-2.0,-2.0,-2.0],"children_left":[1,2,-1,4,-1,6,7,8,-1,-1,11,12,-1,-1,-1,16,-1,-1,-1],"children_right":[18,3,-1,5,-1,15,10,9,-1,-1,14,13,-1,-1,-1,17,-1,-1,-1],"value":[[0.470833,0.529167],[0.306011,0.693989],[1.0,0.0],[0.227181,0.772819],[1.0,0.0],[0.107728,0.892272],[0.222798,0.777202],[0.95,0.05],[0.6,0.4],[1.0,0.0],[0.03268,0.96732],[0.006711,0.993289],[0.0,1.0],[0.166667,0.833333],[1.0,0.0],[0.012821,0.987179],[0.5,0.5],[0.0,1.0],[1.0,0.0]]},{"feature":[5,-2,13,3,13,-2,13,9,4,-2,-2,4,4,-2,-2,-2,12,-2,-2,-2,11,-2,-2],"threshold":[-114.173073,-2.0,54.945198,63.020704,-59.768225,-2.0,11.810512,57.054796,-53.07044,-2.0,-2.0,-49.754793,-61.383106,-2.0,-2.0,-2.0,51.967823,-2.0,-2.0,-2.0,-111.341457,-2.0,-2.0],"children_left":[1,-1,3,4,5,-1,7,8,9,-1,-1,12,13,-1,-1,-1,17,-1,-1,-1,21,-1,-1],"children_right":[2,-1,20,19,6,-1,16,11,10,-1,-1,15,14,-1,-1,-1,18,-1,-1,-1,22,-1,-1],"value":[[0.477778,0.522222],[1.0,0.0],[0.281071,0.718929],[0.176211,0.823789],[0.117925,0.882075],[1.0,0.0],[0.078818,0.921182],[0.152709,0.847291],[0.011976,0.988024],[0.0,1.0],[0.4,0.6],[0.805556,0.194444],[0.533333,0.466667],[1.0,0.0],[0.0,1.0],[1.0,0.0],[0.004926,0.995074],[0.0,1.0],[0.2,0.8],[1.0,0.0],[0.971014,0.028986],[0.714286,0.285714],[1.0,0.0]]},{"feature":[5,-2,7,-2,13,-2,2,-2,6,6,-2,12,4,-2,-2,7,6,-2,9,8,-2,-2,-2,-2,-2],"threshold":[-112.696209,-2.0,-55.13269,-2.0,-54.612104,-2.0,-100.204502,-2.0,65.050865,-54.054602,-2.0,-57.316023,-56.448349,-2.0,-2.0,51.897642,-9.355603,-2.0,66.876453,-131.884148,-2.0,-2.0,-2.0,-2.0,-2.0],"children_left":[1,-1,3,-1,5,-1,7,-1,9,10,-1,12,13,-1,-1,16,17,-1,19,20,-1,-1,-1,-1,-1],"children_right":[2,-1,4,-1,6,-1,8,-1,24,11,-1,15,14,-1,-1,23,18,-1,22,21,-1,-1,-1,-1,-1],"value":[[0.516667,0.483333],[1.0,0.0],[0.324272,0.675728],[1.0,0.0],[0.185012,0.814988],[1.0,0.0],[0.114504,0.885496],[1.0,0.0],[0.076923,0.923077],[0.041322,0.958678],[0.75,0.25],[0.025352,0.974648],[0.157895,0.842105],[0.0,1.0],[0.6,0.4],[0.017857,0.982143],[0.015106,0.984894],[0.0,1.0],[0.037037,0.962963],[0.007692,0.992308],[0.0,1.0],[0.2,0.8],[0.8,0.2],[0.2,0.8],[1.0,0.0]]},{"feature":[13,6,3,4,6,-2,2,9,9,-2,-2,6,-2,-2,-2,-2,-2,12,-2,-2,7,-2,-2],"threshold":[54.945198,62.251207,64.368931,122.558228,-67.316401,-2.0,3.931612,66.630241,57.164988,-2.0,-2.0,-10.435963,-2.0,-2.0,-2.0,-2.0,-2.0,-66.885197,-2.0,-2.0,-58.740067,-2.0,-2.0],"children_left":[1,2,3,4,5,-1,7,8,9,-1,-1,12,-1,-1,-1,-1,-1,18,-1,-1,21,-1,-1],"children_right":[20,17,16,15,6,-1,14,11,10,-1,-1,13,-1,-1,-1,-1,-1,19,-1,-1,22,-1,-1],"value":[[0.483333,0.516667],[0.315498,0.684502],[0.179601,0.820399],[0.133489,0.866511],[0.06801,0.93199],[1.0,0.0],[0.046392,0.953608],[0.105263,0.894737],[0.013699,0.986301],[0.0,1.0],[0.285714,0.714286],[0.64,0.36],[0.307692,0.692308],[1.0,0.0],[0.0,1.0],[1.0,0.0],[1.0,0.0],[0.989011,0.010989],[1.0,0.0],[0.8,0.2],[0.994382,0.005618],[1.0,0.0],[0.857143,0.142857]]},{"feature":[5,-2,6,-2,7,9,-2,7,-2,12,-2,11,6,-2,5,-2,-2,3,-2,-2,-2],"threshold":[-111.818005,-2.0,-56.866251,-2.0,55.023527,18.417545,-2.0,-52.743155,-2.0,-67.303844,-2.0,174.50412,53.244518,-2.0,-31.353515,-2.0,-2.0,34.081766,-2.0,-2.0,-2.0],"children_left":[1,-1,3,-1,5,6,-1,8,-1,10,-1,12,13,-1,15,-1,-1,18,-1,-1,-1],"children_right":[2,-1,4,-1,20,7,-1,9,-1,11,-1,17,14,-1,16,-1,-1,19,-1,-1,-1],"value":[[0.495833,0.504167],[1.0,0.0],[0.331492,0.668508],[1.0,0.0],[0.193333,0.806667],[0.105911,0.894089],[1.0,0.0],[0.064433,0.935567],[0.833333,0.166667],[0.052356,0.947644],[1.0,0.0],[0.01897,0.98103],[0.005764,0.994236],[0.0,1.0],[0.05,0.95],[0.0,1.0],[0.333333,0.666667],[0.227273,0.772727],[0.833333,0.166667],[0.0,1.0],[1.0,0.0]]},{"feature":[6,4,6,-2,2,-2,0,3,2,-2,-2,13,12,-2,-2,-2,-2,-2,10,-2,3,-2,-2],"threshold":[62.084604,119.544102,-56.321375,-2.0,-100.401678,-2.0,12.96936,-0.397797,-22.875651,-2.0,-2.0,14.687918,-53.884935,-2.0,-2.0,-2.0,-2.0,-2.0,119.928371,-2.0,14.568844,-2.0,-2.0],"children_left":[1,2,3,-1,5,-1,7,8,9,-1,-1,12,13,-1,-1,-1,-1,-1,19,-1,21,-1,-1],"children_right":[18,17,4,-1,6,-1,16,11,10,-1,-1,15,14,-1,-1,-1,-1,-1,20,-1,22,-1,-1],"value":[[0.501389,0.498611],[0.310212,0.689788],[0.197309,0.802691],[1.0,0.0],[0.057895,0.942105],[1.0,0.0],[0.037634,0.962366],[0.102941,0.897059],[0.009174,0.990826],[0.0,1.0],[0.25,0.75],[0.481481,0.518519],[0.928571,0.071429],[0.8,0.2],[1.0,0.0],[0.0,1.0],[0.0,1.0],[1.0,0.0],[0.995025,0.004975],[1.0,0.0],[0.974359,0.025641],[0.857143,0.142857],[1.0,0.0]]},{"feature":[8,13,13,-2,0,3,2,-2,-2,5,11,-2,-2,-2,-2,-2,-2],"threshold":[-5.0738,57.320135,-53.583555,-2.0,11.738976,-0.397797,-20.519188,-2.0,-2.0,31.502594,131.036118,-2.0,-2.0,-2.0,-2.0,-2.0,-2.0],"children_left":[1,2,3,-1,5,6,7,-1,-1,10,11,-1,-1,-1,-1,-1,-1],"children_right":[16,15,4,-1,14,9,8,-1,-1,13,12,-1,-1,-1,-1,-1,-1],"value":[[0.479167,0.520833],[0.365482,0.634518],[0.243952,0.756048],[1.0,0.0],[0.071782,0.928218],[0.154255,0.845745],[0.014184,0.985816],[0.0,1.0],[0.333333,0.666667],[0.574468,0.425532],[0.931034,0.068966],[0.777778,0.222222],[1.0,0.0],[0.0,1.0],[0.0,1.0],[1.0,0.0],[1.0,0.0]]},{"feature":[6,6,-2,3,0,3,-2,3,6,-2,10,-2,-2,7,-2,-2,-2,-2,12,-2,-2],"threshold":[61.275362,-56.321375,-2.0,108.287663,27.480461,-8.791985,-2.0,28.281532,46.879744,-2.0,114.136475,-2.0,-2.0,-33.688898,-2.0,-2.0,-2.0,-2.0,-66.885197,-2.0,-2.0],"children_left":[1,2,-1,4,5,6,-1,8,9,-1,11,-1,-1,14,-1,-1,-1,-1,19,-1,-1],"children_right":[18,3,-1,17,16,7,-1,13,10,-1,12,-1,-1,15,-1,-1,-1,-1,20,-1,-1],"value":[[0.479167,0.520833],[0.308688,0.691312],[1.0,0.0],[0.065,0.935],[0.043478,0.956522],[0.111842,0.888158],[0.0,1.0],[0.459459,0.540541],[0.727273,0.272727],[1.0,0.0],[0.454545,0.545455],[1.0,0.0],[0.0,1.0],[0.066667,0.933333],[0.0,1.0],[0.2,0.8],[0.0,1.0],[1.0,0.0],[0.994413,0.005587],[1.0,0.0],[0.8,0.2]]},{"feature":[6,8,4,12,13,-2,8,12,3,7,-2,8,-2,-2,-2,-2,-2,-2,-2,-2,-2],"threshold":[62.084604,-6.23735,119.544102,56.321375,-52.590132,-2.0,-82.938591,-30.133533,-0.397797,49.31741,-2.0,-143.055794,-2.0,-2.0,-2.0,-2.0,-2.0,-2.0,-2.0,-2.0,-2.0],"children_left":[1,2,3,4,5,-1,7,8,9,10,-1,12,-1,-1,-1,-1,-1,-1,-1,-1,-1],"children_right":[20,19,18,17,6,-1,16,15,14,11,-1,13,-1,-1,-1,-1,-1,-1,-1,-1,-1],"value":[[0.491667,0.508333],[0.317164,0.682836],[0.253061,0.746939],[0.152778,0.847222],[0.061538,0.938462],[0.666667,0.333333],[0.052083,0.947917],[0.114286,0.885714],[0.06135,0.93865],[0.006536,0.993464],[0.0,1.0],[0.038462,0.961538],[0.0,1.0],[0.166667,0.833333],[0.9,0.1],[0.833333,0.166667],[0.0,1.0],[1.0,0.0],[1.0,0.0],[1.0,0.0],[1.0,0.0]]},{"feature":[9,-2,5,-2,7,-2,0,0,3,-2,3,-2,8,-2,-2,13,3,-2,-2,-2,7,-2,-2],"threshold":[33.994223,-2.0,-111.818005,-2.0,-54.945198,-2.0,136.853569,-176.614769,-8.079645,-2.0,0.880571,-2.0,-50.380585,-2.0,-2.0,15.256985,4.187413,-2.0,-2.0,-2.0,53.126757,-2.0,-2.0],"children_left":[1,-1,3,-1,5,-1,7,8,9,-1,11,-1,13,-1,-1,16,17,-1,-1,-1,21,-1,-1],"children_right":[2,-1,4,-1,6,-1,20,15,10,-1,12,-1,14,-1,-1,19,18,-1,-1,-1,22,-1,-1],"value":[[0.497222,0.502778],[1.0,0.0],[0.391597,0.608403],[1.0,0.0],[0.204396,0.795604],[1.0,0.0],[0.125604,0.874396],[0.274854,0.725146],[0.04918,0.95082],[0.0,1.0],[0.352941,0.647059],[0.625,0.375],[0.111111,0.888889],[0.0,1.0],[0.25,0.75],[0.836735,0.163265],[0.95122,0.04878],[0.666667,0.333333],[1.0,0.0],[0.25,0.75],[0.020576,0.979424],[0.0,1.0],[0.714286,0.285714]]},{"feature":[12,-2,7,-2,5,-2,3,3,-2,13,-2,8,3,13,2,-2,-2,-2,-2,-2,-2],"threshold":[-66.885197,-2.0,-54.945198,-2.0,-112.238739,-2.0,62.923004,-33.918839,-2.0,-55.973221,-2.0,-83.275402,0.724544,-35.550468,-20.696408,-2.0,-2.0,-2.0,-2.0,-2.0,-2.0],"children_left":[1,-1,3,-1,5,-1,7,8,-1,10,-1,12,13,14,15,-1,-1,-1,-1,-1,-1],"children_right":[2,-1,4,-1,6,-1,20,9,-1,11,-1,19,18,17,16,-1,-1,-1,-1,-1,-1],"value":[[0.505556,0.494444],[1.0,0.0],[0.352727,0.647273],[1.0,0.0],[0.232759,0.767241],[1.0,0.0],[0.135922,0.864078],[0.098734,0.901266],[0.833333,0.166667],[0.087404,0.912596],[1.0,0.0],[0.065789,0.934211],[0.150602,0.849398],[0.020833,0.979167],[0.007143,0.992857],[0.0,1.0],[0.2,0.8],[0.5,0.5],[1.0,0.0],[0.0,1.0],[1.0,0.0]]},{"feature":[12,8,10,-2,-2,-2,6,-2,7,-2,9,-2,9,0,13,8,-2,-2,-2,9,-2,2,-2,-2,-2],"threshold":[-61.447388,-128.959969,74.268068,-2.0,-2.0,-2.0,-56.321375,-2.0,-57.445883,-2.0,-30.681858,-2.0,121.006401,-175.929939,-35.254435,-129.327103,-2.0,-2.0,-2.0,60.410208,-2.0,6.730724,-2.0,-2.0,-2.0],"children_left":[1,2,3,-1,-1,-1,7,-1,9,-1,11,-1,13,14,15,16,-1,-1,-1,20,-1,22,-1,-1,-1],"children_right":[6,5,4,-1,-1,-1,8,-1,10,-1,12,-1,24,19,18,17,-1,-1,-1,21,-1,23,-1,-1,-1],"value":[[0.484722,0.515278],[0.98895,0.01105],[0.866667,0.133333],[1.0,0.0],[0.5,0.5],[1.0,0.0],[0.315399,0.684601],[1.0,0.0],[0.084367,0.915633],[1.0,0.0],[0.068182,0.931818],[1.0,0.0],[0.046512,0.953488],[0.116883,0.883117],[0.028571,0.971429],[0.009901,0.990099],[0.0,1.0],[0.142857,0.857143],[0.5,0.5],[0.306122,0.693878],[0.0,1.0],[0.576923,0.423077],[1.0,0.0],[0.0,1.0],[0.0,1.0]]},{"feature":[4,12,-2,6,-2,0,5,9,-2,-2,4,5,-2,7,-2,-2,-2,0,8,-2,-2,-2,-2],"threshold":[119.544102,-64.84774,-2.0,-56.866251,-2.0,158.376694,-32.537504,60.766958,-2.0,-2.0,56.682512,-29.75185,-2.0,3.068776,-2.0,-2.0,-2.0,179.654427,-9.957153,-2.0,-2.0,-2.0,-2.0],"children_left":[1,2,-1,4,-1,6,7,8,-1,-1,11,12,-1,14,-1,-1,-1,18,19,-1,-1,-1,-1],"children_right":[22,3,-1,5,-1,17,10,9,-1,-1,16,13,-1,15,-1,-1,-1,21,20,-1,-1,-1,-1],"value":[[0.495833,0.504167],[0.318949,0.681051],[1.0,0.0],[0.203947,0.796053],[1.0,0.0],[0.062016,0.937984],[0.135135,0.864865],[0.009524,0.990476],[0.0,1.0],[0.2,0.8],[0.44186,0.55814],[0.826087,0.173913],[0.4,0.6],[0.944444,0.055556],[0.75,0.25],[1.0,0.0],[0.0,1.0],[0.016736,0.983264],[0.004367,0.995633],[0.0,1.0],[0.2,0.8],[0.3,0.7],[1.0,0.0]]},{"feature":[5,-2,13,6,7,8,0,3,-2,0,8,3,-2,-2,-2,9,-2,-2,-2,-2,-2,0,-2,-2,11,-2,-2],"threshold":[-113.628475,-2.0,54.945198,61.275362,56.180424,21.531142,5.817978,-8.791985,-2.0,-165.529007,-84.821724,-6.372134,-2.0,-2.0,-2.0,98.211933,-2.0,-2.0,-2.0,-2.0,-2.0,-174.996902,-2.0,-2.0,-101.768536,-2.0,-2.0],"children_left":[1,-1,3,4,5,6,7,8,-1,10,11,12,-1,-1,-1,16,-1,-1,-1,-1,-1,22,-1,-1,25,-1,-1],"children_right":[2,-1,24,21,20,19,18,9,-1,15,14,13,-1,-1,-1,17,-1,-1,-1,-1,-1,23,-1,-1,26,-1,-1],"value":[[0.494444,0.505556],[1.0,0.0],[0.307985,0.692015],[0.175,0.825],[0.095,0.905],[0.05483,0.94517],[0.039788,0.960212],[0.1,0.9],[0.0,1.0],[0.405405,0.594595],[0.125,0.875],[0.272727,0.727273],[0.166667,0.833333],[0.4,0.6],[0.0,1.0],[0.923077,0.076923],[1.0,0.0],[0.833333,0.166667],[0.0,1.0],[1.0,0.0],[1.0,0.0],[0.975,0.025],[0.833333,0.166667],[1.0,0.0],[0.988372,0.011628],[0.833333,0.166667],[1.0,0.0]]},{"feature":[6,12,5,1,8,-2,13,0,-2,-2,-2,12,8,-2,-2,2,-2,-2,-2,-2,-2],"threshold":[62.251207,57.33147,98.333096,161.877579,-127.654362,-2.0,14.114789,-176.578125,-2.0,-2.0,-2.0,49.473284,-10.498806,-2.0,-2.0,27.930159,-2.0,-2.0,-2.0,-2.0,-2.0],"children_left":[1,2,3,4,5,-1,7,8,-1,-1,-1,12,13,-1,-1,16,-1,-1,-1,-1,-1],"children_right":[20,19,18,11,6,-1,10,9,-1,-1,-1,15,14,-1,-1,17,-1,-1,-1,-1,-1],"value":[[0.506944,0.493056],[0.330189,0.669811],[0.080311,0.919689],[0.071053,0.928947],[0.177778,0.822222],[0.0,1.0],[0.48,0.52],[0.96,0.04],[0.8,0.2],[1.0,0.0],[0.0,1.0],[0.012245,0.987755],[0.004651,0.995349],[0.0,1.0],[0.2,0.8],[0.066667,0.933333],[0.4,0.6],[0.0,1.0],[0.666667,0.333333],[1.0,0.0],[1.0,0.0]]},{"feature":[13,-2,6,4,9,-2,12,2,-2,0,8,-2,9,13,-2,-2,-2,-2,-2,-2,-2],"threshold":[-53.583555,-2.0,65.109806,121.207714,-36.747395,-2.0,57.33147,-46.004723,-2.0,10.936882,-123.34779,-2.0,111.451466,-27.237141,-2.0,-2.0,-2.0,-2.0,-2.0,-2.0,-2.0],"children_left":[1,-1,3,4,5,-1,7,8,-1,10,11,-1,13,14,-1,-1,-1,-1,-1,-1,-1],"children_right":[2,-1,20,19,6,-1,18,9,-1,17,12,-1,16,15,-1,-1,-1,-1,-1,-1,-1],"value":[[0.476389,0.523611],[1.0,0.0],[0.32316,0.67684],[0.197872,0.802128],[0.175055,0.824945],[1.0,0.0],[0.133333,0.866667],[0.043147,0.956853],[0.666667,0.333333],[0.033505,0.966495],[0.080745,0.919255],[0.0,1.0],[0.333333,0.666667],[0.866667,0.133333],[1.0,0.0],[0.666667,0.333333],[0.0,1.0],[0.0,1.0],[1.0,0.0],[1.0,0.0],[1.0,0.0]]},{"feature":[12,6,-2,-2,13,13,-2,13,8,5,-2,-2,9,-2,-2,2,-2,-2,-2],"threshold":[-62.42452,67.303844,-2.0,-2.0,53.894077,-59.376364,-2.0,23.658944,-121.367264,-33.216469,-2.0,-2.0,99.09164,-2.0,-2.0,0.51421,-2.0,-2.0,-2.0],"children_left":[1,2,-1,-1,5,6,-1,8,9,10,-1,-1,13,-1,-1,16,-1,-1,-1],"children_right":[4,3,-1,-1,18,7,-1,15,12,11,-1,-1,14,-1,-1,17,-1,-1,-1],"value":[[0.495833,0.504167],[0.98913,0.01087],[0.666667,0.333333],[1.0,0.0],[0.326493,0.673507],[0.208333,0.791667],[1.0,0.0],[0.076726,0.923274],[0.159341,0.840659],[0.012987,0.987013],[0.0,1.0],[0.5,0.5],[0.964286,0.035714],[1.0,0.0],[0.833333,0.166667],[0.004785,0.995215],[0.142857,0.857143],[0.0,1.0],[1.0,0.0]]},{"feature":[6,5,-2,6,-2,13,3,5,1,4,2,-2,-2,5,-2,-2,-2,-2,-2,-2,0,4,-2,-2,-2],"threshold":[62.084604,-112.238739,-2.0,-56.866251,-2.0,56.874723,79.568178,97.284908,161.877579,-45.203362,-24.743068,-2.0,-2.0,33.830925,-2.0,-2.0,-2.0,-2.0,-2.0,-2.0,-177.191574,168.496483,-2.0,-2.0,-2.0],"children_left":[1,2,-1,4,-1,6,7,8,9,10,11,-1,-1,14,-1,-1,-1,-1,-1,-1,21,22,-1,-1,-1],"children_right":[20,3,-1,5,-1,19,18,17,16,13,12,-1,-1,15,-1,-1,-1,-1,-1,-1,24,23,-1,-1,-1],"value":[[0.490278,0.509722],[0.32967,0.67033],[1.0,0.0],[0.242236,0.757764],[1.0,0.0],[0.094059,0.905941],[0.073418,0.926582],[0.051813,0.948187],[0.042553,0.957447],[0.149533,0.850467],[0.039474,0.960526],[0.0,1.0],[0.333333,0.666667],[0.419355,0.580645],[1.0,0.0],[0.0,1.0],[0.0,1.0],[0.4,0.6],[1.0,0.0],[1.0,0.0],[0.994253,0.005747],[0.909091,0.090909],[0.75,0.25],[1.0,0.0],[1.0,0.0]]},{"feature":[5,-2,6,-2,8,13,-2,13,6,11,6,-2,8,2,-2,-2,-2,1,-2,-2,-2,-2,-2],"threshold":[-112.238739,-2.0,-57.338438,-2.0,30.509191,-55.023527,-2.0,65.891684,65.171055,176.193985,53.244518,-2.0,-125.11158,-22.220392,-2.0,-2.0,-2.0,171.42894,-2.0,-2.0,-2.0,-2.0,-2.0],"children_left":[1,-1,3,-1,5,6,-1,8,9,10,11,-1,13,14,-1,-1,-1,18,-1,-1,-1,-1,-1],"children_right":[2,-1,4,-1,22,7,-1,21,20,17,12,-1,16,15,-1,-1,-1,19,-1,-1,-1,-1,-1],"value":[[0.486111,0.513889],[1.0,0.0],[0.303202,0.696798],[1.0,0.0],[0.177778,0.822222],[0.131455,0.868545],[1.0,0.0],[0.079602,0.920398],[0.060914,0.939086],[0.021164,0.978836],[0.011236,0.988764],[0.0,1.0],[0.142857,0.857143],[0.045455,0.954545],[0.0,1.0],[0.2,0.8],[0.5,0.5],[0.181818,0.818182],[0.666667,0.333333],[0.0,1.0],[1.0,0.0],[1.0,0.0],[1.0,0.0]]},{"feature":[6,12,13,4,2,2,-2,13,-2,-2,5,-2,-2,3,-2,-2,-2,-2,0,-2,-2],"threshold":[62.084604,56.321375,57.445883,56.246309,-18.029055,-100.939106,-2.0,-51.897642,-2.0,-2.0,27.689746,-2.0,-2.0,56.746267,-2.0,-2.0,-2.0,-2.0,-177.166969,-2.0,-2.0],"children_left":[1,2,3,4,5,6,-1,8,-1,-1,11,-1,-1,14,-1,-1,-1,-1,19,-1,-1],"children_right":[18,17,16,13,10,7,-1,9,-1,-1,12,-1,-1,15,-1,-1,-1,-1,20,-1,-1],"value":[[0.508333,0.491667],[0.342697,0.657303],[0.111392,0.888608],[0.090674,0.909326],[0.182857,0.817143],[0.055172,0.944828],[1.0,0.0],[0.014388,0.985612],[0.5,0.5],[0.0,1.0],[0.8,0.2],[1.0,0.0],[0.0,1.0],[0.014218,0.985782],[0.0,1.0],[0.75,0.25],[1.0,0.0],[1.0,0.0],[0.983871,0.016129],[0.769231,0.230769],[1.0,0.0]]},{"feature":[6,12,8,7,4,9,11,-2,-2,12,-2,-2,-2,-2,-2,2,-2,-2,10,-2,12,-2,-2],"threshold":[62.371397,53.856375,51.037663,53.174446,40.619384,57.428064,120.225712,-2.0,-2.0,-46.555069,-2.0,-2.0,-2.0,-2.0,-2.0,2.160104,-2.0,-2.0,119.928371,-2.0,-107.533649,-2.0,-2.0],"children_left":[1,2,3,4,5,6,7,-1,-1,10,-1,-1,-1,-1,-1,16,-1,-1,19,-1,21,-1,-1],"children_right":[18,15,14,13,12,9,8,-1,-1,11,-1,-1,-1,-1,-1,17,-1,-1,20,-1,22,-1,-1],"value":[[0.477778,0.522222],[0.297552,0.702448],[0.081481,0.918519],[0.060606,0.939394],[0.043928,0.956072],[0.103659,0.896341],[0.013699,0.986301],[0.2,0.8],[0.0,1.0],[0.833333,0.166667],[0.4,0.6],[1.0,0.0],[0.0,1.0],[0.777778,0.222222],[1.0,0.0],[0.992063,0.007937],[1.0,0.0],[0.875,0.125],[0.984127,0.015873],[1.0,0.0],[0.892857,0.107143],[1.0,0.0],[0.625,0.375]]},{"feature":[4,6,12,8,1,2,-2,8,-2,-2,2,-2,-2,-2,-2,-2,-2],"threshold":[110.183323,64.752407,56.321375,48.469063,161.877579,-19.36484,-2.0,-76.32177,-2.0,-2.0,-43.216747,-2.0,-2.0,-2.0,-2.0,-2.0,-2.0],"children_left":[1,2,3,4,5,6,-1,8,-1,-1,11,-1,-1,-1,-1,-1,-1],"children_right":[16,15,14,13,10,7,-1,9,-1,-1,12,-1,-1,-1,-1,-1,-1],"value":[[0.5,0.5],[0.332096,0.667904],[0.212254,0.787746],[0.069767,0.930233],[0.045093,0.954907],[0.133333,0.866667],[0.0,1.0],[0.333333,0.666667],[1.0,0.0],[0.0,1.0],[0.003891,0.996109],[0.25,0.75],[0.0,1.0],[1.0,0.0],[1.0,0.0],[1.0,0.0],[1.0,0.0]]},{"feature":[6,7,-2,6,-2,13,-2,8,4,5,8,-2,-2,-2,-2,-2,-2],"threshold":[62.371397,-57.320135,-2.0,-56.321375,-2.0,-52.590132,-2.0,50.338155,8.471019,-29.75185,-127.540516,-2.0,-2.0,-2.0,-2.0,-2.0,-2.0],"children_left":[1,2,-1,4,-1,6,-1,8,9,10,11,-1,-1,-1,-1,-1,-1],"children_right":[16,3,-1,5,-1,7,-1,15,14,13,12,-1,-1,-1,-1,-1,-1],"value":[[0.497222,0.502778],[0.336996,0.663004],[1.0,0.0],[0.223176,0.776824],[1.0,0.0],[0.052356,0.947644],[0.666667,0.333333],[0.042553,0.957447],[0.021739,0.978261],[0.048193,0.951807],[0.0125,0.9875],[0.0,1.0],[0.4,0.6],[1.0,0.0],[0.0,1.0],[1.0,0.0],[1.0,0.0]]},{"feature":[5,-2,6,-2,6,2,-2,7,0,13,6,-2,10,-2,-2,7,-2,-2,-2,-2,10,-2,-2],"threshold":[-113.116943,-2.0,-57.33147,-2.0,61.964415,-100.016455,-2.0,53.174446,25.447983,-34.117474,37.834234,-2.0,113.744438,-2.0,-2.0,-14.697313,-2.0,-2.0,-2.0,-2.0,116.912731,-2.0,-2.0],"children_left":[1,-1,3,-1,5,6,-1,8,9,10,11,-1,13,-1,-1,16,-1,-1,-1,-1,21,-1,-1],"children_right":[2,-1,4,-1,20,7,-1,19,18,15,12,-1,14,-1,-1,17,-1,-1,-1,-1,22,-1,-1],"value":[[0.466667,0.533333],[1.0,0.0],[0.274102,0.725898],[1.0,0.0],[0.17773,0.82227],[0.088095,0.911905],[1.0,0.0],[0.049628,0.950372],[0.040302,0.959698],[0.091429,0.908571],[0.040541,0.959459],[0.571429,0.428571],[0.014184,0.985816],[0.333333,0.666667],[0.0,1.0],[0.37037,0.62963],[0.0,1.0],[1.0,0.0],[0.0,1.0],[0.666667,0.333333],[0.978723,0.021277],[1.0,0.0],[0.9,0.1]]},{"feature":[7,2,-2,-2,7,8,0,0,5,-2,4,-2,-2,-2,-2,-2,8,-2,-2],"threshold":[-54.945198,11.177074,-2.0,-2.0,52.317963,21.827798,102.209463,-168.412315,-33.258528,-2.0,9.116941,-2.0,-2.0,-2.0,-2.0,-2.0,-142.295639,-2.0,-2.0],"children_left":[1,2,-1,-1,5,6,7,8,9,-1,11,-1,-1,-1,-1,-1,17,-1,-1],"children_right":[4,3,-1,-1,16,15,14,13,10,-1,12,-1,-1,-1,-1,-1,18,-1,-1],"value":[[0.477778,0.522222],[0.99422,0.00578],[1.0,0.0],[0.857143,0.142857],[0.314442,0.685558],[0.085784,0.914216],[0.065163,0.934837],[0.163522,0.836478],[0.043165,0.956835],[0.0,1.0],[0.206897,0.793103],[0.545455,0.454545],[0.0,1.0],[1.0,0.0],[0.0,1.0],[1.0,0.0],[0.985612,0.014388],[0.8,0.2],[1.0,0.0]]},{"feature":[12,0,0,-2,-2,-2,12,3,0,4,0,-2,-2,10,13,-2,-2,7,-2,-2,-2,-2,-2],"threshold":[-61.275362,-177.191574,-177.743095,-2.0,-2.0,-2.0,56.892145,108.414745,5.817978,-45.998577,-176.698219,-2.0,-2.0,-108.725956,32.366079,-2.0,-2.0,-20.118237,-2.0,-2.0,-2.0,-2.0,-2.0],"children_left":[1,2,3,-1,-1,-1,7,8,9,10,11,-1,-1,14,15,-1,-1,18,-1,-1,-1,-1,-1],"children_right":[6,5,4,-1,-1,-1,22,21,20,13,12,-1,-1,17,16,-1,-1,19,-1,-1,-1,-1,-1],"value":[[0.486111,0.513889],[0.994536,0.005464],[0.947368,0.052632],[1.0,0.0],[0.833333,0.166667],[1.0,0.0],[0.312849,0.687151],[0.0775,0.9225],[0.053846,0.946154],[0.130435,0.869565],[0.02381,0.97619],[0.0,1.0],[0.428571,0.571429],[0.514286,0.485714],[0.117647,0.882353],[0.4,0.6],[0.0,1.0],[0.888889,0.111111],[0.714286,0.285714],[1.0,0.0],[0.0,1.0],[1.0,0.0],[1.0,0.0]]},{"feature":[4,12,13,-2,8,9,9,6,2,-2,11,-2,-2,-2,-2,-2,-2,-2,-2],"threshold":[109.185604,57.357365,-53.790758,-2.0,48.072274,170.805687,119.57164,67.303844,-17.381603,-2.0,-16.218594,-2.0,-2.0,-2.0,-2.0,-2.0,-2.0,-2.0,-2.0],"children_left":[1,2,3,-1,5,6,7,8,9,-1,11,-1,-1,-1,-1,-1,-1,-1,-1],"children_right":[18,17,4,-1,16,15,14,13,10,-1,12,-1,-1,-1,-1,-1,-1,-1,-1],"value":[[0.516667,0.483333],[0.345865,0.654135],[0.228381,0.771619],[1.0,0.0],[0.103093,0.896907],[0.072,0.928],[0.059783,0.940217],[0.127168,0.872832],[0.067901,0.932099],[0.0,1.0],[0.55,0.45],[0.0,1.0],[1.0,0.0],[1.0,0.0],[0.0,1.0],[0.714286,0.285714],[1.0,0.0],[1.0,0.0],[1.0,0.0]]},{"feature":[13,7,4,2,-2,13,5,-2,-2,12,-2,1,8,-2,9,8,-2,-2,-2,-2,-2,-2,-2],"threshold":[57.445883,53.790758,108.446808,-100.322617,-2.0,-49.31741,-62.630781,-2.0,-2.0,-72.612289,-2.0,162.641281,-127.654362,-2.0,113.345631,-103.678612,-2.0,-2.0,-2.0,-2.0,-2.0,-2.0,-2.0],"children_left":[1,2,3,4,-1,6,7,-1,-1,10,-1,12,13,-1,15,16,-1,-1,-1,-1,-1,-1,-1],"children_right":[22,21,20,5,-1,9,8,-1,-1,11,-1,19,14,-1,18,17,-1,-1,-1,-1,-1,-1,-1],"value":[[0.466667,0.533333],[0.315508,0.684492],[0.098592,0.901408],[0.088095,0.911905],[1.0,0.0],[0.06357,0.93643],[0.322581,0.677419],[0.0,1.0],[1.0,0.0],[0.042328,0.957672],[1.0,0.0],[0.024259,0.975741],[0.069231,0.930769],[0.0,1.0],[0.176471,0.823529],[0.9,0.1],[0.75,0.25],[1.0,0.0],[0.0,1.0],[0.0,1.0],[0.833333,0.166667],[1.0,0.0],[1.0,0.0]]},{"feature":[5,-2,6,-2,3,6,13,-2,8,0,2,3,-2,-2,9,12,-2,-2,-2,-2,-2,-2,-2],"threshold":[-112.238739,-2.0,-56.866251,-2.0,57.176558,65.171055,-52.590132,-2.0,-9.957153,25.447983,-21.306567,-6.824974,-2.0,-2.0,111.451466,-39.020283,-2.0,-2.0,-2.0,-2.0,-2.0,-2.0,-2.0],"children_left":[1,-1,3,-1,5,6,7,-1,9,10,11,12,-1,-1,15,16,-1,-1,-1,-1,-1,-1,-1],"children_right":[2,-1,4,-1,22,21,8,-1,20,19,14,13,-1,-1,18,17,-1,-1,-1,-1,-1,-1,-1],"value":[[0.536111,0.463889],[1.0,0.0],[0.347656,0.652344],[1.0,0.0],[0.230415,0.769585],[0.179361,0.820639],[0.072222,0.927778],[0.8,0.2],[0.051429,0.948571],[0.040936,0.959064],[0.095238,0.904762],[0.008772,0.991228],[0.0,1.0],[0.166667,0.833333],[0.393939,0.606061],[0.928571,0.071429],[0.75,0.25],[1.0,0.0],[0.0,1.0],[0.0,1.0],[0.5,0.5],[1.0,0.0],[1.0,0.0]]},{"feature":[5,-2,12,1,6,8,-2,4,-2,-2,0,-2,-2,5,13,-2,2,-2,12,-2,-2,-2,-2],"threshold":[-113.116943,-2.0,57.338438,164.475006,56.977377,-130.29974,-2.0,7.242704,-2.0,-2.0,-174.76606,-2.0,-2.0,98.742683,-53.126757,-2.0,-44.725828,-2.0,-59.094509,-2.0,-2.0,-2.0,-2.0],"children_left":[1,-1,3,4,5,6,-1,8,-1,-1,11,-1,-1,14,15,-1,17,-1,19,-1,-1,-1,-1],"children_right":[2,-1,22,13,10,7,-1,9,-1,-1,12,-1,-1,21,16,-1,18,-1,20,-1,-1,-1,-1],"value":[[0.475,0.525],[1.0,0.0],[0.271676,0.728324],[0.152466,0.847534],[0.325,0.675],[0.071429,0.928571],[0.0,1.0],[0.170213,0.829787],[0.888889,0.111111],[0.0,1.0],[0.916667,0.083333],[0.5,0.5],[1.0,0.0],[0.055944,0.944056],[0.035714,0.964286],[0.6,0.4],[0.025455,0.974545],[0.8,0.2],[0.011111,0.988889],[0.5,0.5],[0.0,1.0],[1.0,0.0],[1.0,0.0]]},{"feature":[12,12,-2,-2,2,-2,1,1,3,12,-2,-2,3,-2,-2,10,-2,10,-2,-2,4,-2,-2],"threshold":[-62.084604,-67.953884,-2.0,-2.0,-46.919765,-2.0,165.634842,-168.325752,-2.109461,-38.843054,-2.0,-2.0,20.735061,-2.0,-2.0,154.728844,-2.0,174.360992,-2.0,-2.0,136.073154,-2.0,-2.0],"children_left":[1,2,-1,-1,5,-1,7,8,9,10,-1,-1,13,-1,-1,16,-1,18,-1,-1,21,-1,-1],"children_right":[4,3,-1,-1,6,-1,20,15,12,11,-1,-1,14,-1,-1,17,-1,19,-1,-1,22,-1,-1],"value":[[0.5,0.5],[0.994318,0.005682],[1.0,0.0],[0.888889,0.111111],[0.340074,0.659926],[1.0,0.0],[0.224622,0.775378],[0.464286,0.535714],[0.066038,0.933962],[0.014085,0.985915],[0.0,1.0],[0.2,0.8],[0.171429,0.828571],[0.857143,0.142857],[0.0,1.0],[0.933333,0.066667],[1.0,0.0],[0.538462,0.461538],[0.0,1.0],[1.0,0.0],[0.048689,0.951311],[0.0,1.0],[1.0,0.0]]},{"feature":[4,4,10,1,1,-2,-2,0,-2,5,-2,-2,4,-2,2,11,-2,-2,10,-2,-2,2,-2,5,-2,-2,-2],"threshold":[109.185604,56.699057,121.877728,-174.045738,-177.959045,-2.0,-2.0,-177.467361,-2.0,60.637819,-2.0,-2.0,-113.303413,-2.0,-19.887009,113.796516,-2.0,-2.0,173.402603,-2.0,-2.0,-7.490815,-2.0,62.012123,-2.0,-2.0,-2.0],"children_left":[1,2,3,4,5,-1,-1,8,-1,10,-1,-1,13,-1,15,16,-1,-1,19,-1,-1,22,-1,24,-1,-1,-1],"children_right":[26,21,12,7,6,-1,-1,9,-1,11,-1,-1,14,-1,18,17,-1,-1,20,-1,-1,23,-1,25,-1,-1,-1],"value":[[0.5,0.5],[0.318182,0.681818],[0.519164,0.480836],[0.9,0.1],[0.4375,0.5625],[0.75,0.25],[0.333333,0.666667],[0.971154,0.028846],[0.666667,0.333333],[0.989796,0.010204],[1.0,0.0],[0.857143,0.142857],[0.245509,0.754491],[1.0,0.0],[0.1,0.9],[0.023438,0.976562],[0.5,0.5],[0.0,1.0],[0.916667,0.083333],[0.75,0.25],[1.0,0.0],[0.078838,0.921162],[1.0,0.0],[0.004484,0.995516],[0.125,0.875],[0.0,1.0],[1.0,0.0]]},{"feature":[0,5,-2,0,8,9,-2,-2,8,4,-2,-2,-2,5,-2,2,-2,5,13,-2,-2,-2,8,7,-2,12,-2,-2,-2],"threshold":[161.057343,-113.116943,-2.0,-175.929939,-126.314281,57.02702,-2.0,-2.0,-64.623402,-39.806149,-2.0,-2.0,-2.0,56.25267,-2.0,-20.268731,-2.0,124.659245,50.066309,-2.0,-2.0,-2.0,-5.416978,-55.697855,-2.0,-44.588682,-2.0,-2.0,-2.0],"children_left":[1,2,-1,4,5,6,-1,-1,9,10,-1,-1,-1,14,-1,16,-1,18,19,-1,-1,-1,23,24,-1,26,-1,-1,-1],"children_right":[22,3,-1,13,8,7,-1,-1,12,11,-1,-1,-1,15,-1,17,-1,21,20,-1,-1,-1,28,25,-1,27,-1,-1,-1],"value":[[0.468056,0.531944],[0.653207,0.346793],[1.0,0.0],[0.429688,0.570312],[0.10274,0.89726],[0.008333,0.991667],[0.0,1.0],[0.2,0.8],[0.538462,0.461538],[0.928571,0.071429],[0.833333,0.166667],[1.0,0.0],[0.083333,0.916667],[0.863636,0.136364],[1.0,0.0],[0.673913,0.326087],[1.0,0.0],[0.4,0.6],[0.0625,0.9375],[0.0,1.0],[0.25,0.75],[1.0,0.0],[0.207358,0.792642],[0.052,0.948],[1.0,0.0],[0.0125,0.9875],[0.375,0.625],[0.0,1.0],[1.0,0.0]]},{"feature":[13,7,9,-2,12,-2,8,13,4,3,-2,-2,-2,-2,-2,-2,13,-2,-2],"threshold":[52.992212,53.790758,-30.587082,-2.0,-72.612289,-2.0,-92.293049,-33.737738,-52.327059,-6.824974,-2.0,-2.0,-2.0,-2.0,-2.0,-2.0,68.497631,-2.0,-2.0],"children_left":[1,2,3,-1,5,-1,7,8,9,10,-1,-1,-1,-1,-1,-1,17,-1,-1],"children_right":[16,15,4,-1,6,-1,14,13,12,11,-1,-1,-1,-1,-1,-1,18,-1,-1],"value":[[0.459722,0.540278],[0.305903,0.694097],[0.087059,0.912941],[1.0,0.0],[0.058252,0.941748],[1.0,0.0],[0.027569,0.972431],[0.063584,0.936416],[0.018182,0.981818],[0.00625,0.99375],[0.0,1.0],[0.2,0.8],[0.4,0.6],[1.0,0.0],[0.0,1.0],[1.0,0.0],[0.993789,0.006211],[0.857143,0.142857],[1.0,0.0]]},{"feature":[5,-2,12,7,12,-2,0,9,-2,5,13,-2,-2,4,1,-2,-2,-2,9,-2,-2,-2,-2],"threshold":[-112.238739,-2.0,57.357365,55.023527,-65.171055,-2.0,161.828636,-32.148115,-2.0,-36.073055,-52.447174,-2.0,-2.0,42.664335,-167.549614,-2.0,-2.0,-2.0,41.918125,-2.0,-2.0,-2.0,-2.0],"children_left":[1,-1,3,4,5,-1,7,8,-1,10,11,-1,-1,14,15,-1,-1,-1,19,-1,-1,-1,-1],"children_right":[2,-1,22,21,6,-1,18,9,-1,13,12,-1,-1,17,16,-1,-1,-1,20,-1,-1,-1,-1],"value":[[0.490278,0.509722],[1.0,0.0],[0.294231,0.705769],[0.184444,0.815556],[0.12619,0.87381],[1.0,0.0],[0.063776,0.936224],[0.147239,0.852761],[1.0,0.0],[0.108974,0.891026],[0.017544,0.982456],[0.4,0.6],[0.0,1.0],[0.357143,0.642857],[0.789474,0.210526],[0.333333,0.666667],[1.0,0.0],[0.0,1.0],[0.004367,0.995633],[0.25,0.75],[0.0,1.0],[1.0,0.0],[1.0,0.0]]},{"feature":[10,5,4,12,-2,2,-2,-2,0,-2,4,-2,-2,7,-2,5,13,-2,-2,-2,13,-2,6,11,2,-2,10,-2,11,-2,-2,4,-2,-2,-2],"threshold":[143.058617,57.587927,-49.754793,-66.885197,-2.0,-19.273755,-2.0,-2.0,177.25219,-2.0,60.86875,-2.0,-2.0,-66.462843,-2.0,90.096992,24.17819,-2.0,-2.0,-2.0,-76.441923,-2.0,61.580826,174.50412,-44.438608,-2.0,171.200836,-2.0,166.070183,-2.0,-2.0,35.545898,-2.0,-2.0,-2.0],"children_left":[1,2,3,4,-1,6,-1,-1,9,-1,11,-1,-1,14,-1,16,17,-1,-1,-1,21,-1,23,24,25,-1,27,-1,29,-1,-1,32,-1,-1,-1],"children_right":[20,13,8,5,-1,7,-1,-1,10,-1,12,-1,-1,15,-1,19,18,-1,-1,-1,22,-1,34,31,26,-1,28,-1,30,-1,-1,33,-1,-1,-1],"value":[[0.516667,0.483333],[0.668663,0.331337],[0.920635,0.079365],[0.62069,0.37931],[1.0,0.0],[0.241379,0.758621],[0.0,1.0],[0.875,0.125],[0.988327,0.011673],[1.0,0.0],[0.857143,0.142857],[0.571429,0.428571],[1.0,0.0],[0.241935,0.758065],[1.0,0.0],[0.096154,0.903846],[0.027586,0.972414],[0.5,0.5],[0.0,1.0],[1.0,0.0],[0.16895,0.83105],[1.0,0.0],[0.09,0.91],[0.052632,0.947368],[0.027933,0.972067],[0.6,0.4],[0.011494,0.988506],[0.0,1.0],[0.05,0.95],[0.0,1.0],[0.25,0.75],[0.454545,0.545455],[0.714286,0.285714],[0.0,1.0],[0.8,0.2]]},{"feature":[1,8,10,9,-2,-2,-2,1,12,-2,13,-2,-2,0,8,-2,2,-2,2,-2,-2,3,-2,-2,7,-2,5,-2,13,-2,8,-2,-2],"threshold":[166.11895,-133.583267,109.655945,42.23105,-2.0,-2.0,-2.0,-175.623703,-73.196434,-2.0,8.971132,-2.0,-2.0,176.930542,-66.192364,-2.0,-1.282842,-2.0,65.897333,-2.0,-2.0,47.891626,-2.0,-2.0,-57.445883,-2.0,-123.698898,-2.0,-61.28377,-2.0,-10.498806,-2.0,-2.0],"children_left":[1,2,3,4,-1,-1,-1,8,9,-1,11,-1,-1,14,15,-1,17,-1,19,-1,-1,22,-1,-1,25,-1,27,-1,29,-1,31,-1,-1],"children_right":[24,7,6,5,-1,-1,-1,13,10,-1,12,-1,-1,21,16,-1,18,-1,20,-1,-1,23,-1,-1,26,-1,28,-1,30,-1,32,-1,-1],"value":[[0.481944,0.518056],[0.690104,0.309896],[0.262136,0.737864],[0.9,0.1],[0.571429,0.428571],[1.0,0.0],[0.0,1.0],[0.846975,0.153025],[0.34,0.66],[1.0,0.0],[0.153846,0.846154],[0.6,0.4],[0.0,1.0],[0.95671,0.04329],[0.981651,0.018349],[1.0,0.0],[0.946667,0.053333],[1.0,0.0],[0.826087,0.173913],[0.428571,0.571429],[1.0,0.0],[0.538462,0.461538],[0.285714,0.714286],[0.833333,0.166667],[0.244048,0.755952],[1.0,0.0],[0.121107,0.878893],[1.0,0.0],[0.066176,0.933824],[1.0,0.0],[0.011673,0.988327],[0.0,1.0],[0.6,0.4]]},{"feature":[12,-2,1,12,3,4,9,-2,-2,13,4,-2,-2,-2,-2,-2,5,-2,12,8,4,-2,-2,-2,-2],"threshold":[-66.98053,-2.0,165.066216,52.365669,69.951187,-55.940031,53.018448,-2.0,-2.0,11.295799,-46.471838,-2.0,-2.0,-2.0,-2.0,-2.0,-126.432907,-2.0,57.803658,-9.500534,104.674316,-2.0,-2.0,-2.0,-2.0],"children_left":[1,-1,3,4,5,6,7,-1,-1,10,11,-1,-1,-1,-1,-1,17,-1,19,20,21,-1,-1,-1,-1],"children_right":[2,-1,16,15,14,9,8,-1,-1,13,12,-1,-1,-1,-1,-1,18,-1,24,23,22,-1,-1,-1,-1],"value":[[0.505556,0.494444],[1.0,0.0],[0.341959,0.658041],[0.555102,0.444898],[0.215827,0.784173],[0.148438,0.851562],[0.028571,0.971429],[0.0,1.0],[0.5,0.5],[0.293103,0.706897],[0.708333,0.291667],[0.222222,0.777778],[1.0,0.0],[0.0,1.0],[1.0,0.0],[1.0,0.0],[0.165541,0.834459],[1.0,0.0],[0.085185,0.914815],[0.015936,0.984064],[0.004082,0.995918],[0.0,1.0],[0.166667,0.833333],[0.5,0.5],[1.0,0.0]]},{"feature":[5,-2,7,-2,7,12,-2,8,12,4,2,7,-2,-2,-2,-2,-2,-2,-2],"threshold":[-114.173073,-2.0,-52.992212,-2.0,56.180424,-67.303844,-2.0,22.170975,52.300112,21.235146,-18.137403,36.262098,-2.0,-2.0,-2.0,-2.0,-2.0,-2.0,-2.0],"children_left":[1,-1,3,-1,5,6,-1,8,9,10,11,12,-1,-1,-1,-1,-1,-1,-1],"children_right":[2,-1,4,-1,18,7,-1,17,16,15,14,13,-1,-1,-1,-1,-1,-1,-1],"value":[[0.508333,0.491667],[1.0,0.0],[0.316602,0.683398],[1.0,0.0],[0.200903,0.799097],[0.123762,0.876238],[1.0,0.0],[0.085271,0.914729],[0.045822,0.954178],[0.030303,0.969697],[0.070968,0.929032],[0.006897,0.993103],[0.25,0.75],[0.0,1.0],[1.0,0.0],[0.0,1.0],[0.75,0.25],[1.0,0.0],[1.0,0.0]]},{"feature":[0,0,8,5,-2,-2,5,-2,-2,2,3,5,-2,-2,5,-2,6,-2,-2,6,-2,-2,9,-2,8,2,-2,13,-2,-2,-2],"threshold":[161.828636,-176.641693,-123.34779,-33.160357,-2.0,-2.0,17.327582,-2.0,-2.0,15.17628,-8.806584,27.830907,-2.0,-2.0,59.255827,-2.0,-66.617973,-2.0,-2.0,12.778137,-2.0,-2.0,37.947866,-2.0,-6.63414,-43.485756,-2.0,54.533356,-2.0,-2.0,-2.0],"children_left":[1,2,3,4,-1,-1,7,-1,-1,10,11,12,-1,-1,15,-1,17,-1,-1,20,-1,-1,23,-1,25,26,-1,28,-1,-1,-1],"children_right":[22,9,6,5,-1,-1,8,-1,-1,19,14,13,-1,-1,16,-1,18,-1,-1,21,-1,-1,24,-1,30,27,-1,29,-1,-1,-1],"value":[[0.509722,0.490278],[0.707094,0.292906],[0.208333,0.791667],[0.009174,0.990826],[0.0,1.0],[0.25,0.75],[0.828571,0.171429],[1.0,0.0],[0.142857,0.857143],[0.952218,0.047782],[0.988048,0.011952],[0.935484,0.064516],[0.5,0.5],[1.0,0.0],[0.995455,0.004545],[1.0,0.0],[0.928571,0.071429],[1.0,0.0],[0.8,0.2],[0.738095,0.261905],[0.0,1.0],[1.0,0.0],[0.204947,0.795053],[1.0,0.0],[0.074074,0.925926],[0.042553,0.957447],[0.8,0.2],[0.026087,0.973913],[0.0,1.0],[1.0,0.0],[1.0,0.0]]},{"feature":[9,-2,6,0,7,9,8,-2,-2,10,6,-2,-2,3,4,-2,-2,-2,-2,3,9,-2,-2,2,-2,-2,3,-2,-2],"threshold":[29.844249,-2.0,61.964415,164.337509,59.561022,66.630241,-126.125198,-2.0,-2.0,-111.925697,-109.383839,-2.0,-2.0,36.957924,-40.196709,-2.0,-2.0,-2.0,-2.0,15.955955,92.043581,-2.0,-2.0,23.600923,-2.0,-2.0,-0.293476,-2.0,-2.0],"children_left":[1,-1,3,4,5,6,7,-1,-1,10,11,-1,-1,14,15,-1,-1,-1,-1,20,21,-1,-1,24,-1,-1,27,-1,-1],"children_right":[2,-1,26,19,18,9,8,-1,-1,13,12,-1,-1,17,16,-1,-1,-1,-1,23,22,-1,-1,25,-1,-1,28,-1,-1],"value":[[0.483333,0.516667],[1.0,0.0],[0.388158,0.611842],[0.241309,0.758691],[0.42562,0.57438],[0.287179,0.712821],[0.016667,0.983333],[0.0,1.0],[0.285714,0.714286],[0.72,0.28],[0.333333,0.666667],[1.0,0.0],[0.0,1.0],[0.9375,0.0625],[0.977273,0.022727],[0.8,0.2],[1.0,0.0],[0.5,0.5],[1.0,0.0],[0.060729,0.939271],[0.35,0.65],[0.0,1.0],[1.0,0.0],[0.004831,0.995169],[0.25,0.75],[0.0,1.0],[0.991597,0.008403],[0.75,0.25],[1.0,0.0]]},{"feature":[12,-2,5,-2,13,13,-2,8,8,4,8,-2,-2,11,-2,-2,-2,-2,-2],"threshold":[-64.752407,-2.0,-112.238739,-2.0,57.320135,-55.973221,-2.0,22.567764,-84.203072,-45.947521,-123.627026,-2.0,-2.0,106.218491,-2.0,-2.0,-2.0,-2.0,-2.0],"children_left":[1,-1,3,-1,5,6,-1,8,9,10,11,-1,-1,14,-1,-1,-1,-1,-1],"children_right":[2,-1,4,-1,18,7,-1,17,16,13,12,-1,-1,15,-1,-1,-1,-1,-1],"value":[[0.469444,0.530556],[1.0,0.0],[0.292593,0.707407],[1.0,0.0],[0.212371,0.787629],[0.101176,0.898824],[1.0,0.0],[0.075061,0.924939],[0.049751,0.950249],[0.108696,0.891304],[0.041176,0.958824],[0.0,1.0],[0.875,0.125],[0.928571,0.071429],[0.833333,0.166667],[1.0,0.0],[0.0,1.0],[1.0,0.0],[1.0,0.0]]},{"feature":[1,10,4,1,12,-2,-2,3,10,-2,-2,-2,-2,3,13,7,-2,-2,-2,6,5,-2,-2,-2,11,11,2,-2,-2,11,-2,5,-2,-2,4,1,4,-2,-2,-2,-2],"threshold":[166.11895,119.928371,101.368057,-174.461662,-6.031341,-2.0,-2.0,44.123507,-178.292053,-2.0,-2.0,-2.0,-2.0,4.092485,-36.947298,51.420321,-2.0,-2.0,-2.0,-15.174151,78.997765,-2.0,-2.0,-2.0,167.015404,-110.729172,45.712814,-2.0,-2.0,118.675484,-2.0,-81.706882,-2.0,-2.0,136.641308,176.95015,90.233696,-2.0,-2.0,-2.0,-2.0],"children_left":[1,2,3,4,5,-1,-1,8,9,-1,-1,-1,-1,14,15,16,-1,-1,-1,20,21,-1,-1,-1,25,26,27,-1,-1,30,-1,32,-1,-1,35,36,37,-1,-1,-1,-1],"children_right":[24,13,12,7,6,-1,-1,11,10,-1,-1,-1,-1,19,18,17,-1,-1,-1,23,22,-1,-1,-1,34,29,28,-1,-1,31,-1,33,-1,-1,40,39,38,-1,-1,-1,-1],"value":[[0.5125,0.4875],[0.718204,0.281796],[0.866894,0.133106],[0.725352,0.274648],[0.166667,0.833333],[0.777778,0.222222],[0.0,1.0],[0.96,0.04],[0.988095,0.011905],[0.8,0.2],[1.0,0.0],[0.8125,0.1875],[1.0,0.0],[0.314815,0.685185],[0.060606,0.939394],[0.016393,0.983607],[0.0,1.0],[0.166667,0.833333],[0.6,0.4],[0.714286,0.285714],[0.294118,0.705882],[0.714286,0.285714],[0.0,1.0],[1.0,0.0],[0.253918,0.746082],[0.104348,0.895652],[0.015385,0.984615],[0.0,1.0],[0.5,0.5],[0.22,0.78],[1.0,0.0],[0.037037,0.962963],[0.75,0.25],[0.0,1.0],[0.640449,0.359551],[0.111111,0.888889],[0.032258,0.967742],[0.2,0.8],[0.0,1.0],[0.6,0.4],[1.0,0.0]]},{"feature":[5,-2,12,13,-2,9,-2,12,-2,9,4,-2,6,10,5,7,-2,-2,-2,10,-2,-2,2,-2,-2,-2,-2],"threshold":[-112.572346,-2.0,57.338438,-54.631666,-2.0,-16.624821,-2.0,-67.303844,-2.0,168.950859,-81.460835,-2.0,57.316023,175.029495,10.690213,35.270647,-2.0,-2.0,-2.0,175.607857,-2.0,-2.0,-23.143043,-2.0,-2.0,-2.0,-2.0],"children_left":[1,-1,3,4,-1,6,-1,8,-1,10,11,-1,13,14,15,16,-1,-1,-1,20,-1,-1,23,-1,-1,-1,-1],"children_right":[2,-1,26,5,-1,7,-1,9,-1,25,12,-1,22,19,18,17,-1,-1,-1,21,-1,-1,24,-1,-1,-1,-1],"value":[[0.497222,0.502778],[1.0,0.0],[0.301158,0.698842],[0.165899,0.834101],[1.0,0.0],[0.108374,0.891626],[1.0,0.0],[0.074169,0.925831],[1.0,0.0],[0.039788,0.960212],[0.02973,0.97027],[0.5,0.5],[0.021978,0.978022],[0.014368,0.985632],[0.006135,0.993865],[0.016949,0.983051],[0.5,0.5],[0.0,1.0],[0.0,1.0],[0.136364,0.863636],[0.428571,0.571429],[0.0,1.0],[0.1875,0.8125],[0.0,1.0],[0.6,0.4],[0.571429,0.428571],[1.0,0.0]]},{"feature":[12,-2,7,6,-2,-2,6,-2,1,3,-2,5,4,-2,-2,-2,-2],"threshold":[-63.030563,-2.0,-54.08157,-61.062521,-2.0,-2.0,-54.787874,-2.0,161.048477,-9.474901,-2.0,27.689746,-46.471838,-2.0,-2.0,-2.0,-2.0],"children_left":[1,-1,3,4,-1,-1,7,-1,9,10,-1,12,13,-1,-1,-1,-1],"children_right":[2,-1,6,5,-1,-1,8,-1,16,11,-1,15,14,-1,-1,-1,-1],"value":[[0.472222,0.527778],[1.0,0.0],[0.305302,0.694698],[0.988095,0.011905],[1.0,0.0],[0.833333,0.166667],[0.181425,0.818575],[1.0,0.0],[0.050125,0.949875],[0.155039,0.844961],[0.0,1.0],[0.384615,0.615385],[0.869565,0.130435],[0.4,0.6],[1.0,0.0],[0.0,1.0],[0.0,1.0]]},{"feature":[5,-2,13,12,1,-2,-2,13,-2,2,-2,1,8,-2,8,-2,-2,-2,11,-2,-2],"threshold":[-112.238739,-2.0,54.945198,-61.275362,-172.642876,-2.0,-2.0,-82.792494,-2.0,-101.189062,-2.0,162.770454,-123.358841,-2.0,-76.714123,-2.0,-2.0,-2.0,-103.696976,-2.0,-2.0],"children_left":[1,-1,3,4,5,-1,-1,8,-1,10,-1,12,13,-1,15,-1,-1,-1,19,-1,-1],"children_right":[2,-1,18,7,6,-1,-1,9,-1,11,-1,17,14,-1,16,-1,-1,-1,20,-1,-1],"value":[[0.494444,0.505556],[1.0,0.0],[0.310606,0.689394],[0.169725,0.830275],[0.918919,0.081081],[0.5,0.5],[1.0,0.0],[0.100251,0.899749],[1.0,0.0],[0.074742,0.925258],[1.0,0.0],[0.042667,0.957333],[0.133333,0.866667],[0.0,1.0],[0.347826,0.652174],[1.0,0.0],[0.0,1.0],[0.0,1.0],[0.978261,0.021739],[0.75,0.25],[1.0,0.0]]},{"feature":[12,-2,6,-2,2,-2,4,7,11,12,4,2,-2,-2,-2,13,13,-2,-2,-2,-2,-2,-2],"threshold":[-66.98053,-2.0,-57.33147,-2.0,-99.819279,-2.0,108.446808,53.154884,178.294174,-53.030931,-52.841869,-21.343171,-2.0,-2.0,-2.0,8.778747,-35.054298,-2.0,-2.0,-2.0,-2.0,-2.0,-2.0],"children_left":[1,-1,3,-1,5,-1,7,8,9,10,11,12,-1,-1,-1,16,17,-1,-1,-1,-1,-1,-1],"children_right":[2,-1,4,-1,6,-1,22,21,20,15,14,13,-1,-1,-1,19,18,-1,-1,-1,-1,-1,-1],"value":[[0.520833,0.479167],[1.0,0.0],[0.350282,0.649718],[1.0,0.0],[0.082447,0.917553],[1.0,0.0],[0.046961,0.953039],[0.039216,0.960784],[0.03125,0.96875],[0.025937,0.974063],[0.129032,0.870968],[0.037037,0.962963],[0.0,1.0],[0.2,0.8],[0.75,0.25],[0.015823,0.984177],[0.041322,0.958678],[0.0,1.0],[1.0,0.0],[0.0,1.0],[0.4,0.6],[0.6,0.4],[0.6,0.4]]},{"feature":[12,-2,5,-2,12,7,-2,9,-2,0,0,2,8,-2,-2,13,-2,-2,-2,-2,-2],"threshold":[-61.964415,-2.0,-115.089882,-2.0,57.357365,-55.454792,-2.0,-32.148115,-2.0,27.480461,-159.957138,-17.381603,-127.859707,-2.0,-2.0,2.30887,-2.0,-2.0,-2.0,-2.0,-2.0],"children_left":[1,-1,3,-1,5,6,-1,8,-1,10,11,12,13,-1,-1,16,-1,-1,-1,-1,-1],"children_right":[2,-1,4,-1,20,7,-1,9,-1,19,18,15,14,-1,-1,17,-1,-1,-1,-1,-1],"value":[[0.479167,0.520833],[1.0,0.0],[0.289773,0.710227],[1.0,0.0],[0.217119,0.782881],[0.067164,0.932836],[0.833333,0.166667],[0.055556,0.944444],[1.0,0.0],[0.041026,0.958974],[0.108108,0.891892],[0.057554,0.942446],[0.008696,0.991304],[0.0,1.0],[0.25,0.75],[0.291667,0.708333],[1.0,0.0],[0.0,1.0],[0.888889,0.111111],[0.0,1.0],[1.0,0.0]]},{"feature":[7,-2,7,8,12,-2,0,2,5,-2,-2,7,-2,-2,-2,-2,-2],"threshold":[-57.445883,-2.0,54.816324,22.170975,-67.303844,-2.0,10.936882,-18.029055,-30.944269,-2.0,-2.0,-16.381602,-2.0,-2.0,-2.0,-2.0,-2.0],"children_left":[1,-1,3,4,5,-1,7,8,9,-1,-1,12,-1,-1,-1,-1,-1],"children_right":[2,-1,16,15,6,-1,14,11,10,-1,-1,13,-1,-1,-1,-1,-1],"value":[[0.490278,0.509722],[1.0,0.0],[0.333938,0.666062],[0.117788,0.882212],[0.08933,0.91067],[1.0,0.0],[0.063776,0.936224],[0.149701,0.850299],[0.015038,0.984962],[0.0,1.0],[0.4,0.6],[0.676471,0.323529],[0.0,1.0],[1.0,0.0],[0.0,1.0],[1.0,0.0],[1.0,0.0]]},{"feature":[7,-2,7,3,0,0,3,-2,7,9,4,-2,-2,-2,-2,-2,-2,-2,-2],"threshold":[-57.320135,-2.0,53.583555,101.207079,140.680088,-168.412315,-8.791985,-2.0,42.002237,102.077972,-50.940121,-2.0,-2.0,-2.0,-2.0,-2.0,-2.0,-2.0,-2.0],"children_left":[1,-1,3,4,5,6,7,-1,9,10,11,-1,-1,-1,-1,-1,-1,-1,-1],"children_right":[2,-1,18,17,16,15,8,-1,14,13,12,-1,-1,-1,-1,-1,-1,-1,-1],"value":[[0.480556,0.519444],[1.0,0.0],[0.333333,0.666667],[0.103118,0.896882],[0.069652,0.930348],[0.162791,0.837209],[0.082803,0.917197],[0.0,1.0],[0.361111,0.638889],[0.206897,0.793103],[0.375,0.625],[0.1,0.9],[0.833333,0.166667],[0.0,1.0],[1.0,0.0],[1.0,0.0],[0.0,1.0],[1.0,0.0],[1.0,0.0]]},{"feature":[4,13,7,3,5,7,13,-2,-2,9,-2,-2,-2,-2,-2,-2,-2],"threshold":[110.24176,57.320135,53.790758,109.374571,50.502377,36.189011,-32.854342,-2.0,-2.0,60.395283,-2.0,-2.0,-2.0,-2.0,-2.0,-2.0,-2.0],"children_left":[1,2,3,4,5,6,7,-1,-1,10,-1,-1,-1,-1,-1,-1,-1],"children_right":[16,15,14,13,12,9,8,-1,-1,11,-1,-1,-1,-1,-1,-1,-1],"value":[[0.516667,0.483333],[0.344633,0.655367],[0.224944,0.775056],[0.105398,0.894602],[0.084211,0.915789],[0.192771,0.807229],[0.958333,0.041667],[0.857143,0.142857],[1.0,0.0],[0.06338,0.93662],[0.0,1.0],[0.818182,0.181818],[0.0,1.0],[1.0,0.0],[1.0,0.0],[1.0,0.0],[1.0,0.0]]},{"feature":[13,7,2,-2,4,9,6,2,11,-2,-2,-2,-2,-2,-2,-2,4,7,-2,-2,-2],"threshold":[54.945198,53.790758,-100.401678,-2.0,108.446808,107.328884,65.171055,-18.178007,119.221096,-2.0,-2.0,-2.0,-2.0,-2.0,-2.0,-2.0,55.674866,-63.434113,-2.0,-2.0,-2.0],"children_left":[1,2,3,-1,5,6,7,8,9,-1,-1,-1,-1,-1,-1,-1,17,18,-1,-1,-1],"children_right":[16,15,4,-1,14,13,12,11,10,-1,-1,-1,-1,-1,-1,-1,20,19,-1,-1,-1],"value":[[0.483333,0.516667],[0.321755,0.678245],[0.074813,0.925187],[1.0,0.0],[0.053571,0.946429],[0.044041,0.955959],[0.10559,0.89441],[0.033557,0.966443],[0.006944,0.993056],[0.25,0.75],[0.0,1.0],[0.8,0.2],[1.0,0.0],[0.0,1.0],[0.666667,0.333333],[1.0,0.0],[0.99422,0.00578],[0.979592,0.020408],[1.0,0.0],[0.833333,0.166667],[1.0,0.0]]},{"feature":[0,8,0,9,-2,-2,-2,2,8,10,-2,-2,11,3,-2,-2,-2,8,8,5,-2,-2,-2,-2,8,7,-2,2,-2,-2,-2],"threshold":[166.229836,-128.846123,-175.413116,57.474213,-2.0,-2.0,-2.0,-0.44586,-123.358841,104.167812,-2.0,-2.0,-96.482571,47.131207,-2.0,-2.0,-2.0,-16.141201,-66.192364,40.058779,-2.0,-2.0,-2.0,-2.0,-6.23735,-53.684772,-2.0,55.426971,-2.0,-2.0,-2.0],"children_left":[1,2,3,4,-1,-1,-1,8,9,10,-1,-1,13,14,-1,-1,-1,18,19,20,-1,-1,-1,-1,25,26,-1,28,-1,-1,-1],"children_right":[24,7,6,5,-1,-1,-1,17,12,11,-1,-1,16,15,-1,-1,-1,23,22,21,-1,-1,-1,-1,30,27,-1,29,-1,-1,-1],"value":[[0.519444,0.480556],[0.702407,0.297593],[0.23913,0.76087],[0.018692,0.981308],[0.0,1.0],[0.333333,0.666667],[1.0,0.0],[0.902821,0.097179],[0.97318,0.02682],[0.615385,0.384615],[1.0,0.0],[0.166667,0.833333],[0.991935,0.008065],[0.96,0.04],[1.0,0.0],[0.8,0.2],[1.0,0.0],[0.586207,0.413793],[0.368421,0.631579],[0.933333,0.066667],[1.0,0.0],[0.8,0.2],[0.0,1.0],[1.0,0.0],[0.201521,0.798479],[0.066667,0.933333],[1.0,0.0],[0.027778,0.972222],[0.0,1.0],[0.75,0.25],[1.0,0.0]]},{"feature":[7,-2,7,3,12,7,-2,8,2,-2,10,-2,-2,3,-2,-2,-2,-2,-2],"threshold":[-57.445883,-2.0,53.790758,101.54777,57.33147,-12.621567,-2.0,-127.729599,-25.554552,-2.0,135.893486,-2.0,-2.0,0.209666,-2.0,-2.0,-2.0,-2.0,-2.0],"children_left":[1,-1,3,4,5,6,-1,8,9,-1,11,-1,-1,14,-1,-1,-1,-1,-1],"children_right":[2,-1,18,17,16,7,-1,13,10,-1,12,-1,-1,15,-1,-1,-1,-1,-1],"value":[[0.509722,0.490278],[1.0,0.0],[0.355839,0.644161],[0.128395,0.871605],[0.092545,0.907455],[0.06366,0.93634],[0.0,1.0],[0.144578,0.855422],[0.013986,0.986014],[0.0,1.0],[0.181818,0.818182],[0.5,0.5],[0.0,1.0],[0.956522,0.043478],[0.833333,0.166667],[1.0,0.0],[1.0,0.0],[1.0,0.0],[1.0,0.0]]},{"feature":[2,10,8,8,-2,-2,5,9,3,1,-2,-2,-2,-2,9,3,-2,-2,9,-2,-2,5,8,-2,-2,7,5,-2,-2,-2,5,-2,6,8,-2,-2,-2],"threshold":[19.667163,122.597519,-146.652473,-156.729874,-2.0,-2.0,58.502457,56.060177,45.763145,-165.908157,-2.0,-2.0,-2.0,-2.0,133.62458,-2.451154,-2.0,-2.0,159.00135,-2.0,-2.0,-29.424987,-118.237457,-2.0,-2.0,-31.002357,120.151733,-2.0,-2.0,-2.0,8.643494,-2.0,-23.802948,-10.658769,-2.0,-2.0,-2.0],"children_left":[1,2,3,4,-1,-1,7,8,9,10,-1,-1,-1,-1,15,16,-1,-1,19,-1,-1,22,23,-1,-1,26,27,-1,-1,-1,31,-1,33,34,-1,-1,-1],"children_right":[30,21,6,5,-1,-1,14,13,12,11,-1,-1,-1,-1,18,17,-1,-1,20,-1,-1,25,24,-1,-1,29,28,-1,-1,-1,32,-1,36,35,-1,-1,-1],"value":[[0.472222,0.527778],[0.667387,0.332613],[0.940767,0.059233],[0.708333,0.291667],[1.0,0.0],[0.0,1.0],[0.961977,0.038023],[0.995455,0.004545],[0.984848,0.015152],[0.928571,0.071429],[0.75,0.25],[1.0,0.0],[1.0,0.0],[1.0,0.0],[0.790698,0.209302],[0.967742,0.032258],[1.0,0.0],[0.833333,0.166667],[0.333333,0.666667],[0.0,1.0],[0.8,0.2],[0.221591,0.778409],[0.106667,0.893333],[0.0,1.0],[1.0,0.0],[0.884615,0.115385],[0.7,0.3],[0.25,0.75],[1.0,0.0],[1.0,0.0],[0.120623,0.879377],[1.0,0.0],[0.0131,0.9869],[0.004444,0.995556],[0.0,1.0],[0.2,0.8],[0.5,0.5]]},{"feature":[5,-2,6,-2,12,-2,9,-2,1,8,-2,1,13,-2,-2,-2,8,7,-2,-2,-2],"threshold":[-112.238739,-2.0,-57.357365,-2.0,-67.303844,-2.0,25.104827,-2.0,160.853279,-127.654362,-2.0,-170.20295,25.404549,-2.0,-2.0,-2.0,-9.957153,51.867613,-2.0,-2.0,-2.0],"children_left":[1,-1,3,-1,5,-1,7,-1,9,10,-1,12,13,-1,-1,-1,17,18,-1,-1,-1],"children_right":[2,-1,4,-1,6,-1,8,-1,16,11,-1,15,14,-1,-1,-1,20,19,-1,-1,-1],"value":[[0.4875,0.5125],[1.0,0.0],[0.293103,0.706897],[1.0,0.0],[0.157534,0.842466],[1.0,0.0],[0.065823,0.934177],[1.0,0.0],[0.039062,0.960938],[0.096296,0.903704],[0.0,1.0],[0.191176,0.808824],[0.035088,0.964912],[0.4,0.6],[0.0,1.0],[1.0,0.0],[0.008032,0.991968],[0.004082,0.995918],[0.0,1.0],[0.090909,0.909091],[0.25,0.75]]},{"feature":[5,-2,6,-2,9,-2,1,12,-2,1,7,9,-2,-2,-2,2,-2,-2,12,-2,2,-2,13,-2,-2],"threshold":[-111.818005,-2.0,-57.357365,-2.0,31.310506,-2.0,162.965454,-67.362785,-2.0,-168.376793,34.318319,138.642601,-2.0,-2.0,-2.0,-16.716584,-2.0,-2.0,-61.21685,-2.0,-43.089458,-2.0,-51.164785,-2.0,-2.0],"children_left":[1,-1,3,-1,5,-1,7,8,-1,10,11,12,-1,-1,-1,16,-1,-1,19,-1,21,-1,23,-1,-1],"children_right":[2,-1,4,-1,6,-1,18,9,-1,15,14,13,-1,-1,-1,17,-1,-1,20,-1,22,-1,24,-1,-1],"value":[[0.5,0.5],[1.0,0.0],[0.309021,0.690979],[1.0,0.0],[0.2,0.8],[1.0,0.0],[0.148936,0.851064],[0.304054,0.695946],[1.0,0.0],[0.176,0.824],[0.009709,0.990291],[0.037037,0.962963],[0.25,0.75],[0.0,1.0],[0.0,1.0],[0.954545,0.045455],[0.857143,0.142857],[1.0,0.0],[0.065455,0.934545],[1.0,0.0],[0.011538,0.988462],[0.4,0.6],[0.003922,0.996078],[0.166667,0.833333],[0.0,1.0]]},{"feature":[4,6,12,3,13,-2,5,7,3,5,-2,-2,-2,3,-2,11,-2,-2,-2,-2,-2,-2,-2],"threshold":[110.183323,69.394901,57.33147,57.189325,-53.381649,-2.0,64.643654,33.737738,24.587543,25.908864,-2.0,-2.0,-2.0,-8.737332,-2.0,112.49572,-2.0,-2.0,-2.0,-2.0,-2.0,-2.0,-2.0],"children_left":[1,2,3,4,5,-1,7,8,9,10,-1,-1,-1,14,-1,16,-1,-1,-1,-1,-1,-1,-1],"children_right":[22,21,20,19,6,-1,18,13,12,11,-1,-1,-1,15,-1,17,-1,-1,-1,-1,-1,-1,-1],"value":[[0.479167,0.520833],[0.282983,0.717017],[0.183007,0.816993],[0.080882,0.919118],[0.06015,0.93985],[0.625,0.375],[0.048593,0.951407],[0.098446,0.901554],[0.4,0.6],[0.888889,0.111111],[1.0,0.0],[0.666667,0.333333],[0.0,1.0],[0.019608,0.980392],[0.0,1.0],[0.272727,0.727273],[0.5,0.5],[0.142857,0.857143],[0.0,1.0],[1.0,0.0],[1.0,0.0],[1.0,0.0],[1.0,0.0]]},{"feature":[7,2,-2,-2,6,13,-2,9,-2,1,12,10,10,6,-2,-2,-2,2,-2,-2,-2,-2,-2],"threshold":[-54.945198,9.679304,-2.0,-2.0,62.084604,-55.973221,-2.0,-32.148115,-2.0,162.816116,43.112604,171.596504,120.285408,38.822865,-2.0,-2.0,-2.0,-31.810393,-2.0,-2.0,-2.0,-2.0,-2.0],"children_left":[1,2,-1,-1,5,6,-1,8,-1,10,11,12,13,14,-1,-1,-1,18,-1,-1,-1,-1,-1],"children_right":[4,3,-1,-1,22,7,-1,9,-1,21,20,17,16,15,-1,-1,-1,19,-1,-1,-1,-1,-1],"value":[[0.463889,0.536111],[0.994118,0.005882],[1.0,0.0],[0.833333,0.166667],[0.3,0.7],[0.172043,0.827957],[1.0,0.0],[0.067797,0.932203],[1.0,0.0],[0.032663,0.967337],[0.104839,0.895161],[0.076271,0.923729],[0.037736,0.962264],[0.097561,0.902439],[0.0,1.0],[0.5,0.5],[0.0,1.0],[0.416667,0.583333],[0.0,1.0],[0.625,0.375],[0.666667,0.333333],[0.0,1.0],[1.0,0.0]]},{"feature":[5,-2,7,9,-2,3,-2,-2,13,-2,2,-2,13,2,-2,3,-2,-2,0,11,-2,-2,-2],"threshold":[-112.238739,-2.0,-54.945198,139.205002,-2.0,25.674232,-2.0,-2.0,-54.631666,-2.0,-100.401678,-2.0,12.727777,-20.708708,-2.0,1.909861,-2.0,-2.0,138.231548,-113.723145,-2.0,-2.0,-2.0],"children_left":[1,-1,3,4,-1,6,-1,-1,9,-1,11,-1,13,14,-1,16,-1,-1,19,20,-1,-1,-1],"children_right":[2,-1,8,5,-1,7,-1,-1,10,-1,12,-1,18,15,-1,17,-1,-1,22,21,-1,-1,-1],"value":[[0.504167,0.495833],[1.0,0.0],[0.326415,0.673585],[0.989583,0.010417],[1.0,0.0],[0.947368,0.052632],[1.0,0.0],[0.8,0.2],[0.179724,0.820276],[1.0,0.0],[0.11,0.89],[1.0,0.0],[0.07772,0.92228],[0.157303,0.842697],[0.0,1.0],[0.903226,0.096774],[0.571429,0.428571],[1.0,0.0],[0.009615,0.990385],[0.111111,0.888889],[0.0,1.0],[0.4,0.6],[0.0,1.0]]},{"feature":[12,5,-2,12,0,-2,-2,3,7,-2,11,5,2,8,-2,-2,-2,-2,1,-2,-2,-2,-2],"threshold":[56.321375,-114.173073,-2.0,-61.964415,-172.958939,-2.0,-2.0,79.580946,-52.743155,-2.0,177.448006,19.505305,-17.381603,-126.526897,-2.0,-2.0,-2.0,-2.0,176.826439,-2.0,-2.0,-2.0,-2.0],"children_left":[1,2,-1,4,5,-1,-1,8,9,-1,11,12,13,14,-1,-1,-1,-1,19,-1,-1,-1,-1],"children_right":[22,3,-1,7,6,-1,-1,21,10,-1,18,17,16,15,-1,-1,-1,-1,20,-1,-1,-1,-1],"value":[[0.486111,0.513889],[0.323583,0.676417],[1.0,0.0],[0.159091,0.840909],[0.981132,0.018868],[0.8,0.2],[1.0,0.0],[0.046512,0.953488],[0.031496,0.968504],[0.6,0.4],[0.023936,0.976064],[0.016484,0.983516],[0.037267,0.962733],[0.00641,0.99359],[0.0,1.0],[0.25,0.75],[1.0,0.0],[0.0,1.0],[0.25,0.75],[0.5,0.5],[0.0,1.0],[1.0,0.0],[1.0,0.0]]},{"feature":[4,6,13,2,-2,5,-2,4,-2,13,-2,13,13,2,-2,-2,-2,-2,-2,-2,-2],"threshold":[109.185604,63.150753,57.320135,-64.219137,-2.0,-90.707779,-2.0,-107.150314,-2.0,-52.591938,-2.0,10.694866,-33.331745,-20.460588,-2.0,-2.0,-2.0,-2.0,-2.0,-2.0,-2.0],"children_left":[1,2,3,4,-1,6,-1,8,-1,10,-1,12,13,14,-1,-1,-1,-1,-1,-1,-1],"children_right":[20,19,18,5,-1,7,-1,9,-1,11,-1,17,16,15,-1,-1,-1,-1,-1,-1,-1],"value":[[0.484722,0.515278],[0.291985,0.708015],[0.188184,0.811816],[0.097324,0.902676],[1.0,0.0],[0.065491,0.934509],[0.833333,0.166667],[0.053708,0.946292],[1.0,0.0],[0.033943,0.966057],[0.75,0.25],[0.018667,0.981333],[0.040936,0.959064],[0.017964,0.982036],[0.0,1.0],[0.6,0.4],[1.0,0.0],[0.0,1.0],[1.0,0.0],[1.0,0.0],[1.0,0.0]]},{"feature":[12,-2,6,-2,8,4,4,3,-2,-2,13,-2,-2,9,-2,-2,-2],"threshold":[-62.084604,-2.0,-56.321375,-2.0,48.072274,52.714022,-45.998577,-2.650828,-2.0,-2.0,-1.95313,-2.0,-2.0,113.072353,-2.0,-2.0,-2.0],"children_left":[1,-1,3,-1,5,6,7,8,-1,-1,11,-1,-1,14,-1,-1,-1],"children_right":[2,-1,4,-1,16,13,10,9,-1,-1,12,-1,-1,15,-1,-1,-1],"value":[[0.486111,0.513889],[1.0,0.0],[0.333333,0.666667],[1.0,0.0],[0.084158,0.915842],[0.063291,0.936709],[0.126316,0.873684],[0.017964,0.982036],[0.0,1.0],[0.6,0.4],[0.913043,0.086957],[1.0,0.0],[0.6,0.4],[0.004878,0.995122],[0.166667,0.833333],[0.0,1.0],[1.0,0.0]]},{"feature":[2,-2,12,-2,4,8,13,13,-2,11,9,3,-2,-2,-2,-2,-2,-2,-2],"threshold":[-46.722589,-2.0,-62.251207,-2.0,119.544102,-6.23735,57.320135,-56.180424,-2.0,178.294174,103.179775,-3.153704,-2.0,-2.0,-2.0,-2.0,-2.0,-2.0,-2.0],"children_left":[1,-1,3,-1,5,6,7,8,-1,10,11,12,-1,-1,-1,-1,-1,-1,-1],"children_right":[2,-1,4,-1,18,17,16,9,-1,15,14,13,-1,-1,-1,-1,-1,-1,-1],"value":[[0.511111,0.488889],[1.0,0.0],[0.379189,0.620811],[1.0,0.0],[0.20362,0.79638],[0.115578,0.884422],[0.092784,0.907216],[0.038251,0.961749],[1.0,0.0],[0.01676,0.98324],[0.014164,0.985836],[0.033557,0.966443],[0.0,1.0],[0.625,0.375],[0.0,1.0],[0.2,0.8],[1.0,0.0],[1.0,0.0],[1.0,0.0]]},{"feature":[4,6,2,-2,12,13,3,7,-2,-2,-2,-2,-2,-2,-2],"threshold":[110.183323,64.096296,-51.672131,-2.0,56.321375,11.810512,1.909861,35.876982,-2.0,-2.0,-2.0,-2.0,-2.0,-2.0,-2.0],"children_left":[1,2,3,-1,5,6,7,8,-1,-1,-1,-1,-1,-1,-1],"children_right":[14,13,4,-1,12,11,10,9,-1,-1,-1,-1,-1,-1,-1],"value":[[0.498611,0.501389],[0.321429,0.678571],[0.210066,0.789934],[1.0,0.0],[0.125908,0.874092],[0.034759,0.965241],[0.082803,0.917197],[0.006897,0.993103],[0.142857,0.857143],[0.0,1.0],[1.0,0.0],[0.0,1.0],[1.0,0.0],[1.0,0.0],[1.0,0.0]]},{"feature":[2,0,8,-2,11,-2,-2,4,9,9,-2,-2,-2,3,-2,5,-2,-2,12,-2,-2],"threshold":[15.260657,-176.95787,-123.34779,-2.0,-107.187065,-2.0,-2.0,-48.881266,56.265642,36.532318,-2.0,-2.0,-2.0,29.400165,-2.0,58.502457,-2.0,-2.0,-19.468023,-2.0,-2.0],"children_left":[1,2,3,-1,5,-1,-1,8,9,10,-1,-1,-1,14,-1,16,-1,-1,19,-1,-1],"children_right":[18,7,4,-1,6,-1,-1,13,12,11,-1,-1,-1,15,-1,17,-1,-1,20,-1,-1],"value":[[0.483333,0.516667],[0.661017,0.338983],[0.2,0.8],[0.0,1.0],[0.966667,0.033333],[0.833333,0.166667],[1.0,0.0],[0.865443,0.134557],[0.457143,0.542857],[0.116279,0.883721],[0.833333,0.166667],[0.0,1.0],[1.0,0.0],[0.976654,0.023346],[1.0,0.0],[0.9375,0.0625],[1.0,0.0],[0.142857,0.857143],[0.145161,0.854839],[1.0,0.0],[0.0,1.0]]},{"feature":[6,0,4,3,-2,3,-2,-2,12,4,-2,12,-2,-2,-2,8,12,-2,-2,-2,12,-2,-2],"threshold":[61.964415,164.822395,-47.108652,-80.179434,-2.0,7.173525,-2.0,-2.0,56.321375,53.636854,-2.0,36.811399,-2.0,-2.0,-2.0,-6.23735,58.147785,-2.0,-2.0,-2.0,-66.885197,-2.0,-2.0],"children_left":[1,2,3,4,-1,6,-1,-1,9,10,-1,12,-1,-1,-1,16,17,-1,-1,-1,21,-1,-1],"children_right":[20,15,8,5,-1,7,-1,-1,14,11,-1,13,-1,-1,-1,19,18,-1,-1,-1,22,-1,-1],"value":[[0.495833,0.504167],[0.328386,0.671614],[0.538732,0.461268],[0.101695,0.898305],[1.0,0.0],[0.053571,0.946429],[0.0,1.0],[1.0,0.0],[0.849398,0.150602],[0.479167,0.520833],[1.0,0.0],[0.074074,0.925926],[0.5,0.5],[0.0,1.0],[1.0,0.0],[0.094118,0.905882],[0.045455,0.954545],[0.0,1.0],[1.0,0.0],[1.0,0.0],[0.994475,0.005525],[1.0,0.0],[0.9,0.1]]},{"feature":[6,13,7,8,12,11,8,2,-2,-2,-2,-2,-2,-2,-2,-2,-2],"threshold":[62.371397,55.13269,56.358021,22.567764,54.054602,176.63913,-96.179955,-17.381603,-2.0,-2.0,-2.0,-2.0,-2.0,-2.0,-2.0,-2.0,-2.0],"children_left":[1,2,3,4,5,6,7,8,-1,-1,-1,-1,-1,-1,-1,-1,-1],"children_right":[16,15,14,13,12,11,10,9,-1,-1,-1,-1,-1,-1,-1,-1,-1],"value":[[0.501389,0.498611],[0.332714,0.667286],[0.219565,0.780435],[0.077121,0.922879],[0.055263,0.944737],[0.040214,0.959786],[0.032787,0.967213],[0.077922,0.922078],[0.0,1.0],[1.0,0.0],[0.0,1.0],[0.428571,0.571429],[0.857143,0.142857],[1.0,0.0],[1.0,0.0],[1.0,0.0],[1.0,0.0]]},{"feature":[12,-2,12,9,-2,11,10,3,13,10,-2,-2,6,-2,-2,7,-2,-2,7,12,-2,-2,-2,3,-2,-2,-2],"threshold":[-61.964415,-2.0,56.321375,-32.148115,-2.0,176.193985,135.299225,24.542549,-34.740021,123.094215,-2.0,-2.0,0.187706,-2.0,-2.0,-24.993717,-2.0,-2.0,21.156307,24.93679,-2.0,-2.0,-2.0,35.350424,-2.0,-2.0,-2.0],"children_left":[1,-1,3,4,-1,6,7,8,9,10,-1,-1,13,-1,-1,16,-1,-1,19,20,-1,-1,-1,24,-1,-1,-1],"children_right":[2,-1,26,5,-1,23,18,15,12,11,-1,-1,14,-1,-1,17,-1,-1,22,21,-1,-1,-1,25,-1,-1,-1],"value":[[0.494444,0.505556],[1.0,0.0],[0.295938,0.704062],[0.083123,0.916877],[1.0,0.0],[0.054545,0.945455],[0.04065,0.95935],[0.083832,0.916168],[0.48,0.52],[0.142857,0.857143],[0.5,0.5],[0.0,1.0],[0.909091,0.090909],[0.8,0.2],[1.0,0.0],[0.014085,0.985915],[0.0,1.0],[0.4,0.6],[0.00495,0.99505],[0.016393,0.983607],[0.166667,0.833333],[0.0,1.0],[0.0,1.0],[0.375,0.625],[0.666667,0.333333],[0.0,1.0],[1.0,0.0]]},{"feature":[2,7,-2,3,11,-2,10,-2,-2,11,2,5,-2,-2,-2,-2,7,12,-2,-2,-2],"threshold":[15.260657,-54.197878,-2.0,-0.397797,107.08329,-2.0,121.78405,-2.0,-2.0,-86.668358,-6.083304,50.32201,-2.0,-2.0,-2.0,-2.0,16.759368,52.146866,-2.0,-2.0,-2.0],"children_left":[1,2,-1,4,5,-1,7,-1,-1,10,11,12,-1,-1,-1,-1,17,18,-1,-1,-1],"children_right":[16,3,-1,9,6,-1,8,-1,-1,15,14,13,-1,-1,-1,-1,20,19,-1,-1,-1],"value":[[0.470833,0.529167],[0.66,0.34],[1.0,0.0],[0.49505,0.50495],[0.072848,0.927152],[1.0,0.0],[0.007092,0.992908],[0.2,0.8],[0.0,1.0],[0.914474,0.085526],[0.717391,0.282609],[0.941176,0.058824],[1.0,0.0],[0.6,0.4],[0.083333,0.916667],[1.0,0.0],[0.155556,0.844444],[0.004367,0.995633],[0.0,1.0],[0.2,0.8],[1.0,0.0]]},{"feature":[5,-2,2,-2,13,1,-2,-2,7,-2,4,-2,8,2,-2,7,4,-2,-2,2,-2,-2,-2],"threshold":[-112.696209,-2.0,-47.187412,-2.0,-52.447174,-172.934914,-2.0,-2.0,-66.068727,-2.0,-86.020744,-2.0,-82.938591,-20.708708,-2.0,37.281708,-11.011005,-2.0,-2.0,-18.137403,-2.0,-2.0,-2.0],"children_left":[1,-1,3,-1,5,6,-1,-1,9,-1,11,-1,13,14,-1,16,17,-1,-1,20,-1,-1,-1],"children_right":[2,-1,4,-1,8,7,-1,-1,10,-1,12,-1,22,15,-1,19,18,-1,-1,21,-1,-1,-1],"value":[[0.488889,0.511111],[1.0,0.0],[0.30038,0.69962],[1.0,0.0],[0.185841,0.814159],[0.970588,0.029412],[0.75,0.25],[1.0,0.0],[0.12201,0.87799],[1.0,0.0],[0.061381,0.938619],[0.833333,0.166667],[0.049351,0.950649],[0.102703,0.897297],[0.0,1.0],[0.703704,0.296296],[0.882353,0.117647],[1.0,0.0],[0.6,0.4],[0.4,0.6],[0.0,1.0],[1.0,0.0],[0.0,1.0]]},{"feature":[5,-2,13,7,9,-2,6,5,10,4,-2,-2,5,-2,-2,-2,-2,-2,-2],"threshold":[-113.752338,-2.0,53.894077,56.180424,-32.394707,-2.0,65.171055,33.48421,119.276493,-41.178282,-2.0,-2.0,-30.944269,-2.0,-2.0,-2.0,-2.0,-2.0,-2.0],"children_left":[1,-1,3,4,5,-1,7,8,9,10,-1,-1,13,-1,-1,-1,-1,-1,-1],"children_right":[2,-1,18,17,6,-1,16,15,12,11,-1,-1,14,-1,-1,-1,-1,-1,-1],"value":[[0.451389,0.548611],[1.0,0.0],[0.257519,0.742481],[0.163136,0.836864],[0.083527,0.916473],[1.0,0.0],[0.066194,0.933806],[0.041262,0.958738],[0.092391,0.907609],[0.928571,0.071429],[0.8,0.2],[1.0,0.0],[0.023529,0.976471],[0.0,1.0],[0.666667,0.333333],[0.0,1.0],[1.0,0.0],[1.0,0.0],[1.0,0.0]]},{"feature":[5,-2,12,6,2,-2,12,4,-2,-2,4,2,-2,8,-2,-2,-2,0,-2,-2,-2],"threshold":[-114.173073,-2.0,56.866251,62.084604,-100.401678,-2.0,-57.316023,-56.421156,-2.0,-2.0,21.235146,-21.661958,-2.0,-104.177216,-2.0,-2.0,-2.0,-172.815002,-2.0,-2.0,-2.0],"children_left":[1,-1,3,4,5,-1,7,8,-1,-1,11,12,-1,14,-1,-1,-1,18,-1,-1,-1],"children_right":[2,-1,20,17,6,-1,10,9,-1,-1,16,13,-1,15,-1,-1,-1,19,-1,-1,-1],"value":[[0.501389,0.498611],[1.0,0.0],[0.304264,0.695736],[0.198661,0.801339],[0.074935,0.925065],[1.0,0.0],[0.045333,0.954667],[0.294118,0.705882],[0.0,1.0],[0.833333,0.166667],[0.03352,0.96648],[0.077922,0.922078],[0.0,1.0],[0.923077,0.076923],[0.75,0.25],[1.0,0.0],[0.0,1.0],[0.983607,0.016393],[0.8,0.2],[1.0,0.0],[1.0,0.0]]},{"feature":[5,-2,7,11,-2,-2,6,12,5,4,2,-2,-2,-2,9,-2,-2,-2,-2],"threshold":[-112.238739,-2.0,-54.945198,-110.729172,-2.0,-2.0,62.084604,56.892145,27.04444,-45.068388,-24.436474,-2.0,-2.0,-2.0,116.627174,-2.0,-2.0,-2.0,-2.0],"children_left":[1,-1,3,4,-1,-1,7,8,9,10,11,-1,-1,-1,15,-1,-1,-1,-1],"children_right":[2,-1,6,5,-1,-1,18,17,14,13,12,-1,-1,-1,16,-1,-1,-1,-1],"value":[[0.488889,0.511111],[1.0,0.0],[0.310861,0.689139],[0.988764,0.011236],[0.857143,0.142857],[1.0,0.0],[0.175281,0.824719],[0.087065,0.912935],[0.044271,0.955729],[0.098765,0.901235],[0.006803,0.993197],[0.0,1.0],[0.2,0.8],[1.0,0.0],[0.004505,0.995495],[0.2,0.8],[0.0,1.0],[1.0,0.0],[1.0,0.0]]},{"feature":[8,7,6,7,-2,0,9,2,-2,-2,3,-2,3,-2,-2,-2,-2,0,-2,0,-2,-2,-2],"threshold":[-6.23735,52.590132,64.68697,-59.090605,-2.0,87.698362,76.829357,-19.332355,-2.0,-2.0,27.581456,-2.0,46.387714,-2.0,-2.0,-2.0,-2.0,-176.781654,-2.0,94.958477,-2.0,-2.0,-2.0],"children_left":[1,2,3,4,-1,6,7,8,-1,-1,11,-1,13,-1,-1,-1,-1,18,-1,20,-1,-1,-1],"children_right":[22,17,16,5,-1,15,10,9,-1,-1,12,-1,14,-1,-1,-1,-1,19,-1,21,-1,-1,-1],"value":[[0.529167,0.470833],[0.411458,0.588542],[0.272138,0.727862],[0.129199,0.870801],[1.0,0.0],[0.034384,0.965616],[0.082759,0.917241],[0.018018,0.981982],[0.0,1.0],[0.5,0.5],[0.294118,0.705882],[1.0,0.0],[0.04,0.96],[0.0,1.0],[0.2,0.8],[0.0,1.0],[1.0,0.0],[0.982301,0.017699],[0.8,0.2],[0.990741,0.009259],[1.0,0.0],[0.857143,0.142857],[1.0,0.0]]},{"feature":[7,7,5,-2,1,-2,-2,4,-2,12,-2,9,-2,12,0,5,8,-2,-2,9,2,-2,-2,-2,-2,-2,-2],"threshold":[53.583555,-54.945198,57.851784,-2.0,165.768082,-2.0,-2.0,-83.715435,-2.0,-65.050865,-2.0,-33.860964,-2.0,51.789576,10.936882,-36.073055,-129.440948,-2.0,-2.0,93.296143,-15.812935,-2.0,-2.0,-2.0,-2.0,-2.0,-2.0],"children_left":[1,2,3,-1,5,-1,-1,8,-1,10,-1,12,-1,14,15,16,17,-1,-1,20,21,-1,-1,-1,-1,-1,-1],"children_right":[26,7,4,-1,6,-1,-1,9,-1,11,-1,13,-1,25,24,19,18,-1,-1,23,22,-1,-1,-1,-1,-1,-1],"value":[[0.456944,0.543056],[0.31162,0.68838],[0.993421,0.006579],[1.0,0.0],[0.970588,0.029412],[1.0,0.0],[0.857143,0.142857],[0.0625,0.9375],[0.8,0.2],[0.053528,0.946472],[1.0,0.0],[0.041872,0.958128],[1.0,0.0],[0.0275,0.9725],[0.022785,0.977215],[0.056604,0.943396],[0.008547,0.991453],[0.0,1.0],[0.25,0.75],[0.190476,0.809524],[0.5,0.5],[0.111111,0.888889],[1.0,0.0],[0.0,1.0],[0.0,1.0],[0.4,0.6],[1.0,0.0]]},{"feature":[5,-2,13,2,-2,6,11,9,10,13,-2,-2,8,-2,-2,-2,9,-2,-2,0,-2,-2,2,-2,-2],"threshold":[-113.116943,-2.0,54.945198,-58.401661,-2.0,62.084604,176.193985,111.241051,119.276493,-50.772594,-2.0,-2.0,-123.372486,-2.0,-2.0,-2.0,120.78093,-2.0,-2.0,-174.601585,-2.0,-2.0,3.029568,-2.0,-2.0],"children_left":[1,-1,3,4,-1,6,7,8,9,10,-1,-1,13,-1,-1,-1,17,-1,-1,20,-1,-1,23,-1,-1],"children_right":[2,-1,22,5,-1,19,16,15,12,11,-1,-1,14,-1,-1,-1,18,-1,-1,21,-1,-1,24,-1,-1],"value":[[0.513889,0.486111],[1.0,0.0],[0.330784,0.669216],[0.206818,0.793182],[1.0,0.0],[0.144608,0.855392],[0.059621,0.940379],[0.042373,0.957627],[0.097403,0.902597],[0.846154,0.153846],[0.75,0.25],[0.888889,0.111111],[0.028369,0.971631],[0.0,1.0],[0.8,0.2],[0.0,1.0],[0.466667,0.533333],[0.875,0.125],[0.0,1.0],[0.948718,0.051282],[0.6,0.4],[1.0,0.0],[0.987952,0.012048],[1.0,0.0],[0.833333,0.166667]]},{"feature":[4,2,-2,4,0,-2,-2,6,-2,3,6,13,-2,0,4,13,-2,-2,7,-2,-2,-2,-2,-2,-2],"threshold":[108.781158,-48.382698,-2.0,-83.157772,-172.218102,-2.0,-2.0,-59.784372,-2.0,83.685438,67.303844,-53.566307,-2.0,10.936882,-46.946358,-35.876982,-2.0,-2.0,-12.761217,-2.0,-2.0,-2.0,-2.0,-2.0,-2.0],"children_left":[1,2,-1,4,5,-1,-1,8,-1,10,11,12,-1,14,15,16,-1,-1,19,-1,-1,-1,-1,-1,-1],"children_right":[24,3,-1,7,6,-1,-1,9,-1,23,22,13,-1,21,18,17,-1,-1,20,-1,-1,-1,-1,-1,-1],"value":[[0.5,0.5],[0.33945,0.66055],[1.0,0.0],[0.246862,0.753138],[0.983333,0.016667],[0.857143,0.142857],[1.0,0.0],[0.141148,0.858852],[1.0,0.0],[0.084184,0.915816],[0.065104,0.934896],[0.040107,0.959893],[0.75,0.25],[0.032432,0.967568],[0.076923,0.923077],[0.007937,0.992063],[0.0,1.0],[0.125,0.875],[0.366667,0.633333],[0.0,1.0],[1.0,0.0],[0.0,1.0],[1.0,0.0],[1.0,0.0],[1.0,0.0]]},{"feature":[6,10,3,6,11,-2,4,-2,-2,5,-2,-2,13,-2,4,12,-2,-2,-2,9,-2,12,-2,4,-2,-2,-2],"threshold":[62.084604,138.008423,24.754902,42.076883,-109.627766,-2.0,32.042649,-2.0,-2.0,-30.944269,-2.0,-2.0,13.39844,-2.0,126.227425,69.064941,-2.0,-2.0,-2.0,-31.812851,-2.0,-30.133533,-2.0,24.814705,-2.0,-2.0,-2.0],"children_left":[1,2,3,4,5,-1,7,-1,-1,10,-1,-1,13,-1,15,16,-1,-1,-1,20,-1,22,-1,24,-1,-1,-1],"children_right":[26,19,12,9,6,-1,8,-1,-1,11,-1,-1,14,-1,18,17,-1,-1,-1,21,-1,23,-1,25,-1,-1,-1],"value":[[0.501389,0.498611],[0.325188,0.674812],[0.489028,0.510972],[0.854701,0.145299],[0.98,0.02],[0.833333,0.166667],[0.989362,0.010638],[0.875,0.125],[1.0,0.0],[0.117647,0.882353],[0.0,1.0],[0.5,0.5],[0.277228,0.722772],[1.0,0.0],[0.081761,0.918239],[0.039474,0.960526],[0.0,1.0],[1.0,0.0],[1.0,0.0],[0.079812,0.920188],[1.0,0.0],[0.039216,0.960784],[0.0,1.0],[0.117647,0.882353],[1.0,0.0],[0.0,1.0],[1.0,0.0]]},{"feature":[6,6,-2,9,-2,3,4,13,-2,-2,9,-2,-2,8,-2,-2,-2],"threshold":[61.964415,-56.321375,-2.0,-32.148115,-2.0,24.743724,-45.998577,-36.30265,-2.0,-2.0,128.897011,-2.0,-2.0,-64.176661,-2.0,-2.0,-2.0],"children_left":[1,2,-1,4,-1,6,7,8,-1,-1,11,-1,-1,14,-1,-1,-1],"children_right":[16,3,-1,5,-1,13,10,9,-1,-1,12,-1,-1,15,-1,-1,-1],"value":[[0.497222,0.502778],[0.322097,0.677903],[1.0,0.0],[0.069409,0.930591],[1.0,0.0],[0.057292,0.942708],[0.129032,0.870968],[0.007463,0.992537],[0.0,1.0],[0.2,0.8],[0.904762,0.095238],[1.0,0.0],[0.6,0.4],[0.008734,0.991266],[0.333333,0.666667],[0.0,1.0],[1.0,0.0]]},{"feature":[6,12,3,0,8,2,-2,-2,4,-2,13,-2,-2,-2,-2,-2,-2],"threshold":[66.885197,56.321375,71.52667,27.480461,-123.34779,-19.938757,-2.0,-2.0,50.94562,-2.0,37.150417,-2.0,-2.0,-2.0,-2.0,-2.0,-2.0],"children_left":[1,2,3,4,5,6,-1,-1,9,-1,11,-1,-1,-1,-1,-1,-1],"children_right":[16,15,14,13,8,7,-1,-1,10,-1,12,-1,-1,-1,-1,-1,-1],"value":[[0.490278,0.509722],[0.325368,0.674632],[0.068528,0.931472],[0.036745,0.963255],[0.097222,0.902778],[0.008621,0.991379],[0.0,1.0],[0.25,0.75],[0.464286,0.535714],[1.0,0.0],[0.0625,0.9375],[0.2,0.8],[0.0,1.0],[0.0,1.0],[1.0,0.0],[1.0,0.0],[1.0,0.0]]},{"feature":[7,13,6,9,-2,5,4,2,-2,-2,-2,-2,-2,-2,-2],"threshold":[55.023527,57.320135,69.508469,-32.148115,-2.0,49.895988,-45.916204,-19.761537,-2.0,-2.0,-2.0,-2.0,-2.0,-2.0,-2.0],"children_left":[1,2,3,4,-1,6,7,8,-1,-1,-1,-1,-1,-1,-1],"children_right":[14,13,12,5,-1,11,10,9,-1,-1,-1,-1,-1,-1,-1],"value":[[0.475,0.525],[0.333333,0.666667],[0.089157,0.910843],[0.059701,0.940299],[1.0,0.0],[0.045455,0.954545],[0.102857,0.897143],[0.006329,0.993671],[0.0,1.0],[0.25,0.75],[1.0,0.0],[0.0,1.0],[1.0,0.0],[1.0,0.0],[1.0,0.0]]},{"feature":[13,4,13,-2,2,-2,4,-2,8,13,8,6,2,-2,-2,-2,-2,-2,-2,-2,-2],"threshold":[57.320135,119.139656,-56.180424,-2.0,-100.322617,-2.0,-86.374924,-2.0,-83.275402,-33.737738,-125.345299,60.924715,-23.699279,-2.0,-2.0,-2.0,-2.0,-2.0,-2.0,-2.0,-2.0],"children_left":[1,2,3,-1,5,-1,7,-1,9,10,11,12,13,-1,-1,-1,-1,-1,-1,-1,-1],"children_right":[20,19,4,-1,6,-1,8,-1,18,17,16,15,14,-1,-1,-1,-1,-1,-1,-1,-1],"value":[[0.486111,0.513889],[0.336918,0.663082],[0.204301,0.795699],[1.0,0.0],[0.08867,0.91133],[1.0,0.0],[0.063291,0.936709],[1.0,0.0],[0.051282,0.948718],[0.110497,0.889503],[0.059172,0.940828],[0.018868,0.981132],[0.006452,0.993548],[0.0,1.0],[0.2,0.8],[0.5,0.5],[0.7,0.3],[0.833333,0.166667],[0.0,1.0],[1.0,0.0],[1.0,0.0]]},{"feature":[13,13,-2,1,3,8,-2,-2,5,1,8,-2,-2,-2,-2,7,8,11,-2,-2,-2,-2,9,-2,11,-2,-2],"threshold":[54.945198,-53.583555,-2.0,162.965454,-9.474901,-135.19384,-2.0,-2.0,33.48421,-170.353119,-121.378315,-2.0,-2.0,-2.0,-2.0,49.511732,-127.430805,136.938522,-2.0,-2.0,-2.0,-2.0,139.205002,-2.0,-94.952667,-2.0,-2.0],"children_left":[1,2,-1,4,5,6,-1,-1,9,10,11,-1,-1,-1,-1,16,17,18,-1,-1,-1,-1,23,-1,25,-1,-1],"children_right":[22,3,-1,15,8,7,-1,-1,14,13,12,-1,-1,-1,-1,21,20,19,-1,-1,-1,-1,24,-1,26,-1,-1],"value":[[0.466667,0.533333],[0.317291,0.682709],[1.0,0.0],[0.098824,0.901176],[0.224138,0.775862],[0.013333,0.986667],[0.0,1.0],[0.2,0.8],[0.383838,0.616162],[0.77551,0.22449],[0.388889,0.611111],[0.083333,0.916667],[1.0,0.0],[1.0,0.0],[0.0,1.0],[0.011952,0.988048],[0.004132,0.995868],[0.016393,0.983607],[0.25,0.75],[0.0,1.0],[0.0,1.0],[0.222222,0.777778],[0.993711,0.006289],[1.0,0.0],[0.961538,0.038462],[0.8,0.2],[1.0,0.0]]},{"feature":[5,-2,13,13,-2,2,-2,6,0,9,5,-2,-2,11,-2,-2,-2,-2,-2],"threshold":[-113.116943,-2.0,54.945198,-55.023527,-2.0,-101.189062,-2.0,67.303844,102.209463,75.204086,-32.682402,-2.0,-2.0,-86.976683,-2.0,-2.0,-2.0,-2.0,-2.0],"children_left":[1,-1,3,4,-1,6,-1,8,9,10,11,-1,-1,14,-1,-1,-1,-1,-1],"children_right":[2,-1,18,5,-1,7,-1,17,16,13,12,-1,-1,15,-1,-1,-1,-1,-1],"value":[[0.486111,0.513889],[1.0,0.0],[0.281553,0.718447],[0.157175,0.842825],[1.0,0.0],[0.08642,0.91358],[1.0,0.0],[0.075,0.925],[0.046392,0.953608],[0.118421,0.881579],[0.02439,0.97561],[0.0,1.0],[0.5,0.5],[0.517241,0.482759],[0.0,1.0],[1.0,0.0],[0.0,1.0],[1.0,0.0],[1.0,0.0]]},{"feature":[7,-2,13,-2,8,6,5,2,9,-2,-2,-2,-2,-2,-2],"threshold":[-57.445883,-2.0,-53.790758,-2.0,22.567764,67.303844,34.89355,-18.178007,59.025774,-2.0,-2.0,-2.0,-2.0,-2.0,-2.0],"children_left":[1,-1,3,-1,5,6,7,8,9,-1,-1,-1,-1,-1,-1],"children_right":[2,-1,4,-1,14,13,12,11,10,-1,-1,-1,-1,-1,-1],"value":[[0.495833,0.504167],[1.0,0.0],[0.348294,0.651706],[1.0,0.0],[0.0925,0.9075],[0.069231,0.930769],[0.042216,0.957784],[0.102564,0.897436],[0.014085,0.985915],[0.0,1.0],[0.4,0.6],[1.0,0.0],[0.0,1.0],[1.0,0.0],[1.0,0.0]]},{"feature":[7,-2,6,6,-2,2,-2,9,11,4,2,-2,-2,7,-2,-2,-2,-2,-2],"threshold":[-53.894077,-2.0,62.084604,-54.787874,-2.0,-46.169147,-2.0,121.006401,176.193985,-45.998577,-20.696408,-2.0,-2.0,-14.46282,-2.0,-2.0,-2.0,-2.0,-2.0],"children_left":[1,-1,3,4,-1,6,-1,8,9,10,11,-1,-1,14,-1,-1,-1,-1,-1],"children_right":[2,-1,18,5,-1,7,-1,17,16,13,12,-1,-1,15,-1,-1,-1,-1,-1],"value":[[0.4875,0.5125],[1.0,0.0],[0.331522,0.668478],[0.203024,0.796976],[1.0,0.0],[0.048969,0.951031],[0.8,0.2],[0.039164,0.960836],[0.076531,0.923469],[0.047619,0.952381],[0.006173,0.993827],[0.0,1.0],[0.25,0.75],[0.296296,0.703704],[0.0,1.0],[1.0,0.0],[0.857143,0.142857],[0.0,1.0],[1.0,0.0]]},{"feature":[12,6,-2,-2,12,7,3,1,1,13,5,-2,-2,-2,1,-2,-2,13,-2,-2,-2,-2,-2],"threshold":[-62.084604,67.303844,-2.0,-2.0,57.803658,53.566307,109.006926,160.90461,-171.006485,-46.143913,-71.584366,-2.0,-2.0,-2.0,-166.17926,-2.0,-2.0,53.832512,-2.0,-2.0,-2.0,-2.0,-2.0],"children_left":[1,2,-1,-1,5,6,7,8,9,10,11,-1,-1,-1,15,-1,-1,18,-1,-1,-1,-1,-1],"children_right":[4,3,-1,-1,22,21,20,17,14,13,12,-1,-1,-1,16,-1,-1,19,-1,-1,-1,-1,-1],"value":[[0.5,0.5],[0.994764,0.005236],[0.9,0.1],[1.0,0.0],[0.321361,0.678639],[0.081841,0.918159],[0.062992,0.937008],[0.042895,0.957105],[0.112903,0.887097],[0.009091,0.990909],[0.03125,0.96875],[0.0,1.0],[0.25,0.75],[0.0,1.0],[0.928571,0.071429],[0.857143,0.142857],[1.0,0.0],[0.008032,0.991968],[0.0,1.0],[0.5,0.5],[1.0,0.0],[0.8,0.2],[1.0,0.0]]},{"feature":[7,-2,12,-2,12,13,4,7,-2,-2,-2,-2,-2],"threshold":[-55.13269,-2.0,-62.084604,-2.0,56.892145,11.810512,-46.997414,36.262098,-2.0,-2.0,-2.0,-2.0,-2.0],"children_left":[1,-1,3,-1,5,6,7,8,-1,-1,-1,-1,-1],"children_right":[2,-1,4,-1,12,11,10,9,-1,-1,-1,-1,-1],"value":[[0.5,0.5],[1.0,0.0],[0.345455,0.654545],[1.0,0.0],[0.212254,0.787746],[0.057592,0.942408],[0.127168,0.872832],[0.006579,0.993421],[0.166667,0.833333],[0.0,1.0],[1.0,0.0],[0.0,1.0],[1.0,0.0]]},{"feature":[13,12,3,-2,-2,5,-2,7,2,-2,0,2,12,-2,-2,9,-2,-2,-2,-2,-2],"threshold":[54.945198,-61.447388,-0.506621,-2.0,-2.0,-112.238739,-2.0,56.180424,-46.419104,-2.0,138.231548,-18.029055,-3.252456,-2.0,-2.0,106.212967,-2.0,-2.0,-2.0,-2.0,-2.0],"children_left":[1,2,3,-1,-1,6,-1,8,9,-1,11,12,13,-1,-1,16,-1,-1,-1,-1,-1],"children_right":[20,5,4,-1,-1,7,-1,19,10,-1,18,15,14,-1,-1,17,-1,-1,-1,-1,-1],"value":[[0.5,0.5],[0.344262,0.655738],[0.982456,0.017544],[0.714286,0.285714],[1.0,0.0],[0.177011,0.822989],[1.0,0.0],[0.091371,0.908629],[0.062827,0.937173],[0.571429,0.428571],[0.053333,0.946667],[0.122699,0.877301],[0.02963,0.97037],[0.0,1.0],[0.4,0.6],[0.571429,0.428571],[1.0,0.0],[0.0,1.0],[0.0,1.0],[1.0,0.0],[1.0,0.0]]},{"feature":[6,6,-2,13,9,-2,0,8,-2,13,-2,-2,-2,-2,3,3,-2,-2,-2],"threshold":[62.42452,-56.321375,-2.0,55.454792,-33.860964,-2.0,12.96936,-123.358841,-2.0,15.508368,-2.0,-2.0,-2.0,-2.0,-0.746307,-150.228676,-2.0,-2.0,-2.0],"children_left":[1,2,-1,4,5,-1,7,8,-1,10,-1,-1,-1,-1,15,16,-1,-1,-1],"children_right":[14,3,-1,13,6,-1,12,9,-1,11,-1,-1,-1,-1,18,17,-1,-1,-1],"value":[[0.479167,0.520833],[0.315018,0.684982],[1.0,0.0],[0.065,0.935],[0.050891,0.949109],[1.0,0.0],[0.036176,0.963824],[0.093333,0.906667],[0.0,1.0],[0.451613,0.548387],[1.0,0.0],[0.0,1.0],[0.0,1.0],[0.857143,0.142857],[0.994253,0.005747],[0.933333,0.066667],[1.0,0.0],[0.75,0.25],[1.0,0.0]]},{"feature":[2,4,8,12,-2,-2,-2,9,11,7,-2,-2,-2,6,-2,8,-2,-2,13,-2,9,-2,-2],"threshold":[19.771342,-50.27911,-119.590435,-61.944721,-2.0,-2.0,-2.0,147.197067,-117.620586,-42.938046,-2.0,-2.0,-2.0,-48.825647,-2.0,-77.554436,-2.0,-2.0,-12.207966,-2.0,111.532597,-2.0,-2.0],"children_left":[1,2,3,4,-1,-1,-1,8,9,10,-1,-1,-1,14,-1,16,-1,-1,19,-1,21,-1,-1],"children_right":[18,7,6,5,-1,-1,-1,13,12,11,-1,-1,-1,15,-1,17,-1,-1,20,-1,22,-1,-1],"value":[[0.459722,0.540278],[0.642398,0.357602],[0.210526,0.789474],[0.019608,0.980392],[0.6,0.4],[0.0,1.0],[1.0,0.0],[0.938628,0.061372],[0.978814,0.021186],[0.83871,0.16129],[0.5,0.5],[1.0,0.0],[1.0,0.0],[0.707317,0.292683],[1.0,0.0],[0.2,0.8],[0.6,0.4],[0.0,1.0],[0.12253,0.87747],[1.0,0.0],[0.004484,0.995516],[0.2,0.8],[0.0,1.0]]},{"feature":[6,6,-2,5,4,7,2,-2,-2,-2,9,-2,-2,3,5,-2,-2,-2,8,4,-2,-2,-2],"threshold":[61.447388,-56.321375,-2.0,54.428129,-46.522894,52.165951,-22.867155,-2.0,-2.0,-2.0,104.936768,-2.0,-2.0,56.278494,97.442535,-2.0,-2.0,-2.0,-127.843445,-54.447016,-2.0,-2.0,-2.0],"children_left":[1,2,-1,4,5,6,7,-1,-1,-1,11,-1,-1,14,15,-1,-1,-1,19,20,-1,-1,-1],"children_right":[18,3,-1,13,10,9,8,-1,-1,-1,12,-1,-1,17,16,-1,-1,-1,22,21,-1,-1,-1],"value":[[0.508333,0.491667],[0.324376,0.675624],[1.0,0.0],[0.088083,0.911917],[0.184049,0.815951],[0.029412,0.970588],[0.007692,0.992308],[0.0,1.0],[0.166667,0.833333],[0.5,0.5],[0.962963,0.037037],[1.0,0.0],[0.75,0.25],[0.017937,0.982063],[0.009174,0.990826],[0.0,1.0],[0.4,0.6],[0.4,0.6],[0.98995,0.01005],[0.888889,0.111111],[0.6,0.4],[1.0,0.0],[1.0,0.0]]},{"feature":[12,3,5,-2,-2,-2,12,4,2,-2,7,11,4,-2,3,8,-2,-2,-2,-2,-2,7,-2,-2,-2],"threshold":[-62.084604,-0.746307,44.298191,-2.0,-2.0,-2.0,53.499084,74.30912,-99.819279,-2.0,53.154884,173.209763,-55.055458,-2.0,17.281682,-131.039692,-2.0,-2.0,-2.0,-2.0,-2.0,-23.658176,-2.0,-2.0,-2.0],"children_left":[1,2,3,-1,-1,-1,7,8,9,-1,11,12,13,-1,15,16,-1,-1,-1,-1,-1,22,-1,-1,-1],"children_right":[6,5,4,-1,-1,-1,24,21,10,-1,20,19,14,-1,18,17,-1,-1,-1,-1,-1,23,-1,-1,-1],"value":[[0.502778,0.497222],[0.984375,0.015625],[0.785714,0.214286],[0.5,0.5],[1.0,0.0],[1.0,0.0],[0.327652,0.672348],[0.080311,0.919689],[0.122951,0.877049],[1.0,0.0],[0.077586,0.922414],[0.040909,0.959091],[0.023474,0.976526],[0.0,1.0],[0.060976,0.939024],[0.263158,0.736842],[0.0,1.0],[0.714286,0.285714],[0.0,1.0],[0.571429,0.428571],[0.75,0.25],[0.007042,0.992958],[0.0,1.0],[0.2,0.8],[1.0,0.0]]},{"feature":[6,13,4,6,-2,7,-2,4,3,-2,-2,-2,-2,-2,9,10,-2,-2,-2],"threshold":[61.447388,53.894077,123.160412,-54.787874,-2.0,-13.115661,-2.0,-45.998577,-5.264451,-2.0,-2.0,-2.0,-2.0,-2.0,59.360353,109.665855,-2.0,-2.0,-2.0],"children_left":[1,2,3,4,-1,6,-1,8,9,-1,-1,-1,-1,-1,15,16,-1,-1,-1],"children_right":[14,13,12,5,-1,7,-1,11,10,-1,-1,-1,-1,-1,18,17,-1,-1,-1],"value":[[0.518056,0.481944],[0.314115,0.685885],[0.210526,0.789474],[0.106218,0.893782],[1.0,0.0],[0.0625,0.9375],[0.0,1.0],[0.12234,0.87766],[0.006024,0.993976],[0.0,1.0],[0.125,0.875],[1.0,0.0],[1.0,0.0],[1.0,0.0],[0.990783,0.009217],[0.978723,0.021277],[1.0,0.0],[0.846154,0.153846],[1.0,0.0]]},{"feature":[8,7,12,-2,12,0,3,2,-2,-2,6,3,-2,-2,-2,-2,-2,-2,-2],"threshold":[-6.977317,53.583555,-67.362785,-2.0,59.784372,10.936882,1.909861,-19.273755,-2.0,-2.0,-30.044521,31.21316,-2.0,-2.0,-2.0,-2.0,-2.0,-2.0,-2.0],"children_left":[1,2,3,-1,5,6,7,8,-1,-1,11,12,-1,-1,-1,-1,-1,-1,-1],"children_right":[18,17,4,-1,16,15,10,9,-1,-1,14,13,-1,-1,-1,-1,-1,-1,-1],"value":[[0.491667,0.508333],[0.375427,0.624573],[0.256098,0.743902],[1.0,0.0],[0.136792,0.863208],[0.036842,0.963158],[0.085366,0.914634],[0.021583,0.978417],[0.0,1.0],[0.75,0.25],[0.44,0.56],[0.066667,0.933333],[0.25,0.75],[0.0,1.0],[1.0,0.0],[0.0,1.0],[1.0,0.0],[1.0,0.0],[1.0,0.0]]},{"feature":[2,8,10,0,-2,-2,-2,8,10,-2,-2,10,3,-2,5,-2,-2,-2,7,4,-2,-2,-2],"threshold":[19.667163,-131.362518,119.928371,-172.787125,-2.0,-2.0,-2.0,-123.34779,118.890522,-2.0,-2.0,171.680077,28.381951,-2.0,58.502457,-2.0,-2.0,-2.0,19.456657,53.866358,-2.0,-2.0,-2.0],"children_left":[1,2,3,4,-1,-1,-1,8,9,-1,-1,12,13,-1,15,-1,-1,-1,19,20,-1,-1,-1],"children_right":[18,7,6,5,-1,-1,-1,11,10,-1,-1,17,14,-1,16,-1,-1,-1,22,21,-1,-1,-1],"value":[[0.486111,0.513889],[0.659751,0.340249],[0.139394,0.860606],[0.884615,0.115385],[0.5,0.5],[1.0,0.0],[0.0,1.0],[0.930599,0.069401],[0.666667,0.333333],[1.0,0.0],[0.0,1.0],[0.952218,0.047782],[0.961404,0.038596],[1.0,0.0],[0.898148,0.101852],[1.0,0.0],[0.0,1.0],[0.625,0.375],[0.134454,0.865546],[0.009615,0.990385],[0.333333,0.666667],[0.0,1.0],[1.0,0.0]]},{"feature":[4,1,10,10,9,0,-2,-2,13,-2,-2,11,-2,0,-2,-2,4,-2,11,-2,-2,12,13,-2,7,-2,2,-2,12,-2,-2,-2,-2],"threshold":[109.185604,165.066216,145.651794,-117.434811,125.923504,-178.073486,-2.0,-2.0,26.361857,-2.0,-2.0,108.739391,-2.0,-175.989494,-2.0,-2.0,-111.769627,-2.0,165.873672,-2.0,-2.0,57.33147,-93.63168,-2.0,-50.527534,-2.0,-43.179228,-2.0,-59.094509,-2.0,-2.0,-2.0,-2.0],"children_left":[1,2,3,4,5,6,-1,-1,9,-1,-1,12,-1,14,-1,-1,17,-1,19,-1,-1,22,23,-1,25,-1,27,-1,29,-1,-1,-1,-1],"children_right":[32,21,16,11,8,7,-1,-1,10,-1,-1,13,-1,15,-1,-1,18,-1,20,-1,-1,31,24,-1,26,-1,28,-1,30,-1,-1,-1,-1],"value":[[0.4875,0.5125],[0.331522,0.668478],[0.578947,0.421053],[0.763006,0.236994],[0.423729,0.576271],[0.821429,0.178571],[0.166667,0.833333],[1.0,0.0],[0.064516,0.935484],[0.5,0.5],[0.0,1.0],[0.938596,0.061404],[1.0,0.0],[0.631579,0.368421],[0.125,0.875],[1.0,0.0],[0.236559,0.763441],[1.0,0.0],[0.040541,0.959459],[0.0,1.0],[0.375,0.625],[0.101399,0.898601],[0.062044,0.937956],[1.0,0.0],[0.033835,0.966165],[0.333333,0.666667],[0.023346,0.976654],[0.5,0.5],[0.011952,0.988048],[0.428571,0.571429],[0.0,1.0],[1.0,0.0],[1.0,0.0]]},{"feature":[7,8,7,-2,13,4,3,-2,-2,-2,12,-2,-2,-2,-2],"threshold":[53.790758,3.299409,-57.320135,-2.0,12.621567,-49.754793,4.092485,-2.0,-2.0,-2.0,51.789576,-2.0,-2.0,-2.0,-2.0],"children_left":[1,2,3,-1,5,6,7,-1,-1,-1,11,-1,-1,-1,-1],"children_right":[14,13,4,-1,10,9,8,-1,-1,-1,12,-1,-1,-1,-1],"value":[[0.476389,0.523611],[0.329181,0.670819],[0.250497,0.749503],[1.0,0.0],[0.069136,0.930864],[0.146739,0.853261],[0.042683,0.957317],[0.0,1.0],[1.0,0.0],[1.0,0.0],[0.004525,0.995475],[0.0,1.0],[0.166667,0.833333],[1.0,0.0],[1.0,0.0]]},{"feature":[5,-2,9,-2,7,13,-2,-2,12,12,-2,-2,13,1,-2,-2,4,6,-2,4,13,6,8,-2,-2,-2,-2,-2,-2],"threshold":[-112.238739,-2.0,25.104827,-2.0,-54.945198,65.230629,-2.0,-2.0,-61.964415,-72.716774,-2.0,-2.0,-52.590132,168.535583,-2.0,-2.0,107.394917,-51.789576,-2.0,17.323851,-33.737738,59.029144,-131.576866,-2.0,-2.0,-2.0,-2.0,-2.0,-2.0],"children_left":[1,-1,3,-1,5,6,-1,-1,9,10,-1,-1,13,14,-1,-1,17,18,-1,20,21,22,23,-1,-1,-1,-1,-1,-1],"children_right":[2,-1,4,-1,8,7,-1,-1,12,11,-1,-1,16,15,-1,-1,28,19,-1,27,26,25,24,-1,-1,-1,-1,-1,-1],"value":[[0.501389,0.498611],[1.0,0.0],[0.305609,0.694391],[1.0,0.0],[0.227957,0.772043],[0.962264,0.037736],[0.666667,0.333333],[1.0,0.0],[0.133495,0.866505],[0.961538,0.038462],[1.0,0.0],[0.8,0.2],[0.07772,0.92228],[0.933333,0.066667],[1.0,0.0],[0.8,0.2],[0.043127,0.956873],[0.027548,0.972452],[0.333333,0.666667],[0.022409,0.977591],[0.04878,0.95122],[0.025,0.975],[0.013158,0.986842],[0.0,1.0],[0.4,0.6],[0.25,0.75],[1.0,0.0],[0.0,1.0],[0.75,0.25]]},{"feature":[12,-2,6,-2,8,6,13,-2,10,8,-2,12,2,-2,-2,-2,6,-2,9,-2,-2,3,9,-2,-2,-2,-2],"threshold":[-66.885197,-2.0,-57.33147,-2.0,48.469063,53.217207,-52.590132,-2.0,175.029495,-150.888885,-2.0,-38.885433,-27.665442,-2.0,-2.0,-2.0,-10.800277,-2.0,50.819962,-2.0,-2.0,0.522668,48.831459,-2.0,-2.0,-2.0,-2.0],"children_left":[1,-1,3,-1,5,6,7,-1,9,10,-1,12,13,-1,-1,-1,17,-1,19,-1,-1,22,23,-1,-1,-1,-1],"children_right":[2,-1,4,-1,26,21,8,-1,16,11,-1,15,14,-1,-1,-1,18,-1,20,-1,-1,25,24,-1,-1,-1,-1],"value":[[0.493056,0.506944],[1.0,0.0],[0.330275,0.669725],[1.0,0.0],[0.073604,0.926396],[0.039474,0.960526],[0.022792,0.977208],[0.5,0.5],[0.014493,0.985507],[0.006116,0.993884],[0.142857,0.857143],[0.003125,0.996875],[0.012821,0.987179],[0.0,1.0],[0.25,0.75],[0.0,1.0],[0.166667,0.833333],[0.0,1.0],[0.3,0.7],[0.0,1.0],[0.75,0.25],[0.241379,0.758621],[0.043478,0.956522],[0.2,0.8],[0.0,1.0],[1.0,0.0],[1.0,0.0]]},{"feature":[5,-2,12,8,7,5,4,13,9,3,-2,-2,0,-2,-2,8,-2,-2,-2,-2,3,-2,-2,-2,-2],"threshold":[-113.116943,-2.0,57.33147,21.361435,52.317963,98.742683,39.642682,-35.338608,59.612705,-6.824974,-2.0,-2.0,-176.691765,-2.0,-2.0,-119.922398,-2.0,-2.0,-2.0,-2.0,9.647279,-2.0,-2.0,-2.0,-2.0],"children_left":[1,-1,3,4,5,6,7,8,9,10,-1,-1,13,-1,-1,16,-1,-1,-1,-1,21,-1,-1,-1,-1],"children_right":[2,-1,24,23,20,19,18,15,12,11,-1,-1,14,-1,-1,17,-1,-1,-1,-1,22,-1,-1,-1,-1],"value":[[0.527778,0.472222],[1.0,0.0],[0.341085,0.658915],[0.209302,0.790698],[0.160494,0.839506],[0.081522,0.918478],[0.061111,0.938889],[0.130952,0.869048],[0.058824,0.941176],[0.007042,0.992958],[0.0,1.0],[0.2,0.8],[0.727273,0.272727],[0.571429,0.428571],[1.0,0.0],[0.866667,0.133333],[0.6,0.4],[1.0,0.0],[0.0,1.0],[1.0,0.0],[0.945946,0.054054],[0.666667,0.333333],[1.0,0.0],[1.0,0.0],[1.0,0.0]]},{"feature":[6,9,-2,5,-2,11,13,-2,-2,13,10,12,-2,-2,11,7,3,-2,1,-2,-2,-2,-2,-2,6,-2,-2],"threshold":[62.371397,-3.246597,-2.0,-109.85833,-2.0,-103.766972,24.305586,-2.0,-2.0,47.902309,118.196327,43.13018,-2.0,-2.0,176.064293,52.337046,2.907169,-2.0,165.435547,-2.0,-2.0,-2.0,-2.0,-2.0,67.303844,-2.0,-2.0],"children_left":[1,2,-1,4,-1,6,7,-1,-1,10,11,12,-1,-1,15,16,17,-1,19,-1,-1,-1,-1,-1,25,-1,-1],"children_right":[24,3,-1,5,-1,9,8,-1,-1,23,14,13,-1,-1,22,21,18,-1,20,-1,-1,-1,-1,-1,26,-1,-1],"value":[[0.504167,0.495833],[0.330813,0.669187],[1.0,0.0],[0.254737,0.745263],[1.0,0.0],[0.184332,0.815668],[0.019108,0.980892],[0.3,0.7],[0.0,1.0],[0.277978,0.722022],[0.111111,0.888889],[0.823529,0.176471],[0.625,0.375],[1.0,0.0],[0.052885,0.947115],[0.015228,0.984772],[0.005236,0.994764],[0.0,1.0],[0.017857,0.982143],[0.166667,0.833333],[0.0,1.0],[0.333333,0.666667],[0.727273,0.272727],[1.0,0.0],[0.984293,0.015707],[0.666667,0.333333],[1.0,0.0]]},{"feature":[3,4,7,3,-2,-2,0,9,-2,1,9,3,-2,-2,-2,7,-2,-2,7,-2,-2,-2,-2],"threshold":[58.853636,110.183323,-54.945198,25.674232,-2.0,-2.0,43.578442,56.47353,-2.0,166.469719,137.72805,-0.146842,-2.0,-2.0,-2.0,36.749853,-2.0,-2.0,112.941456,-2.0,-2.0,-2.0,-2.0],"children_left":[1,2,3,4,-1,-1,7,8,-1,10,11,12,-1,-1,-1,16,-1,-1,19,-1,-1,-1,-1],"children_right":[22,21,6,5,-1,-1,18,9,-1,15,14,13,-1,-1,-1,17,-1,-1,20,-1,-1,-1,-1],"value":[[0.475,0.525],[0.380328,0.619672],[0.233266,0.766734],[0.984848,0.015152],[1.0,0.0],[0.888889,0.111111],[0.117096,0.882904],[0.244444,0.755556],[0.0,1.0],[0.628571,0.371429],[0.807692,0.192308],[0.953488,0.046512],[0.714286,0.285714],[1.0,0.0],[0.111111,0.888889],[0.111111,0.888889],[0.0,1.0],[0.333333,0.666667],[0.024291,0.975709],[0.0,1.0],[1.0,0.0],[1.0,0.0],[1.0,0.0]]},{"feature":[6,0,12,5,7,-2,10,-2,-2,5,13,-2,-2,5,-2,-2,11,10,-2,-2,-2,12,9,-2,-2,-2,-2],"threshold":[61.447388,161.828636,48.825647,-32.682402,36.269505,-2.0,125.506645,-2.0,-2.0,31.502594,-34.397295,-2.0,-2.0,66.616753,-2.0,-2.0,-119.72176,-167.823502,-2.0,-2.0,-2.0,58.086412,41.524384,-2.0,-2.0,-2.0,-2.0],"children_left":[1,2,3,4,5,-1,7,-1,-1,10,11,-1,-1,14,-1,-1,17,18,-1,-1,-1,22,23,-1,-1,-1,-1],"children_right":[26,21,16,9,6,-1,8,-1,-1,13,12,-1,-1,15,-1,-1,20,19,-1,-1,-1,25,24,-1,-1,-1,-1],"value":[[0.5,0.5],[0.328358,0.671642],[0.524306,0.475694],[0.106667,0.893333],[0.02459,0.97541],[0.4,0.6],[0.008547,0.991453],[0.166667,0.833333],[0.0,1.0],[0.464286,0.535714],[0.846154,0.153846],[0.5,0.5],[1.0,0.0],[0.133333,0.866667],[0.0,1.0],[0.333333,0.666667],[0.978261,0.021739],[0.823529,0.176471],[1.0,0.0],[0.5,0.5],[1.0,0.0],[0.100806,0.899194],[0.004464,0.995536],[0.2,0.8],[0.0,1.0],[1.0,0.0],[1.0,0.0]]},{"feature":[5,-2,6,-2,3,6,10,5,9,0,2,-2,13,-2,-2,-2,-2,-2,4,-2,1,-2,-2,-2,-2],"threshold":[-113.116943,-2.0,-57.357365,-2.0,70.276007,62.42452,173.289467,97.443478,170.171822,-155.148392,-18.098346,-2.0,2.30887,-2.0,-2.0,-2.0,-2.0,-2.0,-56.152992,-2.0,151.217529,-2.0,-2.0,-2.0,-2.0],"children_left":[1,-1,3,-1,5,6,7,8,9,10,11,-1,13,-1,-1,-1,-1,-1,19,-1,21,-1,-1,-1,-1],"children_right":[2,-1,4,-1,24,23,18,17,16,15,12,-1,14,-1,-1,-1,-1,-1,20,-1,22,-1,-1,-1,-1],"value":[[0.493056,0.506944],[1.0,0.0],[0.312618,0.687382],[1.0,0.0],[0.187082,0.812918],[0.139151,0.860849],[0.044503,0.955497],[0.033803,0.966197],[0.028653,0.971347],[0.023256,0.976744],[0.063492,0.936508],[0.0,1.0],[0.615385,0.384615],[1.0,0.0],[0.0,1.0],[0.0,1.0],[0.4,0.6],[0.333333,0.666667],[0.185185,0.814815],[0.0,1.0],[0.384615,0.615385],[0.833333,0.166667],[0.0,1.0],[1.0,0.0],[1.0,0.0]]},{"feature":[6,7,-2,6,-2,3,7,-2,7,-2,6,-2,8,5,-2,-2,-2,-2,-2],"threshold":[62.084604,-57.320135,-2.0,-56.321375,-2.0,79.580946,-13.115661,-2.0,34.117474,-2.0,38.053671,-2.0,-123.372486,-32.836551,-2.0,-2.0,-2.0,-2.0,-2.0],"children_left":[1,2,-1,4,-1,6,7,-1,9,-1,11,-1,13,14,-1,-1,-1,-1,-1],"children_right":[18,3,-1,5,-1,17,8,-1,10,-1,12,-1,16,15,-1,-1,-1,-1,-1],"value":[[0.475,0.525],[0.303867,0.696133],[1.0,0.0],[0.181818,0.818182],[1.0,0.0],[0.080292,0.919708],[0.047859,0.952141],[0.0,1.0],[0.115152,0.884848],[1.0,0.0],[0.058065,0.941935],[0.5,0.5],[0.034014,0.965986],[0.007042,0.992958],[0.0,1.0],[0.2,0.8],[0.8,0.2],[1.0,0.0],[1.0,0.0]]},{"feature":[4,13,13,-2,12,-2,8,4,-2,1,3,-2,8,1,-2,7,-2,-2,-2,-2,-2,6,-2,9,-2,-2,-2],"threshold":[108.875645,54.945198,-53.790758,-2.0,-67.303844,-2.0,50.297696,-82.770565,-2.0,160.950272,-9.529553,-2.0,-75.449642,-171.548103,-2.0,32.854342,-2.0,-2.0,-2.0,-2.0,-2.0,-57.33147,-2.0,25.792381,-2.0,-2.0,-2.0],"children_left":[1,2,3,-1,5,-1,7,8,-1,10,11,-1,13,14,-1,16,-1,-1,-1,-1,-1,22,-1,24,-1,-1,-1],"children_right":[26,21,4,-1,6,-1,20,9,-1,19,12,-1,18,15,-1,17,-1,-1,-1,-1,-1,23,-1,25,-1,-1,-1],"value":[[0.456944,0.543056],[0.291667,0.708333],[0.201232,0.798768],[1.0,0.0],[0.088993,0.911007],[1.0,0.0],[0.071599,0.928401],[0.053528,0.946472],[0.75,0.25],[0.039702,0.960298],[0.125,0.875],[0.0,1.0],[0.290909,0.709091],[0.666667,0.333333],[0.222222,0.777778],[0.933333,0.066667],[1.0,0.0],[0.75,0.25],[0.0,1.0],[0.0,1.0],[1.0,0.0],[0.969231,0.030769],[1.0,0.0],[0.875,0.125],[1.0,0.0],[0.714286,0.285714],[1.0,0.0]]},{"feature":[5,-2,6,-2,4,3,-2,-2,0,3,13,-2,-2,8,-2,6,5,-2,-2,-2,8,6,-2,-2,-2],"threshold":[-112.238739,-2.0,-57.33147,-2.0,-83.157772,13.081774,-2.0,-2.0,161.828636,-0.397797,-35.254435,-2.0,-2.0,-89.854637,-2.0,-22.941513,62.350328,-2.0,-2.0,-2.0,36.353211,44.777853,-2.0,-2.0,-2.0],"children_left":[1,-1,3,-1,5,6,-1,-1,9,10,11,-1,-1,14,-1,16,17,-1,-1,-1,21,22,-1,-1,-1],"children_right":[2,-1,4,-1,8,7,-1,-1,20,13,12,-1,-1,15,-1,19,18,-1,-1,-1,24,23,-1,-1,-1],"value":[[0.498611,0.501389],[1.0,0.0],[0.305769,0.694231],[1.0,0.0],[0.185102,0.814898],[0.9375,0.0625],[0.75,0.25],[1.0,0.0],[0.156909,0.843091],[0.29703,0.70297],[0.03937,0.96063],[0.0,1.0],[0.714286,0.285714],[0.733333,0.266667],[1.0,0.0],[0.354839,0.645161],[0.130435,0.869565],[0.6,0.4],[0.0,1.0],[1.0,0.0],[0.031111,0.968889],[0.004566,