[{"feature":[7,9,-2,9,11,-2,4,-2,-2,-2,9,-2,7,-2,8,-2,-2],"threshold":[-176.955589,93.91486,-2.0,126.743046,174.894485,-2.0,173.784149,-2.0,-2.0,-2.0,103.977585,-2.0,178.74453,-2.0,-93.071815,-2.0,-2.0],"children_left":[1,2,-1,4,5,-1,7,-1,-1,-1,11,-1,13,-1,15,-1,-1],"children_right":[10,3,-1,9,6,-1,8,-1,-1,-1,12,-1,14,-1,16,-1,-1],"value":[[0.453125,0.546875],[0.127451,0.872549],[1.0,0.0],[0.043011,0.956989],[0.021978,0.978022],[0.75,0.25],[0.005618,0.994382],[0.166667,0.833333],[0.0,1.0],[1.0,0.0],[0.822222,0.177778],[1.0,0.0],[0.700935,0.299065],[1.0,0.0],[0.111111,0.888889],[0.0,1.0],[1.0,0.0]]},{"feature":[10,9,-2,11,-2,5,3,13,4,-2,-2,6,-2,-2,-2,-2,12,-2,-2],"threshold":[-173.80114,99.639988,-2.0,174.262352,-2.0,-175.787582,41.50066,179.849464,174.759201,-2.0,-2.0,178.507278,-2.0,-2.0,-2.0,-2.0,-178.086151,-2.0,-2.0],"children_left":[1,2,-1,4,-1,6,7,8,9,-1,-1,12,-1,-1,-1,-1,17,-1,-1],"children_right":[16,3,-1,5,-1,15,14,11,10,-1,-1,13,-1,-1,-1,-1,18,-1,-1],"value":[[0.486979,0.513021],[0.140351,0.859649],[1.0,0.0],[0.066667,0.933333],[0.727273,0.272727],[0.030151,0.969849],[0.015625,0.984375],[0.010695,0.989305],[0.005814,0.994186],[0.142857,0.857143],[0.0,1.0],[0.066667,0.933333],[0.166667,0.833333],[0.0,1.0],[0.2,0.8],[0.428571,0.571429],[0.99359,0.00641],[0.875,0.125],[1.0,0.0]]},{"feature":[5,9,-2,5,12,-2,-2,4,-2,-2,-2],"threshold":[-175.431572,99.906235,-2.0,-179.036743,-178.065239,-2.0,-2.0,2.166969,-2.0,-2.0,-2.0],"children_left":[1,2,-1,4,5,-1,-1,8,-1,-1,-1],"children_right":[10,3,-1,7,6,-1,-1,9,-1,-1,-1],"value":[[0.481771,0.518229],[0.082949,0.917051],[1.0,0.0],[0.033981,0.966019],[0.285714,0.714286],[0.0,1.0],[0.857143,0.142857],[0.005405,0.994595],[0.1,0.9],[0.0,1.0],[1.0,0.0]]},{"feature":[8,5,2,-2,9,-2,0,-2,3,-2,-2,12,-2,-2,13,-2,-2],"threshold":[-97.098145,-174.660774,-47.754478,-2.0,100.674877,-2.0,-46.375268,-2.0,38.226688,-2.0,-2.0,175.219536,-2.0,-2.0,178.104774,-2.0,-2.0],"children_left":[1,2,3,-1,5,-1,7,-1,9,-1,-1,12,-1,-1,15,-1,-1],"children_right":[14,11,4,-1,6,-1,8,-1,10,-1,-1,13,-1,-1,16,-1,-1],"value":[[0.463542,0.536458],[0.229323,0.770677],[0.037736,0.962264],[0.666667,0.333333],[0.009852,0.990148],[0.090909,0.909091],[0.005208,0.994792],[0.0,1.0],[0.071429,0.928571],[0.25,0.75],[0.0,1.0],[0.981481,0.018519],[1.0,0.0],[0.833333,0.166667],[0.991525,0.008475],[1.0,0.0],[0.916667,0.083333]]},{"feature":[10,9,-2,12,4,-2,3,6,-2,-2,-2,5,4,-2,-2,-2,4,-2,4,-2,-2],"threshold":[-174.04393,99.405224,-2.0,179.630394,175.129349,-2.0,41.91556,-179.503464,-2.0,-2.0,-2.0,-174.628754,177.754288,-2.0,-2.0,-2.0,-178.569839,-2.0,171.981918,-2.0,-2.0],"children_left":[1,2,-1,4,5,-1,7,8,-1,-1,-1,12,13,-1,-1,-1,17,-1,19,-1,-1],"children_right":[16,3,-1,11,6,-1,10,9,-1,-1,-1,15,14,-1,-1,-1,18,-1,20,-1,-1],"value":[[0.424479,0.575521],[0.163424,0.836576],[1.0,0.0],[0.085106,0.914894],[0.024272,0.975728],[0.4,0.6],[0.014925,0.985075],[0.005128,0.994872],[0.125,0.875],[0.0,1.0],[0.333333,0.666667],[0.517241,0.482759],[0.125,0.875],[0.0,1.0],[0.285714,0.714286],[1.0,0.0],[0.952756,0.047244],[0.428571,0.571429],[0.983333,0.016667],[1.0,0.0],[0.714286,0.285714]]},{"feature":[7,1,-2,10,3,-2,-2,-2,13,4,-2,-2,5,8,-2,-2,-2],"threshold":[-176.95565,48.247448,-2.0,-174.038864,41.263336,-2.0,-2.0,-2.0,-179.336647,177.936775,-2.0,-2.0,-176.552666,-100.172596,-2.0,-2.0,-2.0],"children_left":[1,2,-1,4,5,-1,-1,-1,9,10,-1,-1,13,14,-1,-1,-1],"children_right":[8,3,-1,7,6,-1,-1,-1,12,11,-1,-1,16,15,-1,-1,-1],"value":[[0.515625,0.484375],[0.128492,0.871508],[1.0,0.0],[0.037037,0.962963],[0.006452,0.993548],[0.0,1.0],[0.142857,0.857143],[0.714286,0.285714],[0.853659,0.146341],[0.071429,0.928571],[0.0,1.0],[0.4,0.6],[0.977401,0.022599],[0.764706,0.235294],[0.333333,0.666667],[1.0,0.0],[1.0,0.0]]},{"feature":[11,12,-2,-2,9,-2,8,5,1,-2,-2,-2,-2],"threshold":[174.508972,-176.469353,-2.0,-2.0,99.405224,-2.0,-95.312004,-175.693779,118.315544,-2.0,-2.0,-2.0,-2.0],"children_left":[1,2,-1,-1,5,-1,7,8,9,-1,-1,-1,-1],"children_right":[4,3,-1,-1,6,-1,12,11,10,-1,-1,-1,-1],"value":[[0.460938,0.539062],[0.992647,0.007353],[0.8,0.2],[1.0,0.0],[0.169355,0.830645],[1.0,0.0],[0.032864,0.967136],[0.014423,0.985577],[0.004926,0.995074],[0.2,0.8],[0.0,1.0],[0.4,0.6],[0.8,0.2]]},{"feature":[6,13,7,4,-2,4,8,-2,-2,-2,0,-2,10,-2,-2,10,1,-2,8,-2,-2,8,-2,-2,11,-2,9,-2,-2],"threshold":[178.52787,177.546425,179.206337,176.253334,-2.0,177.898605,-106.835289,-2.0,-2.0,-2.0,-142.41391,-2.0,-177.234116,-2.0,-2.0,-172.30928,118.196144,-2.0,-120.448624,-2.0,-2.0,-91.17865,-2.0,-2.0,175.713478,-2.0,101.797096,-2.0,-2.0],"children_left":[1,2,3,4,-1,6,7,-1,-1,-1,11,-1,13,-1,-1,16,17,-1,19,-1,-1,22,-1,-1,25,-1,27,-1,-1],"children_right":[24,15,10,5,-1,9,8,-1,-1,-1,12,-1,14,-1,-1,21,18,-1,20,-1,-1,23,-1,-1,26,-1,28,-1,-1],"value":[[0.463542,0.536458],[0.602076,0.397924],[0.860215,0.139785],[0.974684,0.025316],[1.0,0.0],[0.733333,0.266667],[0.555556,0.444444],[0.0,1.0],[1.0,0.0],[1.0,0.0],[0.214286,0.785714],[0.666667,0.333333],[0.090909,0.909091],[0.333333,0.666667],[0.0,1.0],[0.135922,0.864078],[0.043478,0.956522],[0.6,0.4],[0.011494,0.988506],[0.142857,0.857143],[0.0,1.0],[0.909091,0.090909],[0.75,0.25],[1.0,0.0],[0.042105,0.957895],[0.428571,0.571429],[0.011364,0.988636],[0.142857,0.857143],[0.0,1.0]]},{"feature":[4,0,12,-2,-2,-2,3,11,-2,9,-2,13,-2,-2,-2],"threshold":[174.641525,-176.73111,-176.28511,-2.0,-2.0,-2.0,45.389244,175.255699,-2.0,99.405224,-2.0,179.882401,-2.0,-2.0,-2.0],"children_left":[1,2,3,-1,-1,-1,7,8,-1,10,-1,12,-1,-1,-1],"children_right":[6,5,4,-1,-1,-1,14,9,-1,11,-1,13,-1,-1,-1],"value":[[0.466146,0.533854],[0.94702,0.05298],[0.466667,0.533333],[0.0,1.0],[1.0,0.0],[1.0,0.0],[0.154506,0.845494],[0.083721,0.916279],[0.888889,0.111111],[0.048544,0.951456],[1.0,0.0],[0.010101,0.989899],[0.0,1.0],[0.222222,0.777778],[1.0,0.0]]},{"feature":[4,0,-2,-2,9,-2,11,-2,1,-2,10,-2,3,-2,-2],"threshold":[174.774307,-176.468658,-2.0,-2.0,99.405224,-2.0,174.608139,-2.0,118.317913,-2.0,-175.711861,-2.0,38.045109,-2.0,-2.0],"children_left":[1,2,-1,-1,5,-1,7,-1,9,-1,11,-1,13,-1,-1],"children_right":[4,3,-1,-1,6,-1,8,-1,10,-1,12,-1,14,-1,-1],"value":[[0.463542,0.536458],[0.967949,0.032051],[0.545455,0.454545],[1.0,0.0],[0.118421,0.881579],[1.0,0.0],[0.033654,0.966346],[0.833333,0.166667],[0.009901,0.990099],[0.2,0.8],[0.005076,0.994924],[0.0,1.0],[0.026316,0.973684],[0.0,1.0],[0.125,0.875]]},{"feature":[10,9,-2,11,-2,3,7,-2,5,-2,-2,-2,4,-2,1,-2,11,-2,-2],"threshold":[-174.047874,98.431511,-2.0,168.954079,-2.0,41.157314,-179.882401,-2.0,-179.312874,-2.0,-2.0,-2.0,-177.533478,-2.0,171.758232,-2.0,176.97467,-2.0,-2.0],"children_left":[1,2,-1,4,-1,6,7,-1,9,-1,-1,-1,13,-1,15,-1,17,-1,-1],"children_right":[12,3,-1,5,-1,11,8,-1,10,-1,-1,-1,14,-1,16,-1,18,-1,-1],"value":[[0.486979,0.513021],[0.160173,0.839827],[1.0,0.0],[0.067308,0.932692],[0.888889,0.111111],[0.030151,0.969849],[0.015544,0.984456],[0.25,0.75],[0.005405,0.994595],[0.142857,0.857143],[0.0,1.0],[0.5,0.5],[0.980392,0.019608],[0.5,0.5],[0.993289,0.006711],[1.0,0.0],[0.956522,0.043478],[1.0,0.0],[0.8,0.2]]},{"feature":[13,1,-2,7,5,-2,-2,2,-2,1,-2,-2,2,-2,1,13,11,-2,-2,11,-2,-2,-2],"threshold":[177.04126,120.885841,-2.0,178.87014,-176.895599,-2.0,-2.0,-49.991852,-2.0,174.46315,-2.0,-2.0,-67.543203,-2.0,174.991196,178.423172,176.382378,-2.0,-2.0,175.92498,-2.0,-2.0,-2.0],"children_left":[1,2,-1,4,5,-1,-1,8,-1,10,-1,-1,13,-1,15,16,17,-1,-1,20,-1,-1,-1],"children_right":[12,3,-1,7,6,-1,-1,9,-1,11,-1,-1,14,-1,22,19,18,-1,-1,21,-1,-1,-1],"value":[[0.505208,0.494792],[0.812785,0.187215],[1.0,0.0],[0.687023,0.312977],[0.988235,0.011765],[0.875,0.125],[1.0,0.0],[0.130435,0.869565],[0.625,0.375],[0.026316,0.973684],[0.0,1.0],[0.2,0.8],[0.09697,0.90303],[1.0,0.0],[0.032468,0.967532],[0.026667,0.973333],[0.107143,0.892857],[0.5,0.5],[0.0,1.0],[0.008197,0.991803],[0.25,0.75],[0.0,1.0],[0.25,0.75]]},{"feature":[5,2,-2,1,-2,5,8,-2,-2,7,-2,-2,-2],"threshold":[-175.431572,-47.616198,-2.0,-21.322399,-2.0,-176.552666,-97.149109,-2.0,-2.0,0.726814,-2.0,-2.0,-2.0],"children_left":[1,2,-1,4,-1,6,7,-1,-1,10,-1,-1,-1],"children_right":[12,3,-1,5,-1,9,8,-1,-1,11,-1,-1,-1],"value":[[0.5,0.5],[0.150442,0.849558],[1.0,0.0],[0.072464,0.927536],[1.0,0.0],[0.030303,0.969697],[0.016854,0.983146],[0.0,1.0],[0.375,0.625],[0.15,0.85],[0.0,1.0],[0.428571,0.571429],[1.0,0.0]]},{"feature":[4,4,-2,-2,1,-2,5,8,1,-2,-2,-2,-2],"threshold":[174.664268,-178.264137,-2.0,-2.0,48.247448,-2.0,-175.75074,-97.113274,175.521584,-2.0,-2.0,-2.0,-2.0],"children_left":[1,2,-1,-1,5,-1,7,8,9,-1,-1,-1,-1],"children_right":[4,3,-1,-1,6,-1,12,11,10,-1,-1,-1,-1],"value":[[0.479167,0.520833],[0.968553,0.031447],[0.545455,0.454545],[1.0,0.0],[0.133333,0.866667],[1.0,0.0],[0.080189,0.919811],[0.025126,0.974874],[0.010309,0.989691],[0.0,1.0],[0.4,0.6],[0.6,0.4],[0.923077,0.076923]]},{"feature":[9,-2,5,1,-2,5,8,-2,-2,8,-2,-2,-2],"threshold":[98.830421,-2.0,-175.295403,-23.412212,-2.0,-179.036743,-104.834965,-2.0,-2.0,-123.761517,-2.0,-2.0,-2.0],"children_left":[1,-1,3,4,-1,6,7,-1,-1,10,-1,-1,-1],"children_right":[2,-1,12,5,-1,9,8,-1,-1,11,-1,-1,-1],"value":[[0.450521,0.549479],[1.0,0.0],[0.282313,0.717687],[0.062222,0.937778],[1.0,0.0],[0.014019,0.985981],[0.086957,0.913043],[0.0,1.0],[0.5,0.5],[0.005236,0.994764],[0.111111,0.888889],[0.0,1.0],[1.0,0.0]]},{"feature":[9,-2,9,11,7,-2,-2,4,0,-2,-2,-2,-2],"threshold":[99.405224,-2.0,123.44912,174.174988,129.595577,-2.0,-2.0,174.411354,-176.466217,-2.0,-2.0,-2.0,-2.0],"children_left":[1,-1,3,4,5,-1,-1,8,9,-1,-1,-1,-1],"children_right":[2,-1,12,7,6,-1,-1,11,10,-1,-1,-1,-1],"value":[[0.497396,0.502604],[1.0,0.0],[0.310714,0.689286],[0.175214,0.824786],[0.970588,0.029412],[1.0,0.0],[0.833333,0.166667],[0.04,0.96],[0.533333,0.466667],[0.0,1.0],[1.0,0.0],[0.0,1.0],[1.0,0.0]]},{"feature":[5,2,-2,4,8,12,-2,-2,-2,-2,-2],"threshold":[-175.175697,-70.401506,-2.0,175.634857,-95.061047,-177.34948,-2.0,-2.0,-2.0,-2.0,-2.0],"children_left":[1,2,-1,4,5,6,-1,-1,-1,-1,-1],"children_right":[10,3,-1,9,8,7,-1,-1,-1,-1,-1],"value":[[0.5,0.5],[0.119266,0.880734],[1.0,0.0],[0.063415,0.936585],[0.448276,0.551724],[0.111111,0.888889],[0.0,1.0],[0.333333,0.666667],[1.0,0.0],[0.0,1.0],[1.0,0.0]]},{"feature":[5,8,9,-2,10,4,-2,1,-2,-2,-2,-2,8,12,-2,-2,-2],"threshold":[-175.753464,-94.363632,100.408978,-2.0,-174.215675,177.585548,-2.0,119.763195,-2.0,-2.0,-2.0,-2.0,-112.300312,162.964203,-2.0,-2.0,-2.0],"children_left":[1,2,3,-1,5,6,-1,8,-1,-1,-1,-1,13,14,-1,-1,-1],"children_right":[12,11,4,-1,10,7,-1,9,-1,-1,-1,-1,16,15,-1,-1,-1],"value":[[0.494792,0.505208],[0.165217,0.834783],[0.030303,0.969697],[0.571429,0.428571],[0.010471,0.989529],[0.005405,0.994595],[0.0,1.0],[0.014706,0.985294],[0.25,0.75],[0.0,1.0],[0.166667,0.833333],[1.0,0.0],[0.987013,0.012987],[0.942857,0.057143],[1.0,0.0],[0.6,0.4],[1.0,0.0]]},{"feature":[13,13,3,-2,5,-2,-2,11,-2,2,-2,-2,9,-2,5,1,-2,9,-2,-2,-2],"threshold":[176.999504,-178.873596,10.743801,-2.0,-177.281357,-2.0,-2.0,177.432617,-2.0,-31.995003,-2.0,-2.0,97.992027,-2.0,-175.693779,118.317913,-2.0,100.573795,-2.0,-2.0,-2.0],"children_left":[1,2,3,-1,5,-1,-1,8,-1,10,-1,-1,13,-1,15,16,-1,18,-1,-1,-1],"children_right":[12,7,4,-1,6,-1,-1,9,-1,11,-1,-1,14,-1,20,17,-1,19,-1,-1,-1],"value":[[0.455729,0.544271],[0.851429,0.148571],[0.172414,0.827586],[0.75,0.25],[0.08,0.92],[0.0,1.0],[0.25,0.75],[0.986301,0.013699],[1.0,0.0],[0.846154,0.153846],[0.714286,0.285714],[1.0,0.0],[0.124402,0.875598],[1.0,0.0],[0.041885,0.958115],[0.021622,0.978378],[0.5,0.5],[0.005587,0.994413],[0.142857,0.857143],[0.0,1.0],[0.666667,0.333333]]},{"feature":[4,10,-2,-2,13,5,2,-2,8,-2,-2,-2,3,1,-2,-2,-2],"threshold":[174.664268,178.085632,-2.0,-2.0,175.986725,-175.753464,-74.341444,-2.0,-100.361225,-2.0,-2.0,-2.0,43.796492,118.643478,-2.0,-2.0,-2.0],"children_left":[1,2,-1,-1,5,6,7,-1,9,-1,-1,-1,13,14,-1,-1,-1],"children_right":[4,3,-1,-1,12,11,8,-1,10,-1,-1,-1,16,15,-1,-1,-1],"value":[[0.466146,0.533854],[0.974522,0.025478],[1.0,0.0],[0.428571,0.571429],[0.114537,0.885463],[0.431373,0.568627],[0.216216,0.783784],[1.0,0.0],[0.064516,0.935484],[0.0,1.0],[0.4,0.6],[1.0,0.0],[0.022727,0.977273],[0.005814,0.994186],[0.142857,0.857143],[0.0,1.0],[0.75,0.25]]},{"feature":[5,9,-2,1,-2,11,-2,3,-2,4,-2,-2,4,-2,-2],"threshold":[-175.295403,99.639988,-2.0,-23.412212,-2.0,174.801056,-2.0,10.146017,-2.0,174.998245,-2.0,-2.0,176.253548,-2.0,-2.0],"children_left":[1,2,-1,4,-1,6,-1,8,-1,10,-1,-1,13,-1,-1],"children_right":[12,3,-1,5,-1,7,-1,9,-1,11,-1,-1,14,-1,-1],"value":[[0.497396,0.502604],[0.125581,0.874419],[1.0,0.0],[0.035897,0.964103],[1.0,0.0],[0.015707,0.984293],[0.2,0.8],[0.010753,0.989247],[0.142857,0.857143],[0.005587,0.994413],[0.2,0.8],[0.0,1.0],[0.970414,0.029586],[1.0,0.0],[0.444444,0.555556]]},{"feature":[5,1,-2,2,-2,1,3,8,-2,-2,-2,-2,10,4,-2,-2,-2],"threshold":[-175.753464,-20.827503,-2.0,-71.776506,-2.0,175.090981,41.995073,-97.082748,-2.0,-2.0,-2.0,-2.0,177.568573,176.080879,-2.0,-2.0,-2.0],"children_left":[1,2,-1,4,-1,6,7,8,-1,-1,-1,-1,13,14,-1,-1,-1],"children_right":[12,3,-1,5,-1,11,10,9,-1,-1,-1,-1,16,15,-1,-1,-1],"value":[[0.460938,0.539062],[0.097345,0.902655],[1.0,0.0],[0.051163,0.948837],[1.0,0.0],[0.028571,0.971429],[0.010101,0.989899],[0.005181,0.994819],[0.0,1.0],[0.25,0.75],[0.2,0.8],[0.333333,0.666667],[0.981013,0.018987],[0.993377,0.006623],[1.0,0.0],[0.833333,0.166667],[0.714286,0.285714]]},{"feature":[13,10,3,11,-2,-2,-2,11,11,-2,-2,-2,9,-2,9,1,-2,13,-2,-2,-2],"threshold":[176.999504,-176.388809,42.417917,174.749954,-2.0,-2.0,-2.0,178.582794,177.184341,-2.0,-2.0,-2.0,97.992027,-2.0,121.875237,118.643478,-2.0,177.591118,-2.0,-2.0,-2.0],"children_left":[1,2,3,4,-1,-1,-1,8,9,-1,-1,-1,13,-1,15,16,-1,18,-1,-1,-1],"children_right":[12,7,6,5,-1,-1,-1,11,10,-1,-1,-1,14,-1,20,17,-1,19,-1,-1,-1],"value":[[0.494792,0.505208],[0.8125,0.1875],[0.272727,0.727273],[0.142857,0.857143],[1.0,0.0],[0.0,1.0],[0.777778,0.222222],[0.972973,0.027027],[0.992958,0.007042],[1.0,0.0],[0.833333,0.166667],[0.5,0.5],[0.177083,0.822917],[1.0,0.0],[0.076023,0.923977],[0.024691,0.975309],[0.5,0.5],[0.00641,0.99359],[0.125,0.875],[0.0,1.0],[1.0,0.0]]},{"feature":[5,3,3,-2,11,-2,4,-2,12,-2,13,-2,-2,-2,6,-2,-2],"threshold":[-175.753464,55.656521,10.03286,-2.0,12.95224,-2.0,174.042358,-2.0,179.333496,-2.0,178.001999,-2.0,-2.0,-2.0,178.400162,-2.0,-2.0],"children_left":[1,2,3,-1,5,-1,7,-1,9,-1,11,-1,-1,-1,15,-1,-1],"children_right":[14,13,4,-1,6,-1,8,-1,10,-1,12,-1,-1,-1,16,-1,-1],"value":[[0.463542,0.536458],[0.160494,0.839506],[0.093333,0.906667],[1.0,0.0],[0.068493,0.931507],[1.0,0.0],[0.033175,0.966825],[0.857143,0.142857],[0.004902,0.995098],[0.0,1.0],[0.052632,0.947368],[0.25,0.75],[0.0,1.0],[1.0,0.0],[0.985816,0.014184],[1.0,0.0],[0.5,0.5]]},{"feature":[1,-2,4,7,-2,-2,2,-2,8,13,12,13,-2,-2,-2,-2,-2],"threshold":[113.26289,-2.0,174.664268,-177.8955,-2.0,-2.0,-74.341444,-2.0,-95.332111,175.986725,179.507179,-179.169914,-2.0,-2.0,-2.0,-2.0,-2.0],"children_left":[1,-1,3,4,-1,-1,7,-1,9,10,11,12,-1,-1,-1,-1,-1],"children_right":[2,-1,6,5,-1,-1,8,-1,16,15,14,13,-1,-1,-1,-1,-1],"value":[[0.494792,0.505208],[1.0,0.0],[0.319298,0.680702],[0.972973,0.027027],[0.714286,0.285714],[1.0,0.0],[0.090047,0.909953],[1.0,0.0],[0.058824,0.941176],[0.020408,0.979592],[0.1,0.9],[0.029412,0.970588],[0.0,1.0],[0.125,0.875],[0.5,0.5],[0.0,1.0],[1.0,0.0]]},{"feature":[8,9,-2,11,11,-2,-2,3,4,-2,7,-2,-2,-2,5,-2,-2],"threshold":[-95.782627,99.065186,-2.0,174.284531,-164.102806,-2.0,-2.0,42.382095,174.759201,-2.0,-179.875267,-2.0,-2.0,-2.0,-178.466637,-2.0,-2.0],"children_left":[1,2,-1,4,5,-1,-1,8,9,-1,11,-1,-1,-1,15,-1,-1],"children_right":[14,3,-1,7,6,-1,-1,13,10,-1,12,-1,-1,-1,16,-1,-1],"value":[[0.445312,0.554688],[0.242857,0.757143],[1.0,0.0],[0.155378,0.844622],[0.942857,0.057143],[0.666667,0.333333],[1.0,0.0],[0.027778,0.972222],[0.014218,0.985782],[0.333333,0.666667],[0.004878,0.995122],[0.111111,0.888889],[0.0,1.0],[0.6,0.4],[0.990385,0.009615],[0.857143,0.142857],[1.0,0.0]]},{"feature":[13,10,7,-2,1,-2,-2,12,1,-2,-2,-2,2,-2,10,1,-2,-2,5,-2,-2],"threshold":[176.40976,-176.388809,178.748833,-2.0,175.174713,-2.0,-2.0,-176.818336,122.494072,-2.0,-2.0,-2.0,-67.543203,-2.0,-174.056831,118.90786,-2.0,-2.0,-173.634903,-2.0,-2.0],"children_left":[1,2,3,-1,5,-1,-1,8,9,-1,-1,-1,13,-1,15,16,-1,-1,19,-1,-1],"children_right":[12,7,4,-1,6,-1,-1,11,10,-1,-1,-1,14,-1,18,17,-1,-1,20,-1,-1],"value":[[0.453125,0.546875],[0.774725,0.225275],[0.234043,0.765957],[0.888889,0.111111],[0.078947,0.921053],[0.0,1.0],[0.5,0.5],[0.962963,0.037037],[0.666667,0.333333],[0.166667,0.833333],[1.0,0.0],[1.0,0.0],[0.163366,0.836634],[1.0,0.0],[0.071429,0.928571],[0.012048,0.987952],[0.2,0.8],[0.0,1.0],[0.6875,0.3125],[0.166667,0.833333],[1.0,0.0]]},{"feature":[9,-2,10,4,-2,11,-2,2,-2,13,-2,-2,12,-2,-2],"threshold":[98.666275,-2.0,-174.098457,175.047653,-2.0,174.262352,-2.0,-46.995268,-2.0,179.882401,-2.0,-2.0,-177.826126,-2.0,-2.0],"children_left":[1,-1,3,4,-1,6,-1,8,-1,10,-1,-1,13,-1,-1],"children_right":[2,-1,12,5,-1,7,-1,9,-1,11,-1,-1,14,-1,-1],"value":[[0.497396,0.502604],[1.0,0.0],[0.277154,0.722846],[0.086957,0.913043],[0.636364,0.363636],[0.056122,0.943878],[0.833333,0.166667],[0.031579,0.968421],[0.714286,0.285714],[0.005464,0.994536],[0.0,1.0],[0.083333,0.916667],[0.933333,0.066667],[0.428571,0.571429],[1.0,0.0]]},{"feature":[11,0,-2,-2,9,-2,2,-2,13,4,-2,-2,-2],"threshold":[174.533562,-178.04171,-2.0,-2.0,99.639988,-2.0,-46.573828,-2.0,178.415359,174.24469,-2.0,-2.0,-2.0],"children_left":[1,2,-1,-1,5,-1,7,-1,9,10,-1,-1,-1],"children_right":[4,3,-1,-1,6,-1,8,-1,12,11,-1,-1,-1],"value":[[0.46875,0.53125],[0.986667,0.013333],[0.666667,0.333333],[1.0,0.0],[0.136752,0.863248],[1.0,0.0],[0.051643,0.948357],[0.444444,0.555556],[0.034314,0.965686],[0.094595,0.905405],[0.7,0.3],[0.0,1.0],[0.0,1.0]]},{"feature":[11,-2,8,5,3,9,1,-2,8,-2,-2,-2,-2,-2,-2],"threshold":[174.533562,-2.0,-94.385204,-175.076218,41.955647,104.394627,147.96418,-2.0,-113.773163,-2.0,-2.0,-2.0,-2.0,-2.0,-2.0],"children_left":[1,-1,3,4,5,6,7,-1,9,-1,-1,-1,-1,-1,-1],"children_right":[2,-1,14,13,12,11,8,-1,10,-1,-1,-1,-1,-1,-1],"value":[[0.502604,0.497396],[1.0,0.0],[0.17316,0.82684],[0.059113,0.940887],[0.02551,0.97449],[0.020833,0.979167],[0.086957,0.913043],[0.6,0.4],[0.02439,0.97561],[0.0,1.0],[0.2,0.8],[0.0,1.0],[0.25,0.75],[1.0,0.0],[1.0,0.0]]},{"feature":[11,5,-2,-2,7,6,-2,1,-2,9,-2,-2,9,-2,10,13,-2,-2,-2],"threshold":[174.218521,-179.463493,-2.0,-2.0,-176.947571,-179.788399,-2.0,118.951622,-2.0,100.68512,-2.0,-2.0,99.034672,-2.0,-175.106216,-179.326775,-2.0,-2.0,-2.0],"children_left":[1,2,-1,-1,5,6,-1,8,-1,10,-1,-1,13,-1,15,16,-1,-1,-1],"children_right":[4,3,-1,-1,12,7,-1,9,-1,11,-1,-1,14,-1,18,17,-1,-1,-1],"value":[[0.505208,0.494792],[0.988166,0.011834],[0.714286,0.285714],[1.0,0.0],[0.125581,0.874419],[0.02439,0.97561],[0.222222,0.777778],[0.012903,0.987097],[0.2,0.8],[0.006667,0.993333],[0.166667,0.833333],[0.0,1.0],[0.45098,0.54902],[1.0,0.0],[0.176471,0.823529],[0.035714,0.964286],[0.0,1.0],[0.2,0.8],[0.833333,0.166667]]},{"feature":[4,4,-2,-2,1,-2,10,9,-2,-2,9,-2,8,5,-2,-2,-2],"threshold":[174.734673,-178.264137,-2.0,-2.0,-20.827503,-2.0,-176.59256,101.561852,-2.0,-2.0,98.932522,-2.0,-100.870472,-177.105843,-2.0,-2.0,-2.0],"children_left":[1,2,-1,-1,5,-1,7,8,-1,-1,11,-1,13,14,-1,-1,-1],"children_right":[4,3,-1,-1,6,-1,10,9,-1,-1,12,-1,16,15,-1,-1,-1],"value":[[0.489583,0.510417],[0.964072,0.035928],[0.333333,0.666667],[1.0,0.0],[0.124424,0.875576],[1.0,0.0],[0.082126,0.917874],[0.014286,0.985714],[0.285714,0.714286],[0.0,1.0],[0.223881,0.776119],[1.0,0.0],[0.103448,0.896552],[0.019231,0.980769],[0.0,1.0],[0.25,0.75],[0.833333,0.166667]]},{"feature":[5,9,-2,11,-2,4,-2,8,-2,-2,-2],"threshold":[-175.753464,99.405224,-2.0,11.595467,-2.0,173.187317,-2.0,-123.878746,-2.0,-2.0,-2.0],"children_left":[1,2,-1,4,-1,6,-1,8,-1,-1,-1],"children_right":[10,3,-1,5,-1,7,-1,9,-1,-1,-1],"value":[[0.518229,0.481771],[0.147465,0.852535],[1.0,0.0],[0.056122,0.943878],[0.625,0.375],[0.031915,0.968085],[0.714286,0.285714],[0.005525,0.994475],[0.2,0.8],[0.0,1.0],[1.0,0.0]]},{"feature":[1,-2,5,10,1,8,-2,-2,-2,-2,-2],"threshold":[82.94565,-2.0,-175.431572,-172.19838,176.046936,-95.499638,-2.0,-2.0,-2.0,-2.0,-2.0],"children_left":[1,-1,3,4,5,6,-1,-1,-1,-1,-1],"children_right":[2,-1,10,9,8,7,-1,-1,-1,-1,-1],"value":[[0.513021,0.486979],[1.0,0.0],[0.32491,0.67509],[0.105263,0.894737],[0.079602,0.920398],[0.021164,0.978836],[0.0,1.0],[0.571429,0.428571],[1.0,0.0],[0.75,0.25],[1.0,0.0]]},{"feature":[13,4,4,-2,-2,9,-2,11,-2,-2,9,-2,2,-2,4,-2,9,13,-2,-2,-2],"threshold":[176.999504,175.713394,174.566704,-2.0,-2.0,102.465721,-2.0,178.540924,-2.0,-2.0,97.992027,-2.0,-46.161165,-2.0,174.641525,-2.0,102.668678,178.956299,-2.0,-2.0,-2.0],"children_left":[1,2,3,-1,-1,6,-1,8,-1,-1,11,-1,13,-1,15,-1,17,18,-1,-1,-1],"children_right":[10,5,4,-1,-1,7,-1,9,-1,-1,12,-1,14,-1,16,-1,20,19,-1,-1,-1],"value":[[0.450521,0.549479],[0.78022,0.21978],[0.992593,0.007407],[1.0,0.0],[0.833333,0.166667],[0.170213,0.829787],[1.0,0.0],[0.025,0.975],[0.0,1.0],[0.2,0.8],[0.153465,0.846535],[1.0,0.0],[0.05,0.95],[0.5,0.5],[0.034483,0.965517],[0.571429,0.428571],[0.011976,0.988024],[0.074074,0.925926],[0.0,1.0],[0.25,0.75],[0.0,1.0]]},{"feature":[10,8,11,-2,13,13,-2,-2,8,-2,13,2,-2,-2,-2,-2,13,-2,-2],"threshold":[-174.047874,-94.385204,174.497864,-2.0,34.324966,-178.801636,-2.0,-2.0,-121.607826,-2.0,178.415359,-28.874743,-2.0,-2.0,-2.0,-2.0,178.6269,-2.0,-2.0],"children_left":[1,2,3,-1,5,6,-1,-1,9,-1,11,12,-1,-1,-1,-1,17,-1,-1],"children_right":[16,15,4,-1,8,7,-1,-1,10,-1,14,13,-1,-1,-1,-1,18,-1,-1],"value":[[0.466146,0.533854],[0.174089,0.825911],[0.089286,0.910714],[1.0,0.0],[0.046729,0.953271],[0.133333,0.866667],[0.0,1.0],[0.666667,0.333333],[0.023669,0.976331],[0.5,0.5],[0.006135,0.993865],[0.030303,0.969697],[0.0,1.0],[0.1,0.9],[0.0,1.0],[1.0,0.0],[0.992701,0.007299],[1.0,0.0],[0.857143,0.142857]]},{"feature":[10,1,-2,8,13,0,5,-2,-2,-2,2,-2,-2,-2,4,-2,-2],"threshold":[-174.056831,48.649803,-2.0,-95.24868,34.520172,-138.644768,-163.073906,-2.0,-2.0,-2.0,-45.863527,-2.0,-2.0,-2.0,-176.606216,-2.0,-2.0],"children_left":[1,2,-1,4,5,6,7,-1,-1,-1,11,-1,-1,-1,15,-1,-1],"children_right":[14,3,-1,13,10,9,8,-1,-1,-1,12,-1,-1,-1,16,-1,-1],"value":[[0.455729,0.544271],[0.181102,0.818898],[1.0,0.0],[0.111111,0.888889],[0.063063,0.936937],[0.254902,0.745098],[0.464286,0.535714],[0.0,1.0],[1.0,0.0],[0.0,1.0],[0.005848,0.994152],[0.25,0.75],[0.0,1.0],[1.0,0.0],[0.992308,0.007692],[0.75,0.25],[1.0,0.0]]},{"feature":[5,10,8,8,-2,4,-2,-2,-2,6,-2,-2,11,-2,-2],"threshold":[-175.295403,-172.30928,-95.227108,-123.761517,-2.0,174.954185,-2.0,-2.0,-2.0,175.724884,-2.0,-2.0,178.384979,-2.0,-2.0],"children_left":[1,2,3,4,-1,6,-1,-1,-1,10,-1,-1,13,-1,-1],"children_right":[12,9,8,5,-1,7,-1,-1,-1,11,-1,-1,14,-1,-1],"value":[[0.5,0.5],[0.159292,0.840708],[0.124402,0.875598],[0.02139,0.97861],[0.6,0.4],[0.005495,0.994505],[0.142857,0.857143],[0.0,1.0],[1.0,0.0],[0.588235,0.411765],[1.0,0.0],[0.3,0.7],[0.987342,0.012658],[1.0,0.0],[0.777778,0.222222]]},{"feature":[7,4,4,-2,-2,6,2,-2,4,-2,-2,-2,13,5,3,-2,-2,-2,5,6,-2,-2,-2],"threshold":[-176.999504,174.476158,126.283436,-2.0,-2.0,178.212097,-44.656609,-2.0,177.902863,-2.0,-2.0,-2.0,-178.944778,-176.064697,43.49991,-2.0,-2.0,-2.0,-177.016098,173.89608,-2.0,-2.0,-2.0],"children_left":[1,2,3,-1,-1,6,7,-1,9,-1,-1,-1,13,14,15,-1,-1,-1,19,20,-1,-1,-1],"children_right":[12,5,4,-1,-1,11,8,-1,10,-1,-1,-1,18,17,16,-1,-1,-1,22,21,-1,-1,-1],"value":[[0.541667,0.458333],[0.171598,0.828402],[0.909091,0.090909],[0.5,0.5],[1.0,0.0],[0.061224,0.938776],[0.115385,0.884615],[0.625,0.375],[0.057143,0.942857],[0.0,1.0],[0.307692,0.692308],[0.0,1.0],[0.832558,0.167442],[0.285714,0.714286],[0.195122,0.804878],[0.0,1.0],[0.888889,0.111111],[0.75,0.25],[0.993976,0.006024],[0.941176,0.058824],[1.0,0.0],[0.75,0.25],[1.0,0.0]]},{"feature":[13,8,5,7,-2,-2,-2,-2,4,9,-2,-2,13,1,-2,-2,4,-2,-2],"threshold":[177.506454,-98.647202,-175.29171,178.97628,-2.0,-2.0,-2.0,-2.0,174.641525,103.39349,-2.0,-2.0,179.824715,118.779148,-2.0,-2.0,177.112938,-2.0,-2.0],"children_left":[1,2,3,4,-1,-1,-1,-1,9,10,-1,-1,13,14,-1,-1,17,-1,-1],"children_right":[8,7,6,5,-1,-1,-1,-1,12,11,-1,-1,16,15,-1,-1,18,-1,-1],"value":[[0.505208,0.494792],[0.8,0.2],[0.583333,0.416667],[0.021739,0.978261],[0.25,0.75],[0.0,1.0],[1.0,0.0],[1.0,0.0],[0.08805,0.91195],[0.785714,0.214286],[1.0,0.0],[0.4,0.6],[0.02069,0.97931],[0.007463,0.992537],[0.166667,0.833333],[0.0,1.0],[0.181818,0.818182],[0.0,1.0],[0.4,0.6]]},{"feature":[4,10,-2,-2,8,8,-2,9,10,-2,8,-2,-2,-2,-2],"threshold":[174.734673,178.027718,-2.0,-2.0,-94.363632,-123.660183,-2.0,121.334972,-175.416756,-2.0,-108.104988,-2.0,-2.0,-2.0,-2.0],"children_left":[1,2,-1,-1,5,6,-1,8,9,-1,11,-1,-1,-1,-1],"children_right":[4,3,-1,-1,14,7,-1,13,10,-1,12,-1,-1,-1,-1],"value":[[0.484375,0.515625],[0.987179,0.012821],[1.0,0.0],[0.666667,0.333333],[0.140351,0.859649],[0.029703,0.970297],[0.4,0.6],[0.020305,0.979695],[0.010471,0.989529],[0.0,1.0],[0.066667,0.933333],[0.0,1.0],[0.5,0.5],[0.333333,0.666667],[1.0,0.0]]},{"feature":[11,7,-2,-2,9,-2,5,1,-2,4,-2,1,-2,-2,-2],"threshold":[174.533562,178.69014,-2.0,-2.0,99.405224,-2.0,-163.533791,118.511456,-2.0,174.152397,-2.0,175.423012,-2.0,-2.0,-2.0],"children_left":[1,2,-1,-1,5,-1,7,8,-1,10,-1,12,-1,-1,-1],"children_right":[4,3,-1,-1,6,-1,14,9,-1,11,-1,13,-1,-1,-1],"value":[[0.476562,0.523438],[0.979021,0.020979],[1.0,0.0],[0.666667,0.333333],[0.178423,0.821577],[1.0,0.0],[0.074766,0.925234],[0.048309,0.951691],[0.7,0.3],[0.015228,0.984772],[0.285714,0.714286],[0.005263,0.994737],[0.0,1.0],[0.166667,0.833333],[0.857143,0.142857]]},{"feature":[4,6,-2,-2,3,9,-2,7,13,-2,-2,13,-2,-2,-2],"threshold":[174.641525,178.174507,-2.0,-2.0,45.262487,100.297306,-2.0,-175.725899,179.875267,-2.0,-2.0,-177.920174,-2.0,-2.0,-2.0],"children_left":[1,2,-1,-1,5,6,-1,8,9,-1,-1,12,-1,-1,-1],"children_right":[4,3,-1,-1,14,7,-1,11,10,-1,-1,13,-1,-1,-1],"value":[[0.497396,0.502604],[0.971098,0.028902],[1.0,0.0],[0.5,0.5],[0.109005,0.890995],[0.06,0.94],[0.666667,0.333333],[0.041237,0.958763],[0.006211,0.993789],[0.0,1.0],[0.142857,0.857143],[0.212121,0.787879],[0.0,1.0],[0.875,0.125],[1.0,0.0]]},{"feature":[7,2,-2,10,10,9,0,-2,-2,-2,4,-2,-2,1,-2,-2,11,-2,10,2,-2,1,-2,-2,-2],"threshold":[-176.999504,-66.861559,-2.0,-173.118729,-174.636803,102.704922,-130.264435,-2.0,-2.0,-2.0,175.000343,-2.0,-2.0,158.608841,-2.0,-2.0,175.793655,-2.0,-174.471001,-74.341444,-2.0,175.353539,-2.0,-2.0,-2.0],"children_left":[1,2,-1,4,5,6,7,-1,-1,-1,11,-1,-1,14,-1,-1,17,-1,19,20,-1,22,-1,-1,-1],"children_right":[16,3,-1,13,10,9,8,-1,-1,-1,12,-1,-1,15,-1,-1,18,-1,24,21,-1,23,-1,-1,-1],"value":[[0.463542,0.536458],[0.190955,0.809045],[1.0,0.0],[0.090395,0.909605],[0.036585,0.963415],[0.020134,0.979866],[0.2,0.8],[0.375,0.625],[0.0,1.0],[0.0,1.0],[0.2,0.8],[0.5,0.5],[0.0,1.0],[0.769231,0.230769],[0.5,0.5],[1.0,0.0],[0.756757,0.243243],[1.0,0.0],[0.338235,0.661765],[0.166667,0.833333],[1.0,0.0],[0.0625,0.9375],[0.0,1.0],[0.5,0.5],[1.0,0.0]]},{"feature":[10,2,-2,5,0,3,-2,12,-2,1,1,-2,-2,-2,-2,-2,10,-2,-2],"threshold":[-174.047874,-70.401506,-2.0,-174.466774,-43.851044,10.243075,-2.0,178.905159,-2.0,175.039841,121.783688,-2.0,-2.0,-2.0,-2.0,-2.0,179.15287,-2.0,-2.0],"children_left":[1,2,-1,4,5,6,-1,8,-1,10,11,-1,-1,-1,-1,-1,17,-1,-1],"children_right":[16,3,-1,15,14,7,-1,9,-1,13,12,-1,-1,-1,-1,-1,18,-1,-1],"value":[[0.484375,0.515625],[0.183333,0.816667],[1.0,0.0],[0.125,0.875],[0.039216,0.960784],[0.02551,0.97449],[0.333333,0.666667],[0.015789,0.984211],[0.0,1.0],[0.06,0.94],[0.022222,0.977778],[0.142857,0.857143],[0.0,1.0],[0.4,0.6],[0.375,0.625],[1.0,0.0],[0.986111,0.013889],[1.0,0.0],[0.5,0.5]]},{"feature":[4,12,-2,13,-2,-2,9,-2,9,11,-2,13,-2,-2,-2],"threshold":[175.047653,-178.400162,-2.0,178.44313,-2.0,-2.0,99.405224,-2.0,121.65728,174.262352,-2.0,179.875267,-2.0,-2.0,-2.0],"children_left":[1,2,-1,4,-1,-1,7,-1,9,10,-1,12,-1,-1,-1],"children_right":[6,3,-1,5,-1,-1,8,-1,14,11,-1,13,-1,-1,-1],"value":[[0.479167,0.520833],[0.969325,0.030675],[0.333333,0.666667],[0.993631,0.006369],[1.0,0.0],[0.916667,0.083333],[0.117647,0.882353],[1.0,0.0],[0.04878,0.95122],[0.035176,0.964824],[0.857143,0.142857],[0.005208,0.994792],[0.0,1.0],[0.111111,0.888889],[0.5,0.5]]},{"feature":[11,7,-2,-2,13,2,-2,13,-2,9,-2,-2,8,1,-2,8,-2,9,-2,-2,-2],"threshold":[174.285583,178.948235,-2.0,-2.0,176.7752,-74.341444,-2.0,-178.691101,-2.0,107.912365,-2.0,-2.0,-96.446545,118.498562,-2.0,-121.607826,-2.0,100.68512,-2.0,-2.0,-2.0],"children_left":[1,2,-1,-1,5,6,-1,8,-1,10,-1,-1,13,14,-1,16,-1,18,-1,-1,-1],"children_right":[4,3,-1,-1,12,7,-1,9,-1,11,-1,-1,20,15,-1,17,-1,19,-1,-1,-1],"value":[[0.505208,0.494792],[0.993464,0.006536],[1.0,0.0],[0.833333,0.166667],[0.181818,0.818182],[0.539683,0.460317],[1.0,0.0],[0.382979,0.617021],[0.0,1.0],[0.947368,0.052632],[1.0,0.0],[0.75,0.25],[0.047619,0.952381],[0.036585,0.963415],[0.6,0.4],[0.018868,0.981132],[0.222222,0.777778],[0.006667,0.993333],[0.166667,0.833333],[0.0,1.0],[0.5,0.5]]},{"feature":[5,10,3,9,-2,13,9,-2,-2,0,-2,-2,-2,-2,-2],"threshold":[-175.815437,-172.19838,62.454845,100.297306,-2.0,179.882401,119.412731,-2.0,-2.0,-177.809082,-2.0,-2.0,-2.0,-2.0,-2.0],"children_left":[1,2,3,4,-1,6,7,-1,-1,10,-1,-1,-1,-1,-1],"children_right":[14,13,12,5,-1,9,8,-1,-1,11,-1,-1,-1,-1,-1],"value":[[0.497396,0.502604],[0.153509,0.846491],[0.126697,0.873303],[0.053922,0.946078],[0.888889,0.111111],[0.015385,0.984615],[0.005525,0.994475],[0.0,1.0],[0.2,0.8],[0.142857,0.857143],[0.0,1.0],[0.25,0.75],[1.0,0.0],[1.0,0.0],[1.0,0.0]]},{"feature":[5,13,1,-2,13,8,-2,-2,-2,0,9,-2,10,13,-2,-2,-2,-2,-2],"threshold":[-175.295403,176.947571,-19.094093,-2.0,-178.873596,-102.995747,-2.0,-2.0,-2.0,35.561485,100.427036,-2.0,-178.089233,179.540771,-2.0,-2.0,-2.0,-2.0,-2.0],"children_left":[1,2,3,-1,5,6,-1,-1,-1,10,11,-1,13,14,-1,-1,-1,-1,-1],"children_right":[18,9,4,-1,8,7,-1,-1,-1,17,12,-1,16,15,-1,-1,-1,-1,-1],"value":[[0.492188,0.507812],[0.129464,0.870536],[0.475,0.525],[1.0,0.0],[0.275862,0.724138],[0.086957,0.913043],[0.0,1.0],[0.5,0.5],[1.0,0.0],[0.054348,0.945652],[0.034286,0.965714],[0.428571,0.571429],[0.017857,0.982143],[0.130435,0.869565],[0.0,1.0],[0.428571,0.571429],[0.0,1.0],[0.444444,0.555556],[1.0,0.0]]},{"feature":[11,-2,1,-2,4,9,-2,-2,3,3,-2,8,-2,3,-2,-2,-2],"threshold":[174.814995,-2.0,49.198749,-2.0,174.411354,107.912365,-2.0,-2.0,42.382095,10.243075,-2.0,-98.363396,-2.0,33.388937,-2.0,-2.0,-2.0],"children_left":[1,-1,3,-1,5,6,-1,-1,9,10,-1,12,-1,14,-1,-1,-1],"children_right":[2,-1,4,-1,8,7,-1,-1,16,11,-1,13,-1,15,-1,-1,-1],"value":[[0.489583,0.510417],[1.0,0.0],[0.162393,0.837607],[1.0,0.0],[0.113122,0.886878],[0.882353,0.117647],[1.0,0.0],[0.6,0.4],[0.04902,0.95098],[0.020305,0.979695],[0.428571,0.571429],[0.005263,0.994737],[0.0,1.0],[0.066667,0.933333],[0.25,0.75],[0.0,1.0],[0.857143,0.142857]]},{"feature":[4,4,-2,-2,7,2,-2,1,-2,-2,7,5,-2,-2,12,-2,-2],"threshold":[174.734673,-177.580719,-2.0,-2.0,-175.986725,-45.863527,-2.0,118.449936,-2.0,-2.0,179.336647,-177.016098,-2.0,-2.0,30.177795,-2.0,-2.0],"children_left":[1,2,-1,-1,5,6,-1,8,-1,-1,11,12,-1,-1,15,-1,-1],"children_right":[4,3,-1,-1,10,7,-1,9,-1,-1,14,13,-1,-1,16,-1,-1],"value":[[0.481771,0.518229],[0.962733,0.037267],[0.333333,0.666667],[1.0,0.0],[0.134529,0.865471],[0.0375,0.9625],[0.714286,0.285714],[0.006536,0.993464],[0.166667,0.833333],[0.0,1.0],[0.380952,0.619048],[0.769231,0.230769],[0.25,0.75],[1.0,0.0],[0.108108,0.891892],[0.444444,0.555556],[0.0,1.0]]},{"feature":[1,-2,5,9,1,-2,-2,2,-2,8,-2,-2,4,-2,-2],"threshold":[118.200726,-2.0,-175.494896,100.427036,176.780457,-2.0,-2.0,-46.995268,-2.0,-96.504368,-2.0,-2.0,176.080879,-2.0,-2.0],"children_left":[1,-1,3,4,5,-1,-1,8,-1,10,-1,-1,13,-1,-1],"children_right":[2,-1,12,7,6,-1,-1,9,-1,11,-1,-1,14,-1,-1],"value":[[0.502604,0.497396],[1.0,0.0],[0.343643,0.656357],[0.095694,0.904306],[0.882353,0.117647],[0.6,0.4],[1.0,0.0],[0.026042,0.973958],[0.666667,0.333333],[0.005376,0.994624],[0.0,1.0],[0.166667,0.833333],[0.97561,0.02439],[1.0,0.0],[0.714286,0.285714]]},{"feature":[13,7,12,-2,-2,11,8,-2,-2,-2,5,1,-2,3,-2,-2,13,-2,-2],"threshold":[176.999565,178.87014,-178.634819,-2.0,-2.0,178.198853,-100.361225,-2.0,-2.0,-2.0,-175.295403,117.915558,-2.0,41.50066,-2.0,-2.0,178.32682,-2.0,-2.0],"children_left":[1,2,3,-1,-1,6,7,-1,-1,-1,11,12,-1,14,-1,-1,17,-1,-1],"children_right":[10,5,4,-1,-1,9,8,-1,-1,-1,16,13,-1,15,-1,-1,18,-1,-1],"value":[[0.463542,0.536458],[0.845745,0.154255],[0.987013,0.012987],[0.714286,0.285714],[1.0,0.0],[0.205882,0.794118],[0.074074,0.925926],[0.0,1.0],[0.4,0.6],[0.714286,0.285714],[0.096939,0.903061],[0.022599,0.977401],[0.6,0.4],[0.005814,0.994186],[0.0,1.0],[0.2,0.8],[0.789474,0.210526],[0.5,0.5],[1.0,0.0]]},{"feature":[5,0,8,12,5,-2,-2,9,-2,9,-2,-2,-2,10,-2,2,-2,-2,4,-2,-2],"threshold":[-175.431572,29.038235,-95.039474,179.31649,-179.51841,-2.0,-2.0,106.077538,-2.0,118.026375,-2.0,-2.0,-2.0,-176.951248,-2.0,-10.094893,-2.0,-2.0,176.012726,-2.0,-2.0],"children_left":[1,2,3,4,5,-1,-1,8,-1,10,-1,-1,-1,14,-1,16,-1,-1,19,-1,-1],"children_right":[18,13,12,7,6,-1,-1,9,-1,11,-1,-1,-1,15,-1,17,-1,-1,20,-1,-1],"value":[[0.513021,0.486979],[0.158371,0.841629],[0.109375,0.890625],[0.033898,0.966102],[0.006623,0.993377],[0.25,0.75],[0.0,1.0],[0.192308,0.807692],[0.571429,0.428571],[0.052632,0.947368],[0.0,1.0],[0.25,0.75],[1.0,0.0],[0.482759,0.517241],[1.0,0.0],[0.117647,0.882353],[0.333333,0.666667],[0.0,1.0],[0.993865,0.006135],[1.0,0.0],[0.833333,0.166667]]},{"feature":[11,4,-2,-2,4,5,-2,-2,2,-2,11,-2,10,9,-2,-2,-2],"threshold":[174.814995,-176.539383,-2.0,-2.0,175.446091,-176.637581,-2.0,-2.0,-67.404922,-2.0,177.778481,-2.0,-175.731789,103.480774,-2.0,-2.0,-2.0],"children_left":[1,2,-1,-1,5,6,-1,-1,9,-1,11,-1,13,14,-1,-1,-1],"children_right":[4,3,-1,-1,8,7,-1,-1,10,-1,12,-1,16,15,-1,-1,-1],"value":[[0.552083,0.447917],[0.994152,0.005848],[0.8,0.2],[1.0,0.0],[0.197183,0.802817],[0.851852,0.148148],[0.428571,0.571429],[1.0,0.0],[0.102151,0.897849],[1.0,0.0],[0.017647,0.982353],[0.0,1.0],[0.065217,0.934783],[0.02439,0.97561],[0.2,0.8],[0.0,1.0],[0.4,0.6]]},{"feature":[11,0,-2,-2,9,-2,9,1,-2,13,13,-2,-2,-2,-2],"threshold":[174.285583,-176.991631,-2.0,-2.0,98.431511,-2.0,121.729374,118.315544,-2.0,176.689293,-153.472588,-2.0,-2.0,-2.0,-2.0],"children_left":[1,2,-1,-1,5,-1,7,8,-1,10,11,-1,-1,-1,-1],"children_right":[4,3,-1,-1,6,-1,14,9,-1,13,12,-1,-1,-1,-1],"value":[[0.528646,0.471354],[0.993976,0.006024],[0.9,0.1],[1.0,0.0],[0.174312,0.825688],[1.0,0.0],[0.072165,0.927835],[0.032609,0.967391],[0.333333,0.666667],[0.022472,0.977528],[0.125,0.875],[0.0,1.0],[1.0,0.0],[0.0,1.0],[0.8,0.2]]},{"feature":[12,1,-2,10,-2,-2,7,10,9,1,4,-2,-2,-2,-2,-2,5,4,-2,8,-2,-2,-2],"threshold":[-178.317955,-20.244499,-2.0,-174.337463,-2.0,-2.0,-176.979134,-173.271255,118.532368,175.130379,175.669312,-2.0,-2.0,-2.0,-2.0,-2.0,-176.792809,175.807732,-2.0,-105.437592,-2.0,-2.0,-2.0],"children_left":[1,2,-1,4,-1,-1,7,8,9,10,11,-1,-1,-1,-1,-1,17,18,-1,20,-1,-1,-1],"children_right":[6,3,-1,5,-1,-1,16,15,14,13,12,-1,-1,-1,-1,-1,22,19,-1,21,-1,-1,-1],"value":[[0.494792,0.505208],[0.093458,0.906542],[1.0,0.0],[0.020202,0.979798],[0.0,1.0],[0.5,0.5],[0.649819,0.350181],[0.252874,0.747126],[0.084507,0.915493],[0.031746,0.968254],[0.016949,0.983051],[0.25,0.75],[0.0,1.0],[0.25,0.75],[0.5,0.5],[1.0,0.0],[0.831579,0.168421],[0.238095,0.761905],[1.0,0.0],[0.058824,0.941176],[0.0,1.0],[0.2,0.8],[1.0,0.0]]},{"feature":[5,0,8,4,-2,8,-2,1,-2,-2,-2,4,-2,8,-2,-2,7,8,-2,-2,-2],"threshold":[-175.431572,-46.375268,-94.385204,175.243172,-2.0,-123.807163,-2.0,119.232208,-2.0,-2.0,-2.0,176.565445,-2.0,128.51004,-2.0,-2.0,-177.629204,-97.409351,-2.0,-2.0,-2.0],"children_left":[1,2,3,4,-1,6,-1,8,-1,-1,-1,12,-1,14,-1,-1,17,18,-1,-1,-1],"children_right":[16,11,10,5,-1,7,-1,9,-1,-1,-1,13,-1,15,-1,-1,20,19,-1,-1,-1],"value":[[0.533854,0.466146],[0.119403,0.880597],[0.077348,0.922652],[0.02907,0.97093],[0.25,0.75],[0.018293,0.981707],[0.2,0.8],[0.012579,0.987421],[0.333333,0.666667],[0.0,1.0],[1.0,0.0],[0.5,0.5],[0.125,0.875],[0.75,0.25],[0.25,0.75],[1.0,0.0],[0.989071,0.010929],[0.882353,0.117647],[0.714286,0.285714],[1.0,0.0],[1.0,0.0]]},{"feature":[11,0,-2,-2,8,4,7,-2,-2,13,3,-2,-2,-2,-2],"threshold":[174.814995,-177.187363,-2.0,-2.0,-94.118637,174.315094,-177.334686,-2.0,-2.0,179.875267,41.955647,-2.0,-2.0,-2.0,-2.0],"children_left":[1,2,-1,-1,5,6,7,-1,-1,10,11,-1,-1,-1,-1],"children_right":[4,3,-1,-1,14,9,8,-1,-1,13,12,-1,-1,-1,-1],"value":[[0.471354,0.528646],[0.986207,0.013793],[0.8,0.2],[1.0,0.0],[0.158996,0.841004],[0.082192,0.917808],[0.736842,0.263158],[0.444444,0.555556],[1.0,0.0],[0.02,0.98],[0.010471,0.989529],[0.0,1.0],[0.4,0.6],[0.222222,0.777778],[1.0,0.0]]},{"feature":[11,6,-2,-2,8,7,9,12,-2,3,-2,1,-2,-2,-2,4,-2,11,-2,-2,-2],"threshold":[174.508972,177.563065,-2.0,-2.0,-95.061047,-176.689293,119.631935,-177.875923,-2.0,10.338893,-2.0,129.150936,-2.0,-2.0,-2.0,175.431923,-2.0,177.933609,-2.0,-2.0,-2.0],"children_left":[1,2,-1,-1,5,6,7,8,-1,10,-1,12,-1,-1,-1,16,-1,18,-1,-1,-1],"children_right":[4,3,-1,-1,20,15,14,9,-1,11,-1,13,-1,-1,-1,17,-1,19,-1,-1,-1],"value":[[0.463542,0.536458],[0.984848,0.015152],[1.0,0.0],[0.6,0.4],[0.190476,0.809524],[0.089286,0.910714],[0.028902,0.971098],[0.018072,0.981928],[0.0,1.0],[0.043478,0.956522],[0.285714,0.714286],[0.016129,0.983871],[0.2,0.8],[0.0,1.0],[0.285714,0.714286],[0.294118,0.705882],[1.0,0.0],[0.052632,0.947368],[0.0,1.0],[0.181818,0.818182],[1.0,0.0]]},{"feature":[11,0,-2,-2,4,9,-2,-2,8,7,-2,4,8,-2,-2,-2,-2],"threshold":[174.508972,-177.048714,-2.0,-2.0,174.481758,112.00626,-2.0,-2.0,-95.332111,-179.882401,-2.0,176.502693,-105.583447,-2.0,-2.0,-2.0,-2.0],"children_left":[1,2,-1,-1,5,6,-1,-1,9,10,-1,12,13,-1,-1,-1,-1],"children_right":[4,3,-1,-1,8,7,-1,-1,16,11,-1,15,14,-1,-1,-1,-1],"value":[[0.458333,0.541667],[0.985507,0.014493],[0.666667,0.333333],[1.0,0.0],[0.162602,0.837398],[0.833333,0.166667],[1.0,0.0],[0.2,0.8],[0.09009,0.90991],[0.014634,0.985366],[0.166667,0.833333],[0.005181,0.994819],[0.022222,0.977778],[0.0,1.0],[0.25,0.75],[0.0,1.0],[1.0,0.0]]},{"feature":[9,-2,10,6,1,-2,-2,12,-2,3,-2,11,-2,-2,12,-2,-2],"threshold":[98.830421,-2.0,-174.094803,-179.647133,129.94672,-2.0,-2.0,0.140663,-2.0,12.522688,-2.0,177.823242,-2.0,-2.0,-176.916,-2.0,-2.0],"children_left":[1,-1,3,4,5,-1,-1,8,-1,10,-1,12,-1,-1,15,-1,-1],"children_right":[2,-1,14,7,6,-1,-1,9,-1,11,-1,13,-1,-1,16,-1,-1],"value":[[0.424479,0.575521],[1.0,0.0],[0.26087,0.73913],[0.056522,0.943478],[0.411765,0.588235],[0.0,1.0],[0.875,0.125],[0.028169,0.971831],[0.0,1.0],[0.072289,0.927711],[0.0,1.0],[0.4,0.6],[0.857143,0.142857],[0.0,1.0],[0.942029,0.057971],[0.636364,0.363636],[1.0,0.0]]},{"feature":[5,1,-2,1,9,-2,13,4,-2,-2,-2,-2,4,-2,-2],"threshold":[-175.431572,49.198749,-2.0,176.046936,100.427036,-2.0,176.947632,175.912956,-2.0,-2.0,-2.0,-2.0,176.253548,-2.0,-2.0],"children_left":[1,2,-1,4,5,-1,7,8,-1,-1,-1,-1,13,-1,-1],"children_right":[12,3,-1,11,6,-1,10,9,-1,-1,-1,-1,14,-1,-1],"value":[[0.520833,0.479167],[0.175676,0.824324],[1.0,0.0],[0.089552,0.910448],[0.04712,0.95288],[0.636364,0.363636],[0.011111,0.988889],[0.068966,0.931034],[0.4,0.6],[0.0,1.0],[0.0,1.0],[0.9,0.1],[0.993827,0.006173],[1.0,0.0],[0.857143,0.142857]]},{"feature":[10,11,0,-2,-2,9,-2,4,-2,3,12,-2,7,-2,-2,-2,12,-2,-2],"threshold":[-174.047874,174.651672,-172.846107,-2.0,-2.0,99.405224,-2.0,174.481758,-2.0,42.029222,178.905663,-2.0,-179.713455,-2.0,-2.0,-2.0,-176.973007,-2.0,-2.0],"children_left":[1,2,3,-1,-1,6,-1,8,-1,10,11,-1,13,-1,-1,-1,17,-1,-1],"children_right":[16,5,4,-1,-1,7,-1,9,-1,15,12,-1,14,-1,-1,-1,18,-1,-1],"value":[[0.473958,0.526042],[0.176955,0.823045],[0.9375,0.0625],[0.8,0.2],[1.0,0.0],[0.123348,0.876652],[1.0,0.0],[0.033981,0.966019],[0.6,0.4],[0.0199,0.9801],[0.005102,0.994898],[0.0,1.0],[0.020833,0.979167],[0.25,0.75],[0.0,1.0],[0.6,0.4],[0.985816,0.014184],[0.666667,0.333333],[1.0,0.0]]},{"feature":[5,4,-2,12,3,-2,-2,7,13,5,-2,-2,-2,8,-2,-2,2,-2,12,-2,-2],"threshold":[-175.778656,174.042358,-2.0,-178.285248,39.985041,-2.0,-2.0,0.454514,179.799133,-176.904037,-2.0,-2.0,-2.0,-98.535191,-2.0,-2.0,-8.851537,-2.0,-156.710777,-2.0,-2.0],"children_left":[1,2,-1,4,5,-1,-1,8,9,10,-1,-1,-1,14,-1,-1,17,-1,19,-1,-1],"children_right":[16,3,-1,7,6,-1,-1,13,12,11,-1,-1,-1,15,-1,-1,18,-1,20,-1,-1],"value":[[0.515625,0.484375],[0.123223,0.876777],[1.0,0.0],[0.079602,0.920398],[0.011111,0.988889],[0.0,1.0],[0.2,0.8],[0.135135,0.864865],[0.051282,0.948718],[0.013699,0.986301],[0.0,1.0],[0.2,0.8],[0.6,0.4],[0.333333,0.666667],[0.0,1.0],[1.0,0.0],[0.99422,0.00578],[1.0,0.0],[0.972222,0.027778],[0.8,0.2],[1.0,0.0]]},{"feature":[11,6,-2,-2,5,1,-2,8,3,2,-2,4,-2,-2,-2,-2,10,-2,-2],"threshold":[174.533562,177.563065,-2.0,-2.0,-175.239021,49.198749,-2.0,-94.385204,41.955647,-46.995268,-2.0,175.243172,-2.0,-2.0,-2.0,-2.0,-173.955162,-2.0,-2.0],"children_left":[1,2,-1,-1,5,6,-1,8,9,10,-1,12,-1,-1,-1,-1,17,-1,-1],"children_right":[4,3,-1,-1,16,7,-1,15,14,11,-1,13,-1,-1,-1,-1,18,-1,-1],"value":[[0.489583,0.510417],[0.985401,0.014599],[1.0,0.0],[0.666667,0.333333],[0.214575,0.785425],[0.14978,0.85022],[1.0,0.0],[0.080952,0.919048],[0.015306,0.984694],[0.010526,0.989474],[0.166667,0.833333],[0.005435,0.994565],[0.142857,0.857143],[0.0,1.0],[0.166667,0.833333],[1.0,0.0],[0.95,0.05],[0.8,0.2],[1.0,0.0]]},{"feature":[4,5,12,-2,-2,-2,7,9,2,-2,-2,-2,5,2,-2,1,-2,-2,13,-2,12,-2,-2],"threshold":[174.508469,-175.358727,-176.208778,-2.0,-2.0,-2.0,-175.986725,121.132244,-45.426315,-2.0,-2.0,-2.0,-177.591675,-46.03685,-2.0,121.259853,-2.0,-2.0,-179.472061,-2.0,-119.538914,-2.0,-2.0],"children_left":[1,2,3,-1,-1,-1,7,8,9,-1,-1,-1,13,14,-1,16,-1,-1,19,-1,21,-1,-1],"children_right":[6,5,4,-1,-1,-1,12,11,10,-1,-1,-1,18,15,-1,17,-1,-1,20,-1,22,-1,-1],"value":[[0.481771,0.518229],[0.973684,0.026316],[0.75,0.25],[0.2,0.8],[1.0,0.0],[1.0,0.0],[0.159483,0.840517],[0.040936,0.959064],[0.012195,0.987805],[0.5,0.5],[0.0,1.0],[0.714286,0.285714],[0.491803,0.508197],[0.111111,0.888889],[0.285714,0.714286],[0.05,0.95],[0.2,0.8],[0.0,1.0],[0.794118,0.205882],[0.0,1.0],[0.964286,0.035714],[0.8,0.2],[1.0,0.0]]},{"feature":[11,-2,3,8,4,-2,10,7,-2,-2,5,-2,-2,-2,-2],"threshold":[174.814995,-2.0,62.581602,-94.385204,174.315094,-2.0,-178.11235,-179.37989,-2.0,-2.0,-176.473061,-2.0,-2.0,-2.0,-2.0],"children_left":[1,-1,3,4,5,-1,7,8,-1,-1,11,-1,-1,-1,-1],"children_right":[2,-1,14,13,6,-1,10,9,-1,-1,12,-1,-1,-1,-1],"value":[[0.479167,0.520833],[1.0,0.0],[0.166667,0.833333],[0.103139,0.896861],[0.052133,0.947867],[0.8,0.2],[0.014925,0.985075],[0.068966,0.931034],[0.222222,0.777778],[0.0,1.0],[0.005814,0.994186],[0.0,1.0],[0.111111,0.888889],[1.0,0.0],[1.0,0.0]]},{"feature":[10,8,6,0,10,7,-2,-2,-2,-2,7,-2,3,-2,5,-2,-2,-2,12,-2,-2],"threshold":[-174.047874,-95.227108,-179.325073,-159.208313,-176.45163,-179.416168,-2.0,-2.0,-2.0,-2.0,-175.530693,-2.0,16.668735,-2.0,-172.083931,-2.0,-2.0,-2.0,-178.400162,-2.0,-2.0],"children_left":[1,2,3,4,5,6,-1,-1,-1,-1,11,-1,13,-1,15,-1,-1,-1,19,-1,-1],"children_right":[18,17,10,9,8,7,-1,-1,-1,-1,12,-1,14,-1,16,-1,-1,-1,20,-1,-1],"value":[[0.502604,0.497396],[0.200855,0.799145],[0.083333,0.916667],[0.3125,0.6875],[0.454545,0.545455],[0.076923,0.923077],[0.25,0.75],[0.0,1.0],[1.0,0.0],[0.0,1.0],[0.040698,0.959302],[0.0,1.0],[0.152174,0.847826],[0.0,1.0],[0.466667,0.533333],[0.0,1.0],[1.0,0.0],[1.0,0.0],[0.973333,0.026667],[0.555556,0.444444],[1.0,0.0]]},{"feature":[4,12,-2,-2,9,-2,3,11,-2,7,-2,-2,-2],"threshold":[174.664268,-178.533356,-2.0,-2.0,99.405224,-2.0,44.804415,173.983063,-2.0,-179.872299,-2.0,-2.0,-2.0],"children_left":[1,2,-1,-1,5,-1,7,8,-1,10,-1,-1,-1],"children_right":[4,3,-1,-1,6,-1,12,9,-1,11,-1,-1,-1],"value":[[0.528646,0.471354],[0.988372,0.011628],[0.666667,0.333333],[1.0,0.0],[0.15566,0.84434],[1.0,0.0],[0.072539,0.927461],[0.043716,0.956284],[1.0,0.0],[0.005682,0.994318],[0.111111,0.888889],[0.0,1.0],[0.6,0.4]]},{"feature":[11,7,5,-2,-2,-2,8,9,-2,4,-2,10,-2,6,-2,-2,-2],"threshold":[174.814995,178.948235,-175.295403,-2.0,-2.0,-2.0,-95.704182,97.09277,-2.0,174.411354,-2.0,-175.711861,-2.0,178.304146,-2.0,-2.0,-2.0],"children_left":[1,2,3,-1,-1,-1,7,8,-1,10,-1,12,-1,14,-1,-1,-1],"children_right":[6,5,4,-1,-1,-1,16,9,-1,11,-1,13,-1,15,-1,-1,-1],"value":[[0.479167,0.520833],[0.980263,0.019737],[0.993151,0.006849],[0.875,0.125],[1.0,0.0],[0.666667,0.333333],[0.150862,0.849138],[0.057416,0.942584],[1.0,0.0],[0.029557,0.970443],[0.555556,0.444444],[0.005155,0.994845],[0.0,1.0],[0.028571,0.971429],[0.0,1.0],[0.125,0.875],[1.0,0.0]]},{"feature":[8,8,-2,5,9,-2,9,8,-2,-2,-2,-2,6,-2,-2],"threshold":[-95.782627,-124.742939,-2.0,-175.295403,100.573795,-2.0,104.394627,-113.157631,-2.0,-2.0,-2.0,-2.0,-178.967384,-2.0,-2.0],"children_left":[1,2,-1,4,5,-1,7,8,-1,-1,-1,-1,13,-1,-1],"children_right":[12,3,-1,11,6,-1,10,9,-1,-1,-1,-1,14,-1,-1],"value":[[0.46875,0.53125],[0.269784,0.730216],[1.0,0.0],[0.207031,0.792969],[0.028708,0.971292],[0.333333,0.666667],[0.019704,0.980296],[0.059701,0.940299],[0.0,1.0],[0.333333,0.666667],[0.0,1.0],[1.0,0.0],[0.990566,0.009434],[0.8,0.2],[1.0,0.0]]},{"feature":[7,0,3,5,8,7,-2,-2,-2,-2,-2,2,-2,-2,4,11,-2,-2,8,9,-2,11,-2,-2,-2],"threshold":[-176.999565,-46.716794,57.753138,-175.593689,-96.504368,-179.882401,-2.0,-2.0,-2.0,-2.0,-2.0,-16.503105,-2.0,-2.0,175.685844,-178.589149,-2.0,-2.0,-92.458885,104.237854,-2.0,177.985847,-2.0,-2.0,-2.0],"children_left":[1,2,3,4,5,6,-1,-1,-1,-1,-1,12,-1,-1,15,16,-1,-1,19,20,-1,22,-1,-1,-1],"children_right":[14,11,10,9,8,7,-1,-1,-1,-1,-1,13,-1,-1,18,17,-1,-1,24,21,-1,23,-1,-1,-1],"value":[[0.489583,0.510417],[0.126316,0.873684],[0.081871,0.918129],[0.042683,0.957317],[0.012821,0.987179],[0.006579,0.993421],[0.2,0.8],[0.0,1.0],[0.25,0.75],[0.625,0.375],[1.0,0.0],[0.526316,0.473684],[1.0,0.0],[0.0,1.0],[0.845361,0.154639],[0.993333,0.006667],[0.75,0.25],[1.0,0.0],[0.340909,0.659091],[0.09375,0.90625],[0.333333,0.666667],[0.038462,0.961538],[0.0,1.0],[0.2,0.8],[1.0,0.0]]},{"feature":[8,5,9,-2,1,-2,-2,5,-2,-2,6,-2,-2],"threshold":[-97.100845,-175.275787,100.142731,-2.0,118.779148,-2.0,-2.0,78.258301,-2.0,-2.0,178.584824,-2.0,-2.0],"children_left":[1,2,3,-1,5,-1,-1,8,-1,-1,11,-1,-1],"children_right":[10,7,4,-1,6,-1,-1,9,-1,-1,12,-1,-1],"value":[[0.471354,0.528646],[0.266667,0.733333],[0.0199,0.9801],[0.333333,0.666667],[0.010256,0.989744],[0.4,0.6],[0.0,1.0],[0.985507,0.014493],[1.0,0.0],[0.833333,0.166667],[0.95614,0.04386],[1.0,0.0],[0.285714,0.714286]]},{"feature":[5,0,7,9,-2,-2,10,8,-2,-2,1,13,-2,5,-2,-2,-2,3,-2,-2,10,-2,-2],"threshold":[-175.175697,-43.851044,-176.989326,100.993481,-2.0,-2.0,-176.686996,-100.452663,-2.0,-2.0,175.787201,-178.752289,-2.0,-178.365372,-2.0,-2.0,-2.0,86.327026,-2.0,-2.0,-175.981819,-2.0,-2.0],"children_left":[1,2,3,4,-1,-1,7,8,-1,-1,11,12,-1,14,-1,-1,-1,18,-1,-1,21,-1,-1],"children_right":[20,17,6,5,-1,-1,10,9,-1,-1,16,13,-1,15,-1,-1,-1,19,-1,-1,22,-1,-1],"value":[[0.502604,0.497396],[0.168889,0.831111],[0.126829,0.873171],[0.006757,0.993243],[0.166667,0.833333],[0.0,1.0],[0.438596,0.561404],[0.083333,0.916667],[0.0,1.0],[0.5,0.5],[0.69697,0.30303],[0.565217,0.434783],[0.111111,0.888889],[0.857143,0.142857],[0.666667,0.333333],[1.0,0.0],[1.0,0.0],[0.6,0.4],[0.272727,0.727273],[1.0,0.0],[0.974843,0.025157],[0.5,0.5],[1.0,0.0]]},{"feature":[5,1,-2,9,-2,1,13,8,-2,-2,-2,4,-2,-2,-2],"threshold":[-175.431572,49.198749,-2.0,99.405224,-2.0,175.131287,45.807003,-102.004562,-2.0,-2.0,-2.0,177.299088,-2.0,-2.0,-2.0],"children_left":[1,2,-1,4,-1,6,7,8,-1,-1,-1,12,-1,-1,-1],"children_right":[14,3,-1,5,-1,11,10,9,-1,-1,-1,13,-1,-1,-1],"value":[[0.497396,0.502604],[0.164502,0.835498],[1.0,0.0],[0.102326,0.897674],[1.0,0.0],[0.015306,0.984694],[0.005495,0.994505],[0.033333,0.966667],[0.0,1.0],[0.25,0.75],[0.0,1.0],[0.142857,0.857143],[0.1,0.9],[0.25,0.75],[1.0,0.0]]},{"feature":[4,6,-2,9,-2,-2,3,8,5,-2,-2,-2,-2],"threshold":[174.664268,178.400162,-2.0,112.18148,-2.0,-2.0,45.389244,-95.310539,-163.073906,-2.0,-2.0,-2.0,-2.0],"children_left":[1,2,-1,4,-1,-1,7,8,9,-1,-1,-1,-1],"children_right":[6,3,-1,5,-1,-1,12,11,10,-1,-1,-1,-1],"value":[[0.473958,0.526042],[0.945455,0.054545],[1.0,0.0],[0.4,0.6],[1.0,0.0],[0.0,1.0],[0.118721,0.881279],[0.067633,0.932367],[0.025253,0.974747],[0.0,1.0],[0.625,0.375],[1.0,0.0],[1.0,0.0]]},{"feature":[10,3,8,13,7,-2,-2,1,-2,-2,-2,-2,12,-2,-2],"threshold":[-173.768257,45.389244,-94.363632,175.986725,160.995926,-2.0,-2.0,118.317913,-2.0,-2.0,-2.0,-2.0,-176.175041,-2.0,-2.0],"children_left":[1,2,3,4,5,-1,-1,8,-1,-1,-1,-1,13,-1,-1],"children_right":[12,11,10,7,6,-1,-1,9,-1,-1,-1,-1,14,-1,-1],"value":[[0.476562,0.523438],[0.196787,0.803213],[0.137931,0.862069],[0.082569,0.917431],[0.290909,0.709091],[1.0,0.0],[0.0,1.0],[0.01227,0.98773],[0.25,0.75],[0.0,1.0],[1.0,0.0],[1.0,0.0],[0.992593,0.007407],[0.833333,0.166667],[1.0,0.0]]},{"feature":[5,7,3,3,-2,13,-2,4,-2,13,-2,-2,-2,8,7,-2,-2,-2,7,4,-2,-2,-2],"threshold":[-175.431572,-176.689293,43.299578,10.335083,-2.0,177.19503,-2.0,173.784149,-2.0,179.882401,-2.0,-2.0,-2.0,-98.535191,178.97628,-2.0,-2.0,-2.0,-177.629204,172.317635,-2.0,-2.0,-2.0],"children_left":[1,2,3,4,-1,6,-1,8,-1,10,-1,-1,-1,14,15,-1,-1,-1,19,20,-1,-1,-1],"children_right":[18,13,12,5,-1,7,-1,9,-1,11,-1,-1,-1,17,16,-1,-1,-1,22,21,-1,-1,-1],"value":[[0.46875,0.53125],[0.147059,0.852941],[0.045977,0.954023],[0.02381,0.97619],[0.2,0.8],[0.018405,0.981595],[0.142857,0.857143],[0.012821,0.987179],[0.1,0.9],[0.006849,0.993151],[0.0,1.0],[0.111111,0.888889],[0.666667,0.333333],[0.421875,0.578125],[0.051282,0.948718],[0.5,0.5],[0.0,1.0],[1.0,0.0],[0.993151,0.006849],[0.916667,0.083333],[1.0,0.0],[0.75,0.25],[1.0,0.0]]},{"feature":[1,-2,5,3,12,-2,3,-2,9,-2,0,5,-2,-2,-2,-2,2,2,-2,-2,-2],"threshold":[113.089066,-2.0,-175.295403,55.656521,-177.490334,-2.0,10.03286,-2.0,101.489807,-2.0,-160.990295,-178.267059,-2.0,-2.0,-2.0,-2.0,-30.272455,-128.924427,-2.0,-2.0,-2.0],"children_left":[1,-1,3,4,5,-1,7,-1,9,-1,11,12,-1,-1,-1,-1,17,18,-1,-1,-1],"children_right":[2,-1,16,15,6,-1,8,-1,10,-1,14,13,-1,-1,-1,-1,20,19,-1,-1,-1],"value":[[0.507812,0.492188],[1.0,0.0],[0.334507,0.665493],[0.082927,0.917073],[0.045685,0.954315],[0.0,1.0],[0.102273,0.897727],[1.0,0.0],[0.024691,0.975309],[0.2,0.8],[0.013158,0.986842],[0.066667,0.933333],[0.2,0.8],[0.0,1.0],[0.0,1.0],[1.0,0.0],[0.987342,0.012658],[0.954545,0.045455],[1.0,0.0],[0.833333,0.166667],[1.0,0.0]]},{"feature":[4,10,13,-2,-2,2,-2,-2,8,11,-2,9,8,-2,-2,-2,-2],"threshold":[174.508469,178.152931,178.44313,-2.0,-2.0,32.47647,-2.0,-2.0,-94.385204,170.328239,-2.0,121.65728,-123.233631,-2.0,-2.0,-2.0,-2.0],"children_left":[1,2,3,-1,-1,6,-1,-1,9,10,-1,12,13,-1,-1,-1,-1],"children_right":[8,5,4,-1,-1,7,-1,-1,16,11,-1,15,14,-1,-1,-1,-1],"value":[[0.494792,0.505208],[0.961039,0.038961],[0.993007,0.006993],[1.0,0.0],[0.9,0.1],[0.545455,0.454545],[0.166667,0.833333],[1.0,0.0],[0.182609,0.817391],[0.069307,0.930693],[0.875,0.125],[0.036082,0.963918],[0.010811,0.989189],[0.285714,0.714286],[0.0,1.0],[0.555556,0.444444],[1.0,0.0]]},{"feature":[9,-2,10,4,-2,12,11,-2,1,13,-2,-2,-2,-2,11,-2,7,-2,-2],"threshold":[98.923,-2.0,-174.047874,174.578873,-2.0,179.81356,175.255699,-2.0,175.227165,179.875267,-2.0,-2.0,-2.0,-2.0,174.284531,-2.0,-87.723508,-2.0,-2.0],"children_left":[1,-1,3,4,-1,6,7,-1,9,10,-1,-1,-1,-1,15,-1,17,-1,-1],"children_right":[2,-1,14,5,-1,13,8,-1,12,11,-1,-1,-1,-1,16,-1,18,-1,-1],"value":[[0.484375,0.515625],[1.0,0.0],[0.28,0.72],[0.091787,0.908213],[0.727273,0.272727],[0.056122,0.943878],[0.042105,0.957895],[0.666667,0.333333],[0.021739,0.978261],[0.011236,0.988764],[0.0,1.0],[0.25,0.75],[0.333333,0.666667],[0.5,0.5],[0.852941,0.147059],[1.0,0.0],[0.444444,0.555556],[0.090909,0.909091],[1.0,0.0]]},{"feature":[11,12,-2,-2,1,-2,8,11,5,4,-2,9,-2,-2,-2,-2,-2],"threshold":[174.285583,-176.934296,-2.0,-2.0,49.198749,-2.0,-95.061047,179.549171,-175.175697,169.62986,-2.0,100.875854,-2.0,-2.0,-2.0,-2.0,-2.0],"children_left":[1,2,-1,-1,5,-1,7,8,9,10,-1,12,-1,-1,-1,-1,-1],"children_right":[4,3,-1,-1,6,-1,16,15,14,11,-1,13,-1,-1,-1,-1,-1],"value":[[0.489583,0.510417],[0.97973,0.02027],[0.571429,0.428571],[1.0,0.0],[0.182203,0.817797],[1.0,0.0],[0.126697,0.873303],[0.063107,0.936893],[0.041026,0.958974],[0.026178,0.973822],[0.2,0.8],[0.016575,0.983425],[0.428571,0.571429],[0.0,1.0],[0.75,0.25],[0.454545,0.545455],[1.0,0.0]]},{"feature":[4,-2,10,2,-2,8,5,-2,-2,-2,-2],"threshold":[174.774307,-2.0,-174.173279,-67.404922,-2.0,-95.873367,-175.989067,-2.0,-2.0,-2.0,-2.0],"children_left":[1,-1,3,4,-1,6,7,-1,-1,-1,-1],"children_right":[2,-1,10,5,-1,9,8,-1,-1,-1,-1],"value":[[0.473958,0.526042],[1.0,0.0],[0.110132,0.889868],[0.09589,0.90411],[1.0,0.0],[0.038835,0.961165],[0.0199,0.9801],[0.0,1.0],[0.8,0.2],[0.8,0.2],[0.5,0.5]]},{"feature":[10,1,-2,4,2,-2,4,-2,-2,9,-2,7,-2,1,5,-2,-2,12,-2,-2,12,-2,-2],"threshold":[-174.047874,49.372573,-2.0,175.359665,-21.995392,-2.0,139.266567,-2.0,-2.0,100.072784,-2.0,-175.725899,-2.0,168.942375,-177.604767,-2.0,-2.0,179.418953,-2.0,-2.0,-178.044029,-2.0,-2.0],"children_left":[1,2,-1,4,5,-1,7,-1,-1,10,-1,12,-1,14,15,-1,-1,18,-1,-1,21,-1,-1],"children_right":[20,3,-1,9,6,-1,8,-1,-1,11,-1,13,-1,17,16,-1,-1,19,-1,-1,22,-1,-1],"value":[[0.453125,0.546875],[0.158537,0.841463],[1.0,0.0],[0.103896,0.896104],[0.809524,0.190476],[0.25,0.75],[0.941176,0.058824],[0.8,0.2],[1.0,0.0],[0.033333,0.966667],[0.5,0.5],[0.019608,0.980392],[0.0,1.0],[0.085106,0.914894],[0.230769,0.769231],[0.0,1.0],[0.75,0.25],[0.029412,0.970588],[0.0,1.0],[0.111111,0.888889],[0.978261,0.021739],[0.7,0.3],[1.0,0.0]]},{"feature":[1,-2,11,4,-2,-2,3,-2,7,-2,13,-2,4,-2,-2],"threshold":[113.089066,-2.0,174.508972,175.198242,-2.0,-2.0,9.709999,-2.0,-176.947571,-2.0,-178.766296,-2.0,174.40004,-2.0,-2.0],"children_left":[1,-1,3,4,-1,-1,7,-1,9,-1,11,-1,13,-1,-1],"children_right":[2,-1,6,5,-1,-1,8,-1,10,-1,12,-1,14,-1,-1],"value":[[0.471354,0.528646],[1.0,0.0],[0.302405,0.697595],[0.985294,0.014706],[1.0,0.0],[0.75,0.25],[0.09417,0.90583],[1.0,0.0],[0.069124,0.930876],[0.0,1.0],[0.340909,0.659091],[0.0,1.0],[0.9375,0.0625],[1.0,0.0],[0.857143,0.142857]]},{"feature":[11,11,-2,-2,9,-2,8,12,-2,5,7,-2,5,8,-2,-2,-2,8,-2,-2,-2],"threshold":[174.508972,-178.589149,-2.0,-2.0,99.405224,-2.0,-95.312004,-179.85289,-2.0,-176.9412,-179.882401,-2.0,-178.483963,-107.861244,-2.0,-2.0,-2.0,-105.58844,-2.0,-2.0,-2.0],"children_left":[1,2,-1,-1,5,-1,7,8,-1,10,11,-1,13,14,-1,-1,-1,18,-1,-1,-1],"children_right":[4,3,-1,-1,6,-1,20,9,-1,17,12,-1,16,15,-1,-1,-1,19,-1,-1,-1],"value":[[0.473958,0.526042],[0.986395,0.013605],[0.666667,0.333333],[1.0,0.0],[0.156118,0.843882],[1.0,0.0],[0.056604,0.943396],[0.043269,0.956731],[0.25,0.75],[0.030612,0.969388],[0.017647,0.982353],[0.285714,0.714286],[0.006135,0.993865],[0.041667,0.958333],[0.2,0.8],[0.0,1.0],[0.0,1.0],[0.115385,0.884615],[0.3,0.7],[0.0,1.0],[0.75,0.25]]},{"feature":[7,11,-2,9,-2,3,1,-2,-2,-2,13,9,-2,8,-2,-2,6,-2,-2],"threshold":[-176.955589,173.352379,-2.0,100.427036,-2.0,40.454857,118.792042,-2.0,-2.0,-2.0,-178.944778,103.856728,-2.0,-100.361225,-2.0,-2.0,178.340637,-2.0,-2.0],"children_left":[1,2,-1,4,-1,6,7,-1,-1,-1,11,12,-1,14,-1,-1,17,-1,-1],"children_right":[10,3,-1,5,-1,9,8,-1,-1,-1,16,13,-1,15,-1,-1,18,-1,-1],"value":[[0.489583,0.510417],[0.15847,0.84153],[1.0,0.0],[0.066667,0.933333],[0.888889,0.111111],[0.019231,0.980769],[0.006711,0.993289],[0.166667,0.833333],[0.0,1.0],[0.285714,0.714286],[0.791045,0.208955],[0.1875,0.8125],[0.857143,0.142857],[0.073171,0.926829],[0.0,1.0],[0.75,0.25],[0.980392,0.019608],[1.0,0.0],[0.571429,0.428571]]},{"feature":[8,7,3,5,10,4,-2,-2,-2,-2,-2,4,6,-2,-2,7,-2,-2,-2],"threshold":[-95.782627,-176.689293,58.591375,-169.940552,-178.11235,177.744507,-2.0,-2.0,-2.0,-2.0,-2.0,175.629341,176.392128,-2.0,-2.0,179.049538,-2.0,-2.0,-2.0],"children_left":[1,2,3,4,5,6,-1,-1,-1,-1,-1,12,13,-1,-1,16,-1,-1,-1],"children_right":[18,11,10,9,8,7,-1,-1,-1,-1,-1,15,14,-1,-1,17,-1,-1,-1],"value":[[0.513021,0.486979],[0.327338,0.672662],[0.07362,0.92638],[0.038217,0.961783],[0.006623,0.993377],[0.047619,0.952381],[0.25,0.75],[0.0,1.0],[0.0,1.0],[0.833333,0.166667],[1.0,0.0],[0.686957,0.313043],[0.987013,0.012987],[1.0,0.0],[0.8,0.2],[0.078947,0.921053],[0.428571,0.571429],[0.0,1.0],[1.0,0.0]]},{"feature":[5,2,-2,2,1,9,-2,4,-2,-2,-2,-2,8,13,-2,-2,-2],"threshold":[-175.531662,-70.401506,-2.0,-4.983812,176.867546,100.437279,-2.0,174.112762,-2.0,-2.0,-2.0,-2.0,-112.267635,145.197235,-2.0,-2.0,-2.0],"children_left":[1,2,-1,4,5,6,-1,8,-1,-1,-1,-1,13,14,-1,-1,-1],"children_right":[12,3,-1,11,10,7,-1,9,-1,-1,-1,-1,16,15,-1,-1,-1],"value":[[0.46875,0.53125],[0.106667,0.893333],[1.0,0.0],[0.069444,0.930556],[0.038278,0.961722],[0.02439,0.97561],[0.4,0.6],[0.015,0.985],[0.375,0.625],[0.0,1.0],[0.75,0.25],[1.0,0.0],[0.981132,0.018868],[0.909091,0.090909],[1.0,0.0],[0.5,0.5],[1.0,0.0]]},{"feature":[5,9,-2,8,1,-2,9,4,-2,-2,-2,-2,10,-2,-2],"threshold":[-175.431572,99.405224,-2.0,-94.113075,119.096539,-2.0,103.66814,175.279198,-2.0,-2.0,-2.0,-2.0,-175.83046,-2.0,-2.0],"children_left":[1,2,-1,4,5,-1,7,8,-1,-1,-1,-1,13,-1,-1],"children_right":[12,3,-1,11,6,-1,10,9,-1,-1,-1,-1,14,-1,-1],"value":[[0.5,0.5],[0.167401,0.832599],[1.0,0.0],[0.064356,0.935644],[0.015625,0.984375],[0.333333,0.666667],[0.005376,0.994624],[0.022222,0.977778],[0.166667,0.833333],[0.0,1.0],[0.0,1.0],[1.0,0.0],[0.980892,0.019108],[0.625,0.375],[1.0,0.0]]},{"feature":[5,3,13,6,12,-2,8,-2,-2,4,-2,-2,-2,-2,6,-2,-2],"threshold":[-175.778656,54.775354,178.413956,175.613655,177.199326,-2.0,-96.674438,-2.0,-2.0,175.267647,-2.0,-2.0,-2.0,-2.0,178.151466,-2.0,-2.0],"children_left":[1,2,3,4,5,-1,7,-1,-1,10,-1,-1,-1,-1,15,-1,-1],"children_right":[14,13,12,9,6,-1,8,-1,-1,11,-1,-1,-1,-1,16,-1,-1],"value":[[0.505208,0.494792],[0.153153,0.846847],[0.096154,0.903846],[0.25974,0.74026],[0.461538,0.538462],[1.0,0.0],[0.222222,0.777778],[0.0,1.0],[0.857143,0.142857],[0.052632,0.947368],[0.333333,0.666667],[0.0,1.0],[0.0,1.0],[1.0,0.0],[0.987654,0.012346],[1.0,0.0],[0.5,0.5]]},{"feature":[5,1,-2,10,2,-2,9,-2,-2,-2,4,-2,-2],"threshold":[-175.431572,-20.425148,-2.0,-172.300323,-47.132978,-2.0,100.993481,-2.0,-2.0,-2.0,176.080879,-2.0,-2.0],"children_left":[1,2,-1,4,5,-1,7,-1,-1,-1,11,-1,-1],"children_right":[10,3,-1,9,6,-1,8,-1,-1,-1,12,-1,-1],"value":[[0.497396,0.502604],[0.119266,0.880734],[1.0,0.0],[0.058824,0.941176],[0.030612,0.969388],[0.75,0.25],[0.015625,0.984375],[0.428571,0.571429],[0.0,1.0],[0.75,0.25],[0.993976,0.006024],[1.0,0.0],[0.833333,0.166667]]},{"feature":[11,-2,7,9,-2,9,0,1,-2,-2,-2,-2,0,1,-2,13,-2,-2,0,-2,-2],"threshold":[174.508972,-2.0,-176.947632,100.307549,-2.0,121.407066,-46.716794,119.36092,-2.0,-2.0,-2.0,-2.0,-128.534294,131.301823,-2.0,-178.698952,-2.0,-2.0,5.258438,-2.0,-2.0],"children_left":[1,-1,3,4,-1,6,7,8,-1,-1,-1,-1,13,14,-1,16,-1,-1,19,-1,-1],"children_right":[2,-1,12,5,-1,11,10,9,-1,-1,-1,-1,18,15,-1,17,-1,-1,20,-1,-1],"value":[[0.442708,0.557292],[1.0,0.0],[0.164062,0.835938],[0.035897,0.964103],[0.8,0.2],[0.015789,0.984211],[0.01087,0.98913],[0.005618,0.994382],[0.142857,0.857143],[0.0,1.0],[0.166667,0.833333],[0.166667,0.833333],[0.57377,0.42623],[0.848485,0.151515],[0.428571,0.571429],[0.961538,0.038462],[0.8,0.2],[1.0,0.0],[0.25,0.75],[0.0,1.0],[0.875,0.125]]},{"feature":[7,5,4,-2,8,5,12,-2,9,-2,-2,-2,-2,-2,10,7,1,-2,-2,8,-2,-2,6,12,-2,4,-2,-2,-2],"threshold":[-176.947632,-175.295403,173.784149,-2.0,-97.116989,-176.904037,178.901947,-2.0,103.759136,-2.0,-2.0,-2.0,-2.0,-2.0,-176.587387,179.336647,159.338394,-2.0,-2.0,-108.04266,-2.0,-2.0,176.818336,178.914871,-2.0,175.238625,-2.0,-2.0,-2.0],"children_left":[1,2,3,-1,5,6,7,-1,9,-1,-1,-1,-1,-1,15,16,17,-1,-1,20,-1,-1,23,24,-1,26,-1,-1,-1],"children_right":[14,13,4,-1,12,11,8,-1,10,-1,-1,-1,-1,-1,22,19,18,-1,-1,21,-1,-1,28,25,-1,27,-1,-1,-1],"value":[[0.507812,0.492188],[0.140625,0.859375],[0.0625,0.9375],[0.3,0.7],[0.048193,0.951807],[0.018868,0.981132],[0.013423,0.986577],[0.0,1.0],[0.066667,0.933333],[0.333333,0.666667],[0.0,1.0],[0.1,0.9],[0.714286,0.285714],[1.0,0.0],[0.875,0.125],[0.333333,0.666667],[0.818182,0.181818],[1.0,0.0],[0.6,0.4],[0.052632,0.947368],[0.0,1.0],[0.2,0.8],[0.975309,0.024691],[0.993506,0.006494],[1.0,0.0],[0.9375,0.0625],[1.0,0.0],[0.8,0.2],[0.625,0.375]]},{"feature":[5,4,5,-2,-2,7,11,-2,11,-2,-2,13,1,-2,10,-2,-2,-2,6,10,-2,-2,-2],"threshold":[-175.431572,173.854553,-176.954994,-2.0,-2.0,-0.069946,177.779549,-2.0,177.907913,-2.0,-2.0,-178.87014,121.049171,-2.0,-176.687363,-2.0,-2.0,-2.0,-178.402672,-175.048172,-2.0,-2.0,-2.0],"children_left":[1,2,3,-1,-1,6,7,-1,9,-1,-1,12,13,-1,15,-1,-1,-1,19,20,-1,-1,-1],"children_right":[18,5,4,-1,-1,11,8,-1,10,-1,-1,17,14,-1,16,-1,-1,-1,22,21,-1,-1,-1],"value":[[0.484375,0.515625],[0.128319,0.871681],[0.666667,0.333333],[1.0,0.0],[0.125,0.875],[0.073171,0.926829],[0.012658,0.987342],[0.0,1.0],[0.054054,0.945946],[0.333333,0.666667],[0.0,1.0],[0.276596,0.723404],[0.081081,0.918919],[0.5,0.5],[0.030303,0.969697],[0.0,1.0],[0.2,0.8],[1.0,0.0],[0.993671,0.006329],[0.923077,0.076923],[0.8,0.2],[1.0,0.0],[1.0,0.0]]},{"feature":[4,4,-2,-2,9,-2,11,-2,6,-2,9,9,11,-2,-2,-2,-2],"threshold":[174.664268,-177.580719,-2.0,-2.0,99.405224,-2.0,175.601486,-2.0,-179.887779,-2.0,121.729374,102.704922,177.560257,-2.0,-2.0,-2.0,-2.0],"children_left":[1,2,-1,-1,5,-1,7,-1,9,-1,11,12,13,-1,-1,-1,-1],"children_right":[4,3,-1,-1,6,-1,8,-1,10,-1,16,15,14,-1,-1,-1,-1],"value":[[0.453125,0.546875],[0.979866,0.020134],[0.5,0.5],[1.0,0.0],[0.119149,0.880851],[1.0,0.0],[0.03271,0.96729],[0.428571,0.571429],[0.019324,0.980676],[0.142857,0.857143],[0.015,0.985],[0.005128,0.994872],[0.038462,0.961538],[0.0,1.0],[0.2,0.8],[0.0,1.0],[0.4,0.6]]},{"feature":[11,0,-2,-2,8,11,4,2,-2,-2,5,0,0,-2,-2,-2,-2,-2,-2],"threshold":[174.508972,-178.435707,-2.0,-2.0,-94.118637,179.658279,174.24469,-10.014388,-2.0,-2.0,-176.158127,-162.336311,-174.904457,-2.0,-2.0,-2.0,-2.0,-2.0,-2.0],"children_left":[1,2,-1,-1,5,6,7,8,-1,-1,11,12,13,-1,-1,-1,-1,-1,-1],"children_right":[4,3,-1,-1,18,17,10,9,-1,-1,16,15,14,-1,-1,-1,-1,-1,-1],"value":[[0.489583,0.510417],[0.993377,0.006623],[0.833333,0.166667],[1.0,0.0],[0.16309,0.83691],[0.066986,0.933014],[0.04902,0.95098],[0.466667,0.533333],[1.0,0.0],[0.0,1.0],[0.015873,0.984127],[0.005495,0.994505],[0.012821,0.987179],[0.0,1.0],[0.142857,0.857143],[0.0,1.0],[0.285714,0.714286],[0.8,0.2],[1.0,0.0]]},{"feature":[1,-2,10,9,-2,4,-2,10,-2,13,-2,-2,4,-2,-2],"threshold":[113.089066,-2.0,-173.80114,99.405224,-2.0,174.664268,-2.0,-175.711861,-2.0,175.530693,-2.0,-2.0,-177.394554,-2.0,-2.0],"children_left":[1,-1,3,4,-1,6,-1,8,-1,10,-1,-1,13,-1,-1],"children_right":[2,-1,12,5,-1,7,-1,9,-1,11,-1,-1,14,-1,-1],"value":[[0.442708,0.557292],[1.0,0.0],[0.300654,0.699346],[0.152263,0.847737],[1.0,0.0],[0.076233,0.923767],[0.923077,0.076923],[0.02381,0.97619],[0.0,1.0],[0.106383,0.893617],[0.625,0.375],[0.0,1.0],[0.873016,0.126984],[0.2,0.8],[1.0,0.0]]},{"feature":[6,12,7,0,-2,-2,-2,8,1,-2,0,-2,-2,-2,9,0,-2,-2,7,4,-2,-2,0,-2,-2],"threshold":[177.150696,177.173111,-177.699837,-56.531464,-2.0,-2.0,-2.0,-99.368279,122.526497,-2.0,-157.462753,-2.0,-2.0,-2.0,100.427036,-142.043327,-2.0,-2.0,-34.561928,174.86924,-2.0,-2.0,-175.176041,-2.0,-2.0],"children_left":[1,2,3,4,-1,-1,-1,8,9,-1,11,-1,-1,-1,15,16,-1,-1,19,20,-1,-1,23,-1,-1],"children_right":[14,7,6,5,-1,-1,-1,13,10,-1,12,-1,-1,-1,18,17,-1,-1,22,21,-1,-1,24,-1,-1],"value":[[0.502604,0.497396],[0.701195,0.298805],[0.96,0.04],[0.571429,0.428571],[0.25,0.75],[1.0,0.0],[1.0,0.0],[0.316832,0.683168],[0.158537,0.841463],[0.785714,0.214286],[0.029412,0.970588],[0.2,0.8],[0.0,1.0],[1.0,0.0],[0.12782,0.87218],[0.916667,0.083333],[1.0,0.0],[0.8,0.2],[0.049587,0.950413],[0.028037,0.971963],[0.428571,0.571429],[0.0,1.0],[0.214286,0.785714],[0.0,1.0],[0.6,0.4]]},{"feature":[10,5,13,13,5,-2,-2,6,-2,-2,2,-2,-2,-2,0,7,-2,-2,-2],"threshold":[-174.094803,-175.818161,176.947571,-178.878349,-178.136353,-2.0,-2.0,173.574615,-2.0,-2.0,-46.95686,-2.0,-2.0,-2.0,-176.73111,-177.385246,-2.0,-2.0,-2.0],"children_left":[1,2,3,4,5,-1,-1,8,-1,-1,11,-1,-1,-1,15,16,-1,-1,-1],"children_right":[14,13,10,7,6,-1,-1,9,-1,-1,12,-1,-1,-1,18,17,-1,-1,-1],"value":[[0.481771,0.518229],[0.194215,0.805785],[0.097222,0.902778],[0.347826,0.652174],[0.034483,0.965517],[0.142857,0.857143],[0.0,1.0],[0.882353,0.117647],[1.0,0.0],[0.666667,0.333333],[0.029412,0.970588],[0.833333,0.166667],[0.0,1.0],[1.0,0.0],[0.971831,0.028169],[0.733333,0.266667],[0.333333,0.666667],[1.0,0.0],[1.0,0.0]]},{"feature":[13,4,13,-2,-2,5,3,-2,-2,-2,9,13,-2,0,-2,-2,8,2,11,-2,-2,-2,-2],"threshold":[176.689293,175.685844,-178.462807,-2.0,-2.0,-174.466774,78.452387,-2.0,-2.0,-2.0,100.437279,177.989418,-2.0,-146.137009,-2.0,-2.0,-95.312004,-13.202996,175.713478,-2.0,-2.0,-2.0,-2.0],"children_left":[1,2,3,-1,-1,6,7,-1,-1,-1,11,12,-1,14,-1,-1,17,18,19,-1,-1,-1,-1],"children_right":[10,5,4,-1,-1,9,8,-1,-1,-1,16,13,-1,15,-1,-1,22,21,20,-1,-1,-1,-1],"value":[[0.510417,0.489583],[0.839378,0.160622],[0.993289,0.006711],[0.8,0.2],[1.0,0.0],[0.318182,0.681818],[0.189189,0.810811],[0.0,1.0],[1.0,0.0],[1.0,0.0],[0.17801,0.82199],[0.866667,0.133333],[0.5,0.5],[0.958333,0.041667],[1.0,0.0],[0.875,0.125],[0.049689,0.950311],[0.025641,0.974359],[0.056338,0.943662],[0.8,0.2],[0.0,1.0],[0.0,1.0],[0.8,0.2]]},{"feature":[13,13,4,-2,3,8,-2,-2,-2,5,1,-2,-2,-2,9,-2,5,8,4,-2,9,11,-2,-2,-2,-2,-2],"threshold":[176.999565,-178.944778,176.016129,-2.0,39.098999,-101.18013,-2.0,-2.0,-2.0,-177.016098,153.625908,-2.0,-2.0,-2.0,96.613007,-2.0,-172.504272,-96.789749,174.888206,-2.0,102.754478,177.671951,-2.0,-2.0,-2.0,-2.0,-2.0],"children_left":[1,2,3,-1,5,6,-1,-1,-1,10,11,-1,-1,-1,15,-1,17,18,19,-1,21,22,-1,-1,-1,-1,-1],"children_right":[14,9,4,-1,8,7,-1,-1,-1,13,12,-1,-1,-1,16,-1,26,25,20,-1,24,23,-1,-1,-1,-1,-1],"value":[[0.507812,0.492188],[0.857143,0.142857],[0.212121,0.787879],[0.571429,0.428571],[0.115385,0.884615],[0.047619,0.952381],[0.0,1.0],[0.166667,0.833333],[0.4,0.6],[0.98773,0.01227],[0.818182,0.181818],[1.0,0.0],[0.6,0.4],[1.0,0.0],[0.143617,0.856383],[1.0,0.0],[0.052941,0.947059],[0.018293,0.981707],[0.012579,0.987421],[0.2,0.8],[0.006494,0.993506],[0.052632,0.947368],[0.0,1.0],[0.2,0.8],[0.0,1.0],[0.2,0.8],[1.0,0.0]]},{"feature":[5,1,-2,3,4,-2,6,9,-2,-2,-2,-2,10,5,-2,-2,-2],"threshold":[-175.778656,-20.653679,-2.0,55.783278,175.146606,-2.0,-178.683067,102.880348,-2.0,-2.0,-2.0,-2.0,178.027718,177.375908,-2.0,-2.0,-2.0],"children_left":[1,2,-1,4,5,-1,7,8,-1,-1,-1,-1,13,14,-1,-1,-1],"children_right":[12,3,-1,11,6,-1,10,9,-1,-1,-1,-1,16,15,-1,-1,-1],"value":[[0.510417,0.489583],[0.19214,0.80786],[1.0,0.0],[0.075,0.925],[0.041451,0.958549],[0.5,0.5],[0.005587,0.994413],[0.018519,0.981481],[0.2,0.8],[0.0,1.0],[0.0,1.0],[1.0,0.0],[0.980645,0.019355],[0.993243,0.006757],[1.0,0.0],[0.75,0.25],[0.714286,0.285714]]},{"feature":[11,13,-2,-2,8,9,-2,5,2,-2,7,-2,1,-2,-2,-2,-2],"threshold":[174.508972,-178.489891,-2.0,-2.0,-94.385204,96.052845,-2.0,-163.470467,-46.995268,-2.0,-179.86515,-2.0,119.736935,-2.0,-2.0,-2.0,-2.0],"children_left":[1,2,-1,-1,5,6,-1,8,9,-1,11,-1,13,-1,-1,-1,-1],"children_right":[4,3,-1,-1,16,7,-1,15,10,-1,12,-1,14,-1,-1,-1,-1],"value":[[0.502604,0.497396],[0.987097,0.012903],[0.666667,0.333333],[1.0,0.0],[0.174672,0.825328],[0.068966,0.931034],[1.0,0.0],[0.045455,0.954545],[0.020833,0.979167],[0.25,0.75],[0.015957,0.984043],[0.25,0.75],[0.01087,0.98913],[0.222222,0.777778],[0.0,1.0],[0.833333,0.166667],[1.0,0.0]]},{"feature":[10,6,5,1,3,-2,-2,-2,-2,8,11,-2,10,-2,-2,-2,7,11,-2,-2,-2],"threshold":[-173.768257,-179.333496,-175.778656,174.024231,40.194454,-2.0,-2.0,-2.0,-2.0,-94.982113,174.152077,-2.0,-174.259422,-2.0,-2.0,-2.0,-177.715523,171.859322,-2.0,-2.0,-2.0],"children_left":[1,2,3,4,5,-1,-1,-1,-1,10,11,-1,13,-1,-1,-1,17,18,-1,-1,-1],"children_right":[16,9,8,7,6,-1,-1,-1,-1,15,12,-1,14,-1,-1,-1,20,19,-1,-1,-1],"value":[[0.497396,0.502604],[0.201717,0.798283],[0.514286,0.485714],[0.346154,0.653846],[0.076923,0.923077],[0.0,1.0],[0.25,0.75],[0.615385,0.384615],[1.0,0.0],[0.146465,0.853535],[0.055866,0.944134],[0.818182,0.181818],[0.005952,0.994048],[0.0,1.0],[0.25,0.75],[1.0,0.0],[0.953642,0.046358],[0.588235,0.411765],[1.0,0.0],[0.125,0.875],[1.0,0.0]]},{"feature":[4,6,-2,-2,8,4,5,-2,-2,7,1,-2,-2,13,-2,-2,-2],"threshold":[174.641525,177.860497,-2.0,-2.0,-95.310539,175.484146,-178.195435,-2.0,-2.0,-175.725899,175.170731,-2.0,-2.0,-179.049538,-2.0,-2.0,-2.0],"children_left":[1,2,-1,-1,5,6,7,-1,-1,10,11,-1,-1,14,-1,-1,-1],"children_right":[4,3,-1,-1,16,9,8,-1,-1,13,12,-1,-1,15,-1,-1,-1],"value":[[0.471354,0.528646],[0.986755,0.013245],[1.0,0.0],[0.714286,0.285714],[0.137339,0.862661],[0.047393,0.952607],[0.454545,0.545455],[0.0,1.0],[0.833333,0.166667],[0.025,0.975],[0.00625,0.99375],[0.0,1.0],[0.166667,0.833333],[0.1,0.9],[0.0,1.0],[0.666667,0.333333],[1.0,0.0]]},{"feature":[8,11,12,-2,-2,4,-2,8,-2,5,-2,-2,11,-2,-2],"threshold":[-97.055309,174.714355,-176.188652,-2.0,-2.0,174.24469,-2.0,-123.761517,-2.0,-176.086441,-2.0,-2.0,177.655914,-2.0,-2.0],"children_left":[1,2,3,-1,-1,6,-1,8,-1,10,-1,-1,13,-1,-1],"children_right":[12,5,4,-1,-1,7,-1,9,-1,11,-1,-1,14,-1,-1],"value":[[0.484375,0.515625],[0.293907,0.706093],[0.948052,0.051948],[0.6,0.4],[1.0,0.0],[0.044554,0.955446],[0.636364,0.363636],[0.010471,0.989529],[0.2,0.8],[0.005376,0.994624],[0.0,1.0],[0.25,0.75],[0.990476,0.009524],[1.0,0.0],[0.857143,0.142857]]},{"feature":[13,4,0,-2,5,-2,-2,7,10,-2,-2,8,-2,-2,1,-2,10,8,-2,-2,2,-2,-2],"threshold":[176.999504,175.923676,-176.205292,-2.0,-178.376328,-2.0,-2.0,178.946854,-177.896271,-2.0,-2.0,-99.839733,-2.0,-2.0,49.198749,-2.0,-174.047821,-122.313423,-2.0,-2.0,-10.36806,-2.0,-2.0],"children_left":[1,2,3,-1,5,-1,-1,8,9,-1,-1,12,-1,-1,15,-1,17,18,-1,-1,21,-1,-1],"children_right":[14,7,4,-1,6,-1,-1,11,10,-1,-1,13,-1,-1,16,-1,20,19,-1,-1,22,-1,-1],"value":[[0.458333,0.541667],[0.823204,0.176796],[0.978571,0.021429],[0.666667,0.333333],[0.992537,0.007463],[0.9,0.1],[1.0,0.0],[0.292683,0.707317],[0.8,0.2],[0.6,0.4],[1.0,0.0],[0.129032,0.870968],[0.0,1.0],[0.666667,0.333333],[0.133005,0.866995],[1.0,0.0],[0.048649,0.951351],[0.005747,0.994253],[0.166667,0.833333],[0.0,1.0],[0.727273,0.272727],[1.0,0.0],[0.4,0.6]]},{"feature":[7,6,6,1,-2,3,8,-2,-2,-2,12,3,-2,-2,3,-2,-2,7,-2,5,-2,-2,12,-2,6,13,-2,-2,6,5,-2,-2,-2],"threshold":[-176.908043,177.808914,-176.838928,-28.839092,-2.0,41.580173,-100.994434,-2.0,-2.0,-2.0,-176.713333,11.050441,-2.0,-2.0,17.799119,-2.0,-2.0,-179.950706,-2.0,-176.338249,-2.0,-2.0,-178.757881,-2.0,-178.589989,-178.87014,-2.0,-2.0,176.818336,-177.255302,-2.0,-2.0,-2.0],"children_left":[1,2,3,4,-1,6,7,-1,-1,-1,11,12,-1,-1,15,-1,-1,18,-1,20,-1,-1,23,-1,25,26,-1,-1,29,30,-1,-1,-1],"children_right":[22,17,10,5,-1,9,8,-1,-1,-1,14,13,-1,-1,16,-1,-1,19,-1,21,-1,-1,24,-1,28,27,-1,-1,32,31,-1,-1,-1],"value":[[0.427083,0.572917],[0.136986,0.863014],[0.224,0.776],[0.098901,0.901099],[1.0,0.0],[0.035294,0.964706],[0.012821,0.987179],[0.0,1.0],[0.25,0.75],[0.285714,0.714286],[0.558824,0.441176],[0.222222,0.777778],[0.571429,0.428571],[0.0,1.0],[0.9375,0.0625],[0.833333,0.166667],[1.0,0.0],[0.021277,0.978723],[0.25,0.75],[0.011111,0.988889],[0.0,1.0],[0.2,0.8],[0.812121,0.187879],[0.0,1.0],[0.87013,0.12987],[0.423077,0.576923],[0.0,1.0],[1.0,0.0],[0.960938,0.039062],[0.982456,0.017544],[0.75,0.25],[1.0,0.0],[0.785714,0.214286]]},{"feature":[10,11,8,-2,-2,8,9,7,-2,4,-2,-2,-2,-2,6,-2,-2],"threshold":[-174.052887,174.262352,-106.433479,-2.0,-2.0,-94.118637,121.334972,-179.873466,-2.0,175.146606,-2.0,-2.0,-2.0,-2.0,177.978714,-2.0,-2.0],"children_left":[1,2,3,-1,-1,6,7,8,-1,10,-1,-1,-1,-1,15,-1,-1],"children_right":[14,5,4,-1,-1,13,12,9,-1,11,-1,-1,-1,-1,16,-1,-1],"value":[[0.494792,0.505208],[0.191489,0.808511],[0.933333,0.066667],[0.75,0.25],[1.0,0.0],[0.140909,0.859091],[0.055,0.945],[0.036269,0.963731],[0.4,0.6],[0.026596,0.973404],[0.625,0.375],[0.0,1.0],[0.571429,0.428571],[1.0,0.0],[0.973154,0.026846],[1.0,0.0],[0.5,0.5]]},{"feature":[9,-2,4,12,-2,-2,4,-2,10,6,12,3,-2,-2,-2,-2,5,-2,-2],"threshold":[100.427036,-2.0,175.047653,-176.501602,-2.0,-2.0,175.388054,-2.0,-174.84037,-178.55928,178.939758,12.400233,-2.0,-2.0,-2.0,-2.0,-177.869759,-2.0,-2.0],"children_left":[1,-1,3,4,-1,-1,7,-1,9,10,11,12,-1,-1,-1,-1,17,-1,-1],"children_right":[2,-1,6,5,-1,-1,8,-1,16,15,14,13,-1,-1,-1,-1,18,-1,-1],"value":[[0.484375,0.515625],[1.0,0.0],[0.244275,0.755725],[0.90625,0.09375],[0.333333,0.666667],[1.0,0.0],[0.030303,0.969697],[0.333333,0.666667],[0.020833,0.979167],[0.011111,0.988889],[0.029851,0.970149],[0.125,0.875],[0.0,1.0],[0.4,0.6],[0.0,1.0],[0.0,1.0],[0.166667,0.833333],[0.0,1.0],[0.4,0.6]]},{"feature":[10,3,5,13,4,-2,-2,1,-2,-2,-2,-2,7,5,-2,-2,-2],"threshold":[-174.047874,45.389244,-175.547585,176.947632,175.724297,-2.0,-2.0,118.221405,-2.0,-2.0,-2.0,-2.0,-177.968887,-172.1772,-2.0,-2.0,-2.0],"children_left":[1,2,3,4,5,-1,-1,8,-1,-1,-1,-1,13,14,-1,-1,-1],"children_right":[12,11,10,7,6,-1,-1,9,-1,-1,-1,-1,16,15,-1,-1,-1],"value":[[0.471354,0.528646],[0.204,0.796],[0.131004,0.868996],[0.065728,0.934272],[0.244444,0.755556],[0.846154,0.153846],[0.0,1.0],[0.017857,0.982143],[0.6,0.4],[0.0,1.0],[1.0,0.0],[1.0,0.0],[0.970149,0.029851],[0.733333,0.266667],[0.333333,0.666667],[1.0,0.0],[1.0,0.0]]},{"feature":[10,1,-2,1,11,-2,6,-2,9,-2,3,-2,-2,-2,7,10,-2,-2,-2],"threshold":[-173.118729,-20.425148,-2.0,176.867546,174.262352,-2.0,-179.821381,-2.0,100.408978,-2.0,41.580173,-2.0,-2.0,-2.0,-177.968887,-123.912586,-2.0,-2.0,-2.0],"children_left":[1,2,-1,4,5,-1,7,-1,9,-1,11,-1,-1,-1,15,16,-1,-1,-1],"children_right":[14,3,-1,13,6,-1,8,-1,10,-1,12,-1,-1,-1,18,17,-1,-1,-1],"value":[[0.463542,0.536458],[0.135593,0.864407],[1.0,0.0],[0.081081,0.918919],[0.051643,0.948357],[0.777778,0.222222],[0.019608,0.980392],[0.4,0.6],[0.01005,0.98995],[0.25,0.75],[0.005128,0.994872],[0.0,1.0],[0.1,0.9],[0.777778,0.222222],[0.986486,0.013514],[0.923077,0.076923],[1.0,0.0],[0.75,0.25],[1.0,0.0]]},{"feature":[11,-2,7,8,12,0,-2,-2,-2,-2,3,8,0,-2,-2,3,5,-2,-2,-2,-2],"threshold":[174.284531,-2.0,-87.098645,-91.850475,179.821381,-46.716794,-2.0,-2.0,-2.0,-2.0,67.603937,-106.22929,-137.73835,-2.0,-2.0,35.481461,-176.494453,-2.0,-2.0,-2.0,-2.0],"children_left":[1,-1,3,4,5,6,-1,-1,-1,-1,11,12,13,-1,-1,16,17,-1,-1,-1,-1],"children_right":[2,-1,10,9,8,7,-1,-1,-1,-1,20,15,14,-1,-1,19,18,-1,-1,-1,-1],"value":[[0.455729,0.544271],[1.0,0.0],[0.167331,0.832669],[0.047619,0.952381],[0.021739,0.978261],[0.011173,0.988827],[0.0,1.0],[0.181818,0.818182],[0.4,0.6],[1.0,0.0],[0.532258,0.467742],[0.42,0.58],[0.076923,0.923077],[0.4,0.6],[0.0,1.0],[0.791667,0.208333],[0.944444,0.055556],[0.857143,0.142857],[1.0,0.0],[0.333333,0.666667],[1.0,0.0]]},{"feature":[1,-2,8,10,11,-2,7,6,10,-2,-2,-2,0,2,-2,-2,-2,7,-2,-2,-2],"threshold":[113.089066,-2.0,-95.403706,-174.047874,168.532005,-2.0,-34.324966,-179.418083,-177.255157,-2.0,-2.0,-2.0,-142.086876,-9.67747,-2.0,-2.0,-2.0,-178.124588,-2.0,-2.0,-2.0],"children_left":[1,-1,3,4,5,-1,7,8,9,-1,-1,-1,13,14,-1,-1,-1,18,-1,-1,-1],"children_right":[2,-1,20,17,6,-1,12,11,10,-1,-1,-1,16,15,-1,-1,-1,19,-1,-1,-1],"value":[[0.533854,0.466146],[1.0,0.0],[0.353791,0.646209],[0.190045,0.809955],[0.059459,0.940541],[0.666667,0.333333],[0.039106,0.960894],[0.007353,0.992647],[0.0625,0.9375],[0.0,1.0],[0.2,0.8],[0.0,1.0],[0.139535,0.860465],[0.333333,0.666667],[0.857143,0.142857],[0.0,1.0],[0.0,1.0],[0.861111,0.138889],[0.375,0.625],[1.0,0.0],[1.0,0.0]]},{"feature":[4,0,-2,-2,11,-2,10,-2,9,-2,9,13,-2,-2,-2],"threshold":[174.664268,-176.777573,-2.0,-2.0,174.262352,-2.0,-179.121841,-2.0,98.688236,-2.0,121.453327,179.882401,-2.0,-2.0,-2.0],"children_left":[1,2,-1,-1,5,-1,7,-1,9,-1,11,12,-1,-1,-1],"children_right":[4,3,-1,-1,6,-1,8,-1,10,-1,14,13,-1,-1,-1],"value":[[0.463542,0.536458],[0.979866,0.020134],[0.625,0.375],[1.0,0.0],[0.13617,0.86383],[0.777778,0.222222],[0.110619,0.889381],[0.571429,0.428571],[0.09589,0.90411],[1.0,0.0],[0.019802,0.980198],[0.005102,0.994898],[0.0,1.0],[0.1,0.9],[0.5,0.5]]},{"feature":[7,3,5,3,-2,1,-2,-2,-2,-2,5,3,4,1,-2,-2,-2,-2,-2],"threshold":[-176.999504,45.262487,-175.358727,10.312138,-2.0,118.317913,-2.0,-2.0,-2.0,-2.0,-175.547585,55.783278,175.685844,-165.120285,-2.0,-2.0,-2.0,-2.0,-2.0],"children_left":[1,2,3,4,-1,6,-1,-1,-1,-1,11,12,13,14,-1,-1,-1,-1,-1],"children_right":[10,9,8,5,-1,7,-1,-1,-1,-1,18,17,16,15,-1,-1,-1,-1,-1],"value":[[0.479167,0.520833],[0.114583,0.885417],[0.050279,0.949721],[0.017442,0.982558],[0.25,0.75],[0.006098,0.993902],[0.142857,0.857143],[0.0,1.0],[0.857143,0.142857],[1.0,0.0],[0.84375,0.15625],[0.473684,0.526316],[0.347826,0.652174],[0.941176,0.058824],[1.0,0.0],[0.857143,0.142857],[0.0,1.0],[1.0,0.0],[1.0,0.0]]},{"feature":[5,9,-2,11,-2,9,12,-2,12,-2,-2,-2,13,-2,2,-2,-2],"threshold":[-175.753464,97.903099,-2.0,11.167892,-2.0,120.735142,178.905663,-2.0,179.047577,-2.0,-2.0,-2.0,177.629204,-2.0,-61.299372,-2.0,-2.0],"children_left":[1,2,-1,4,-1,6,7,-1,9,-1,-1,-1,13,-1,15,-1,-1],"children_right":[12,3,-1,5,-1,11,8,-1,10,-1,-1,-1,14,-1,16,-1,-1],"value":[[0.481771,0.518229],[0.083721,0.916279],[1.0,0.0],[0.039024,0.960976],[0.8,0.2],[0.02,0.98],[0.010309,0.989691],[0.0,1.0],[0.04,0.96],[0.333333,0.666667],[0.0,1.0],[0.333333,0.666667],[0.988166,0.011834],[1.0,0.0],[0.866667,0.133333],[1.0,0.0],[0.6,0.4]]},{"feature":[7,1,-2,4,5,-2,-2,1,-2,-2,10,8,8,-2,-2,-2,0,-2,6,-2,-2],"threshold":[-176.999565,49.198749,-2.0,174.586197,-173.39994,-2.0,-2.0,175.291489,-2.0,-2.0,-176.388809,-97.192493,-106.332474,-2.0,-2.0,-2.0,-177.387856,-2.0,176.818336,-2.0,-2.0],"children_left":[1,2,-1,4,5,-1,-1,8,-1,-1,11,12,13,-1,-1,-1,17,-1,19,-1,-1],"children_right":[10,3,-1,7,6,-1,-1,9,-1,-1,16,15,14,-1,-1,-1,18,-1,20,-1,-1],"value":[[0.505208,0.494792],[0.177665,0.822335],[1.0,0.0],[0.104972,0.895028],[0.842105,0.157895],[0.5,0.5],[1.0,0.0],[0.018519,0.981481],[0.0,1.0],[0.428571,0.571429],[0.850267,0.149733],[0.342105,0.657895],[0.074074,0.925926],[0.0,1.0],[0.333333,0.666667],[1.0,0.0],[0.979866,0.020134],[0.5,0.5],[0.993103,0.006897],[1.0,0.0],[0.9,0.1]]},{"feature":[5,4,0,-2,-2,2,-2,8,4,-2,13,-2,-2,-2,11,-2,-2],"threshold":[-175.295403,174.112762,-176.466217,-2.0,-2.0,-70.401506,-2.0,-95.583069,175.243172,-2.0,179.875267,-2.0,-2.0,-2.0,178.870071,-2.0,-2.0],"children_left":[1,2,3,-1,-1,6,-1,8,9,-1,11,-1,-1,-1,15,-1,-1],"children_right":[14,5,4,-1,-1,7,-1,13,10,-1,12,-1,-1,-1,16,-1,-1],"value":[[0.450521,0.549479],[0.13278,0.86722],[0.75,0.25],[0.0,1.0],[1.0,0.0],[0.076923,0.923077],[1.0,0.0],[0.028571,0.971429],[0.009756,0.990244],[0.142857,0.857143],[0.005051,0.994949],[0.0,1.0],[0.2,0.8],[0.8,0.2],[0.986014,0.013986],[1.0,0.0],[0.8,0.2]]},{"feature":[10,9,-2,11,-2,3,13,4,-2,-2,-2,-2,12,-2,12,-2,-2],"threshold":[-174.047874,99.405224,-2.0,174.262352,-2.0,43.373154,179.882401,174.958611,-2.0,-2.0,-2.0,-2.0,-178.400162,-2.0,-177.642593,-2.0,-2.0],"children_left":[1,2,-1,4,-1,6,7,8,-1,-1,-1,-1,13,-1,15,-1,-1],"children_right":[12,3,-1,5,-1,11,10,9,-1,-1,-1,-1,14,-1,16,-1,-1],"value":[[0.471354,0.528646],[0.16309,0.83691],[1.0,0.0],[0.093023,0.906977],[1.0,0.0],[0.044118,0.955882],[0.025381,0.974619],[0.010753,0.989247],[0.5,0.5],[0.0,1.0],[0.272727,0.727273],[0.571429,0.428571],[0.94702,0.05298],[0.3,0.7],[0.992908,0.007092],[0.857143,0.142857],[1.0,0.0]]},{"feature":[11,11,-2,-2,2,-2,5,3,-2,1,-2,6,11,-2,5,-2,-2,-2,11,-2,-2],"threshold":[174.533562,-178.678101,-2.0,-2.0,-70.401506,-2.0,-175.494896,10.070021,-2.0,118.315544,-2.0,175.734566,176.386414,-2.0,-178.680405,-2.0,-2.0,-2.0,179.048927,-2.0,-2.0],"children_left":[1,2,-1,-1,5,-1,7,8,-1,10,-1,12,13,-1,15,-1,-1,-1,19,-1,-1],"children_right":[4,3,-1,-1,6,-1,18,9,-1,11,-1,17,14,-1,16,-1,-1,-1,20,-1,-1],"value":[[0.526042,0.473958],[0.993631,0.006369],[0.75,0.25],[1.0,0.0],[0.202643,0.797357],[1.0,0.0],[0.129808,0.870192],[0.037634,0.962366],[0.75,0.25],[0.021978,0.978022],[0.4,0.6],[0.011299,0.988701],[0.027778,0.972222],[0.142857,0.857143],[0.015385,0.984615],[0.25,0.75],[0.0,1.0],[0.0,1.0],[0.909091,0.090909],[1.0,0.0],[0.6,0.4]]},{"feature":[9,-2,11,-2,1,-2,5,10,10,-2,12,-2,-2,-2,-2],"threshold":[99.639988,-2.0,174.30912,-2.0,118.36417,-2.0,-175.787582,-174.135307,-175.021919,-2.0,-177.128593,-2.0,-2.0,-2.0,-2.0],"children_left":[1,-1,3,-1,5,-1,7,8,9,-1,11,-1,-1,-1,-1],"children_right":[2,-1,4,-1,6,-1,14,13,10,-1,12,-1,-1,-1,-1],"value":[[0.466146,0.533854],[1.0,0.0],[0.270463,0.729537],[1.0,0.0],[0.033019,0.966981],[0.4,0.6],[0.024155,0.975845],[0.014851,0.985149],[0.005102,0.994898],[0.0,1.0],[0.058824,0.941176],[0.0,1.0],[0.2,0.8],[0.333333,0.666667],[0.4,0.6]]},{"feature":[5,0,3,-2,2,9,-2,5,-2,9,3,-2,-2,-2,-2,2,-2,-2,6,-2,-2],"threshold":[-175.753464,-46.375268,10.03286,-2.0,-7.728728,101.263981,-2.0,-178.945175,-2.0,102.668678,11.817258,-2.0,-2.0,-2.0,-2.0,-17.255941,-2.0,-2.0,178.400162,-2.0,-2.0],"children_left":[1,2,3,-1,5,6,-1,8,-1,10,11,-1,-1,-1,-1,16,-1,-1,19,-1,-1],"children_right":[18,15,4,-1,14,7,-1,9,-1,13,12,-1,-1,-1,-1,17,-1,-1,20,-1,-1],"value":[[0.515625,0.484375],[0.124402,0.875598],[0.094737,0.905263],[1.0,0.0],[0.060109,0.939891],[0.028409,0.971591],[0.25,0.75],[0.017857,0.982143],[0.2,0.8],[0.006329,0.993671],[0.05,0.95],[0.0,1.0],[0.25,0.75],[0.0,1.0],[0.857143,0.142857],[0.421053,0.578947],[1.0,0.0],[0.0,1.0],[0.982857,0.017143],[1.0,0.0],[0.571429,0.428571]]},{"feature":[10,7,6,-2,3,7,-2,-2,-2,7,13,-2,8,-2,-2,-2,5,7,-2,-2,-2],"threshold":[-173.80114,-176.947632,-179.821381,-2.0,41.955647,-179.882401,-2.0,-2.0,-2.0,179.381577,-178.780327,-2.0,-106.339779,-2.0,-2.0,-2.0,-175.012894,-56.950691,-2.0,-2.0,-2.0],"children_left":[1,2,3,-1,5,6,-1,-1,-1,10,11,-1,13,-1,-1,-1,17,18,-1,-1,-1],"children_right":[16,9,4,-1,8,7,-1,-1,-1,15,12,-1,14,-1,-1,-1,20,19,-1,-1,-1],"value":[[0.481771,0.518229],[0.166667,0.833333],[0.022989,0.977011],[0.2,0.8],[0.017751,0.982249],[0.006098,0.993902],[0.066667,0.933333],[0.0,1.0],[0.4,0.6],[0.583333,0.416667],[0.833333,0.166667],[0.5,0.5],[0.9375,0.0625],[0.666667,0.333333],[1.0,0.0],[0.0,1.0],[0.973333,0.026667],[0.733333,0.266667],[0.2,0.8],[1.0,0.0],[1.0,0.0]]},{"feature":[4,13,13,-2,-2,12,0,-2,-2,-2,1,-2,1,3,-2,-2,-2],"threshold":[175.743484,176.689293,-178.783783,-2.0,-2.0,-177.024605,-147.777786,-2.0,-2.0,-2.0,48.247448,-2.0,176.070892,42.342669,-2.0,-2.0,-2.0],"children_left":[1,2,3,-1,-1,6,7,-1,-1,-1,11,-1,13,14,-1,-1,-1],"children_right":[10,5,4,-1,-1,9,8,-1,-1,-1,12,-1,16,15,-1,-1,-1],"value":[[0.458333,0.541667],[0.917647,0.082353],[0.993007,0.006993],[0.75,0.25],[1.0,0.0],[0.518519,0.481481],[0.315789,0.684211],[0.5,0.5],[0.0,1.0],[1.0,0.0],[0.093458,0.906542],[1.0,0.0],[0.04902,0.95098],[0.015306,0.984694],[0.0,1.0],[0.333333,0.666667],[0.875,0.125]]},{"feature":[4,6,-2,0,-2,-2,3,1,6,5,-2,-2,5,3,-2,-2,-2,-2,-2],"threshold":[174.711929,177.105026,-2.0,-174.330872,-2.0,-2.0,45.389244,175.327515,-179.630394,-176.691849,-2.0,-2.0,-172.083931,10.146017,-2.0,-2.0,-2.0,-2.0,-2.0],"children_left":[1,2,-1,4,-1,-1,7,8,9,10,-1,-1,13,14,-1,-1,-1,-1,-1],"children_right":[6,3,-1,5,-1,-1,18,17,12,11,-1,-1,16,15,-1,-1,-1,-1,-1],"value":[[0.513021,0.486979],[0.974843,0.025157],[1.0,0.0],[0.692308,0.307692],[0.2,0.8],[1.0,0.0],[0.186667,0.813333],[0.089552,0.910448],[0.056995,0.943005],[0.5,0.5],[0.0,1.0],[0.857143,0.142857],[0.027624,0.972376],[0.005682,0.994318],[0.166667,0.833333],[0.0,1.0],[0.8,0.2],[0.875,0.125],[1.0,0.0]]},{"feature":[13,11,-2,9,-2,13,-2,-2,5,9,-2,12,-2,7,-2,-2,5,-2,-2],"threshold":[176.999504,175.793655,-2.0,99.751659,-2.0,-175.624352,-2.0,-2.0,-174.212791,100.427036,-2.0,178.905663,-2.0,-179.516968,-2.0,-2.0,-64.262171,-2.0,-2.0],"children_left":[1,2,-1,4,-1,6,-1,-1,9,10,-1,12,-1,14,-1,-1,17,-1,-1],"children_right":[8,3,-1,5,-1,7,-1,-1,16,11,-1,13,-1,15,-1,-1,18,-1,-1],"value":[[0.497396,0.502604],[0.835897,0.164103],[1.0,0.0],[0.457627,0.542373],[1.0,0.0],[0.135135,0.864865],[0.0,1.0],[0.833333,0.166667],[0.148148,0.851852],[0.053892,0.946108],[0.888889,0.111111],[0.006329,0.993671],[0.0,1.0],[0.043478,0.956522],[0.166667,0.833333],[0.0,1.0],[0.863636,0.136364],[1.0,0.0],[0.625,0.375]]},{"feature":[13,13,8,-2,-2,11,-2,8,-2,-2,1,-2,11,-2,3,-2,-2],"threshold":[176.999504,-179.387848,-100.942245,-2.0,-2.0,176.975945,-2.0,-101.671356,-2.0,-2.0,49.198749,-2.0,174.284531,-2.0,42.418411,-2.0,-2.0],"children_left":[1,2,3,-1,-1,6,-1,8,-1,-1,11,-1,13,-1,15,-1,-1],"children_right":[10,5,4,-1,-1,7,-1,9,-1,-1,12,-1,14,-1,16,-1,-1],"value":[[0.476562,0.523438],[0.851852,0.148148],[0.133333,0.866667],[0.0,1.0],[0.666667,0.333333],[0.987421,0.012579],[1.0,0.0],[0.9,0.1],[0.6,0.4],[1.0,0.0],[0.112821,0.887179],[1.0,0.0],[0.044199,0.955801],[1.0,0.0],[0.011429,0.988571],[0.0,1.0],[0.285714,0.714286]]},{"feature":[10,9,-2,4,-2,11,-2,3,7,-2,-2,-2,-2],"threshold":[-174.038864,99.405224,-2.0,174.289932,-2.0,174.608139,-2.0,41.955647,-179.882401,-2.0,-2.0,-2.0,-2.0],"children_left":[1,2,-1,4,-1,6,-1,8,9,-1,-1,-1,-1],"children_right":[12,3,-1,5,-1,7,-1,11,10,-1,-1,-1,-1],"value":[[0.518229,0.481771],[0.206009,0.793991],[1.0,0.0],[0.079602,0.920398],[0.833333,0.166667],[0.05641,0.94359],[0.8,0.2],[0.016216,0.983784],[0.005556,0.994444],[0.125,0.875],[0.0,1.0],[0.4,0.6],[1.0,0.0]]},{"feature":[9,-2,13,5,10,0,0,-2,-2,-2,-2,-2,2,-2,5,1,-2,3,-2,-2,-2],"threshold":[98.830421,-2.0,176.689293,-174.729782,-168.381874,-132.580238,-175.109421,-2.0,-2.0,-2.0,-2.0,-2.0,-46.344822,-2.0,-175.989067,118.317913,-2.0,10.250961,-2.0,-2.0,-2.0],"children_left":[1,-1,3,4,5,6,7,-1,-1,-1,-1,-1,13,-1,15,16,-1,18,-1,-1,-1],"children_right":[2,-1,12,11,10,9,8,-1,-1,-1,-1,-1,14,-1,20,17,-1,19,-1,-1,-1],"value":[[0.4375,0.5625],[1.0,0.0],[0.257732,0.742268],[0.619048,0.380952],[0.215686,0.784314],[0.069767,0.930233],[0.176471,0.823529],[0.0,1.0],[0.5,0.5],[0.0,1.0],[1.0,0.0],[1.0,0.0],[0.053763,0.946237],[0.714286,0.285714],[0.027933,0.972067],[0.011494,0.988506],[0.2,0.8],[0.005917,0.994083],[0.166667,0.833333],[0.0,1.0],[0.6,0.4]]},{"feature":[10,9,-2,2,-2,3,4,6,-2,-2,1,-2,-2,-2,6,-2,-2],"threshold":[-173.80114,99.639988,-2.0,-46.573828,-2.0,42.382095,175.371956,177.650772,-2.0,-2.0,175.172005,-2.0,-2.0,-2.0,177.860497,-2.0,-2.0],"children_left":[1,2,-1,4,-1,6,7,8,-1,-1,11,-1,-1,-1,15,-1,-1],"children_right":[14,3,-1,5,-1,13,10,9,-1,-1,12,-1,-1,-1,16,-1,-1],"value":[[0.479167,0.520833],[0.119469,0.880531],[1.0,0.0],[0.047847,0.952153],[0.6,0.4],[0.034314,0.965686],[0.025126,0.974874],[0.307692,0.692308],[0.5,0.5],[0.0,1.0],[0.005376,0.994624],[0.0,1.0],[0.2,0.8],[0.4,0.6],[0.993671,0.006329],[1.0,0.0],[0.833333,0.166667]]},{"feature":[13,7,6,-2,-2,2,-2,8,-2,-2,1,-2,4,4,-2,-2,-2],"threshold":[176.955589,178.944778,178.711967,-2.0,-2.0,-74.341444,-2.0,-100.850807,-2.0,-2.0,49.372573,-2.0,174.476158,-72.174044,-2.0,-2.0,-2.0],"children_left":[1,2,3,-1,-1,6,-1,8,-1,-1,11,-1,13,14,-1,-1,-1],"children_right":[10,5,4,-1,-1,7,-1,9,-1,-1,12,-1,16,15,-1,-1,-1],"value":[[0.460938,0.539062],[0.818681,0.181319],[0.993007,0.006993],[1.0,0.0],[0.8,0.2],[0.179487,0.820513],[1.0,0.0],[0.030303,0.969697],[0.0,1.0],[0.166667,0.833333],[0.138614,0.861386],[1.0,0.0],[0.054348,0.945652],[0.714286,0.285714],[0.0,1.0],[1.0,0.0],[0.0,1.0]]},{"feature":[11,0,-2,-2,3,9,-2,10,1,-2,13,8,-2,-2,-2,-2,-2],"threshold":[174.533562,-178.395424,-2.0,-2.0,62.581602,98.431511,-2.0,-173.768257,118.775837,-2.0,176.947632,-100.875313,-2.0,-2.0,-2.0,-2.0,-2.0],"children_left":[1,2,-1,-1,5,6,-1,8,9,-1,11,12,-1,-1,-1,-1,-1],"children_right":[4,3,-1,-1,16,7,-1,15,10,-1,14,13,-1,-1,-1,-1,-1],"value":[[0.507812,0.492188],[0.993671,0.006329],[0.75,0.25],[1.0,0.0],[0.168142,0.831858],[0.096154,0.903846],[1.0,0.0],[0.050505,0.949495],[0.015873,0.984127],[0.2,0.8],[0.01087,0.98913],[0.060606,0.939394],[0.0,1.0],[0.4,0.6],[0.0,1.0],[0.777778,0.222222],[1.0,0.0]]},{"feature":[4,0,2,-2,-2,-2,8,9,5,2,-2,12,-2,9,-2,-2,-2,-2,-2],"threshold":[174.664268,-176.966125,-20.033307,-2.0,-2.0,-2.0,-95.332111,121.47047,-175.787582,-46.995268,-2.0,178.905663,-2.0,104.227024,-2.0,-2.0,-2.0,-2.0,-2.0],"children_left":[1,2,3,-1,-1,-1,7,8,9,10,-1,12,-1,14,-1,-1,-1,-1,-1],"children_right":[6,5,4,-1,-1,-1,18,17,16,11,-1,13,-1,15,-1,-1,-1,-1,-1],"value":[[0.484375,0.515625],[0.968153,0.031847],[0.642857,0.357143],[1.0,0.0],[0.166667,0.833333],[1.0,0.0],[0.14978,0.85022],[0.072115,0.927885],[0.050251,0.949749],[0.020833,0.979167],[0.285714,0.714286],[0.010811,0.989189],[0.0,1.0],[0.044444,0.955556],[0.25,0.75],[0.0,1.0],[0.857143,0.142857],[0.555556,0.444444],[1.0,0.0]]},{"feature":[13,4,12,-2,-2,13,0,-2,-2,-2,11,-2,1,9,3,-2,-2,-2,-2],"threshold":[176.955589,175.923676,-176.500351,-2.0,-2.0,-178.87014,-106.236435,-2.0,-2.0,-2.0,174.30912,-2.0,175.131287,102.704922,12.034956,-2.0,-2.0,-2.0,-2.0],"children_left":[1,2,3,-1,-1,6,7,-1,-1,-1,11,-1,13,14,15,-1,-1,-1,-1],"children_right":[10,5,4,-1,-1,9,8,-1,-1,-1,12,-1,18,17,16,-1,-1,-1,-1],"value":[[0.479167,0.520833],[0.860215,0.139785],[0.993333,0.006667],[0.8,0.2],[1.0,0.0],[0.305556,0.694444],[0.038462,0.961538],[0.0,1.0],[0.2,0.8],[1.0,0.0],[0.121212,0.878788],[1.0,0.0],[0.022472,0.977528],[0.005952,0.994048],[0.037037,0.962963],[0.0,1.0],[0.166667,0.833333],[0.0,1.0],[0.3,0.7]]},{"feature":[7,3,3,-2,8,-2,0,-2,-2,-2,4,5,-2,-2,7,4,-2,-2,5,-2,-2],"threshold":[-176.955589,43.543083,10.020242,-2.0,-108.849548,-2.0,-172.046799,-2.0,-2.0,-2.0,175.923676,-178.376328,-2.0,-2.0,179.336647,178.093163,-2.0,-2.0,-177.770668,-2.0,-2.0],"children_left":[1,2,3,-1,5,-1,7,-1,-1,-1,11,12,-1,-1,15,16,-1,-1,19,-1,-1],"children_right":[10,9,4,-1,6,-1,8,-1,-1,-1,14,13,-1,-1,18,17,-1,-1,20,-1,-1],"value":[[0.447917,0.552083],[0.115942,0.884058],[0.041885,0.958115],[1.0,0.0],[0.010811,0.989189],[0.0,1.0],[0.02381,0.97619],[0.0,1.0],[0.181818,0.818182],[1.0,0.0],[0.836158,0.163842],[0.971429,0.028571],[0.5,0.5],[1.0,0.0],[0.324324,0.675676],[0.714286,0.285714],[0.5,0.5],[1.0,0.0],[0.086957,0.913043],[0.4,0.6],[0.0,1.0]]},{"feature":[4,7,11,-2,-2,-2,8,11,-2,3,7,-2,-2,-2,-2],"threshold":[175.047653,-178.104774,172.940491,-2.0,-2.0,-2.0,-93.509869,175.255699,-2.0,41.955647,-179.882401,-2.0,-2.0,-2.0,-2.0],"children_left":[1,2,3,-1,-1,-1,7,8,-1,10,11,-1,-1,-1,-1],"children_right":[6,5,4,-1,-1,-1,14,9,-1,13,12,-1,-1,-1,-1],"value":[[0.455729,0.544271],[0.962733,0.037267],[0.571429,0.428571],[1.0,0.0],[0.25,0.75],[1.0,0.0],[0.089686,0.910314],[0.028708,0.971292],[0.6,0.4],[0.014706,0.985294],[0.005051,0.994949],[0.125,0.875],[0.0,1.0],[0.333333,0.666667],[1.0,0.0]]},{"feature":[8,1,-2,10,11,-2,8,-2,3,9,-2,-2,-2,5,-2,-2,0,-2,-2],"threshold":[-95.795185,113.089066,-2.0,-173.80114,170.328239,-2.0,-122.568081,-2.0,41.183823,101.139977,-2.0,-2.0,-2.0,-172.343262,-2.0,-2.0,-175.182228,-2.0,-2.0],"children_left":[1,2,-1,4,5,-1,7,-1,9,10,-1,-1,-1,14,-1,-1,17,-1,-1],"children_right":[16,3,-1,13,6,-1,8,-1,12,11,-1,-1,-1,15,-1,-1,18,-1,-1],"value":[[0.502604,0.497396],[0.28839,0.71161],[1.0,0.0],[0.162996,0.837004],[0.05102,0.94898],[1.0,0.0],[0.015873,0.984127],[0.2,0.8],[0.01087,0.98913],[0.005587,0.994413],[0.1,0.9],[0.0,1.0],[0.2,0.8],[0.870968,0.129032],[0.2,0.8],[1.0,0.0],[0.991453,0.008547],[0.909091,0.090909],[1.0,0.0]]},{"feature":[7,11,-2,9,-2,13,6,-2,10,-2,2,-2,-2,-2,5,8,13,-2,-2,-2,-2],"threshold":[-176.689293,173.352379,-2.0,94.149624,-2.0,179.873466,-179.728592,-2.0,-174.636803,-2.0,-37.298885,-2.0,-2.0,-2.0,-175.778656,-98.535191,-179.049538,-2.0,-2.0,-2.0,-2.0],"children_left":[1,2,-1,4,-1,6,7,-1,9,-1,11,-1,-1,-1,15,16,17,-1,-1,-1,-1],"children_right":[14,3,-1,5,-1,13,8,-1,10,-1,12,-1,-1,-1,20,19,18,-1,-1,-1,-1],"value":[[0.580729,0.419271],[0.210227,0.789773],[1.0,0.0],[0.091503,0.908497],[1.0,0.0],[0.034722,0.965278],[0.014706,0.985294],[0.166667,0.833333],[0.007692,0.992308],[0.0,1.0],[0.0625,0.9375],[0.0,1.0],[0.166667,0.833333],[0.375,0.625],[0.894231,0.105769],[0.531915,0.468085],[0.12,0.88],[0.0,1.0],[0.6,0.4],[1.0,0.0],[1.0,0.0]]},{"feature":[11,-2,9,-2,2,-2,0,13,8,12,-2,-2,-2,-2,11,-2,-2],"threshold":[174.285583,-2.0,98.923,-2.0,-47.754478,-2.0,-43.851044,87.098645,-99.748295,179.322182,-2.0,-2.0,-2.0,-2.0,179.000992,-2.0,-2.0],"children_left":[1,-1,3,-1,5,-1,7,8,9,10,-1,-1,-1,-1,15,-1,-1],"children_right":[2,-1,4,-1,6,-1,14,13,12,11,-1,-1,-1,-1,16,-1,-1],"value":[[0.46875,0.53125],[1.0,0.0],[0.170732,0.829268],[1.0,0.0],[0.068493,0.931507],[0.857143,0.142857],[0.042453,0.957547],[0.020942,0.979058],[0.142857,0.857143],[0.041667,0.958333],[0.0,1.0],[0.2,0.8],[0.75,0.25],[0.0,1.0],[0.238095,0.761905],[0.5,0.5],[0.0,1.0]]},{"feature":[10,1,-2,13,5,4,-2,3,-2,-2,-2,2,-2,-2,7,5,-2,-2,-2],"threshold":[-174.047874,49.198749,-2.0,176.989326,-175.572777,175.780815,-2.0,41.082581,-2.0,-2.0,-2.0,-45.67211,-2.0,-2.0,-177.968887,-171.856522,-2.0,-2.0,-2.0],"children_left":[1,2,-1,4,5,6,-1,8,-1,-1,-1,12,-1,-1,15,16,-1,-1,-1],"children_right":[14,3,-1,11,10,7,-1,9,-1,-1,-1,13,-1,-1,18,17,-1,-1,-1],"value":[[0.505208,0.494792],[0.183857,0.816143],[1.0,0.0],[0.125,0.875],[0.454545,0.545455],[0.230769,0.769231],[0.75,0.25],[0.096774,0.903226],[0.0,1.0],[0.75,0.25],[1.0,0.0],[0.006536,0.993464],[0.2,0.8],[0.0,1.0],[0.950311,0.049689],[0.529412,0.470588],[0.0,1.0],[1.0,0.0],[1.0,0.0]]},{"feature":[4,4,-2,-2,2,-2,13,5,-2,1,-2,-2,5,10,9,-2,-2,-2,-2],"threshold":[174.796875,-178.569839,-2.0,-2.0,-74.341444,-2.0,175.986725,-176.552666,-2.0,129.995029,-2.0,-2.0,-176.721611,-178.11235,114.864178,-2.0,-2.0,-2.0,-2.0],"children_left":[1,2,-1,-1,5,-1,7,8,-1,10,-1,-1,13,14,15,-1,-1,-1,-1],"children_right":[4,3,-1,-1,6,-1,12,9,-1,11,-1,-1,18,17,16,-1,-1,-1,-1],"value":[[0.507812,0.492188],[0.976744,0.023256],[0.636364,0.363636],[1.0,0.0],[0.127358,0.872642],[1.0,0.0],[0.065657,0.934343],[0.305556,0.694444],[0.0,1.0],[0.733333,0.266667],[0.2,0.8],[1.0,0.0],[0.012346,0.987654],[0.006369,0.993631],[0.05,0.95],[0.2,0.8],[0.0,1.0],[0.0,1.0],[0.2,0.8]]},{"feature":[4,13,-2,5,-2,-2,9,-2,0,5,-2,-2,5,-2,-2],"threshold":[174.711929,178.104774,-2.0,-173.734993,-2.0,-2.0,99.906235,-2.0,-37.68671,-175.827087,-2.0,-2.0,-179.320694,-2.0,-2.0],"children_left":[1,2,-1,4,-1,-1,7,-1,9,10,-1,-1,13,-1,-1],"children_right":[6,3,-1,5,-1,-1,8,-1,12,11,-1,-1,14,-1,-1],"value":[[0.466146,0.533854],[0.972973,0.027027],[1.0,0.0],[0.764706,0.235294],[0.2,0.8],[1.0,0.0],[0.148305,0.851695],[1.0,0.0],[0.033654,0.966346],[0.02139,0.97861],[0.0,1.0],[0.8,0.2],[0.142857,0.857143],[0.0,1.0],[0.3,0.7]]},{"feature":[5,8,8,-2,5,11,-2,-2,1,-2,-2,-2,-2],"threshold":[-175.431572,-94.385204,-126.032127,-2.0,-178.4841,177.496391,-2.0,-2.0,118.779148,-2.0,-2.0,-2.0,-2.0],"children_left":[1,2,3,-1,5,6,-1,-1,9,-1,-1,-1,-1],"children_right":[12,11,4,-1,8,7,-1,-1,10,-1,-1,-1,-1],"value":[[0.489583,0.510417],[0.172996,0.827004],[0.043902,0.956098],[0.75,0.25],[0.015228,0.984772],[0.068966,0.931034],[0.25,0.75],[0.0,1.0],[0.005952,0.994048],[0.166667,0.833333],[0.0,1.0],[1.0,0.0],[1.0,0.0]]},{"feature":[11,5,-2,-2,4,6,-2,-2,8,8,-2,9,3,13,-2,-2,-2,-2,-2],"threshold":[174.508972,-179.203529,-2.0,-2.0,174.411354,177.105026,-2.0,-2.0,-91.260441,-123.761517,-2.0,121.334972,11.172144,177.898804,-2.0,-2.0,-2.0,-2.0,-2.0],"children_left":[1,2,-1,-1,5,6,-1,-1,9,10,-1,12,13,14,-1,-1,-1,-1,-1],"children_right":[4,3,-1,-1,8,7,-1,-1,18,11,-1,17,16,15,-1,-1,-1,-1,-1],"value":[[0.455729,0.544271],[0.992593,0.007407],[0.857143,0.142857],[1.0,0.0],[0.164659,0.835341],[0.714286,0.285714],[1.0,0.0],[0.166667,0.833333],[0.074766,0.925234],[0.014925,0.985075],[0.166667,0.833333],[0.010256,0.989744],[0.005263,0.994737],[0.020833,0.979167],[0.2,0.8],[0.0,1.0],[0.0,1.0],[0.2,0.8],[1.0,0.0]]},{"feature":[9,-2,5,13,2,13,-2,-2,-2,13,-2,-2,-2],"threshold":[98.688236,-2.0,-175.295403,177.025909,25.776884,-179.238182,-2.0,-2.0,-2.0,179.882401,-2.0,-2.0,-2.0],"children_left":[1,-1,3,4,5,6,-1,-1,-1,10,-1,-1,-1],"children_right":[2,-1,12,9,8,7,-1,-1,-1,11,-1,-1,-1],"value":[[0.523438,0.476562],[1.0,0.0],[0.33935,0.66065],[0.061538,0.938462],[0.222222,0.777778],[0.027778,0.972222],[0.0,1.0],[0.25,0.75],[1.0,0.0],[0.013333,0.986667],[0.0,1.0],[0.25,0.75],[1.0,0.0]]},{"feature":[4,10,12,-2,-2,13,-2,8,-2,-2,3,11,-2,1,-2,3,-2,-2,-2],"threshold":[175.146606,-174.047874,-177.105026,-2.0,-2.0,177.8955,-2.0,-92.771774,-2.0,-2.0,62.581602,167.930161,-2.0,118.040756,-2.0,40.771694,-2.0,-2.0,-2.0],"children_left":[1,2,3,-1,-1,6,-1,8,-1,-1,11,12,-1,14,-1,16,-1,-1,-1],"children_right":[10,5,4,-1,-1,7,-1,9,-1,-1,18,13,-1,15,-1,17,-1,-1,-1],"value":[[0.505208,0.494792],[0.960452,0.039548],[0.76,0.24],[0.0,1.0],[1.0,0.0],[0.993421,0.006579],[1.0,0.0],[0.916667,0.083333],[0.75,0.25],[1.0,0.0],[0.115942,0.884058],[0.051813,0.948187],[0.714286,0.285714],[0.026882,0.973118],[0.428571,0.571429],[0.011173,0.988827],[0.0,1.0],[0.285714,0.714286],[1.0,0.0]]},{"feature":[7,5,2,-2,3,-2,10,-2,0,-2,-2,11,-2,-2,5,8,10,-2,-2,-2,4,-2,0,-2,-2],"threshold":[-176.999504,-175.295403,-67.543203,-2.0,10.460938,-2.0,-174.636803,-2.0,-124.351501,-2.0,-2.0,168.416588,-2.0,-2.0,-177.152512,-96.578022,-175.637428,-2.0,-2.0,-2.0,177.692543,-2.0,-167.096451,-2.0,-2.0],"children_left":[1,2,3,-1,5,-1,7,-1,9,-1,-1,12,-1,-1,15,16,17,-1,-1,-1,21,-1,23,-1,-1],"children_right":[14,11,4,-1,6,-1,8,-1,10,-1,-1,13,-1,-1,20,19,18,-1,-1,-1,22,-1,24,-1,-1],"value":[[0.518229,0.481771],[0.159574,0.840426],[0.042683,0.957317],[1.0,0.0],[0.01875,0.98125],[0.25,0.75],[0.006579,0.993421],[0.0,1.0],[0.047619,0.952381],[0.0,1.0],[0.166667,0.833333],[0.958333,0.041667],[1.0,0.0],[0.8,0.2],[0.862245,0.137755],[0.428571,0.571429],[0.076923,0.923077],[0.0,1.0],[0.333333,0.666667],[1.0,0.0],[0.980519,0.019481],[1.0,0.0],[0.727273,0.272727],[0.25,0.75],[1.0,0.0]]},{"feature":[8,4,4,-2,-2,8,-2,13,10,-2,-2,6,13,-2,-2,-2,-2],"threshold":[-94.527401,174.641525,-176.618378,-2.0,-2.0,-123.5886,-2.0,175.986725,-176.106895,-2.0,-2.0,-178.905663,179.86335,-2.0,-2.0,-2.0,-2.0],"children_left":[1,2,3,-1,-1,6,-1,8,9,-1,-1,12,13,-1,-1,-1,-1],"children_right":[16,5,4,-1,-1,7,-1,11,10,-1,-1,15,14,-1,-1,-1,-1],"value":[[0.453125,0.546875],[0.270833,0.729167],[0.934211,0.065789],[0.166667,0.833333],[1.0,0.0],[0.033019,0.966981],[0.5,0.5],[0.019417,0.980583],[0.081081,0.918919],[0.0,1.0],[0.428571,0.571429],[0.005917,0.994083],[0.030303,0.969697],[0.0,1.0],[0.166667,0.833333],[0.0,1.0],[1.0,0.0]]},{"feature":[13,0,6,-2,-2,13,12,9,-2,9,-2,-2,-2,11,-2,7,-2,-2,11,-2,9,-2,8,-2,1,-2,-2],"threshold":[177.591118,-175.489227,178.29982,-2.0,-2.0,-178.944778,178.947273,100.706013,-2.0,114.844872,-2.0,-2.0,-2.0,176.315582,-2.0,-176.579933,-2.0,-2.0,173.327789,-2.0,100.427036,-2.0,-122.508915,-2.0,118.643478,-2.0,-2.0],"children_left":[1,2,3,-1,-1,6,7,8,-1,10,-1,-1,-1,14,-1,16,-1,-1,19,-1,21,-1,23,-1,25,-1,-1],"children_right":[18,5,4,-1,-1,13,12,9,-1,11,-1,-1,-1,15,-1,17,-1,-1,20,-1,22,-1,24,-1,26,-1,-1],"value":[[0.489583,0.510417],[0.792271,0.207729],[0.210526,0.789474],[0.8,0.2],[0.0,1.0],[0.851064,0.148936],[0.2,0.8],[0.285714,0.714286],[1.0,0.0],[0.0625,0.9375],[0.0,1.0],[0.25,0.75],[0.0,1.0],[0.974684,0.025316],[1.0,0.0],[0.846154,0.153846],[0.333333,0.666667],[1.0,0.0],[0.135593,0.864407],[1.0,0.0],[0.037736,0.962264],[0.8,0.2],[0.012987,0.987013],[0.142857,0.857143],[0.006803,0.993197],[0.142857,0.857143],[0.0,1.0]]},{"feature":[11,4,-2,-2,2,-2,9,-2,8,4,-2,8,1,-2,-2,0,-2,-2,-2],"threshold":[174.508972,175.371956,-2.0,-2.0,-70.401506,-2.0,99.639988,-2.0,-95.312004,174.24469,-2.0,-100.868259,118.498562,-2.0,-2.0,-175.182716,-2.0,-2.0,-2.0],"children_left":[1,2,-1,-1,5,-1,7,-1,9,10,-1,12,13,-1,-1,16,-1,-1,-1],"children_right":[4,3,-1,-1,6,-1,8,-1,18,11,-1,15,14,-1,-1,17,-1,-1,-1],"value":[[0.528646,0.471354],[0.993939,0.006061],[1.0,0.0],[0.833333,0.166667],[0.178082,0.821918],[1.0,0.0],[0.121951,0.878049],[1.0,0.0],[0.076923,0.923077],[0.05291,0.94709],[0.6,0.4],[0.022346,0.977654],[0.006849,0.993151],[0.25,0.75],[0.0,1.0],[0.090909,0.909091],[0.0,1.0],[0.428571,0.571429],[0.833333,0.166667]]},{"feature":[5,4,5,-2,-2,8,6,0,0,-2,-2,-2,-2,-2,8,13,-2,-2,-2],"threshold":[-175.753464,174.042358,-177.634811,-2.0,-2.0,-94.385204,-178.905159,-155.962418,-173.808067,-2.0,-2.0,-2.0,-2.0,-2.0,-95.782627,177.629204,-2.0,-2.0,-2.0],"children_left":[1,2,3,-1,-1,6,7,8,9,-1,-1,-1,-1,-1,15,16,-1,-1,-1],"children_right":[14,5,4,-1,-1,13,12,11,10,-1,-1,-1,-1,-1,18,17,-1,-1,-1],"value":[[0.513021,0.486979],[0.204348,0.795652],[0.96,0.04],[1.0,0.0],[0.833333,0.166667],[0.112195,0.887805],[0.031915,0.968085],[0.12766,0.87234],[0.4,0.6],[0.2,0.8],[0.8,0.2],[0.0,1.0],[0.0,1.0],[1.0,0.0],[0.974026,0.025974],[0.940299,0.059701],[1.0,0.0],