[{"feature":[13,10,9,-2,0,-2,-2,-2,4,9,-2,0,2,-2,-2,-2,-2],"threshold":[174.364311,-173.979683,100.214794,-2.0,-172.435394,-2.0,-2.0,-2.0,176.246315,95.659786,-2.0,5.219036,-12.108754,-2.0,-2.0,-2.0,-2.0],"children_left":[1,2,3,-1,5,-1,-1,-1,9,10,-1,12,13,-1,-1,-1,-1],"children_right":[8,7,4,-1,6,-1,-1,-1,16,11,-1,15,14,-1,-1,-1,-1],"value":[[0.494792,0.505208],[0.955414,0.044586],[0.815789,0.184211],[1.0,0.0],[0.65,0.35],[0.4,0.6],[0.9,0.1],[1.0,0.0],[0.176211,0.823789],[0.109524,0.890476],[1.0,0.0],[0.055556,0.944444],[0.010582,0.989418],[0.0,1.0],[0.4,0.6],[1.0,0.0],[1.0,0.0]]},{"feature":[10,9,9,-2,-2,5,4,13,4,-2,-2,2,-2,-2,-2,-2,-2],"threshold":[-159.681374,100.408833,97.855297,-2.0,-2.0,-156.624199,176.341225,2.446815,169.88089,-2.0,-2.0,-61.015957,-2.0,-2.0,-2.0,-2.0,-2.0],"children_left":[1,2,3,-1,-1,6,7,8,9,-1,-1,12,-1,-1,-1,-1,-1],"children_right":[16,5,4,-1,-1,15,14,11,10,-1,-1,13,-1,-1,-1,-1,-1],"value":[[0.492188,0.507812],[0.275093,0.724907],[0.958333,0.041667],[1.0,0.0],[0.666667,0.333333],[0.126697,0.873303],[0.058537,0.941463],[0.035,0.965],[0.5,0.5],[1.0,0.0],[0.0,1.0],[0.010526,0.989474],[0.333333,0.666667],[0.0,1.0],[1.0,0.0],[1.0,0.0],[1.0,0.0]]},{"feature":[5,9,3,-2,-2,9,4,1,10,-2,-2,-2,-2,-2,-2],"threshold":[-162.418259,97.420277,8.535002,-2.0,-2.0,126.096313,176.341225,175.068336,-160.403442,-2.0,-2.0,-2.0,-2.0,-2.0,-2.0],"children_left":[1,2,3,-1,-1,6,7,8,9,-1,-1,-1,-1,-1,-1],"children_right":[14,5,4,-1,-1,13,12,11,10,-1,-1,-1,-1,-1,-1],"value":[[0.510417,0.489583],[0.24498,0.75502],[0.947368,0.052632],[0.666667,0.333333],[1.0,0.0],[0.118483,0.881517],[0.07,0.93],[0.015873,0.984127],[0.005618,0.994382],[0.0,1.0],[0.25,0.75],[0.181818,0.818182],[1.0,0.0],[1.0,0.0],[1.0,0.0]]},{"feature":[8,5,11,9,-2,0,3,-2,-2,-2,-2,-2,-2],"threshold":[-95.998459,-159.896988,177.389366,96.611088,-2.0,-97.479126,32.817146,-2.0,-2.0,-2.0,-2.0,-2.0,-2.0],"children_left":[1,2,3,4,-1,6,7,-1,-1,-1,-1,-1,-1],"children_right":[12,11,10,5,-1,9,8,-1,-1,-1,-1,-1,-1],"value":[[0.513021,0.486979],[0.288973,0.711027],[0.100962,0.899038],[0.05102,0.94898],[0.8,0.2],[0.031414,0.968586],[0.01087,0.98913],[0.0,1.0],[0.4,0.6],[0.571429,0.428571],[0.916667,0.083333],[1.0,0.0],[1.0,0.0]]},{"feature":[10,9,-2,12,3,2,13,-2,-2,-2,-2,5,5,5,4,-2,-2,-2,-2,-2,-2],"threshold":[-159.681374,95.874493,-2.0,-171.895523,33.095297,-12.529812,175.077469,-2.0,-2.0,-2.0,-2.0,-155.136932,-164.701263,-171.048912,175.097206,-2.0,-2.0,-2.0,-2.0,-2.0,-2.0],"children_left":[1,2,-1,4,5,6,7,-1,-1,-1,-1,12,13,14,15,-1,-1,-1,-1,-1,-1],"children_right":[20,3,-1,11,10,9,8,-1,-1,-1,-1,19,18,17,16,-1,-1,-1,-1,-1,-1],"value":[[0.520833,0.479167],[0.313433,0.686567],[1.0,0.0],[0.206897,0.793103],[0.048193,0.951807],[0.018634,0.981366],[0.006536,0.993464],[0.2,0.8],[0.0,1.0],[0.25,0.75],[1.0,0.0],[0.606061,0.393939],[0.458333,0.541667],[0.785714,0.214286],[0.625,0.375],[0.142857,0.857143],[1.0,0.0],[1.0,0.0],[0.0,1.0],[1.0,0.0],[1.0,0.0]]},{"feature":[7,2,-2,10,-2,11,13,1,9,-2,-2,-2,-2,-2,-2],"threshold":[-174.083984,-81.5135,-2.0,-176.322372,-2.0,176.066666,179.144424,175.034538,100.919224,-2.0,-2.0,-2.0,-2.0,-2.0,-2.0],"children_left":[1,2,-1,4,-1,6,7,8,9,-1,-1,-1,-1,-1,-1],"children_right":[14,3,-1,5,-1,13,12,11,10,-1,-1,-1,-1,-1,-1],"value":[[0.515625,0.484375],[0.211864,0.788136],[1.0,0.0],[0.130841,0.869159],[1.0,0.0],[0.092683,0.907317],[0.060914,0.939086],[0.037037,0.962963],[0.010989,0.989011],[0.5,0.5],[0.0,1.0],[0.714286,0.285714],[0.625,0.375],[0.875,0.125],[1.0,0.0]]},{"feature":[12,7,9,8,-2,-2,4,-2,-2,-2,10,7,12,-2,-2,7,-2,-2,12,-2,0,-2,-2],"threshold":[-172.752312,-174.391624,101.237541,-105.98447,-2.0,-2.0,175.853714,-2.0,-2.0,-2.0,-172.582382,-167.067627,179.03289,-2.0,-2.0,178.498726,-2.0,-2.0,172.168991,-2.0,139.410606,-2.0,-2.0],"children_left":[1,2,3,4,-1,-1,7,-1,-1,-1,11,12,13,-1,-1,16,-1,-1,19,-1,21,-1,-1],"children_right":[10,9,6,5,-1,-1,8,-1,-1,-1,18,15,14,-1,-1,17,-1,-1,20,-1,22,-1,-1],"value":[[0.53125,0.46875],[0.242268,0.757732],[0.145349,0.854651],[0.909091,0.090909],[0.75,0.25],[1.0,0.0],[0.033333,0.966667],[0.0,1.0],[0.833333,0.166667],[1.0,0.0],[0.826316,0.173684],[0.436364,0.563636],[0.166667,0.833333],[0.75,0.25],[0.0,1.0],[0.947368,0.052632],[1.0,0.0],[0.833333,0.166667],[0.985185,0.014815],[1.0,0.0],[0.913043,0.086957],[0.714286,0.285714],[1.0,0.0]]},{"feature":[6,6,10,-2,4,-2,-2,4,-2,4,0,-2,-2,-2,9,-2,1,-2,8,7,-2,3,-2,-2,-2],"threshold":[172.895645,-179.127472,-175.612778,-2.0,174.144196,-2.0,-2.0,162.85511,-2.0,174.88604,-147.011795,-2.0,-2.0,-2.0,95.806969,-2.0,-19.4007,-2.0,-98.494545,-179.066589,-2.0,32.61829,-2.0,-2.0,-2.0],"children_left":[1,2,3,-1,5,-1,-1,8,-1,10,11,-1,-1,-1,15,-1,17,-1,19,20,-1,22,-1,-1,-1],"children_right":[14,7,4,-1,6,-1,-1,9,-1,13,12,-1,-1,-1,16,-1,18,-1,24,21,-1,23,-1,-1,-1],"value":[[0.494792,0.505208],[0.806283,0.193717],[0.225,0.775],[0.857143,0.142857],[0.090909,0.909091],[0.5,0.5],[0.0,1.0],[0.960265,0.039735],[1.0,0.0],[0.785714,0.214286],[0.5,0.5],[0.571429,0.428571],[0.4,0.6],[1.0,0.0],[0.186528,0.813472],[1.0,0.0],[0.076471,0.923529],[1.0,0.0],[0.042683,0.957317],[0.012658,0.987342],[0.25,0.75],[0.006494,0.993506],[0.0,1.0],[0.1,0.9],[0.833333,0.166667]]},{"feature":[4,-2,8,3,2,10,-2,13,-2,-2,-2,-2,6,-2,-2],"threshold":[160.78611,-2.0,-98.420708,33.726461,-11.451943,-176.213455,-2.0,31.245564,-2.0,-2.0,-2.0,-2.0,178.551506,-2.0,-2.0],"children_left":[1,-1,3,4,5,6,-1,8,-1,-1,-1,-1,13,-1,-1],"children_right":[2,-1,12,11,10,7,-1,9,-1,-1,-1,-1,14,-1,-1],"value":[[0.466146,0.533854],[1.0,0.0],[0.229323,0.770677],[0.125,0.875],[0.068807,0.931193],[0.042453,0.957547],[0.875,0.125],[0.009804,0.990196],[0.5,0.5],[0.0,1.0],[1.0,0.0],[1.0,0.0],[0.941176,0.058824],[1.0,0.0],[0.714286,0.285714]]},{"feature":[4,-2,1,-2,9,2,-2,-2,1,10,-2,3,-2,3,-2,-2,4,-2,-2],"threshold":[161.537521,-2.0,124.443718,-2.0,100.408833,-13.093781,-2.0,-2.0,172.078575,-175.531029,-2.0,30.02189,-2.0,30.94628,-2.0,-2.0,170.379776,-2.0,-2.0],"children_left":[1,-1,3,-1,5,6,-1,-1,9,10,-1,12,-1,14,-1,-1,17,-1,-1],"children_right":[2,-1,4,-1,8,7,-1,-1,16,11,-1,13,-1,15,-1,-1,18,-1,-1],"value":[[0.476562,0.523438],[1.0,0.0],[0.208661,0.791339],[1.0,0.0],[0.12987,0.87013],[0.944444,0.055556],[0.8,0.2],[1.0,0.0],[0.061033,0.938967],[0.020202,0.979798],[0.5,0.5],[0.005208,0.994792],[0.0,1.0],[0.071429,0.928571],[0.25,0.75],[0.0,1.0],[0.6,0.4],[0.166667,0.833333],[0.888889,0.111111]]},{"feature":[8,1,-2,11,2,4,-2,5,-2,-2,-2,4,-2,-2,-2],"threshold":[-98.420708,121.574417,-2.0,176.342758,-11.839378,133.924564,-2.0,-163.119659,-2.0,-2.0,-2.0,170.223679,-2.0,-2.0,-2.0],"children_left":[1,2,-1,4,5,6,-1,8,-1,-1,-1,12,-1,-1,-1],"children_right":[14,3,-1,11,10,7,-1,9,-1,-1,-1,13,-1,-1,-1],"value":[[0.481771,0.518229],[0.276364,0.723636],[1.0,0.0],[0.145923,0.854077],[0.079439,0.920561],[0.057692,0.942308],[1.0,0.0],[0.005076,0.994924],[0.0,1.0],[0.166667,0.833333],[0.833333,0.166667],[0.894737,0.105263],[0.6,0.4],[1.0,0.0],[1.0,0.0]]},{"feature":[13,0,7,-2,-2,-2,1,-2,2,1,4,0,-2,-2,-2,-2,3,-2,-2],"threshold":[174.050316,-172.460419,178.663055,-2.0,-2.0,-2.0,122.515293,-2.0,-11.676131,175.018517,176.024948,-100.003685,-2.0,-2.0,-2.0,-2.0,11.987091,-2.0,-2.0],"children_left":[1,2,3,-1,-1,-1,7,-1,9,10,11,12,-1,-1,-1,-1,17,-1,-1],"children_right":[6,5,4,-1,-1,-1,8,-1,16,15,14,13,-1,-1,-1,-1,18,-1,-1],"value":[[0.5,0.5],[0.972222,0.027778],[0.84,0.16],[1.0,0.0],[0.555556,0.444444],[1.0,0.0],[0.216667,0.783333],[1.0,0.0],[0.125581,0.874419],[0.069652,0.930348],[0.020942,0.979058],[0.005376,0.994624],[0.0,1.0],[0.2,0.8],[0.6,0.4],[1.0,0.0],[0.928571,0.071429],[1.0,0.0],[0.75,0.25]]},{"feature":[7,3,1,5,-2,2,-2,-2,8,-2,-2,-2,5,13,6,-2,-2,-2,-2],"threshold":[-174.080605,35.100399,171.858299,-177.364174,-2.0,-60.140717,-2.0,-2.0,-114.613625,-2.0,-2.0,-2.0,-170.333725,-178.587631,-176.003395,-2.0,-2.0,-2.0,-2.0],"children_left":[1,2,3,4,-1,6,-1,-1,9,-1,-1,-1,13,14,15,-1,-1,-1,-1],"children_right":[12,11,8,5,-1,7,-1,-1,10,-1,-1,-1,18,17,16,-1,-1,-1,-1],"value":[[0.5,0.5],[0.206751,0.793249],[0.121495,0.878505],[0.021277,0.978723],[0.4,0.6],[0.010929,0.989071],[0.333333,0.666667],[0.0,1.0],[0.846154,0.153846],[0.333333,0.666667],[1.0,0.0],[1.0,0.0],[0.972789,0.027211],[0.882353,0.117647],[0.789474,0.210526],[1.0,0.0],[0.5,0.5],[1.0,0.0],[1.0,0.0]]},{"feature":[7,9,-2,10,-2,11,-2,8,-2,-2,10,7,-2,-2,-2],"threshold":[-174.050316,95.659786,-2.0,-176.020683,-2.0,83.440205,-2.0,-98.022266,-2.0,-2.0,-173.952919,178.787735,-2.0,-2.0,-2.0],"children_left":[1,2,-1,4,-1,6,-1,8,-1,-1,11,12,-1,-1,-1],"children_right":[10,3,-1,5,-1,7,-1,9,-1,-1,14,13,-1,-1,-1],"value":[[0.505208,0.494792],[0.187773,0.812227],[1.0,0.0],[0.097087,0.902913],[1.0,0.0],[0.046154,0.953846],[1.0,0.0],[0.026178,0.973822],[0.0,1.0],[0.833333,0.166667],[0.974194,0.025806],[0.851852,0.148148],[1.0,0.0],[0.5,0.5],[1.0,0.0]]},{"feature":[1,-2,13,13,-2,6,2,-2,-2,-2,8,11,9,-2,-2,-2,-2],"threshold":[124.815025,-2.0,174.083984,-179.261139,-2.0,-173.105286,-13.816527,-2.0,-2.0,-2.0,-97.354954,177.401993,95.830296,-2.0,-2.0,-2.0,-2.0],"children_left":[1,-1,3,4,-1,6,7,-1,-1,-1,11,12,13,-1,-1,-1,-1],"children_right":[2,-1,10,5,-1,9,8,-1,-1,-1,16,15,14,-1,-1,-1,-1],"value":[[0.479167,0.520833],[1.0,0.0],[0.288256,0.711744],[0.95082,0.04918],[0.6,0.4],[0.982143,0.017857],[0.909091,0.090909],[0.75,0.25],[1.0,0.0],[1.0,0.0],[0.104545,0.895455],[0.052885,0.947115],[0.020101,0.979899],[0.8,0.2],[0.0,1.0],[0.777778,0.222222],[1.0,0.0]]},{"feature":[9,9,-2,-2,11,-2,7,4,0,11,-2,-2,-2,-2,12,-2,9,-2,-2],"threshold":[97.420277,95.659786,-2.0,-2.0,160.178268,-2.0,-100.525966,176.360008,-101.10659,176.389145,-2.0,-2.0,-2.0,-2.0,-146.475319,-2.0,103.991695,-2.0,-2.0],"children_left":[1,2,-1,-1,5,-1,7,8,9,10,-1,-1,-1,-1,15,-1,17,-1,-1],"children_right":[4,3,-1,-1,6,-1,14,13,12,11,-1,-1,-1,-1,16,-1,18,-1,-1],"value":[[0.479167,0.520833],[0.976744,0.023256],[1.0,0.0],[0.666667,0.333333],[0.33557,0.66443],[1.0,0.0],[0.161017,0.838983],[0.059113,0.940887],[0.015464,0.984536],[0.010582,0.989418],[0.0,1.0],[0.2,0.8],[0.2,0.8],[1.0,0.0],[0.787879,0.212121],[0.285714,0.714286],[0.923077,0.076923],[0.6,0.4],[1.0,0.0]]},{"feature":[13,4,-2,4,-2,0,-2,-2,2,-2,9,-2,11,10,8,-2,-2,-2,-2],"threshold":[173.942909,174.702065,-2.0,175.524117,-2.0,-171.94548,-2.0,-2.0,-76.468979,-2.0,95.486214,-2.0,176.84761,-160.187065,-98.719837,-2.0,-2.0,-2.0,-2.0],"children_left":[1,2,-1,4,-1,6,-1,-1,9,-1,11,-1,13,14,15,-1,-1,-1,-1],"children_right":[8,3,-1,5,-1,7,-1,-1,10,-1,12,-1,18,17,16,-1,-1,-1,-1],"value":[[0.450521,0.549479],[0.962406,0.037594],[1.0,0.0],[0.772727,0.227273],[0.428571,0.571429],[0.933333,0.066667],[0.8,0.2],[1.0,0.0],[0.179283,0.820717],[1.0,0.0],[0.096491,0.903509],[1.0,0.0],[0.063636,0.936364],[0.02381,0.97619],[0.014563,0.985437],[0.0,1.0],[0.6,0.4],[0.5,0.5],[0.9,0.1]]},{"feature":[5,8,9,-2,5,-2,3,1,-2,-2,-2,8,-2,-2,-2],"threshold":[-161.117332,-98.420708,95.486214,-2.0,-177.765434,-2.0,32.817146,129.225777,-2.0,-2.0,-2.0,-95.385338,-2.0,-2.0,-2.0],"children_left":[1,2,3,-1,5,-1,7,8,-1,-1,-1,12,-1,-1,-1],"children_right":[14,11,4,-1,6,-1,10,9,-1,-1,-1,13,-1,-1,-1],"value":[[0.471354,0.528646],[0.261818,0.738182],[0.114035,0.885965],[1.0,0.0],[0.060465,0.939535],[0.888889,0.111111],[0.024272,0.975728],[0.005,0.995],[0.2,0.8],[0.0,1.0],[0.666667,0.333333],[0.978723,0.021277],[0.9,0.1],[1.0,0.0],[1.0,0.0]]},{"feature":[13,13,-2,9,-2,11,-2,-2,11,1,-2,9,-2,13,-2,-2,10,-2,-2],"threshold":[174.294983,-179.180664,-2.0,110.856178,-2.0,160.566124,-2.0,-2.0,176.389145,33.127935,-2.0,96.980793,-2.0,179.187408,-2.0,-2.0,-171.442993,-2.0,-2.0],"children_left":[1,2,-1,4,-1,6,-1,-1,9,10,-1,12,-1,14,-1,-1,17,-1,-1],"children_right":[8,3,-1,5,-1,7,-1,-1,16,11,-1,13,-1,15,-1,-1,18,-1,-1],"value":[[0.484375,0.515625],[0.973333,0.026667],[0.625,0.375],[0.992958,0.007042],[1.0,0.0],[0.974359,0.025641],[1.0,0.0],[0.909091,0.090909],[0.17094,0.82906],[0.090909,0.909091],[1.0,0.0],[0.040404,0.959596],[0.875,0.125],[0.005263,0.994737],[0.0,1.0],[0.166667,0.833333],[0.84,0.16],[1.0,0.0],[0.6,0.4]]},{"feature":[4,-2,11,1,-2,0,2,1,-2,-2,-2,1,6,11,-2,-2,-2,-2,4,-2,-2],"threshold":[162.639168,-2.0,176.84761,69.610153,-2.0,-174.542297,-12.03241,138.292183,-2.0,-2.0,-2.0,174.104004,-173.43351,160.718178,-2.0,-2.0,-2.0,-2.0,173.380745,-2.0,-2.0],"children_left":[1,-1,3,4,-1,6,7,8,-1,-1,-1,12,13,14,-1,-1,-1,-1,19,-1,-1],"children_right":[2,-1,18,5,-1,11,10,9,-1,-1,-1,17,16,15,-1,-1,-1,-1,20,-1,-1],"value":[[0.533854,0.466146],[1.0,0.0],[0.295276,0.704724],[0.153846,0.846154],[1.0,0.0],[0.068783,0.931217],[0.5,0.5],[0.1,0.9],[0.0,1.0],[0.2,0.8],[1.0,0.0],[0.023392,0.976608],[0.012048,0.987952],[0.08,0.92],[0.4,0.6],[0.0,1.0],[0.0,1.0],[0.4,0.6],[0.934783,0.065217],[0.625,0.375],[1.0,0.0]]},{"feature":[5,9,-2,1,-2,11,2,-2,7,-2,-2,-2,-2],"threshold":[-162.386719,97.420277,-2.0,115.518597,-2.0,177.271599,-108.840803,-2.0,-44.524548,-2.0,-2.0,-2.0,-2.0],"children_left":[1,2,-1,4,-1,6,7,-1,9,-1,-1,-1,-1],"children_right":[12,3,-1,5,-1,11,8,-1,10,-1,-1,-1,-1],"value":[[0.520833,0.479167],[0.308271,0.691729],[1.0,0.0],[0.163636,0.836364],[1.0,0.0],[0.089109,0.910891],[0.041667,0.958333],[1.0,0.0],[0.016043,0.983957],[0.0,1.0],[0.230769,0.769231],[1.0,0.0],[1.0,0.0]]},{"feature":[7,1,-2,2,1,3,6,10,-2,-2,-2,-2,-2,-2,6,-2,3,-2,-2],"threshold":[-174.080605,122.785019,-2.0,-11.676131,175.215614,11.671739,177.615021,-168.278297,-2.0,-2.0,-2.0,-2.0,-2.0,-2.0,177.2192,-2.0,32.802172,-2.0,-2.0],"children_left":[1,2,-1,4,5,6,7,8,-1,-1,-1,-1,-1,-1,15,-1,17,-1,-1],"children_right":[14,3,-1,13,12,11,10,9,-1,-1,-1,-1,-1,-1,16,-1,18,-1,-1],"value":[[0.559896,0.440104],[0.255708,0.744292],[1.0,0.0],[0.142105,0.857895],[0.052326,0.947674],[0.018182,0.981818],[0.06,0.94],[0.022222,0.977778],[0.2,0.8],[0.0,1.0],[0.4,0.6],[0.0,1.0],[0.857143,0.142857],[1.0,0.0],[0.963636,0.036364],[1.0,0.0],[0.8,0.2],[0.4,0.6],[1.0,0.0]]},{"feature":[13,10,10,1,-2,-2,-2,-2,10,-2,9,-2,4,-2,0,1,-2,13,-2,-2,-2],"threshold":[174.294983,-173.920036,-175.405243,170.536163,-2.0,-2.0,-2.0,-2.0,-176.106728,-2.0,95.659786,-2.0,161.960503,-2.0,-99.323605,165.463089,-2.0,176.788231,-2.0,-2.0,-2.0],"children_left":[1,2,3,4,-1,-1,-1,-1,9,-1,11,-1,13,-1,15,16,-1,18,-1,-1,-1],"children_right":[8,7,6,5,-1,-1,-1,-1,10,-1,12,-1,14,-1,20,17,-1,19,-1,-1,-1],"value":[[0.481771,0.518229],[0.97351,0.02649],[0.846154,0.153846],[0.947368,0.052632],[1.0,0.0],[0.8,0.2],[0.571429,0.428571],[1.0,0.0],[0.16309,0.83691],[1.0,0.0],[0.097222,0.902778],[1.0,0.0],[0.034653,0.965347],[0.8,0.2],[0.015228,0.984772],[0.005181,0.994819],[0.0,1.0],[0.035714,0.964286],[0.166667,0.833333],[0.0,1.0],[0.5,0.5]]},{"feature":[5,3,7,11,1,2,-2,-2,11,-2,-2,-2,9,-2,5,-2,-2,-2,-2],"threshold":[-162.386719,33.771719,-174.050316,177.618401,175.034538,-60.70673,-2.0,-2.0,170.454865,-2.0,-2.0,-2.0,100.214794,-2.0,-172.895401,-2.0,-2.0,-2.0,-2.0],"children_left":[1,2,3,4,5,6,-1,-1,9,-1,-1,-1,13,-1,15,-1,-1,-1,-1],"children_right":[18,17,12,11,8,7,-1,-1,10,-1,-1,-1,14,-1,16,-1,-1,-1,-1],"value":[[0.484375,0.515625],[0.277372,0.722628],[0.191837,0.808163],[0.084112,0.915888],[0.043902,0.956098],[0.005155,0.994845],[0.2,0.8],[0.0,1.0],[0.727273,0.272727],[1.0,0.0],[0.5,0.5],[1.0,0.0],[0.935484,0.064516],[1.0,0.0],[0.846154,0.153846],[1.0,0.0],[0.75,0.25],[1.0,0.0],[1.0,0.0]]},{"feature":[6,7,6,-2,0,-2,-2,-2,8,3,9,-2,-2,-2,-2],"threshold":[172.610603,-172.340538,-179.384468,-2.0,-131.508919,-2.0,-2.0,-2.0,-97.195358,38.852945,101.239487,-2.0,-2.0,-2.0,-2.0],"children_left":[1,2,3,-1,5,-1,-1,-1,9,10,11,-1,-1,-1,-1],"children_right":[8,7,4,-1,6,-1,-1,-1,14,13,12,-1,-1,-1,-1],"value":[[0.479167,0.520833],[0.813187,0.186813],[0.26087,0.73913],[0.0,1.0],[0.6,0.4],[0.111111,0.888889],[1.0,0.0],[1.0,0.0],[0.178218,0.821782],[0.056818,0.943182],[0.011905,0.988095],[0.285714,0.714286],[0.0,1.0],[1.0,0.0],[1.0,0.0]]},{"feature":[8,13,13,-2,-2,11,9,-2,11,-2,-2,-2,-2],"threshold":[-97.354954,167.772919,-178.52581,-2.0,-2.0,176.762451,97.346123,-2.0,160.996826,-2.0,-2.0,-2.0,-2.0],"children_left":[1,2,3,-1,-1,6,7,-1,9,-1,-1,-1,-1],"children_right":[12,5,4,-1,-1,11,8,-1,10,-1,-1,-1,-1],"value":[[0.486979,0.513021],[0.273063,0.726937],[0.953846,0.046154],[0.5,0.5],[1.0,0.0],[0.058252,0.941748],[0.025381,0.974619],[0.6,0.4],[0.010417,0.989583],[0.5,0.5],[0.0,1.0],[0.777778,0.222222],[1.0,0.0]]},{"feature":[13,6,-2,3,-2,-2,1,-2,10,-2,1,2,8,-2,-2,-2,1,-2,-2],"threshold":[172.900665,177.153748,-2.0,32.802172,-2.0,-2.0,33.127935,-2.0,-175.981125,-2.0,175.034538,-12.172391,-98.612415,-2.0,-2.0,-2.0,176.413757,-2.0,-2.0],"children_left":[1,2,-1,4,-1,-1,7,-1,9,-1,11,12,13,-1,-1,-1,17,-1,-1],"children_right":[6,3,-1,5,-1,-1,8,-1,10,-1,16,15,14,-1,-1,-1,18,-1,-1],"value":[[0.494792,0.505208],[0.967532,0.032468],[1.0,0.0],[0.615385,0.384615],[0.166667,0.833333],[1.0,0.0],[0.178261,0.821739],[1.0,0.0],[0.108491,0.891509],[1.0,0.0],[0.068966,0.931034],[0.020942,0.979058],[0.010695,0.989305],[0.0,1.0],[0.285714,0.714286],[0.5,0.5],[0.833333,0.166667],[0.666667,0.333333],[1.0,0.0]]},{"feature":[6,0,7,11,-2,-2,-2,13,13,-2,-2,1,-2,-2,3,7,8,0,3,-2,-2,-2,12,-2,-2,12,-2,-2,-2],"threshold":[172.6576,-171.971756,-163.755867,160.946281,-2.0,-2.0,-2.0,177.136978,-178.552155,-2.0,-2.0,170.489975,-2.0,-2.0,33.095297,-174.154434,-99.656967,-172.800735,26.120899,-2.0,-2.0,-2.0,-179.201996,-2.0,-2.0,-176.81115,-2.0,-2.0,-2.0],"children_left":[1,2,3,4,-1,-1,-1,8,9,-1,-1,12,-1,-1,15,16,17,18,19,-1,-1,-1,23,-1,-1,26,-1,-1,-1],"children_right":[14,7,6,5,-1,-1,-1,11,10,-1,-1,13,-1,-1,28,25,22,21,20,-1,-1,-1,24,-1,-1,27,-1,-1,-1],"value":[[0.520833,0.479167],[0.828125,0.171875],[0.369565,0.630435],[0.09375,0.90625],[0.5,0.5],[0.0,1.0],[1.0,0.0],[0.972603,0.027397],[0.992248,0.007752],[0.833333,0.166667],[1.0,0.0],[0.823529,0.176471],[0.571429,0.428571],[1.0,0.0],[0.213542,0.786458],[0.132184,0.867816],[0.033113,0.966887],[0.007353,0.992647],[0.034483,0.965517],[0.2,0.8],[0.0,1.0],[0.0,1.0],[0.266667,0.733333],[0.0,1.0],[0.8,0.2],[0.782609,0.217391],[0.166667,0.833333],[1.0,0.0],[1.0,0.0]]},{"feature":[9,5,11,-2,-2,-2,9,13,7,-2,-2,1,-2,4,1,-2,3,-2,-2,-2,6,-2,-2],"threshold":[101.174171,-174.653297,175.594032,-2.0,-2.0,-2.0,116.34502,154.527489,177.181946,-2.0,-2.0,126.128635,-2.0,175.666946,165.5923,-2.0,12.050095,-2.0,-2.0,-2.0,173.21328,-2.0,-2.0],"children_left":[1,2,3,-1,-1,-1,7,8,9,-1,-1,12,-1,14,15,-1,17,-1,-1,-1,21,-1,-1],"children_right":[6,5,4,-1,-1,-1,20,11,10,-1,-1,13,-1,19,16,-1,18,-1,-1,-1,22,-1,-1],"value":[[0.476562,0.523438],[0.969388,0.030612],[0.90625,0.09375],[0.4,0.6],[1.0,0.0],[1.0,0.0],[0.307692,0.692308],[0.133333,0.866667],[0.851852,0.148148],[1.0,0.0],[0.2,0.8],[0.035354,0.964646],[0.75,0.25],[0.020619,0.979381],[0.005348,0.994652],[0.0,1.0],[0.027778,0.972222],[0.0,1.0],[0.166667,0.833333],[0.428571,0.571429],[0.95082,0.04918],[1.0,0.0],[0.571429,0.428571]]},{"feature":[11,-2,8,11,0,9,-2,-2,13,-2,-2,10,-2,-2,-2],"threshold":[159.982903,-2.0,-97.210773,176.342758,-174.56382,102.094727,-2.0,-2.0,21.795349,-2.0,-2.0,-172.47448,-2.0,-2.0,-2.0],"children_left":[1,-1,3,4,5,6,-1,-1,9,-1,-1,12,-1,-1,-1],"children_right":[2,-1,14,11,8,7,-1,-1,10,-1,-1,13,-1,-1,-1],"value":[[0.5,0.5],[1.0,0.0],[0.321555,0.678445],[0.165217,0.834783],[0.059701,0.940299],[0.352941,0.647059],[1.0,0.0],[0.0,1.0],[0.032609,0.967391],[0.666667,0.333333],[0.0,1.0],[0.896552,0.103448],[1.0,0.0],[0.666667,0.333333],[1.0,0.0]]},{"feature":[4,-2,8,4,5,1,7,-2,-2,-2,-2,-2,-2],"threshold":[160.78611,-2.0,-96.720039,176.278641,-157.105232,174.66655,-174.281906,-2.0,-2.0,-2.0,-2.0,-2.0,-2.0],"children_left":[1,-1,3,4,5,6,7,-1,-1,-1,-1,-1,-1],"children_right":[2,-1,12,11,10,9,8,-1,-1,-1,-1,-1,-1],"value":[[0.510417,0.489583],[1.0,0.0],[0.282443,0.717557],[0.149321,0.850679],[0.091787,0.908213],[0.030928,0.969072],[0.005464,0.994536],[0.0,1.0],[0.25,0.75],[0.454545,0.545455],[1.0,0.0],[1.0,0.0],[1.0,0.0]]},{"feature":[13,12,6,-2,-2,-2,0,9,9,-2,-2,4,-2,-2,-2],"threshold":[174.294983,-177.333817,178.442589,-2.0,-2.0,-2.0,6.685154,100.408833,95.486214,-2.0,-2.0,176.440346,-2.0,-2.0,-2.0],"children_left":[1,2,3,-1,-1,-1,7,8,9,-1,-1,12,-1,-1,-1],"children_right":[6,5,4,-1,-1,-1,14,11,10,-1,-1,13,-1,-1,-1],"value":[[0.520833,0.479167],[0.981818,0.018182],[0.75,0.25],[0.5,0.5],[1.0,0.0],[1.0,0.0],[0.173516,0.826484],[0.117073,0.882927],[0.869565,0.130435],[1.0,0.0],[0.625,0.375],[0.021978,0.978022],[0.0,1.0],[1.0,0.0],[1.0,0.0]]},{"feature":[7,9,-2,11,4,-2,8,-2,-2,7,-2,-2,12,-2,6,-2,-2],"threshold":[-174.080605,95.806969,-2.0,176.762451,140.298336,-2.0,-98.332806,-2.0,-2.0,-179.150452,-2.0,-2.0,173.105286,-2.0,-177.374214,-2.0,-2.0],"children_left":[1,2,-1,4,5,-1,7,-1,-1,10,-1,-1,13,-1,15,-1,-1],"children_right":[12,3,-1,9,6,-1,8,-1,-1,11,-1,-1,14,-1,16,-1,-1],"value":[[0.484375,0.515625],[0.212,0.788],[1.0,0.0],[0.09633,0.90367],[0.044118,0.955882],[1.0,0.0],[0.020101,0.979899],[0.0,1.0],[0.666667,0.333333],[0.857143,0.142857],[0.666667,0.333333],[1.0,0.0],[0.992537,0.007463],[1.0,0.0],[0.952381,0.047619],[1.0,0.0],[0.8,0.2]]},{"feature":[6,12,10,1,-2,0,-2,13,-2,-2,-2,0,-2,-2,11,8,2,-2,-2,-2,-2],"threshold":[172.6576,179.661659,-164.094887,73.805878,-2.0,-172.676468,-2.0,176.96209,-2.0,-2.0,-2.0,-172.825356,-2.0,-2.0,176.848289,-97.195358,-11.743725,-2.0,-2.0,-2.0,-2.0],"children_left":[1,2,3,4,-1,6,-1,8,-1,-1,-1,12,-1,-1,15,16,17,-1,-1,-1,-1],"children_right":[14,11,10,5,-1,7,-1,9,-1,-1,-1,13,-1,-1,20,19,18,-1,-1,-1,-1],"value":[[0.510417,0.489583],[0.814815,0.185185],[0.932927,0.067073],[0.78,0.22],[1.0,0.0],[0.633333,0.366667],[0.125,0.875],[0.818182,0.181818],[1.0,0.0],[0.428571,0.571429],[1.0,0.0],[0.04,0.96],[0.0,1.0],[0.25,0.75],[0.215385,0.784615],[0.154696,0.845304],[0.055556,0.944444],[0.0,1.0],[1.0,0.0],[1.0,0.0],[1.0,0.0]]},{"feature":[13,6,1,-2,3,-2,-2,10,-2,-2,9,-2,0,4,0,-2,-2,-2,-2],"threshold":[174.080605,177.333817,175.866135,-2.0,9.161293,-2.0,-2.0,-175.971893,-2.0,-2.0,95.806969,-2.0,-40.343801,176.360008,-175.642487,-2.0,-2.0,-2.0,-2.0],"children_left":[1,2,3,-1,5,-1,-1,8,-1,-1,11,-1,13,14,15,-1,-1,-1,-1],"children_right":[10,7,4,-1,6,-1,-1,9,-1,-1,12,-1,18,17,16,-1,-1,-1,-1],"value":[[0.473958,0.526042],[0.964286,0.035714],[0.992188,0.007812],[1.0,0.0],[0.941176,0.058824],[0.8,0.2],[1.0,0.0],[0.666667,0.333333],[1.0,0.0],[0.333333,0.666667],[0.192623,0.807377],[1.0,0.0],[0.079439,0.920561],[0.048309,0.951691],[0.005051,0.994949],[0.2,0.8],[0.0,1.0],[1.0,0.0],[1.0,0.0]]},{"feature":[13,6,-2,13,-2,-2,0,4,8,13,9,-2,-2,-2,-2,-2,-2],"threshold":[174.050316,177.2192,-2.0,-178.787735,-2.0,-2.0,-38.877683,176.372719,-96.341118,179.265244,98.110973,-2.0,-2.0,-2.0,-2.0,-2.0,-2.0],"children_left":[1,2,-1,4,-1,-1,7,8,9,10,11,-1,-1,-1,-1,-1,-1],"children_right":[6,3,-1,5,-1,-1,16,15,14,13,12,-1,-1,-1,-1,-1,-1],"value":[[0.471354,0.528646],[0.972603,0.027397],[1.0,0.0],[0.636364,0.363636],[0.2,0.8],[1.0,0.0],[0.163866,0.836134],[0.099548,0.900452],[0.047847,0.952153],[0.019704,0.980296],[0.010101,0.989899],[0.5,0.5],[0.0,1.0],[0.4,0.6],[1.0,0.0],[1.0,0.0],[1.0,0.0]]},{"feature":[10,10,6,-2,-2,13,3,3,-2,-2,-2,2,13,10,5,-2,-2,-2,-2,8,-2,-2,-2],"threshold":[-159.669579,-175.655174,178.718384,-2.0,-2.0,174.294983,32.558107,19.521306,-2.0,-2.0,-2.0,-11.676131,179.067711,-174.94323,-164.586304,-2.0,-2.0,-2.0,-2.0,-99.34819,-2.0,-2.0,-2.0],"children_left":[1,2,3,-1,-1,6,7,8,-1,-1,-1,12,13,14,15,-1,-1,-1,-1,20,-1,-1,-1],"children_right":[22,5,4,-1,-1,11,10,9,-1,-1,-1,19,18,17,16,-1,-1,-1,-1,21,-1,-1,-1],"value":[[0.473958,0.526042],[0.268116,0.731884],[0.970588,0.029412],[1.0,0.0],[0.8,0.2],[0.169421,0.830579],[0.733333,0.266667],[0.578947,0.421053],[1.0,0.0],[0.2,0.8],[1.0,0.0],[0.089623,0.910377],[0.010309,0.989691],[0.005319,0.994681],[0.027027,0.972973],[0.166667,0.833333],[0.0,1.0],[0.0,1.0],[0.166667,0.833333],[0.944444,0.055556],[1.0,0.0],[0.833333,0.166667],[1.0,0.0]]},{"feature":[7,0,4,8,5,11,3,-2,13,-2,6,-2,-2,-2,-2,-2,-2,-2,13,9,-2,-2,-2],"threshold":[-174.050316,-40.343801,176.360008,-96.500713,-163.040352,167.041145,20.773482,-2.0,177.413788,-2.0,178.412331,-2.0,-2.0,-2.0,-2.0,-2.0,-2.0,-2.0,-178.587952,99.497807,-2.0,-2.0,-2.0],"children_left":[1,2,3,4,5,6,7,-1,9,-1,11,-1,-1,-1,-1,-1,-1,-1,19,20,-1,-1,-1],"children_right":[18,17,16,15,14,13,8,-1,10,-1,12,-1,-1,-1,-1,-1,-1,-1,22,21,-1,-1,-1],"value":[[0.515625,0.484375],[0.20524,0.79476],[0.116505,0.883495],[0.061856,0.938144],[0.037037,0.962963],[0.021978,0.978022],[0.040404,0.959596],[0.375,0.625],[0.010989,0.989011],[0.0,1.0],[0.04,0.96],[0.2,0.8],[0.0,1.0],[0.0,1.0],[0.428571,0.571429],[1.0,0.0],[1.0,0.0],[1.0,0.0],[0.974194,0.025806],[0.733333,0.266667],[1.0,0.0],[0.5,0.5],[1.0,0.0]]},{"feature":[7,4,4,-2,4,2,2,-2,-2,12,-2,-2,-2,-2,7,-2,-2],"threshold":[-174.080605,176.352203,162.603645,-2.0,173.430847,-24.532212,-62.99066,-2.0,-2.0,-177.340759,-2.0,-2.0,-2.0,-2.0,179.261139,-2.0,-2.0],"children_left":[1,2,3,-1,5,6,7,-1,-1,10,-1,-1,-1,-1,15,-1,-1],"children_right":[14,13,4,-1,12,9,8,-1,-1,11,-1,-1,-1,-1,16,-1,-1],"value":[[0.486979,0.513021],[0.157205,0.842795],[0.102326,0.897674],[1.0,0.0],[0.072115,0.927885],[0.122951,0.877049],[0.028571,0.971429],[0.5,0.5],[0.0,1.0],[0.705882,0.294118],[0.166667,0.833333],[1.0,0.0],[0.0,1.0],[1.0,0.0],[0.974194,0.025806],[1.0,0.0],[0.5,0.5]]},{"feature":[13,12,12,-2,-2,-2,1,-2,2,11,9,-2,2,-2,-2,-2,-2],"threshold":[174.083984,-177.2192,-178.442589,-2.0,-2.0,-2.0,122.785019,-2.0,-11.160066,177.618401,95.830296,-2.0,-61.015957,-2.0,-2.0,-2.0,-2.0],"children_left":[1,2,3,-1,-1,-1,7,-1,9,10,11,-1,13,-1,-1,-1,-1],"children_right":[6,5,4,-1,-1,-1,8,-1,16,15,12,-1,14,-1,-1,-1,-1],"value":[[0.505208,0.494792],[0.975,0.025],[0.714286,0.285714],[1.0,0.0],[0.428571,0.571429],[1.0,0.0],[0.169643,0.830357],[1.0,0.0],[0.097087,0.902913],[0.05102,0.94898],[0.021053,0.978947],[0.6,0.4],[0.005405,0.994595],[0.166667,0.833333],[0.0,1.0],[1.0,0.0],[1.0,0.0]]},{"feature":[7,9,-2,8,10,-2,4,-2,-2,-2,6,-2,-2],"threshold":[-174.080605,95.659786,-2.0,-95.577591,-175.612778,-2.0,162.870155,-2.0,-2.0,-2.0,176.123589,-2.0,-2.0],"children_left":[1,2,-1,4,5,-1,7,-1,-1,-1,11,-1,-1],"children_right":[10,3,-1,9,6,-1,8,-1,-1,-1,12,-1,-1],"value":[[0.455729,0.544271],[0.122363,0.877637],[1.0,0.0],[0.041475,0.958525],[0.018868,0.981132],[0.5,0.5],[0.004854,0.995146],[0.166667,0.833333],[0.0,1.0],[1.0,0.0],[0.993197,0.006803],[1.0,0.0],[0.833333,0.166667]]},{"feature":[11,-2,7,9,-2,13,1,-2,-2,4,-2,-2,0,-2,0,-2,-2],"threshold":[160.123894,-2.0,-173.191414,95.659786,-2.0,179.042099,175.018517,-2.0,-2.0,175.842888,-2.0,-2.0,-173.639778,-2.0,-171.524399,-2.0,-2.0],"children_left":[1,-1,3,4,-1,6,7,-1,-1,10,-1,-1,13,-1,15,-1,-1],"children_right":[2,-1,12,5,-1,9,8,-1,-1,11,-1,-1,14,-1,16,-1,-1],"value":[[0.502604,0.497396],[1.0,0.0],[0.31295,0.68705],[0.164444,0.835556],[1.0,0.0],[0.064677,0.935323],[0.016043,0.983957],[0.0,1.0],[0.5,0.5],[0.714286,0.285714],[0.5,0.5],[1.0,0.0],[0.943396,0.056604],[0.6,0.4],[0.979167,0.020833],[0.833333,0.166667],[1.0,0.0]]},{"feature":[4,6,-2,-2,3,9,7,-2,-2,13,13,-2,-2,13,7,1,-2,-2,11,-2,-2,11,-2,-2,-2],"threshold":[162.966652,176.803314,-2.0,-2.0,33.087183,97.420277,-175.111366,-2.0,-2.0,31.319393,-178.378105,-2.0,-2.0,179.119209,-178.281311,169.647079,-2.0,-2.0,175.654785,-2.0,-2.0,177.422928,-2.0,-2.0,-2.0],"children_left":[1,2,-1,-1,5,6,7,-1,-1,10,11,-1,-1,14,15,16,-1,-1,19,-1,-1,22,-1,-1,-1],"children_right":[4,3,-1,-1,24,9,8,-1,-1,13,12,-1,-1,21,18,17,-1,-1,20,-1,-1,23,-1,-1,-1],"value":[[0.557292,0.442708],[0.986301,0.013699],[1.0,0.0],[0.666667,0.333333],[0.294118,0.705882],[0.207547,0.792453],[0.952381,0.047619],[0.8,0.2],[1.0,0.0],[0.125654,0.874346],[0.666667,0.333333],[0.25,0.75],[1.0,0.0],[0.069364,0.930636],[0.026144,0.973856],[0.130435,0.869565],[0.0,1.0],[0.5,0.5],[0.007692,0.992308],[0.0,1.0],[0.25,0.75],[0.4,0.6],[0.272727,0.727273],[0.555556,0.444444],[1.0,0.0]]},{"feature":[7,2,1,-2,8,9,12,-2,-2,-2,-2,5,-2,-2,6,-2,11,-2,-2],"threshold":[-174.080605,-11.676131,34.717463,-2.0,-61.851822,105.131077,-173.531883,-2.0,-2.0,-2.0,-2.0,-164.331963,-2.0,-2.0,177.153748,-2.0,177.661873,-2.0,-2.0],"children_left":[1,2,3,-1,5,6,7,-1,-1,-1,-1,12,-1,-1,15,-1,17,-1,-1],"children_right":[14,11,4,-1,10,9,8,-1,-1,-1,-1,13,-1,-1,16,-1,18,-1,-1],"value":[[0.453125,0.546875],[0.133333,0.866667],[0.071749,0.928251],[1.0,0.0],[0.023585,0.976415],[0.004808,0.995192],[0.025,0.975],[0.0,1.0],[0.166667,0.833333],[0.0,1.0],[1.0,0.0],[0.941176,0.058824],[1.0,0.0],[0.75,0.25],[0.986111,0.013889],[1.0,0.0],[0.846154,0.153846],[0.5,0.5],[1.0,0.0]]},{"feature":[12,2,-2,7,0,5,-2,-2,0,12,-2,-2,-2,8,7,-2,-2,-2,13,-2,7,12,-2,-2,3,-2,-2],"threshold":[-172.6576,-80.712223,-2.0,-174.934937,-173.763733,-165.941109,-2.0,-2.0,-172.556046,-179.216522,-2.0,-2.0,-2.0,-97.720284,-174.683876,-2.0,-2.0,-2.0,172.126747,-2.0,-176.618935,173.876961,-2.0,-2.0,27.307385,-2.0,-2.0],"children_left":[1,2,-1,4,5,6,-1,-1,9,10,-1,-1,-1,14,15,-1,-1,-1,19,-1,21,22,-1,-1,25,-1,-1],"children_right":[18,3,-1,13,8,7,-1,-1,12,11,-1,-1,-1,17,16,-1,-1,-1,20,-1,24,23,-1,-1,26,-1,-1],"value":[[0.458333,0.541667],[0.176991,0.823009],[1.0,0.0],[0.065327,0.934673],[0.022346,0.977654],[0.111111,0.888889],[0.5,0.5],[0.0,1.0],[0.006579,0.993421],[0.043478,0.956522],[0.0,1.0],[0.166667,0.833333],[0.0,1.0],[0.45,0.55],[0.153846,0.846154],[0.5,0.5],[0.0,1.0],[1.0,0.0],[0.860759,0.139241],[1.0,0.0],[0.511111,0.488889],[0.952381,0.047619],[0.875,0.125],[1.0,0.0],[0.125,0.875],[0.6,0.4],[0.0,1.0]]},{"feature":[13,12,2,-2,-2,0,2,-2,-2,-2,9,-2,13,11,11,-2,-2,-2,-2],"threshold":[174.114273,-177.2192,-55.378315,-2.0,-2.0,-158.401985,-21.680637,-2.0,-2.0,-2.0,95.486214,-2.0,179.532913,176.389145,160.771263,-2.0,-2.0,-2.0,-2.0],"children_left":[1,2,3,-1,-1,6,7,-1,-1,-1,11,-1,13,14,15,-1,-1,-1,-1],"children_right":[10,5,4,-1,-1,9,8,-1,-1,-1,12,-1,18,17,16,-1,-1,-1,-1],"value":[[0.505208,0.494792],[0.973684,0.026316],[0.769231,0.230769],[1.0,0.0],[0.571429,0.428571],[0.992806,0.007194],[0.973684,0.026316],[0.875,0.125],[1.0,0.0],[1.0,0.0],[0.198276,0.801724],[1.0,0.0],[0.060606,0.939394],[0.036649,0.963351],[0.010989,0.989011],[0.5,0.5],[0.0,1.0],[0.555556,0.444444],[0.714286,0.285714]]},{"feature":[13,7,13,-2,-2,2,-2,-2,11,9,8,-2,-2,9,-2,-2,8,-2,-2],"threshold":[174.294983,178.587631,173.818817,-2.0,-2.0,-36.765962,-2.0,-2.0,176.389145,96.980793,-94.910278,-2.0,-2.0,118.374855,-2.0,-2.0,-112.981014,-2.0,-2.0],"children_left":[1,2,3,-1,-1,6,-1,-1,9,10,11,-1,-1,14,-1,-1,17,-1,-1],"children_right":[8,5,4,-1,-1,7,-1,-1,16,13,12,-1,-1,15,-1,-1,18,-1,-1],"value":[[0.489583,0.510417],[0.981013,0.018987],[0.993103,0.006897],[1.0,0.0],[0.875,0.125],[0.846154,0.153846],[1.0,0.0],[0.6,0.4],[0.146018,0.853982],[0.086538,0.913462],[0.923077,0.076923],[0.75,0.25],[1.0,0.0],[0.030769,0.969231],[0.0,1.0],[0.75,0.25],[0.833333,0.166667],[0.4,0.6],[1.0,0.0]]},{"feature":[5,10,3,-2,-2,9,-2,13,8,-2,-2,0,-2,-2,-2],"threshold":[-162.386719,-175.821289,9.922025,-2.0,-2.0,98.248913,-2.0,44.524548,-16.711681,-2.0,-2.0,-100.525352,-2.0,-2.0,-2.0],"children_left":[1,2,3,-1,-1,6,-1,8,9,-1,-1,12,-1,-1,-1],"children_right":[14,5,4,-1,-1,7,-1,11,10,-1,-1,13,-1,-1,-1],"value":[[0.46875,0.53125],[0.247232,0.752768],[0.933333,0.066667],[0.666667,0.333333],[1.0,0.0],[0.161826,0.838174],[1.0,0.0],[0.069124,0.930876],[0.928571,0.071429],[0.8,0.2],[1.0,0.0],[0.009852,0.990148],[0.0,1.0],[0.5,0.5],[1.0,0.0]]},{"feature":[13,13,-2,0,6,-2,-2,-2,8,10,-2,9,-2,10,-2,-2,-2],"threshold":[174.416534,-179.180664,-2.0,-174.210342,40.93051,-2.0,-2.0,-2.0,-97.354954,-176.020683,-2.0,95.486214,-2.0,-160.226891,-2.0,-2.0,-2.0],"children_left":[1,2,-1,4,5,-1,-1,-1,9,10,-1,12,-1,14,-1,-1,-1],"children_right":[8,3,-1,7,6,-1,-1,-1,16,11,-1,13,-1,15,-1,-1,-1],"value":[[0.502604,0.497396],[0.987421,0.012579],[0.8,0.2],[0.993506,0.006494],[0.928571,0.071429],[0.75,0.25],[1.0,0.0],[1.0,0.0],[0.16,0.84],[0.073529,0.926471],[1.0,0.0],[0.040609,0.959391],[1.0,0.0],[0.005263,0.994737],[0.0,1.0],[0.2,0.8],[1.0,0.0]]},{"feature":[9,1,-2,8,-2,-2,8,5,3,12,8,10,-2,-2,-2,2,-2,-2,-2,-2,-2],"threshold":[98.391098,167.967606,-2.0,-100.098782,-2.0,-2.0,-95.068581,-157.105232,36.153923,170.290787,-117.751221,-162.472015,-2.0,-2.0,-2.0,-19.049294,-2.0,-2.0,-2.0,-2.0,-2.0],"children_left":[1,2,-1,4,-1,-1,7,8,9,10,11,12,-1,-1,-1,16,-1,-1,-1,-1,-1],"children_right":[6,3,-1,5,-1,-1,20,19,18,15,14,13,-1,-1,-1,17,-1,-1,-1,-1,-1],"value":[[0.53125,0.46875],[0.974359,0.025641],[1.0,0.0],[0.892857,0.107143],[0.5,0.5],[1.0,0.0],[0.337079,0.662921],[0.180556,0.819444],[0.078125,0.921875],[0.043243,0.956757],[0.013158,0.986842],[0.066667,0.933333],[0.333333,0.666667],[0.0,1.0],[0.0,1.0],[0.181818,0.818182],[0.857143,0.142857],[0.0,1.0],[1.0,0.0],[1.0,0.0],[1.0,0.0]]},{"feature":[7,4,10,2,8,-2,-2,-2,-2,-2,7,12,4,-2,2,-2,-2,-2,-2],"threshold":[-174.294983,176.360008,-158.081772,-11.656701,-97.195358,-2.0,-2.0,-2.0,-2.0,-2.0,179.460899,179.691505,174.190132,-2.0,-20.81685,-2.0,-2.0,-2.0,-2.0],"children_left":[1,2,3,4,5,-1,-1,-1,-1,-1,11,12,13,-1,15,-1,-1,-1,-1],"children_right":[10,9,8,7,6,-1,-1,-1,-1,-1,18,17,14,-1,16,-1,-1,-1,-1],"value":[[0.471354,0.528646],[0.146552,0.853448],[0.091743,0.908257],[0.057143,0.942857],[0.024631,0.975369],[0.0,1.0],[1.0,0.0],[1.0,0.0],[1.0,0.0],[1.0,0.0],[0.967105,0.032895],[0.97973,0.02027],[0.992958,0.007042],[1.0,0.0],[0.933333,0.066667],[0.8,0.2],[1.0,0.0],[0.666667,0.333333],[0.5,0.5]]},{"feature":[1,-2,13,6,-2,-2,1,9,8,-2,-2,7,13,-2,-2,-2,2,2,-2,-2,-2],"threshold":[123.535252,-2.0,174.050316,176.434387,-2.0,-2.0,172.648987,112.660324,-98.784252,-2.0,-2.0,-175.732796,177.430885,-2.0,-2.0,-2.0,-35.939764,-51.070503,-2.0,-2.0,-2.0],"children_left":[1,-1,3,4,-1,-1,7,8,9,-1,-1,12,13,-1,-1,-1,17,18,-1,-1,-1],"children_right":[2,-1,6,5,-1,-1,16,11,10,-1,-1,15,14,-1,-1,-1,20,19,-1,-1,-1],"value":[[0.486979,0.513021],[1.0,0.0],[0.296429,0.703571],[0.953125,0.046875],[1.0,0.0],[0.4,0.6],[0.101852,0.898148],[0.025641,0.974359],[0.00578,0.99422],[0.0,1.0],[0.2,0.8],[0.181818,0.818182],[0.117647,0.882353],[0.0,1.0],[0.285714,0.714286],[0.4,0.6],[0.809524,0.190476],[0.5,0.5],[0.75,0.25],[0.25,0.75],[1.0,0.0]]},{"feature":[13,7,12,-2,-2,12,-2,-2,8,5,4,-2,-2,3,13,5,-2,-2,1,-2,-2,-2,-2],"threshold":[174.294983,178.587952,179.497101,-2.0,-2.0,176.003395,-2.0,-2.0,-97.548943,-177.514702,176.738281,-2.0,-2.0,36.153923,175.523293,-164.312851,-2.0,-2.0,173.001404,-2.0,-2.0,-2.0,-2.0],"children_left":[1,2,3,-1,-1,6,-1,-1,9,10,11,-1,-1,14,15,16,-1,-1,19,-1,-1,-1,-1],"children_right":[8,5,4,-1,-1,7,-1,-1,22,13,12,-1,-1,21,18,17,-1,-1,20,-1,-1,-1,-1],"value":[[0.497396,0.502604],[0.947368,0.052632],[0.992754,0.007246],[1.0,0.0],[0.875,0.125],[0.5,0.5],[0.125,0.875],[1.0,0.0],[0.202586,0.797414],[0.10628,0.89372],[0.769231,0.230769],[0.5,0.5],[1.0,0.0],[0.061856,0.938144],[0.026738,0.973262],[0.137931,0.862069],[0.666667,0.333333],[0.0,1.0],[0.006329,0.993671],[0.0,1.0],[0.125,0.875],[1.0,0.0],[1.0,0.0]]},{"feature":[5,0,8,0,5,-2,9,-2,-2,-2,5,-2,-2,-2,-2],"threshold":[-162.386719,1.140984,-98.420708,-128.473755,-176.326607,-2.0,95.662167,-2.0,-2.0,-2.0,-167.463852,-2.0,-2.0,-2.0,-2.0],"children_left":[1,2,3,4,5,-1,7,-1,-1,-1,11,-1,-1,-1,-1],"children_right":[14,13,10,9,6,-1,8,-1,-1,-1,12,-1,-1,-1,-1],"value":[[0.453125,0.546875],[0.260563,0.739437],[0.198473,0.801527],[0.063063,0.936937],[0.10687,0.89313],[1.0,0.0],[0.056452,0.943548],[1.0,0.0],[0.0,1.0],[0.0,1.0],[0.95,0.05],[1.0,0.0],[0.714286,0.285714],[1.0,0.0],[1.0,0.0]]},{"feature":[10,4,0,5,2,11,7,-2,-2,12,-2,-2,1,-2,-2,-2,-2,-2,-2],"threshold":[-159.513947,176.339493,-30.600836,-162.386719,-11.778759,176.281219,2.206833,-2.0,-2.0,-154.01281,-2.0,-2.0,147.267502,-2.0,-2.0,-2.0,-2.0,-2.0,-2.0],"children_left":[1,2,3,4,5,6,7,-1,-1,10,-1,-1,13,-1,-1,-1,-1,-1,-1],"children_right":[18,17,16,15,12,9,8,-1,-1,11,-1,-1,14,-1,-1,-1,-1,-1,-1],"value":[[0.453125,0.546875],[0.23913,0.76087],[0.179688,0.820312],[0.128631,0.871369],[0.090909,0.909091],[0.036866,0.963134],[0.004926,0.995074],[0.0,1.0],[0.25,0.75],[0.5,0.5],[0.0,1.0],[1.0,0.0],[0.928571,0.071429],[0.833333,0.166667],[1.0,0.0],[1.0,0.0],[1.0,0.0],[1.0,0.0],[1.0,0.0]]},{"feature":[1,-2,8,9,9,-2,-2,7,13,13,-2,10,-2,-2,-2,8,-2,-2,-2],"threshold":[121.574417,-2.0,-97.210773,101.174171,95.402805,-2.0,-2.0,-66.742142,179.213814,178.44931,-2.0,-174.557243,-2.0,-2.0,-2.0,-104.881721,-2.0,-2.0,-2.0],"children_left":[1,-1,3,4,5,-1,-1,8,9,10,-1,12,-1,-1,-1,16,-1,-1,-1],"children_right":[2,-1,18,7,6,-1,-1,15,14,11,-1,13,-1,-1,-1,17,-1,-1,-1],"value":[[0.484375,0.515625],[1.0,0.0],[0.272059,0.727941],[0.146552,0.853448],[0.84,0.16],[1.0,0.0],[0.555556,0.444444],[0.062802,0.937198],[0.015957,0.984043],[0.005464,0.994536],[0.0,1.0],[0.038462,0.961538],[0.2,0.8],[0.0,1.0],[0.4,0.6],[0.526316,0.473684],[1.0,0.0],[0.0,1.0],[1.0,0.0]]},{"feature":[12,1,-2,0,3,-2,-2,10,-2,9,-2,-2,13,10,-2,-2,5,11,8,-2,-2,-2,-2],"threshold":[-172.6576,120.925766,-2.0,-174.403221,19.382347,-2.0,-2.0,-175.724495,-2.0,99.766693,-2.0,-2.0,172.804138,-177.640762,-2.0,-2.0,-163.089996,175.439735,-99.068859,-2.0,-2.0,-2.0,-2.0],"children_left":[1,2,-1,4,5,-1,-1,8,-1,10,-1,-1,13,14,-1,-1,17,18,19,-1,-1,-1,-1],"children_right":[12,3,-1,7,6,-1,-1,9,-1,11,-1,-1,16,15,-1,-1,22,21,20,-1,-1,-1,-1],"value":[[0.479167,0.520833],[0.215247,0.784753],[1.0,0.0],[0.116162,0.883838],[0.666667,0.333333],[1.0,0.0],[0.181818,0.818182],[0.02924,0.97076],[0.8,0.2],[0.006024,0.993976],[0.2,0.8],[0.0,1.0],[0.84472,0.15528],[0.974576,0.025424],[0.727273,0.272727],[1.0,0.0],[0.488372,0.511628],[0.266667,0.733333],[0.083333,0.916667],[0.0,1.0],[0.4,0.6],[1.0,0.0],[1.0,0.0]]},{"feature":[5,7,8,4,4,9,-2,-2,-2,-2,-2,7,-2,8,-2,-2,-2],"threshold":[-161.758705,-174.294983,-95.88813,176.372719,172.476768,95.633396,-2.0,-2.0,-2.0,-2.0,-2.0,178.587631,-2.0,-97.218407,-2.0,-2.0,-2.0],"children_left":[1,2,3,4,5,6,-1,-1,-1,-1,-1,12,-1,14,-1,-1,-1],"children_right":[16,11,10,9,8,7,-1,-1,-1,-1,-1,13,-1,15,-1,-1,-1],"value":[[0.466146,0.533854],[0.265233,0.734767],[0.136564,0.863436],[0.075472,0.924528],[0.034483,0.965517],[0.078652,0.921348],[1.0,0.0],[0.0,1.0],[0.0,1.0],[1.0,0.0],[1.0,0.0],[0.826923,0.173077],[1.0,0.0],[0.625,0.375],[0.0,1.0],[1.0,0.0],[1.0,0.0]]},{"feature":[11,4,-2,-2,8,4,7,2,-2,-2,7,-2,-2,-2,-2],"threshold":[160.681602,174.195,-2.0,-2.0,-97.195358,176.356606,-25.287773,-11.656701,-2.0,-2.0,177.585945,-2.0,-2.0,-2.0,-2.0],"children_left":[1,2,-1,-1,5,6,7,8,-1,-1,11,-1,-1,-1,-1],"children_right":[4,3,-1,-1,14,13,10,9,-1,-1,12,-1,-1,-1,-1],"value":[[0.471354,0.528646],[0.99,0.01],[1.0,0.0],[0.8,0.2],[0.288732,0.711268],[0.161826,0.838174],[0.110132,0.889868],[0.029703,0.970297],[0.0,1.0],[0.857143,0.142857],[0.76,0.24],[1.0,0.0],[0.4,0.6],[1.0,0.0],[1.0,0.0]]},{"feature":[11,-2,8,3,7,9,-2,12,-2,3,-2,-2,0,-2,-2,-2,-2],"threshold":[160.123894,-2.0,-97.564358,33.763605,-75.486227,101.237541,-2.0,2.280273,-2.0,26.468512,-2.0,-2.0,-162.502945,-2.0,-2.0,-2.0,-2.0],"children_left":[1,-1,3,4,5,6,-1,8,-1,10,-1,-1,13,-1,-1,-1,-1],"children_right":[2,-1,16,15,12,7,-1,9,-1,11,-1,-1,14,-1,-1,-1,-1],"value":[[0.492188,0.507812],[1.0,0.0],[0.32526,0.67474],[0.148472,0.851528],[0.101382,0.898618],[0.045455,0.954545],[0.583333,0.416667],[0.010753,0.989247],[0.0,1.0],[0.057143,0.942857],[0.5,0.5],[0.0,1.0],[0.684211,0.315789],[0.142857,0.857143],[1.0,0.0],[1.0,0.0],[1.0,0.0]]},{"feature":[8,5,4,13,-2,8,-2,10,-2,-2,-2,-2,-2],"threshold":[-97.210773,-159.77626,176.341225,55.077042,-2.0,-99.445774,-2.0,-174.492119,-2.0,-2.0,-2.0,-2.0,-2.0],"children_left":[1,2,3,4,-1,6,-1,8,-1,-1,-1,-1,-1],"children_right":[12,11,10,5,-1,7,-1,9,-1,-1,-1,-1,-1],"value":[[0.502604,0.497396],[0.268199,0.731801],[0.103286,0.896714],[0.035354,0.964646],[0.6,0.4],[0.005319,0.994681],[0.0,1.0],[0.052632,0.947368],[0.0,1.0],[0.25,0.75],[1.0,0.0],[1.0,0.0],[1.0,0.0]]},{"feature":[1,-2,4,-2,7,2,0,13,11,-2,-2,-2,-2,-2,7,-2,-2],"threshold":[121.574417,-2.0,137.361961,-2.0,-174.050316,-11.218529,-100.395779,179.265244,176.10231,-2.0,-2.0,-2.0,-2.0,-2.0,179.039482,-2.0,-2.0],"children_left":[1,-1,3,-1,5,6,7,8,9,-1,-1,-1,-1,-1,15,-1,-1],"children_right":[2,-1,4,-1,14,13,12,11,10,-1,-1,-1,-1,-1,16,-1,-1],"value":[[0.492188,0.507812],[1.0,0.0],[0.296029,0.703971],[1.0,0.0],[0.137168,0.862832],[0.04902,0.95098],[0.015228,0.984772],[0.010363,0.989637],[0.005376,0.994624],[0.0,1.0],[0.166667,0.833333],[0.142857,0.857143],[0.25,0.75],[1.0,0.0],[0.954545,0.045455],[1.0,0.0],[0.8,0.2]]},{"feature":[13,12,13,-2,-2,5,13,-2,-2,-2,8,4,2,1,-2,-2,-2,-2,-2],"threshold":[174.083984,-177.153748,-178.624245,-2.0,-2.0,-171.280807,-178.52581,-2.0,-2.0,-2.0,-97.354954,176.326653,-11.743725,129.279343,-2.0,-2.0,-2.0,-2.0,-2.0],"children_left":[1,2,3,-1,-1,6,7,-1,-1,-1,11,12,13,14,-1,-1,-1,-1,-1],"children_right":[10,5,4,-1,-1,9,8,-1,-1,-1,18,17,16,15,-1,-1,-1,-1,-1],"value":[[0.549479,0.450521],[0.968944,0.031056],[0.636364,0.363636],[0.2,0.8],[1.0,0.0],[0.993333,0.006667],[0.965517,0.034483],[0.909091,0.090909],[1.0,0.0],[1.0,0.0],[0.246637,0.753363],[0.125,0.875],[0.071823,0.928177],[0.02907,0.97093],[0.555556,0.444444],[0.0,1.0],[0.888889,0.111111],[1.0,0.0],[1.0,0.0]]},{"feature":[10,7,9,-2,10,-2,1,8,-2,-2,-2,12,-2,-2,-2],"threshold":[-159.513947,-174.083984,95.806969,-2.0,-176.129601,-2.0,175.007332,-98.526794,-2.0,-2.0,-2.0,-176.776985,-2.0,-2.0,-2.0],"children_left":[1,2,3,-1,5,-1,7,8,-1,-1,-1,12,-1,-1,-1],"children_right":[14,11,4,-1,6,-1,10,9,-1,-1,-1,13,-1,-1,-1],"value":[[0.432292,0.567708],[0.221429,0.778571],[0.093617,0.906383],[1.0,0.0],[0.044843,0.955157],[1.0,0.0],[0.027397,0.972603],[0.009346,0.990654],[0.0,1.0],[0.4,0.6],[0.8,0.2],[0.888889,0.111111],[0.444444,0.555556],[1.0,0.0],[1.0,0.0]]},{"feature":[5,13,10,-2,6,-2,-2,11,2,-2,1,0,-2,2,-2,-2,-2,1,-2,9,-2,-2,-2],"threshold":[-162.418259,173.942909,-177.090736,-2.0,175.962379,-2.0,-2.0,176.389145,-82.697573,-2.0,175.034538,-175.839973,-2.0,-12.021822,-2.0,-2.0,-2.0,126.042809,-2.0,103.7798,-2.0,-2.0,-2.0],"children_left":[1,2,3,-1,5,-1,-1,8,9,-1,11,12,-1,14,-1,-1,-1,18,-1,20,-1,-1,-1],"children_right":[22,7,4,-1,6,-1,-1,17,10,-1,16,13,-1,15,-1,-1,-1,19,-1,21,-1,-1,-1],"value":[[0.479167,0.520833],[0.261993,0.738007],[0.913043,0.086957],[0.7,0.3],[0.972222,0.027778],[1.0,0.0],[0.875,0.125],[0.128889,0.871111],[0.068966,0.931034],[1.0,0.0],[0.030769,0.969231],[0.010638,0.989362],[0.2,0.8],[0.005464,0.994536],[0.0,1.0],[0.2,0.8],[0.571429,0.428571],[0.681818,0.318182],[1.0,0.0],[0.461538,0.538462],[1.0,0.0],[0.125,0.875],[1.0,0.0]]},{"feature":[1,-2,4,-2,2,4,7,13,-2,-2,-2,-2,-2],"threshold":[121.243015,-2.0,149.013832,-2.0,-11.94921,176.422592,-31.245564,179.265244,-2.0,-2.0,-2.0,-2.0,-2.0],"children_left":[1,-1,3,-1,5,6,7,8,-1,-1,-1,-1,-1],"children_right":[2,-1,4,-1,12,11,10,9,-1,-1,-1,-1,-1],"value":[[0.520833,0.479167],[1.0,0.0],[0.310861,0.689139],[1.0,0.0],[0.159817,0.840183],[0.08,0.92],[0.031579,0.968421],[0.005587,0.994413],[0.0,1.0],[0.166667,0.833333],[0.454545,0.545455],[1.0,0.0],[1.0,0.0]]},{"feature":[4,-2,10,7,-2,-2,7,9,2,-2,-2,0,13,8,-2,-2,-2,-2,13,-2,-2],"threshold":[160.616631,-2.0,-175.655174,178.552277,-2.0,-2.0,-173.942909,100.408833,-10.971245,-2.0,-2.0,-99.323605,176.772026,-98.924976,-2.0,-2.0,-2.0,-2.0,-173.798286,-2.0,-2.0],"children_left":[1,-1,3,4,-1,-1,7,8,9,-1,-1,12,13,14,-1,-1,-1,-1,19,-1,-1],"children_right":[2,-1,6,5,-1,-1,18,11,10,-1,-1,17,16,15,-1,-1,-1,-1,20,-1,-1],"value":[[0.460938,0.539062],[1.0,0.0],[0.209924,0.790076],[0.965517,0.034483],[1.0,0.0],[0.8,0.2],[0.11588,0.88412],[0.060185,0.939815],[0.9,0.1],[0.75,0.25],[1.0,0.0],[0.019417,0.980583],[0.01,0.99],[0.025641,0.974359],[0.0,1.0],[0.4,0.6],[0.0,1.0],[0.333333,0.666667],[0.823529,0.176471],[0.5,0.5],[1.0,0.0]]},{"feature":[7,3,8,7,10,-2,2,-2,-2,5,-2,-2,-2,-2,7,-2,5,-2,-2],"threshold":[-174.080605,34.725349,-97.195358,-174.839081,-175.516335,-2.0,-12.352918,-2.0,-2.0,-164.311523,-2.0,-2.0,-2.0,-2.0,178.587952,-2.0,-172.985474,-2.0,-2.0],"children_left":[1,2,3,4,5,-1,7,-1,-1,10,-1,-1,-1,-1,15,-1,17,-1,-1],"children_right":[14,13,12,9,6,-1,8,-1,-1,11,-1,-1,-1,-1,16,-1,18,-1,-1],"value":[[0.432292,0.567708],[0.148,0.852],[0.081897,0.918103],[0.031818,0.968182],[0.014563,0.985437],[0.4,0.6],[0.004975,0.995025],[0.0,1.0],[0.25,0.75],[0.285714,0.714286],[0.571429,0.428571],[0.0,1.0],[1.0,0.0],[1.0,0.0],[0.962687,0.037313],[1.0,0.0],[0.666667,0.333333],[1.0,0.0],[0.166667,0.833333]]},{"feature":[7,8,1,-2,1,0,-2,-2,3,-2,-2,-2,7,-2,-2],"threshold":[-174.114273,-96.341118,120.925766,-2.0,172.078575,-175.438789,-2.0,-2.0,10.208135,-2.0,-2.0,-2.0,178.587952,-2.0,-2.0],"children_left":[1,2,3,-1,5,6,-1,-1,9,-1,-1,-1,13,-1,-1],"children_right":[12,11,4,-1,8,7,-1,-1,10,-1,-1,-1,14,-1,-1],"value":[[0.510417,0.489583],[0.216102,0.783898],[0.114833,0.885167],[1.0,0.0],[0.060914,0.939086],[0.011111,0.988889],[0.333333,0.666667],[0.0,1.0],[0.588235,0.411765],[0.25,0.75],[0.888889,0.111111],[1.0,0.0],[0.97973,0.02027],[1.0,0.0],[0.625,0.375]]},{"feature":[7,2,-2,9,-2,3,11,7,13,-2,-2,-2,-2,-2,0,8,-2,-2,12,-2,-2],"threshold":[-174.294983,-79.517445,-2.0,95.486214,-2.0,33.771719,177.618401,-177.764549,177.900703,-2.0,-2.0,-2.0,-2.0,-2.0,-174.172287,-0.014126,-2.0,-2.0,-177.333817,-2.0,-2.0],"children_left":[1,2,-1,4,-1,6,7,8,9,-1,-1,-1,-1,-1,15,16,-1,-1,19,-1,-1],"children_right":[14,3,-1,5,-1,13,12,11,10,-1,-1,-1,-1,-1,18,17,-1,-1,20,-1,-1],"value":[[0.458333,0.541667],[0.180723,0.819277],[1.0,0.0],[0.124464,0.875536],[1.0,0.0],[0.072727,0.927273],[0.042254,0.957746],[0.004878,0.995122],[0.01087,0.98913],[0.166667,0.833333],[0.0,1.0],[0.0,1.0],[1.0,0.0],[1.0,0.0],[0.97037,0.02963],[0.8125,0.1875],[0.571429,0.428571],[1.0,0.0],[0.991597,0.008403],[0.9,0.1],[1.0,0.0]]},{"feature":[13,7,13,-2,-2,-2,8,10,-2,4,-2,2,-2,-2,-2],"threshold":[174.364311,178.736954,171.917671,-2.0,-2.0,-2.0,-97.195358,-176.129601,-2.0,161.960503,-2.0,-11.640764,-2.0,-2.0,-2.0],"children_left":[1,2,3,-1,-1,-1,7,8,-1,10,-1,12,-1,-1,-1],"children_right":[6,5,4,-1,-1,-1,14,9,-1,11,-1,13,-1,-1,-1],"value":[[0.458333,0.541667],[0.970588,0.029412],[0.992248,0.007752],[1.0,0.0],[0.8,0.2],[0.571429,0.428571],[0.177419,0.822581],[0.097345,0.902655],[1.0,0.0],[0.051163,0.948837],[0.833333,0.166667],[0.028708,0.971292],[0.0,1.0],[0.666667,0.333333],[1.0,0.0]]},{"feature":[8,12,10,-2,9,-2,-2,12,-2,8,10,-2,-2,-2,-2],"threshold":[-97.210773,-161.318924,-175.531349,-2.0,97.330181,-2.0,-2.0,168.334045,-2.0,-104.881721,-174.045555,-2.0,-2.0,-2.0,-2.0],"children_left":[1,2,3,-1,5,-1,-1,8,-1,10,11,-1,-1,-1,-1],"children_right":[14,7,4,-1,6,-1,-1,9,-1,13,12,-1,-1,-1,-1],"value":[[0.458333,0.541667],[0.238095,0.761905],[0.042328,0.957672],[0.75,0.25],[0.027027,0.972973],[0.833333,0.166667],[0.0,1.0],[0.678571,0.321429],[1.0,0.0],[0.341463,0.658537],[0.875,0.125],[1.0,0.0],[0.666667,0.333333],[0.0,1.0],[1.0,0.0]]},{"feature":[7,0,11,0,5,-2,12,-2,-2,2,-2,-2,-2,-2,4,-2,3,-2,-2],"threshold":[-174.114273,6.685154,177.401993,-174.542297,-166.729797,-2.0,-177.330605,-2.0,-2.0,-62.99066,-2.0,-2.0,-2.0,-2.0,176.07531,-2.0,81.39769,-2.0,-2.0],"children_left":[1,2,3,4,5,-1,7,-1,-1,10,-1,-1,-1,-1,15,-1,17,-1,-1],"children_right":[14,13,12,9,6,-1,8,-1,-1,11,-1,-1,-1,-1,16,-1,18,-1,-1],"value":[[0.518229,0.481771],[0.217949,0.782051],[0.140845,0.859155],[0.094059,0.905941],[0.592593,0.407407],[1.0,0.0],[0.3125,0.6875],[0.0,1.0],[0.555556,0.444444],[0.017143,0.982857],[0.6,0.4],[0.0,1.0],[1.0,0.0],[1.0,0.0],[0.986667,0.013333],[1.0,0.0],[0.857143,0.142857],[0.666667,0.333333],[1.0,0.0]]},{"feature":[8,5,8,-2,1,11,9,-2,-2,-2,3,-2,-2,-2,-2],"threshold":[-97.195358,-159.74472,-130.158897,-2.0,172.078575,176.342758,97.346123,-2.0,-2.0,-2.0,10.335163,-2.0,-2.0,-2.0,-2.0],"children_left":[1,2,3,-1,5,6,7,-1,-1,-1,11,-1,-1,-1,-1],"children_right":[14,13,4,-1,10,9,8,-1,-1,-1,12,-1,-1,-1,-1],"value":[[0.46875,0.53125],[0.266187,0.733813],[0.093333,0.906667],[1.0,0.0],[0.068493,0.931507],[0.043689,0.956311],[0.020305,0.979695],[0.5,0.5],[0.0,1.0],[0.555556,0.444444],[0.461538,0.538462],[0.0,1.0],[1.0,0.0],[1.0,0.0],[1.0,0.0]]},{"feature":[13,6,1,-2,9,-2,-2,-2,1,-2,2,1,-2,-2,3,-2,-2],"threshold":[173.942909,176.908401,175.866135,-2.0,112.338303,-2.0,-2.0,-2.0,120.925766,-2.0,-12.020212,172.078575,-2.0,-2.0,10.664801,-2.0,-2.0],"children_left":[1,2,3,-1,5,-1,-1,-1,9,-1,11,12,-1,-1,15,-1,-1],"children_right":[8,7,4,-1,6,-1,-1,-1,10,-1,14,13,-1,-1,16,-1,-1],"value":[[0.445312,0.554688],[0.929078,0.070922],[0.976923,0.023077],[1.0,0.0],[0.833333,0.166667],[0.666667,0.333333],[1.0,0.0],[0.363636,0.636364],[0.164609,0.835391],[1.0,0.0],[0.073059,0.926941],[0.014706,0.985294],[0.0,1.0],[0.333333,0.666667],[0.866667,0.133333],[1.0,0.0],[0.714286,0.285714]]},{"feature":[5,1,-2,9,-2,1,5,-2,8,-2,-2,4,-2,-2,-2],"threshold":[-162.139854,120.925766,-2.0,95.659786,-2.0,173.504944,-177.462746,-2.0,-98.763008,-2.0,-2.0,172.81382,-2.0,-2.0,-2.0],"children_left":[1,2,-1,4,-1,6,7,-1,9,-1,-1,12,-1,-1,-1],"children_right":[14,3,-1,5,-1,11,8,-1,10,-1,-1,13,-1,-1,-1],"value":[[0.476562,0.523438],[0.255556,0.744444],[1.0,0.0],[0.126087,0.873913],[1.0,0.0],[0.073733,0.926267],[0.024631,0.975369],[0.5,0.5],[0.010152,0.989848],[0.0,1.0],[0.25,0.75],[0.785714,0.214286],[0.4,0.6],[1.0,0.0],[1.0,0.0]]},{"feature":[7,3,9,-2,10,-2,8,-2,-2,8,-2,-2,6,-2,3,-2,-2],"threshold":[-174.080605,33.771719,100.408833,-2.0,-175.734299,-2.0,-98.022266,-2.0,-2.0,15.882137,-2.0,-2.0,177.2192,-2.0,32.802172,-2.0,-2.0],"children_left":[1,2,3,-1,5,-1,7,-1,-1,10,-1,-1,13,-1,15,-1,-1],"children_right":[12,9,4,-1,6,-1,8,-1,-1,11,-1,-1,14,-1,16,-1,-1],"value":[[0.497396,0.502604],[0.197425,0.802575],[0.114286,0.885714],[0.9375,0.0625],[0.046392,0.953608],[0.857143,0.142857],[0.016043,0.983957],[0.0,1.0],[0.75,0.25],[0.956522,0.043478],[0.888889,0.111111],[1.0,0.0],[0.960265,0.039735],[1.0,0.0],[0.538462,0.461538],[0.142857,0.857143],[1.0,0.0]]},{"feature":[7,2,8,13,9,-2,-2,0,-2,-2,-2,-2,7,10,-2,-2,-2],"threshold":[-174.114273,-11.975616,-95.468449,179.038078,116.454033,-2.0,-2.0,-128.213692,-2.0,-2.0,-2.0,-2.0,179.374367,-177.636841,-2.0,-2.0,-2.0],"children_left":[1,2,3,4,5,-1,-1,8,-1,-1,-1,-1,13,14,-1,-1,-1],"children_right":[12,11,10,7,6,-1,-1,9,-1,-1,-1,-1,16,15,-1,-1,-1],"value":[[0.486979,0.513021],[0.14978,0.85022],[0.089623,0.910377],[0.035,0.965],[0.010811,0.989189],[0.0,1.0],[0.333333,0.666667],[0.333333,0.666667],[0.571429,0.428571],[0.125,0.875],[1.0,0.0],[1.0,0.0],[0.974522,0.025478],[0.993377,0.006623],[0.875,0.125],[1.0,0.0],[0.5,0.5]]},{"feature":[8,5,4,3,13,-2,2,-2,-2,-2,-2,-2,8,-2,-2],"threshold":[-98.52813,-155.773911,176.422592,35.131464,-1.266968,-2.0,-12.179755,-2.0,-2.0,-2.0,-2.0,-2.0,-95.385338,-2.0,-2.0],"children_left":[1,2,3,4,5,-1,7,-1,-1,-1,-1,-1,13,-1,-1],"children_right":[12,11,10,9,6,-1,8,-1,-1,-1,-1,-1,14,-1,-1],"value":[[0.502604,0.497396],[0.249012,0.750988],[0.073171,0.926829],[0.040404,0.959596],[0.020619,0.979381],[0.333333,0.666667],[0.010638,0.989362],[0.0,1.0],[0.333333,0.666667],[1.0,0.0],[1.0,0.0],[1.0,0.0],[0.992366,0.007634],[0.833333,0.166667],[1.0,0.0]]},{"feature":[1,-2,5,13,12,-2,-2,5,-2,9,0,-2,-2,5,-2,1,-2,-2,-2],"threshold":[122.832542,-2.0,-154.763039,174.416534,-176.284271,-2.0,-2.0,-177.813408,-2.0,96.980793,-174.536827,-2.0,-2.0,-177.205635,-2.0,175.419174,-2.0,-2.0,-2.0],"children_left":[1,-1,3,4,5,-1,-1,8,-1,10,11,-1,-1,14,-1,16,-1,-1,-1],"children_right":[2,-1,18,7,6,-1,-1,9,-1,13,12,-1,-1,15,-1,17,-1,-1,-1],"value":[[0.46875,0.53125],[1.0,0.0],[0.266187,0.733813],[0.142857,0.857143],[0.857143,0.142857],[0.5,0.5],[1.0,0.0],[0.098214,0.901786],[1.0,0.0],[0.056075,0.943925],[0.818182,0.181818],[1.0,0.0],[0.5,0.5],[0.014778,0.985222],[0.2,0.8],[0.010101,0.989899],[0.0,1.0],[0.333333,0.666667],[1.0,0.0]]},{"feature":[4,-2,10,-2,13,8,5,-2,-2,-2,2,-2,9,-2,-2],"threshold":[159.578468,-2.0,-175.930206,-2.0,174.294983,-98.549374,-157.854057,-2.0,-2.0,-2.0,-100.485535,-2.0,95.830296,-2.0,-2.0],"children_left":[1,-1,3,-1,5,6,7,-1,-1,-1,11,-1,13,-1,-1],"children_right":[2,-1,4,-1,10,9,8,-1,-1,-1,12,-1,14,-1,-1],"value":[[0.479167,0.520833],[1.0,0.0],[0.245283,0.754717],[1.0,0.0],[0.152542,0.847458],[0.884615,0.115385],[0.727273,0.272727],[0.25,0.75],[1.0,0.0],[1.0,0.0],[0.061905,0.938095],[1.0,0.0],[0.024752,0.975248],[0.833333,0.166667],[0.0,1.0]]},{"feature":[9,6,-2,6,-2,-2,4,-2,7,1,11,9,-2,-2,-2,-2,7,-2,-2],"threshold":[98.391098,173.596321,-2.0,175.638771,-2.0,-2.0,155.254341,-2.0,-32.303181,174.957512,176.808434,117.671246,-2.0,-2.0,-2.0,-2.0,178.342186,-2.0,-2.0],"children_left":[1,2,-1,4,-1,-1,7,-1,9,10,11,12,-1,-1,-1,-1,17,-1,-1],"children_right":[6,3,-1,5,-1,-1,8,-1,16,15,14,13,-1,-1,-1,-1,18,-1,-1],"value":[[0.460938,0.539062],[0.98913,0.01087],[1.0,0.0],[0.961538,0.038462],[0.8,0.2],[1.0,0.0],[0.294521,0.705479],[1.0,0.0],[0.123404,0.876596],[0.046512,0.953488],[0.024038,0.975962],[0.00495,0.99505],[0.0,1.0],[0.142857,0.857143],[0.666667,0.333333],[0.714286,0.285714],[0.95,0.05],[1.0,0.0],[0.8,0.2]]},{"feature":[10,3,1,8,13,-2,5,-2,-2,-2,4,-2,8,-2,-2,0,-2,-2,-2],"threshold":[-159.681374,32.13234,171.572617,-97.370369,31.319393,-2.0,-177.2015,-2.0,-2.0,-2.0,166.560524,-2.0,-103.033726,-2.0,-2.0,-173.511673,-2.0,-2.0,-2.0],"children_left":[1,2,3,4,5,-1,7,-1,-1,-1,11,-1,13,-1,-1,16,-1,-1,-1],"children_right":[18,15,10,9,6,-1,8,-1,-1,-1,12,-1,14,-1,-1,17,-1,-1,-1],"value":[[0.489583,0.510417],[0.304965,0.695035],[0.215447,0.784553],[0.09596,0.90404],[0.057895,0.942105],[0.583333,0.416667],[0.022472,0.977528],[0.5,0.5],[0.0,1.0],[1.0,0.0],[0.708333,0.291667],[0.0,1.0],[0.871795,0.128205],[0.583333,0.416667],[1.0,0.0],[0.916667,0.083333],[0.625,0.375],[1.0,0.0],[1.0,0.0]]},{"feature":[4,-2,4,2,8,13,-2,-2,-2,3,-2,-2,-2],"threshold":[160.78611,-2.0,176.291351,-12.275551,-96.687565,31.245564,-2.0,-2.0,-2.0,18.183763,-2.0,-2.0,-2.0],"children_left":[1,-1,3,4,5,6,-1,-1,-1,10,-1,-1,-1],"children_right":[2,-1,12,9,8,7,-1,-1,-1,11,-1,-1,-1],"value":[[0.46875,0.53125],[1.0,0.0],[0.19685,0.80315],[0.128205,0.871795],[0.056338,0.943662],[0.028986,0.971014],[0.545455,0.454545],[0.0,1.0],[1.0,0.0],[0.857143,0.142857],[1.0,0.0],[0.571429,0.428571],[1.0,0.0]]},{"feature":[10,1,3,2,-2,13,9,-2,-2,7,-2,1,-2,5,-2,-2,12,-2,0,-2,-2,3,-2,9,-2,-2,-2],"threshold":[-159.673531,171.572617,32.420382,-62.99066,-2.0,173.942909,100.997051,-2.0,-2.0,-179.187035,-2.0,165.5923,-2.0,-176.506691,-2.0,-2.0,-178.179115,-2.0,-173.080887,-2.0,-2.0,7.84314,-2.0,104.6521,-2.0,-2.0,-2.0],"children_left":[1,2,3,4,-1,6,7,-1,-1,10,-1,12,-1,14,-1,-1,17,-1,19,-1,-1,22,-1,24,-1,-1,-1],"children_right":[26,21,16,5,-1,9,8,-1,-1,11,-1,13,-1,15,-1,-1,18,-1,20,-1,-1,23,-1,25,-1,-1,-1],"value":[[0.5,0.5],[0.319149,0.680851],[0.216667,0.783333],[0.105769,0.894231],[0.833333,0.166667],[0.084158,0.915842],[0.866667,0.133333],[1.0,0.0],[0.6,0.4],[0.02139,0.97861],[0.375,0.625],[0.005587,0.994413],[0.0,1.0],[0.043478,0.956522],[0.2,0.8],[0.0,1.0],[0.9375,0.0625],[1.0,0.0],[0.866667,0.133333],[0.6,0.4],[1.0,0.0],[0.904762,0.095238],[0.7,0.3],[0.96875,0.03125],[1.0,0.0],[0.833333,0.166667],[1.0,0.0]]},{"feature":[9,8,4,-2,-2,-2,11,-2,7,13,4,5,-2,-2,-2,-2,4,-2,-2],"threshold":[101.633217,-107.313591,116.501816,-2.0,-2.0,-2.0,160.120079,-2.0,-100.559634,179.382301,175.821564,-177.364174,-2.0,-2.0,-2.0,-2.0,173.967247,-2.0,-2.0],"children_left":[1,2,3,-1,-1,-1,7,-1,9,10,11,12,-1,-1,-1,-1,17,-1,-1],"children_right":[6,5,4,-1,-1,-1,8,-1,16,15,14,13,-1,-1,-1,-1,18,-1,-1],"value":[[0.473958,0.526042],[0.957983,0.042017],[0.833333,0.166667],[1.0,0.0],[0.5,0.5],[1.0,0.0],[0.256604,0.743396],[1.0,0.0],[0.139738,0.860262],[0.057971,0.942029],[0.015306,0.984694],[0.010417,0.989583],[0.333333,0.666667],[0.0,1.0],[0.25,0.75],[0.818182,0.181818],[0.909091,0.090909],[1.0,0.0],[0.777778,0.222222]]},{"feature":[11,-2,13,7,8,0,-2,-2,-2,-2,10,-2,8,2,-2,-2,-2],"threshold":[160.123894,-2.0,174.050316,179.574127,-104.036079,-153.35199,-2.0,-2.0,-2.0,-2.0,-176.106728,-2.0,-95.050488,-11.961203,-2.0,-2.0,-2.0],"children_left":[1,-1,3,4,5,6,-1,-1,-1,-1,11,-1,13,14,-1,-1,-1],"children_right":[2,-1,10,9,8,7,-1,-1,-1,-1,12,-1,16,15,-1,-1,-1],"value":[[0.447917,0.552083],[1.0,0.0],[0.295681,0.704319],[0.953125,0.046875],[0.982456,0.017544],[0.947368,0.052632],[0.8,0.2],[1.0,0.0],[1.0,0.0],[0.714286,0.285714],[0.118143,0.881857],[1.0,0.0],[0.054299,0.945701],[0.009479,0.990521],[0.0,1.0],[0.4,0.6],[1.0,0.0]]},{"feature":[7,11,9,-2,8,5,-2,-2,-2,3,-2,-2,13,8,-2,-2,-2],"threshold":[-173.976578,176.848289,95.486214,-2.0,-95.577591,-162.952065,-2.0,-2.0,-2.0,11.150735,-2.0,-2.0,-178.587952,-97.218407,-2.0,-2.0,-2.0],"children_left":[1,2,3,-1,5,6,-1,-1,-1,10,-1,-1,13,14,-1,-1,-1],"children_right":[12,9,4,-1,8,7,-1,-1,-1,11,-1,-1,16,15,-1,-1,-1],"value":[[0.473958,0.526042],[0.203252,0.796748],[0.118182,0.881818],[1.0,0.0],[0.03,0.97],[0.005128,0.994872],[0.0,1.0],[0.2,0.8],[1.0,0.0],[0.923077,0.076923],[0.714286,0.285714],[1.0,0.0],[0.956522,0.043478],[0.571429,0.428571],[0.142857,0.857143],[1.0,0.0],[1.0,0.0]]},{"feature":[8,7,3,11,2,-2,-2,-2,-2,4,-2,4,-2,-2,6,-2,-2],"threshold":[-98.420708,-172.126747,36.153923,177.401993,-12.092824,-2.0,-2.0,-2.0,-2.0,174.44915,-2.0,175.325294,-2.0,-2.0,178.890388,-2.0,-2.0],"children_left":[1,2,3,4,5,-1,-1,-1,-1,10,-1,12,-1,-1,15,-1,-1],"children_right":[14,9,8,7,6,-1,-1,-1,-1,11,-1,13,-1,-1,16,-1,-1],"value":[[0.450521,0.549479],[0.23913,0.76087],[0.077273,0.922727],[0.037915,0.962085],[0.004926,0.995074],[0.0,1.0],[0.125,0.875],[0.875,0.125],[1.0,0.0],[0.875,0.125],[1.0,0.0],[0.416667,0.583333],[0.142857,0.857143],[0.8,0.2],[0.990741,0.009259],[1.0,0.0],[0.833333,0.166667]]},{"feature":[13,0,2,-2,-2,-2,1,-2,1,2,-2,-2,8,-2,-2],"threshold":[174.080605,-171.524399,-13.754824,-2.0,-2.0,-2.0,120.925766,-2.0,173.504944,-12.092824,-2.0,-2.0,-106.468475,-2.0,-2.0],"children_left":[1,2,3,-1,-1,-1,7,-1,9,10,-1,-1,13,-1,-1],"children_right":[6,5,4,-1,-1,-1,8,-1,12,11,-1,-1,14,-1,-1],"value":[[0.453125,0.546875],[0.963768,0.036232],[0.791667,0.208333],[0.375,0.625],[1.0,0.0],[1.0,0.0],[0.166667,0.833333],[1.0,0.0],[0.088889,0.911111],[0.005025,0.994975],[0.0,1.0],[0.2,0.8],[0.730769,0.269231],[0.416667,0.583333],[1.0,0.0]]},{"feature":[5,13,8,2,-2,-2,-2,9,-2,4,1,2,-2,-2,-2,-2,-2],"threshold":[-162.386719,174.294983,-99.351688,-36.765962,-2.0,-2.0,-2.0,94.734192,-2.0,176.372719,174.928665,-59.699409,-2.0,-2.0,-2.0,-2.0,-2.0],"children_left":[1,2,3,4,-1,-1,-1,8,-1,10,11,12,-1,-1,-1,-1,-1],"children_right":[16,7,6,5,-1,-1,-1,9,-1,15,14,13,-1,-1,-1,-1,-1],"value":[[0.479167,0.520833],[0.270073,0.729927],[0.824561,0.175439],[0.473684,0.526316],[1.0,0.0],[0.090909,0.909091],[1.0,0.0],[0.124424,0.875576],[1.0,0.0],[0.064039,0.935961],[0.025641,0.974359],[0.005319,0.994681],[0.166667,0.833333],[0.0,1.0],[0.571429,0.428571],[1.0,0.0],[1.0,0.0]]},{"feature":[7,3,5,2,9,4,-2,-2,-2,-2,-2,2,-2,-2,6,-2,-2],"threshold":[-174.050316,33.771719,-162.831436,-11.94921,117.748585,175.760071,-2.0,-2.0,-2.0,-2.0,-2.0,-55.746944,-2.0,-2.0,177.153748,-2.0,-2.0],"children_left":[1,2,3,4,5,6,-1,-1,-1,-1,-1,12,-1,-1,15,-1,-1],"children_right":[14,11,10,9,8,7,-1,-1,-1,-1,-1,13,-1,-1,16,-1,-1],"value":[[0.466146,0.533854],[0.157025,0.842975],[0.085586,0.914414],[0.069124,0.930876],[0.033981,0.966019],[0.010101,0.989899],[0.0,1.0],[0.5,0.5],[0.625,0.375],[0.727273,0.272727],[0.8,0.2],[0.95,0.05],[1.0,0.0],[0.857143,0.142857],[0.992958,0.007042],[1.0,0.0],[0.888889,0.111111]]},{"feature":[7,1,-2,11,2,9,-2,-2,-2,5,-2,-2,4,-2,2,-2,-2],"threshold":[-174.080605,120.925766,-2.0,177.401993,-11.94921,117.521694,-2.0,-2.0,-2.0,-177.933983,-2.0,-2.0,174.702065,-2.0,-13.726692,-2.0,-2.0],"children_left":[1,2,-1,4,5,6,-1,-1,-1,10,-1,-1,13,-1,15,-1,-1],"children_right":[12,3,-1,9,8,7,-1,-1,-1,11,-1,-1,14,-1,16,-1,-1],"value":[[0.484375,0.515625],[0.148472,0.851528],[1.0,0.0],[0.066986,0.933014],[0.020202,0.979798],[0.005155,0.994845],[0.0,1.0],[0.25,0.75],[0.75,0.25],[0.909091,0.090909],[0.8,0.2],[1.0,0.0],[0.980645,0.019355],[1.0,0.0],[0.8125,0.1875],[0.571429,0.428571],[1.0,0.0]]},{"feature":[8,7,11,9,-2,0,-2,-2,-2,1,0,3,-2,-2,-2,-2,-2],"threshold":[-97.521313,-160.726273,176.84761,95.486214,-2.0,-100.993595,-2.0,-2.0,-2.0,165.158897,-171.264084,27.74105,-2.0,-2.0,-2.0,-2.0,-2.0],"children_left":[1,2,3,4,-1,6,-1,-1,-1,10,11,12,-1,-1,-1,-1,-1],"children_right":[16,9,8,5,-1,7,-1,-1,-1,15,14,13,-1,-1,-1,-1,-1],"value":[[0.447917,0.552083],[0.263889,0.736111],[0.08,0.92],[0.028169,0.971831],[1.0,0.0],[0.004808,0.995192],[0.0,1.0],[0.2,0.8],[1.0,0.0],[0.920635,0.079365],[0.982143,0.017857],[0.941176,0.058824],[0.833333,0.166667],[1.0,0.0],[1.0,0.0],[0.428571,0.571429],[1.0,0.0]]},{"feature":[7,5,4,8,4,5,-2,-2,-2,-2,-2,-2,6,-2,-2],"threshold":[-174.050316,-84.751346,176.142021,-96.341118,171.322784,-174.154343,-2.0,-2.0,-2.0,-2.0,-2.0,-2.0,177.2192,-2.0,-2.0],"children_left":[1,2,3,4,5,6,-1,-1,-1,-1,-1,-1,13,-1,-1],"children_right":[12,11,10,9,8,7,-1,-1,-1,-1,-1,-1,14,-1,-1],"value":[[0.434896,0.565104],[0.14741,0.85259],[0.104603,0.895397],[0.053097,0.946903],[0.009259,0.990741],[0.019048,0.980952],[0.0,1.0],[0.4,0.6],[0.0,1.0],[1.0,0.0],[1.0,0.0],[1.0,0.0],[0.977444,0.022556],[1.0,0.0],[0.75,0.25]]},{"feature":[5,13,5,-2,7,-2,-2,4,9,-2,13,-2,13,-2,8,-2,-2,-2,-2],"threshold":[-162.386719,174.294983,-172.709717,-2.0,178.552155,-2.0,-2.0,176.352203,95.659786,-2.0,178.332291,-2.0,178.385277,-2.0,-98.847546,-2.0,-2.0,-2.0,-2.0],"children_left":[1,2,3,-1,5,-1,-1,8,9,-1,11,-1,13,-1,15,-1,-1,-1,-1],"children_right":[18,7,4,-1,6,-1,-1,17,10,-1,12,-1,14,-1,16,-1,-1,-1,-1],"value":[[0.486979,0.513021],[0.267658,0.732342],[0.955556,0.044444],[1.0,0.0],[0.882353,0.117647],[1.0,0.0],[0.6,0.4],[0.129464,0.870536],[0.075829,0.924171],[1.0,0.0],[0.025,0.975],[0.0,1.0],[0.128205,0.871795],[0.571429,0.428571],[0.03125,0.96875],[0.0,1.0],[0.25,0.75],[1.0,0.0],[1.0,0.0]]},{"feature":[7,1,-2,9,0,-2,4,-2,-2,9,6,11,-2,-2,-2,-2,0,7,13,-2,-2,-2,-2],"threshold":[-174.294983,122.785019,-2.0,101.864418,-172.180832,-2.0,169.477432,-2.0,-2.0,117.748585,-1.746872,162.187767,-2.0,-2.0,-2.0,-2.0,-158.606308,178.498726,172.776573,-2.0,-2.0,-2.0,-2.0],"children_left":[1,2,-1,4,5,-1,7,-1,-1,10,11,12,-1,-1,-1,-1,17,18,19,-1,-1,-1,-1],"children_right":[16,3,-1,9,6,-1,8,-1,-1,15,14,13,-1,-1,-1,-1,22,21,20,-1,-1,-1,-1],"value":[[0.510417,0.489583],[0.209821,0.790179],[1.0,0.0],[0.115,0.885],[0.727273,0.272727],[1.0,0.0],[0.5,0.5],[0.285714,0.714286],[0.8,0.2],[0.039326,0.960674],[0.023121,0.976879],[0.117647,0.882353],[0.0,1.0],[0.8,0.2],[0.0,1.0],[0.6,0.4],[0.93125,0.06875],[0.819672,0.180328],[0.957447,0.042553],[1.0,0.0],[0.714286,0.285714],[0.357143,0.642857],[1.0,0.0]]},{"feature":[6,10,3,11,-2,-2,3,-2,-2,4,-2,5,-2,-2,13,9,-2,12,-2,-2,9,-2,1,-2,-2],"threshold":[172.610603,-174.232216,25.141123,173.550598,-2.0,-2.0,30.234471,-2.0,-2.0,162.966652,-2.0,-168.069756,-2.0,-2.0,174.934937,100.62711,-2.0,-176.615776,-2.0,-2.0,94.586216,-2.0,127.994324,-2.0,-2.0],"children_left":[1,2,3,4,-1,-1,7,-1,-1,10,-1,12,-1,-1,15,16,-1,18,-1,-1,21,-1,23,-1,-1],"children_right":[14,9,6,5,-1,-1,8,-1,-1,11,-1,13,-1,-1,20,17,-1,19,-1,-1,22,-1,24,-1,-1],"value":[[0.497396,0.502604],[0.850575,0.149425],[0.530612,0.469388],[0.894737,0.105263],[0.714286,0.285714],[1.0,0.0],[0.3,0.7],[0.0,1.0],[0.75,0.25],[0.976,0.024],[1.0,0.0],[0.8,0.2],[0.5,0.5],[1.0,0.0],[0.204762,0.795238],[0.75,0.25],[1.0,0.0],[0.428571,0.571429],[0.0,1.0],[1.0,0.0],[0.106742,0.893258],[1.0,0.0],[0.00625,0.99375],[0.166667,0.833333],[0.0,1.0]]},{"feature":[1,-2,10,9,-2,4,4,-2,13,-2,1,5,-2,-2,-2,-2,-2],"threshold":[121.574417,-2.0,-155.6325,95.659786,-2.0,176.406479,161.960503,-2.0,29.944,-2.0,175.068336,-177.308296,-2.0,-2.0,-2.0,-2.0,-2.0],"children_left":[1,-1,3,4,-1,6,7,-1,9,-1,11,12,-1,-1,-1,-1,-1],"children_right":[2,-1,16,5,-1,15,8,-1,10,-1,14,13,-1,-1,-1,-1,-1],"value":[[0.473958,0.526042],[1.0,0.0],[0.288732,0.711268],[0.172131,0.827869],[1.0,0.0],[0.098214,0.901786],[0.064815,0.935185],[0.857143,0.142857],[0.038278,0.961722],[0.454545,0.545455],[0.015152,0.984848],[0.005236,0.994764],[0.166667,0.833333],[0.0,1.0],[0.285714,0.714286],[1.0,0.0],[1.0,0.0]]},{"feature":[6,7,7,0,-2,-2,1,-2,-2,1,-2,0,-2,-2,9,3,-2,-2,9,4,-2,-2,-2],"threshold":[172.984596,-172.934334,-176.674034,-131.508919,-2.0,-2.0,139.045364,-2.0,-2.0,175.866135,-2.0,-170.542633,-2.0,-2.0,100.798965,5.730836,-2.0,-2.0,122.119724,175.727921,-2.0,-2.0,-2.0],"children_left":[1,2,3,4,-1,-1,7,-1,-1,10,-1,12,-1,-1,15,16,-1,-1,19,20,-1,-1,-1],"children_right":[14,9,6,5,-1,-1,8,-1,-1,11,-1,13,-1,-1,18,17,-1,-1,22,21,-1,-1,-1],"value":[[0.481771,0.518229],[0.816568,0.183432],[0.325581,0.674419],[0.75,0.25],[0.428571,0.571429],[1.0,0.0],[0.074074,0.925926],[0.0,1.0],[0.5,0.5],[0.984127,0.015873],[1.0,0.0],[0.846154,0.153846],[1.0,0.0],[0.666667,0.333333],[0.218605,0.781395],[0.952381,0.047619],[0.8,0.2],[1.0,0.0],[0.040462,0.959538],[0.005988,0.994012],[0.0,1.0],[0.166667,0.833333],[1.0,0.0]]},{"feature":[7,8,10,-2,9,-2,5,-2,-2,-2,13,7,-2,-2,-2],"threshold":[-174.080605,-95.737186,-176.129601,-2.0,94.734192,-2.0,-162.952065,-2.0,-2.0,-2.0,-178.587952,179.037003,-2.0,-2.0,-2.0],"children_left":[1,2,3,-1,5,-1,7,-1,-1,-1,11,12,-1,-1,-1],"children_right":[10,9,4,-1,6,-1,8,-1,-1,-1,14,13,-1,-1,-1],"value":[[0.502604,0.497396],[0.198312,0.801688],[0.090909,0.909091],[1.0,0.0],[0.040404,0.959596],[1.0,0.0],[0.005236,0.994764],[0.0,1.0],[0.166667,0.833333],[1.0,0.0],[0.993197,0.006803],[0.933333,0.066667],[0.75,0.25],[1.0,0.0],[1.0,0.0]]},{"feature":[13,4,-2,13,-2,1,-2,-2,3,8,13,1,-2,-2,-2,-2,-2],"threshold":[174.080605,174.702065,-2.0,-179.630768,-2.0,175.665497,-2.0,-2.0,33.771719,-96.500713,179.327538,174.446114,-2.0,-2.0,-2.0,-2.0,-2.0],"children_left":[1,2,-1,4,-1,6,-1,-1,9,10,11,12,-1,-1,-1,-1,-1],"children_right":[8,3,-1,5,-1,7,-1,-1,16,15,14,13,-1,-1,-1,-1,-1],"value":[[0.505208,0.494792],[0.973684,0.026316],[1.0,0.0],[0.870968,0.129032],[0.4,0.6],[0.961538,0.038462],[1.0,0.0],[0.857143,0.142857],[0.198276,0.801724],[0.114286,0.885714],[0.060606,0.939394],[0.036649,0.963351],[0.0,1.0],[0.583333,0.416667],[0.714286,0.285714],[1.0,0.0],[1.0,0.0]]},{"feature":[13,6,4,-2,13,-2,-2,-2,8,9,-2,4,9,-2,10,-2,-2,-2,-2],"threshold":[174.294983,178.331871,174.785805,-2.0,-177.362251,-2.0,-2.0,-2.0,-96.341118,95.486214,-2.0,176.372719,113.834538,-2.0,-162.255035,-2.0,-2.0,-2.0,-2.0],"children_left":[1,2,3,-1,5,-1,-1,-1,9,10,-1,12,13,-1,15,-1,-1,-1,-1],"children_right":[8,7,4,-1,6,-1,-1,-1,18,11,-1,17,14,-1,16,-1,-1,-1,-1],"value":[[0.520833,0.479167],[0.987261,0.012739],[0.993377,0.006623],[1.0,0.0],[0.958333,0.041667],[1.0,0.0],[0.888889,0.111111],[0.833333,0.166667],[0.198238,0.801762],[0.112195,0.887805],[1.0,0.0],[0.056995,0.943005],[0.01087,0.98913],[0.0,1.0],[0.111111,0.888889],[0.0,1.0],[0.4,0.6],[1.0,0.0],[1.0,0.0]]},{"feature":[7,1,-2,11,2,2,-2,-2,-2,9,-2,-2,10,13,-2,11,12,-2,-2,-2,-2],"threshold":[-174.294983,120.925766,-2.0,177.401993,-11.94921,-58.278786,-2.0,-2.0,-2.0,102.171856,-2.0,-2.0,-173.952919,-178.787735,-2.0,173.361641,165.799675,-2.0,-2.0,-2.0,-2.0],"children_left":[1,2,-1,4,5,6,-1,-1,-1,10,-1,-1,13,14,-1,16,17,-1,-1,-1,-1],"children_right":[12,3,-1,9,8,7,-1,-1,-1,11,-1,-1,20,15,-1,19,18,-1,-1,-1,-1],"value":[[0.505208,0.494792],[0.174888,0.825112],[1.0,0.0],[0.089109,0.910891],[0.026596,0.973404],[0.005464,0.994536],[0.25,0.75],[0.0,1.0],[0.8,0.2],[0.928571,0.071429],[1.0,0.0],[0.8,0.2],[0.962733,0.037267],[0.846154,0.153846],[0.428571,0.571429],[0.9375,0.0625],[0.777778,0.222222],[1.0,0.0],[0.6,0.4],[1.0,0.0],[1.0,0.0]]},{"feature":[7,9,-2,10,-2,9,5,-2,-2,2,-2,-2,7,-2,1,-2,6,10,-2,-2,-2],"threshold":[-174.364311,96.980793,-2.0,-175.938934,-2.0,116.977291,-177.198021,-2.0,-2.0,-100.105515,-2.0,-2.0,-171.821144,-2.0,141.420753,-2.0,177.333817,-177.358131,-2.0,-2.0,-2.0],"children_left":[1,2,-1,4,-1,6,7,-1,-1,10,-1,-1,13,-1,15,-1,17,18,-1,-1,-1],"children_right":[12,3,-1,5,-1,9,8,-1,-1,11,-1,-1,14,-1,16,-1,20,19,-1,-1,-1],"value":[[0.523438,0.476562],[0.179724,0.820276],[1.0,0.0],[0.10101,0.89899],[1.0,0.0],[0.058201,0.941799],[0.016854,0.983146],[0.375,0.625],[0.0,1.0],[0.727273,0.272727],[1.0,0.0],[0.5,0.5],[0.97006,0.02994],[0.75,0.25],[0.981132,0.018868],[1.0,0.0],[0.942308,0.057692],[0.979167,0.020833],[0.857143,0.142857],[1.0,0.0],[0.5,0.5]]},{"feature":[7,0,5,2,-2,-2,9,11,-2,-2,-2,-2,4,-2,2,-2,-2],"threshold":[-174.080605,-38.877683,-177.514702,-42.950697,-2.0,-2.0,96.980793,172.24762,-2.0,-2.0,-2.0,-2.0,174.348396,-2.0,-74.416945,-2.0,-2.0],"children_left":[1,2,3,4,-1,-1,7,8,-1,-1,-1,-1,13,-1,15,-1,-1],"children_right":[12,11,6,5,-1,-1,10,9,-1,-1,-1,-1,14,-1,16,-1,-1],"value":[[0.515625,0.484375],[0.193833,0.806167],[0.148837,0.851163],[0.823529,0.176471],[0.4,0.6],[1.0,0.0],[0.090909,0.909091],[0.9,0.1],[1.0,0.0],[0.666667,0.333333],[0.0,1.0],[1.0,0.0],[0.980892,0.019108],[1.0,0.0],[0.857143,0.142857],[1.0,0.0],[0.75,0.25]]},{"feature":[4,6,-2,-2,8,4,1,-2,2,5,-2,-2,-2,-2,-2],"threshold":[162.745697,174.176239,-2.0,-2.0,-97.195358,176.406479,121.574417,-2.0,-12.021822,-162.919624,-2.0,-2.0,-2.0,-2.0,-2.0],"children_left":[1,2,-1,-1,5,6,7,-1,9,10,-1,-1,-1,-1,-1],"children_right":[4,3,-1,-1,14,13,8,-1,12,11,-1,-1,-1,-1,-1],"value":[[0.463542,0.536458],[0.984,0.016],[1.0,0.0],[0.777778,0.222222],[0.212355,0.787645],[0.101322,0.898678],[0.059908,0.940092],[1.0,0.0],[0.042254,0.957746],[0.009852,0.990148],[0.0,1.0],[0.4,0.6],[0.7,0.3],[1.0,0.0],[1.0,0.0]]},{"feature":[7,10,-2,9,-2,11,-2,8,-2,-2,7,-2,11,-2,-2],"threshold":[-174.114273,-176.099846,-2.0,95.486214,-2.0,160.502838,-2.0,-98.783131,-2.0,-2.0,178.787735,-2.0,171.879845,-2.0,-2.0],"children_left":[1,2,-1,4,-1,6,-1,8,-1,-1,11,-1,13,-1,-1],"children_right":[10,3,-1,5,-1,7,-1,9,-1,-1,12,-1,14,-1,-1],"value":[[0.492188,0.507812],[0.171674,0.828326],[1.0,0.0],[0.110599,0.889401],[1.0,0.0],[0.039801,0.960199],[0.857143,0.142857],[0.010309,0.989691],[0.0,1.0],[0.285714,0.714286],[0.986755,0.013245],[1.0,0.0],[0.875,0.125],[0.6,0.4],[1.0,0.0]]},{"feature":[13,4,-2,4,-2,5,-2,-2,1,-2,2,8,4,-2,-2,-2,-2],"threshold":[174.294983,174.702065,-2.0,175.320274,-2.0,-174.272163,-2.0,-2.0,122.515293,-2.0,-11.94921,-95.361027,176.138641,-2.0,-2.0,-2.0,-2.0],"children_left":[1,2,-1,4,-1,6,-1,-1,9,-1,11,12,13,-1,-1,-1,-1],"children_right":[8,3,-1,5,-1,7,-1,-1,10,-1,16,15,14,-1,-1,-1,-1],"value":[[0.479167,0.520833],[0.967949,0.032051],[1.0,0.0],[0.8,0.2],[0.0,1.0],[0.952381,0.047619],[1.0,0.0],[0.833333,0.166667],[0.144737,0.855263],[1.0,0.0],[0.088785,0.911215],[0.044118,0.955882],[0.015152,0.984848],[0.0,1.0],[0.6,0.4],[1.0,0.0],[1.0,0.0]]},{"feature":[7,7,6,-2,-2,9,7,-2,-2,1,-2,1,-2,-2,9,-2,5,7,-2,-2,-2],"threshold":[-174.080605,-179.327911,176.093529,-2.0,-2.0,96.980793,-177.770981,-2.0,-2.0,125.757328,-2.0,174.115028,-2.0,-2.0,100.754822,-2.0,-168.783562,177.845665,-2.0,-2.0,-2.0],"children_left":[1,2,3,-1,-1,6,7,-1,-1,10,-1,12,-1,-1,15,-1,17,18,-1,-1,-1],"children_right":[14,5,4,-1,-1,9,8,-1,-1,11,-1,13,-1,-1,16,-1,20,19,-1,-1,-1],"value":[[0.481771,0.518229],[0.179487,0.820513],[0.857143,0.142857],[1.0,0.0],[0.6,0.4],[0.136364,0.863636],[0.923077,0.076923],[0.666667,0.333333],[1.0,0.0],[0.030928,0.969072],[0.75,0.25],[0.015789,0.984211],[0.0,1.0],[0.25,0.75],[0.953333,0.046667],[1.0,0.0],[0.901408,0.098592],[0.5625,0.4375],[1.0,0.0],[0.0,1.0],[1.0,0.0]]},{"feature":[9,13,-2,3,-2,-2,5,9,11,7,-2,-2,-2,-2,-2],"threshold":[98.391098,178.499039,-2.0,57.922618,-2.0,-2.0,-156.592659,121.754707,176.848289,2.097084,-2.0,-2.0,-2.0,-2.0,-2.0],"children_left":[1,2,-1,4,-1,-1,7,8,9,10,-1,-1,-1,-1,-1],"children_right":[6,3,-1,5,-1,-1,14,13,12,11,-1,-1,-1,-1,-1],"value":[[0.484375,0.515625],[0.980769,0.019231],[1.0,0.0],[0.875,0.125],[0.714286,0.285714],[1.0,0.0],[0.3,0.7],[0.132743,0.867257],[0.066667,0.933333],[0.029703,0.970297],[0.0,1.0],[0.6,0.4],[1.0,0.0],[1.0,0.0],[1.0,0.0]]},{"feature":[8,13,5,-2,-2,2,10,-2,4,-2,-2,-2,-2],"threshold":[-96.879635,172.126747,-168.703476,-2.0,-2.0,-11.218529,-175.615578,-2.0,162.892006,-2.0,-2.0,-2.0,-2.0],"children_left":[1,2,3,-1,-1,6,7,-1,9,-1,-1,-1,-1],"children_right":[12,5,4,-1,-1,11,8,-1,10,-1,-1,-1,-1],"value":[[0.46875,0.53125],[0.25,0.75],[0.875,0.125],[0.5625,0.4375],[1.0,0.0],[0.087963,0.912037],[0.039024,0.960976],[0.857143,0.142857],[0.010101,0.989899],[0.285714,0.714286],[0.0,1.0],[1.0,0.0],[1.0,0.0]]},{"feature":[1,-2,11,-2,5,13,6,-2,8,-2,-2,1,5,-2,-2,4,-2,3,-2,-2,-2],"threshold":[121.574417,-2.0,160.681602,-2.0,-154.047699,174.050316,-175.710114,-2.0,-97.961559,-2.0,-2.0,172.078575,-177.209114,-2.0,-2.0,167.615524,-2.0,10.298216,-2.0,-2.0,-2.0],"children_left":[1,-1,3,-1,5,6,7,-1,9,-1,-1,12,13,-1,-1,16,-1,18,-1,-1,-1],"children_right":[2,-1,4,-1,20,11,8,-1,10,-1,-1,15,14,-1,-1,17,-1,19,-1,-1,-1],"value":[[0.505208,0.494792],[1.0,0.0],[0.316547,0.683453],[1.0,0.0],[0.205021,0.794979],[0.12844,0.87156],[0.736842,0.263158],[1.0,0.0],[0.545455,0.454545],[0.166667,0.833333],[1.0,0.0],[0.070352,0.929648],[0.005587,0.994413],[0.2,0.8],[0.0,1.0],[0.65,0.35],[0.166667,0.833333],[0.857143,0.142857],[0.6,0.4],[1.0,0.0],[1.0,0.0]]},{"feature":[10,13,4,-2,6,-2,-2,7,-2,9,-2,2,7,10,-2,-2,-2,-2,-2],"threshold":[-159.681374,174.050316,174.702065,-2.0,-175.910316,-2.0,-2.0,-179.382301,-2.0,95.659786,-2.0,-12.135159,-178.44931,-174.851967,-2.0,-2.0,-2.0,-2.0,-2.0],"children_left":[1,2,3,-1,5,-1,-1,8,-1,10,-1,12,13,14,-1,-1,-1,-1,-1],"children_right":[18,7,4,-1,6,-1,-1,9,-1,11,-1,17,16,15,-1,-1,-1,-1,-1],"value":[[0.494792,0.505208],[0.27881,0.72119],[0.90566,0.09434],[1.0,0.0],[0.761905,0.238095],[1.0,0.0],[0.375,0.625],[0.125,0.875],[1.0,0.0],[0.091346,0.908654],[1.0,0.0],[0.025773,0.974227],[0.016043,0.983957],[0.1,0.9],[0.6,0.4],[0.0,1.0],[0.0,1.0],[0.285714,0.714286],[1.0,0.0]]},{"feature":[11,-2,7,8,5,-2,13,1,-2,-2,2,-2,-2,-2,-2],"threshold":[159.982903,-2.0,-174.050316,-96.500713,-177.544182,-2.0,174.839081,139.173103,-2.0,-2.0,-12.243393,-2.0,-2.0,-2.0,-2.0],"children_left":[1,-1,3,4,5,-1,7,8,-1,-1,11,-1,-1,-1,-1],"children_right":[2,-1,14,13,6,-1,10,9,-1,-1,12,-1,-1,-1,-1],"value":[[0.445312,0.554688],[1.0,0.0],[0.260417,0.739583],[0.097458,0.902542],[0.053333,0.946667],[0.8,0.2],[0.018605,0.981395],[0.125,0.875],[0.0,1.0],[0.4,0.6],[0.01005,0.98995],[0.0,1.0],[0.333333,0.666667],[1.0,0.0],[1.0,0.0]]},{"feature":[1,-2,6,6,11,8,-2,-2,-2,7,0,-2,-2,-2,3,2,-2,-2,-2],"threshold":[124.713444,-2.0,169.347336,-179.427307,162.31636,-101.558533,-2.0,-2.0,-2.0,-175.142044,-132.398041,-2.0,-2.0,-2.0,33.771719,-11.975616,-2.0,-2.0,-2.0],"children_left":[1,-1,3,4,5,6,-1,-1,-1,10,11,-1,-1,-1,15,16,-1,-1,-1],"children_right":[2,-1,14,9,8,7,-1,-1,-1,13,12,-1,-1,-1,18,17,-1,-1,-1],"value":[[0.46875,0.53125],[1.0,0.0],[0.315436,0.684564],[0.764151,0.235849],[0.192308,0.807692],[0.047619,0.952381],[0.25,0.75],[0.0,1.0],[0.8,0.2],[0.95,0.05],[0.809524,0.190476],[0.333333,0.666667],[1.0,0.0],[1.0,0.0],[0.067708,0.932292],[0.037634,0.962366],[0.0,1.0],[0.875,0.125],[1.0,0.0]]},{"feature":[4,1,-2,11,-2,-2,10,-2,9,4,-2,-2,13,2,-2,-2,5,4,-2,-2,-2],"threshold":[162.639168,171.375755,-2.0,9.3176,-2.0,-2.0,-175.655174,-2.0,98.264854,169.123169,-2.0,-2.0,31.245564,-30.592107,-2.0,-2.0,-177.205635,165.833801,-2.0,-2.0,-2.0],"children_left":[1,2,-1,4,-1,-1,7,-1,9,10,-1,-1,13,14,-1,-1,17,18,-1,-1,-1],"children_right":[6,3,-1,5,-1,-1,8,-1,12,11,-1,-1,16,15,-1,-1,20,19,-1,-1,-1],"value":[[0.471354,0.528646],[0.990991,0.009009],[1.0,0.0],[0.9,0.1],[1.0,0.0],[0.8,0.2],[0.260073,0.739927],[1.0,0.0],[0.172131,0.827869],[0.888889,0.111111],[0.5,0.5],[1.0,0.0],[0.082949,0.917051],[0.941176,0.058824],[1.0,0.0],[0.833333,0.166667],[0.01,0.99],[0.166667,0.833333],[0.0,1.0],[0.5,0.5],[0.0,1.0]]},{"feature":[7,8,4,3,1,-2,-2,-2,-2,-2,6,12,13,-2,-2,-2,8,-2,-2],"threshold":[-174.294983,-97.195358,176.360008,30.821016,174.66655,-2.0,-2.0,-2.0,-2.0,-2.0,177.2192,179.647514,-178.587952,-2.0,-2.0,-2.0,9.204468,-2.0,-2.0],"children_left":[1,2,3,4,5,-1,-1,-1,-1,-1,11,12,13,-1,-1,-1,17,-1,-1],"children_right":[10,9,8,7,6,-1,-1,-1,-1,-1,16,15,14,-1,-1,-1,18,-1,-1],"value":[[0.473958,0.526042],[0.14978,0.85022],[0.058537,0.941463],[0.039801,0.960199],[0.015385,0.984615],[0.0,1.0],[0.428571,0.571429],[0.833333,0.166667],[1.0,0.0],[1.0,0.0],[0.942675,0.057325],[0.979021,0.020979],[0.992806,0.007194],[0.857143,0.142857],[1.0,0.0],[0.5,0.5],[0.571429,0.428571],[0.142857,0.857143],[1.0,0.0]]},{"feature":[5,9,7,3,-2,-2,4,8,-2,-2,-2,13,1,-2,-2,4,0,-2,-2,-2,-2],"threshold":[-162.418259,101.174171,-178.347343,10.232062,-2.0,-2.0,168.863625,-111.243427,-2.0,-2.0,-2.0,44.524548,118.920296,-2.0,-2.0,176.360008,-100.525352,-2.0,-2.0,-2.0,-2.0],"children_left":[1,2,3,4,-1,-1,7,8,-1,-1,-1,12,13,-1,-1,16,17,-1,-1,-1,-1],"children_right":[20,11,6,5,-1,-1,10,9,-1,-1,-1,15,14,-1,-1,19,18,-1,-1,-1,-1],"value":[[0.5,0.5],[0.252918,0.747082],[0.836735,0.163265],[0.538462,0.461538],[0.142857,0.857143],[1.0,0.0],[0.944444,0.055556],[0.846154,0.153846],[0.6,0.4],[1.0,0.0],[1.0,0.0],[0.115385,0.884615],[0.7,0.3],[1.0,0.0],[0.4,0.6],[0.053191,0.946809],[0.005587,0.994413],[0.0,1.0],[0.166667,0.833333],[1.0,0.0],[1.0,0.0]]},{"feature":[7,1,-2,8,5,-2,1,-2,-2,-2,10,13,-2,-2,-2],"threshold":[-174.080605,120.925766,-2.0,-97.354954,-177.641472,-2.0,173.857361,-2.0,-2.0,-2.0,-174.239563,-178.587952,-2.0,-2.0,-2.0],"children_left":[1,2,-1,4,5,-1,7,-1,-1,-1,11,12,-1,-1,-1],"children_right":[10,3,-1,9,6,-1,8,-1,-1,-1,14,13,-1,-1,-1],"value":[[0.481771,0.518229],[0.199187,0.800813],[1.0,0.0],[0.116592,0.883408],[0.052885,0.947115],[0.833333,0.166667],[0.029703,0.970297],[0.0,1.0],[0.545455,0.454545],[1.0,0.0],[0.985507,0.014493],[0.925926,0.074074],[0.714286,0.285714],[1.0,0.0],[1.0,0.0]]},{"feature":[5,0,8,4,3,10,-2,13,8,-2,-2,-2,-2,-2,-2,-2,-2],"threshold":[-159.74472,-30.765919,-96.720039,176.372719,32.244094,-175.401726,-2.0,174.772362,-100.114048,-2.0,-2.0,-2.0,-2.0,-2.0,-2.0,-2.0,-2.0],"children_left":[1,2,3,4,5,6,-1,8,9,-1,-1,-1,-1,-1,-1,-1,-1],"children_right":[16,15,14,13,12,7,-1,11,10,-1,-1,-1,-1,-1,-1,-1,-1],"value":[[0.471354,0.528646],[0.259124,0.740876],[0.191235,0.808765],[0.051402,0.948598],[0.019324,0.980676],[0.00995,0.99005],[0.111111,0.888889],[0.005208,0.994792],[0.076923,0.923077],[0.0,1.0],[0.2,0.8],[0.0,1.0],[0.333333,0.666667],[1.0,0.0],[1.0,0.0],[1.0,0.0],[1.0,0.0]]},{"feature":[10,9,-2,1,3,-2,-2,13,4,-2,-2,10,-2,8,-2,-2,-2],"threshold":[-159.709404,95.874493,-2.0,124.443718,13.474628,-2.0,-2.0,41.744255,174.44915,-2.0,-2.0,-176.322372,-2.0,-98.634216,-2.0,-2.0,-2.0],"children_left":[1,2,-1,4,5,-1,-1,8,9,-1,-1,12,-1,14,-1,-1,-1],"children_right":[16,3,-1,7,6,-1,-1,11,10,-1,-1,13,-1,15,-1,-1,-1],"value":[[0.466146,0.533854],[0.309764,0.690236],[1.0,0.0],[0.192913,0.807087],[0.956522,0.043478],[0.75,0.25],[1.0,0.0],[0.116883,0.883117],[0.708333,0.291667],[1.0,0.0],[0.5,0.5],[0.048309,0.951691],[1.0,0.0],[0.024752,0.975248],[0.0,1.0],[0.833333,0.166667],[1.0,0.0]]},{"feature":[11,-2,9,-2,7,5,0,-2,-2,1,-2,-2,6,-2,-2],"threshold":[160.304588,-2.0,95.402805,-2.0,-154.929497,-177.198021,-123.006458,-2.0,-2.0,174.928665,-2.0,-2.0,176.615776,-2.0,-2.0],"children_left":[1,-1,3,-1,5,6,7,-1,-1,10,-1,-1,13,-1,-1],"children_right":[2,-1,4,-1,12,9,8,-1,-1,11,-1,-1,14,-1,-1],"value":[[0.494792,0.505208],[1.0,0.0],[0.291971,0.708029],[1.0,0.0],[0.167382,0.832618],[0.06,0.94],[0.6875,0.3125],[1.0,0.0],[0.0,1.0],[0.005435,0.994565],[0.0,1.0],[0.25,0.75],[0.818182,0.181818],[1.0,0.0],[0.333333,0.666667]]},{"feature":[6,0,12,5,-2,-2,-2,7,1,-2,1,-2,-2,-2,1,-2,13,4,-2,-2,9,-2,13,-2,-2],"threshold":[172.610603,-172.507973,179.542053,-67.276722,-2.0,-2.0,-2.0,178.498726,161.818565,-2.0,167.861961,-2.0,-2.0,-2.0,-11.38063,-2.0,174.695946,174.992989,-2.0,-2.0,101.237541,-2.0,179.265244,-2.0,-2.0],"children_left":[1,2,3,4,-1,-1,-1,8,9,-1,11,-1,-1,-1,15,-1,17,18,-1,-1,21,-1,23,-1,-1],"children_right":[14,7,6,5,-1,-1,-1,13,10,-1,12,-1,-1,-1,16,-1,20,19,-1,-1,22,-1,24,-1,-1],"value":[[0.513021,0.486979],[0.87037,0.12963],[0.37931,0.62069],[0.916667,0.083333],[0.75,0.25],[1.0,0.0],[0.0,1.0],[0.977444,0.022556],[0.992188,0.007812],[1.0,0.0],[0.964286,0.035714],[0.75,0.25],[1.0,0.0],[0.6,0.4],[0.252252,0.747748],[1.0,0.0],[0.135417,0.864583],[0.818182,0.181818],[1.0,0.0],[0.428571,0.571429],[0.047059,0.952941],[0.5,0.5],[0.012658,0.987342],[0.0,1.0],[0.4,0.6]]},{"feature":[5,0,1,-2,10,-2,9,3,-2,-2,0,-2,-2,-2,-2],"threshold":[-162.386719,-30.48682,122.515293,-2.0,-176.213455,-2.0,100.408833,8.535002,-2.0,-2.0,-175.508667,-2.0,-2.0,-2.0,-2.0],"children_left":[1,2,3,-1,5,-1,7,8,-1,-1,11,-1,-1,-1,-1],"children_right":[14,13,4,-1,6,-1,10,9,-1,-1,12,-1,-1,-1,-1],"value":[[0.484375,0.515625],[0.290323,0.709677],[0.214286,0.785714],[1.0,0.0],[0.112108,0.887892],[1.0,0.0],[0.057143,0.942857],[0.846154,0.153846],[0.6,0.4],[1.0,0.0],[0.005076,0.994924],[0.166667,0.833333],[0.0,1.0],[1.0,0.0],[1.0,0.0]]},{"feature":[10,7,11,7,7,0,-2,-2,13,8,-2,-2,9,-2,-2,7,-2,-2,0,-2,-2,5,10,-2,-2,-2,-2],"threshold":[-159.685326,-173.976578,176.389145,-174.740334,-178.824371,-170.411629,-2.0,-2.0,175.522423,-99.459499,-2.0,-2.0,98.698826,-2.0,-2.0,-174.57309,-2.0,-2.0,-123.006458,-2.0,-2.0,-169.184448,-175.571358,-2.0,-2.0,-2.0,-2.0],"children_left":[1,2,3,4,5,6,-1,-1,9,10,-1,-1,13,-1,-1,16,-1,-1,19,-1,-1,22,23,-1,-1,-1,-1],"children_right":[26,21,18,15,8,7,-1,-1,12,11,-1,-1,14,-1,-1,17,-1,-1,20,-1,-1,25,24,-1,-1,-1,-1],"value":[[0.497396,0.502604],[0.310714,0.689286],[0.136364,0.863636],[0.073892,0.926108],[0.047872,0.952128],[0.357143,0.642857],[0.285714,0.714286],[0.428571,0.571429],[0.022989,0.977011],[0.136364,0.863636],[0.0,1.0],[0.428571,0.571429],[0.006579,0.993421],[0.142857,0.857143],[0.0,1.0],[0.4,0.6],[0.666667,0.333333],[0.0,1.0],[0.882353,0.117647],[1.0,0.0],[0.5,0.5],[0.95,0.05],[0.875,0.125],[1.0,0.0],[0.625,0.375],[1.0,0.0],[1.0,0.0]]},{"feature":[7,0,13,9,0,-2,-2,4,1,-2,11,-2,-2,-2,-2,-2,13,-2,-2],"threshold":[-174.080605,-38.877683,179.072174,100.408833,-167.616394,-2.0,-2.0,175.533287,165.5923,-2.0,175.788826,-2.0,-2.0,-2.0,-2.0,-2.0,-179.436409,-2.0,-2.0],"children_left":[1,2,3,4,5,-1,-1,8,9,-1,11,-1,-1,-1,-1,-1,17,-1,-1],"children_right":[16,15,14,7,6,-1,-1,13,10,-1,12,-1,-1,-1,-1,-1,18,-1,-1],"value":[[0.489583,0.510417],[0.204918,0.795082],[0.137778,0.862222],[0.106977,0.893023],[0.84,0.16],[1.0,0.0],[0.2,0.8],[0.010526,0.989474],[0.005376,0.994624],[0.0,1.0],[0.043478,0.956522],[0.0,1.0],[0.25,0.75],[0.25,0.75],[0.8,0.2],[1.0,0.0],[0.985714,0.014286],[0.666667,0.333333],[1.0,0.0]]},{"feature":[4,-2,9,4,-2,-2,11,1,-2,4,13,-2,-2,-2,-2],"threshold":[162.745697,-2.0,101.174171,168.039772,-2.0,-2.0,177.389366,123.163944,-2.0,175.794739,30.057247,-2.0,-2.0,-2.0,-2.0],"children_left":[1,-1,3,4,-1,-1,7,8,-1,10,11,-1,-1,-1,-1],"children_right":[2,-1,6,5,-1,-1,14,9,-1,13,12,-1,-1,-1,-1],"value":[[0.505208,0.494792],[1.0,0.0],[0.263566,0.736434],[0.914894,0.085106],[0.5,0.5],[1.0,0.0],[0.118483,0.881517],[0.05102,0.94898],[1.0,0.0],[0.015873,0.984127],[0.005495,0.994505],[0.142857,0.857143],[0.0,1.0],[0.285714,0.714286],[1.0,0.0]]},{"feature":[13,12,-2,9,-2,10,-2,-2,2,-2,2,11,6,5,-2,7,-2,-2,-2,-2,13,-2,-2],"threshold":[174.294983,-177.333817,-2.0,115.607395,-2.0,-169.918465,-2.0,-2.0,-80.436914,-2.0,-11.736751,177.618401,7.606346,-164.312851,-2.0,-176.178513,-2.0,-2.0,-2.0,-2.0,175.988907,-2.0,-2.0],"children_left":[1,2,-1,4,-1,6,-1,-1,9,-1,11,12,13,14,-1,16,-1,-1,-1,-1,21,-1,-1],"children_right":[8,3,-1,5,-1,7,-1,-1,10,-1,20,19,18,15,-1,17,-1,-1,-1,-1,22,-1,-1],"value":[[0.46875,0.53125],[0.967105,0.032895],[0.555556,0.444444],[0.993007,0.006993],[1.0,0.0],[0.97561,0.02439],[0.75,0.25],[1.0,0.0],[0.142241,0.857759],[1.0,0.0],[0.095455,0.904545],[0.039024,0.960976],[0.01005,0.98995],[0.064516,0.935484],[0.25,0.75],[0.037037,0.962963],[0.2,0.8],[0.0,1.0],[0.0,1.0],[1.0,0.0],[0.866667,0.133333],[0.6,0.4],[1.0,0.0]]},{"feature":[13,0,4,-2,11,-2,-2,-2,8,1,-2,11,8,-2,9,-2,-2,-2,-2],"threshold":[174.294983,-171.524399,174.432137,-2.0,171.879845,-2.0,-2.0,-2.0,-95.737186,120.925766,-2.0,177.018494,-99.445774,-2.0,109.060791,-2.0,-2.0,-2.0,-2.0],"children_left":[1,2,3,-1,5,-1,-1,-1,9,10,-1,12,13,-1,15,-1,-1,-1,-1],"children_right":[8,7,4,-1,6,-1,-1,-1,18,11,-1,17,14,-1,16,-1,-1,-1,-1],"value":[[0.489583,0.510417],[0.953642,0.046358],[0.810811,0.189189],[1.0,0.0],[0.533333,0.466667],[0.125,0.875],[1.0,0.0],[1.0,0.0],[0.188841,0.811159],[0.082524,0.917476],[1.0,0.0],[0.040609,0.959391],[0.015789,0.984211],[0.0,1.0],[0.15,0.85],[0.375,0.625],[0.0,1.0],[0.714286,0.285714],[1.0,0.0]]},{"feature":[10,9,3,-2,-2,1,-2,11,7,0,3,5,-2,-2,-2,-2,7,-2,-2,-2,-2],"threshold":[-159.685326,97.283386,9.144836,-2.0,-2.0,124.443718,-2.0,177.629005,-32.236069,-104.398418,10.617622,-176.692291,-2.0,-2.0,-2.0,-2.0,178.520905,-2.0,-2.0,-2.0,-2.0],"children_left":[1,2,3,-1,-1,6,-1,8,9,10,11,12,-1,-1,-1,-1,17,-1,-1,-1,-1],"children_right":[20,5,4,-1,-1,7,-1,19,16,15,14,13,-1,-1,-1,-1,18,-1,-1,-1,-1],"value":[[0.502604,0.497396],[0.292593,0.707407],[0.953488,0.046512],[0.75,0.25],[1.0,0.0],[0.167401,0.832599],[1.0,0.0],[0.104265,0.895735],[0.068966,0.931034],[0.015873,0.984127],[0.010811,0.989189],[0.045455,0.954545],[0.285714,0.714286],[0.0,1.0],[0.0,1.0],[0.25,0.75],[0.785714,0.214286],[1.0,0.0],[0.4,0.6],[1.0,0.0],[1.0,0.0]]},{"feature":[12,13,9,-2,-2,3,11,0,12,-2,-2,-2,-2,-2,7,1,3,1,-2,-2,-2,-2,-2],"threshold":[-172.240112,174.251076,100.997051,-2.0,-2.0,35.100399,177.422928,-174.474083,-176.810867,-2.0,-2.0,-2.0,-2.0,-2.0,-172.900665,172.426376,35.452391,132.185249,-2.0,-2.0,-2.0,-2.0,-2.0],"children_left":[1,2,3,-1,-1,6,7,8,9,-1,-1,-1,-1,-1,15,16,17,18,-1,-1,-1,-1,-1],"children_right":[14,5,4,-1,-1,13,12,11,10,-1,-1,-1,-1,-1,22,21,20,19,-1,-1,-1,-1,-1],"value":[[0.53125,0.46875],[0.235897,0.764103],[0.96,0.04],[1.0,0.0],[0.888889,0.111111],[0.129412,0.870588],[0.063291,0.936709],[0.039216,0.960784],[0.375,0.625],[0.0,1.0],[1.0,0.0],[0.0,1.0],[0.8,0.2],[1.0,0.0],[0.835979,0.164021],[0.474576,0.525424],[0.243902,0.756098],[0.03125,0.96875],[0.2,0.8],[0.0,1.0],[1.0,0.0],[1.0,0.0],[1.0,0.0]]},{"feature":[5,13,7,-2,3,-2,-2,4,0,-2,2,-2,7,13,5,-2,-2,-2,2,-2,-2,-2,-2],"threshold":[-162.386719,173.942909,178.587952,-2.0,11.358862,-2.0,-2.0,176.339493,-175.839973,-2.0,-64.185438,-2.0,-174.839081,176.781616,-176.465141,-2.0,-2.0,-2.0,-12.495782,-2.0,-2.0,-2.0,-2.0],"children_left":[1,2,3,-1,5,-1,-1,8,9,-1,11,-1,13,14,15,-1,-1,-1,19,-1,-1,-1,-1],"children_right":[22,7,4,-1,6,-1,-1,21,10,-1,12,-1,18,17,16,-1,-1,-1,20,-1,-1,-1,-1],"value":[[0.471354,0.528646],[0.216216,0.783784],[0.942857,0.057143],[1.0,0.0],[0.8,0.2],[0.75,0.25],[0.833333,0.166667],[0.102679,0.897321],[0.060748,0.939252],[0.666667,0.333333],[0.034146,0.965854],[0.75,0.25],[0.0199,0.9801],[0.005525,0.994475],[0.016393,0.983607],[0.142857,0.857143],[0.0,1.0],[0.0,1.0],[0.15,0.85],[0.0,1.0],[0.5,0.5],[1.0,0.0],[1.0,0.0]]},{"feature":[13,7,-2,6,-2,-2,2,-2,8,1,4,4,-2,-2,-2,11,-2,-2,-2],"threshold":[174.080605,178.587952,-2.0,-175.710114,-2.0,-2.0,-81.5135,-2.0,-96.341118,174.316856,176.039551,163.224152,-2.0,-2.0,-2.0,176.865318,-2.0,-2.0,-2.0],"children_left":[1,2,-1,4,-1,-1,7,-1,9,10,11,12,-1,-1,-1,16,-1,-1,-1],"children_right":[6,3,-1,5,-1,-1,8,-1,18,15,14,13,-1,-1,-1,17,-1,-1,-1],"value":[[0.46875,0.53125],[0.973684,0.026316],[1.0,0.0],[0.692308,0.307692],[1.0,0.0],[0.428571,0.571429],[0.137931,0.862069],[1.0,0.0],[0.086758,0.913242],[0.052133,0.947867],[0.015228,0.984772],[0.005208,0.994792],[0.166667,0.833333],[0.0,1.0],[0.4,0.6],[0.571429,0.428571],[0.333333,0.666667],[1.0,0.0],[1.0,0.0]]},{"feature":[10,7,3,1,9,7,-2,11,-2,-2,-2,8,-2,-2,-2,0,13,-2,-2,-2,-2],"threshold":[-159.513947,-173.191414,33.771719,175.018517,116.109138,-179.256355,-2.0,176.722595,-2.0,-2.0,-2.0,-106.304226,-2.0,-2.0,-2.0,-158.606308,-178.587631,-2.0,-2.0,-2.0,-2.0],"children_left":[1,2,3,4,5,6,-1,8,-1,-1,-1,12,-1,-1,-1,16,17,-1,-1,-1,-1],"children_right":[20,15,14,11,10,7,-1,9,-1,-1,-1,13,-1,-1,-1,19,18,-1,-1,-1,-1],"value":[[0.497396,0.502604],[0.277154,0.722846],[0.11215,0.88785],[0.090909,0.909091],[0.025907,0.974093],[0.016043,0.983957],[0.2,0.8],[0.010989,0.989011],[0.0,1.0],[0.333333,0.666667],[0.333333,0.666667],[0.875,0.125],[0.5,0.5],[1.0,0.0],[1.0,0.0],[0.943396,0.056604],[0.863636,0.136364],[0.666667,0.333333],[1.0,0.0],[1.0,0.0],[1.0,0.0]]},{"feature":[7,9,-2,11,5,-2,-2,10,-2,-2,7,10,-2,-2,-2],"threshold":[-174.050316,95.659786,-2.0,176.389145,-162.952705,-2.0,-2.0,-172.734398,-2.0,-2.0,179.574127,-177.640762,-2.0,-2.0,-2.0],"children_left":[1,2,-1,4,5,-1,-1,8,-1,-1,11,12,-1,-1,-1],"children_right":[10,3,-1,7,6,-1,-1,9,-1,-1,14,13,-1,-1,-1],"value":[[0.494792,0.505208],[0.160714,0.839286],[1.0,0.0],[0.082927,0.917073],[0.026455,0.973545],[0.0,1.0],[0.833333,0.166667],[0.75,0.25],[1.0,0.0],[0.333333,0.666667],[0.9625,0.0375],[0.993421,0.006579],[0.9,0.1],[1.0,0.0],[0.375,0.625]]},{"feature":[13,4,-2,3,0,-2,-2,-2,0,3,1,2,-2,-2,8,-2,-2,-2,-2],"threshold":[174.364311,174.702065,-2.0,27.430932,-172.139076,-2.0,-2.0,-2.0,22.482998,36.153923,172.869263,-12.179755,-2.0,-2.0,-106.468475,-2.0,-2.0,-2.0,-2.0],"children_left":[1,2,-1,4,5,-1,-1,-1,9,10,11,12,-1,-1,15,-1,-1,-1,-1],"children_right":[8,3,-1,7,6,-1,-1,-1,18,17,14,13,-1,-1,16,-1,-1,-1,-1],"value":[[0.510417,0.489583],[0.975309,0.024691],[1.0,0.0],[0.809524,0.190476],[0.555556,0.444444],[0.75,0.25],[0.4,0.6],[1.0,0.0],[0.171171,0.828829],[0.084577,0.915423],[0.036649,0.963351],[0.005618,0.994382],[0.0,1.0],[0.166667,0.833333],[0.461538,0.538462],[0.222222,0.777778],[1.0,0.0],[1.0,0.0],[1.0,0.0]]},{"feature":[8,13,13,-2,-2,8,-2,5,4,7,7,-2,1,-2,-2,-2,-2,-2,-2],"threshold":[-97.195358,151.43589,-178.52581,-2.0,-2.0,-128.599701,-2.0,-162.831436,175.853714,-174.839081,-179.265244,-2.0,174.928665,-2.0,-2.0,-2.0,-2.0,-2.0,-2.0],"children_left":[1,2,3,-1,-1,6,-1,8,9,10,11,-1,13,-1,-1,-1,-1,-1,-1],"children_right":[18,5,4,-1,-1,7,-1,17,16,15,12,-1,14,-1,-1,-1,-1,-1,-1],"value":[[0.46875,0.53125],[0.193676,0.806324],[0.871795,0.128205],[0.0,1.0],[1.0,0.0],[0.070093,0.929907],[0.571429,0.428571],[0.05314,0.94686],[0.039409,0.960591],[0.030612,0.969388],[0.016043,0.983957],[0.285714,0.714286],[0.005556,0.994444],[0.0,1.0],[0.2,0.8],[0.333333,0.666667],[0.285714,0.714286],[0.75,0.25],[1.0,0.0]]},{"feature":[7,11,2,-2,8,2,3,-2,-2,-2,-2,0,-2,-2,6,10,-2,-2,3,-2,-2],"threshold":[-174.114273,176.389145,-76.468979,-2.0,-98.332806,-11.71732,32.528252,-2.0,-2.0,-2.0,-2.0,-120.633205,-2.0,-2.0,177.2192,-177.636841,-2.0,-2.0,37.51441,-2.0,-2.0],"children_left":[1,2,3,-1,5,6,7,-1,-1,-1,-1,12,-1,-1,15,16,-1,-1,19,-1,-1],"children_right":[14,11,4,-1,10,9,8,-1,-1,-1,-1,13,-1,-1,18,17,-1,-1,20,-1,-1],"value":[[0.502604,0.497396],[0.212766,0.787234],[0.119617,0.880383],[1.0,0.0],[0.070707,0.929293],[0.057895,0.942105],[0.016575,0.983425],[0.0,1.0],[0.428571,0.571429],[0.888889,0.111111],[0.375,0.625],[0.961538,0.038462],[1.0,0.0],[0.833333,0.166667],[0.959732,0.040268],[0.992537,0.007463],[0.9,0.1],[1.0,0.0],[0.666667,0.333333],[0.285714,0.714286],[1.0,0.0]]},{"feature":[8,1,-2,13,-2,11,13,9,-2,-2,-2,-2,-2],"threshold":[-97.195358,121.574417,-2.0,125.57074,-2.0,176.723274,174.839081,109.092934,-2.0,-2.0,-2.0,-2.0,-2.0],"children_left":[1,2,-1,4,-1,6,7,8,-1,-1,-1,-1,-1],"children_right":[12,3,-1,5,-1,11,10,9,-1,-1,-1,-1,-1],"value":[[0.520833,0.479167],[0.269841,0.730159],[1.0,0.0],[0.12381,0.87619],[1.0,0.0],[0.046632,0.953368],[0.021505,0.978495],[0.2,0.8],[0.571429,0.428571],[0.0,1.0],[0.0,1.0],[0.714286,0.285714],[1.0,0.0]]},{"feature":[7,11,1,-2,4,-2,6,-2,8,2,-2,-2,-2,9,-2,-2,12,-2,13,-2,-2],"threshold":[-173.191414,177.362602,120.925766,-2.0,162.736328,-2.0,-179.879776,-2.0,-98.022266,-12.352918,-2.0,-2.0,-2.0,106.033585,-2.0,-2.0,-177.333817,-2.0,-178.587952,-2.0,-2.0],"children_left":[1,2,3,-1,5,-1,7,-1,9,10,-1,-1,-1,14,-1,-1,17,-1,19,-1,-1],"children_right":[16,13,4,-1,6,-1,8,-1,12,11,-1,-1,-1,15,-1,-1,18,-1,20,-1,-1],"value":[[0.481771,0.518229],[0.205761,0.794239],[0.131222,0.868778],[1.0,0.0],[0.054187,0.945813],[0.8,0.2],[0.035354,0.964646],[0.285714,0.714286],[0.026178,0.973822],[0.010753,0.989247],[0.0,1.0],[0.222222,0.777778],[0.6,0.4],[0.954545,0.045455],[1.0,0.0],[0.875,0.125],[0.957447,0.042553],[0.666667,0.333333],[0.992063,0.007937],[0.833333,0.166667],[1.0,0.0]]},{"feature":[7,9,-2,5,0,-2,-2,9,-2,-2,0,0,7,-2,-2,-2,-2],"threshold":[-174.294983,97.002041,-2.0,-177.198021,-123.43676,-2.0,-2.0,116.977291,-2.0,-2.0,-171.5,-172.110176,177.645248,-2.0,-2.0,-2.0,-2.0],"children_left":[1,2,-1,4,5,-1,-1,8,-1,-1,11,12,13,-1,-1,-1,-1],"children_right":[10,3,-1,7,6,-1,-1,9,-1,-1,16,15,14,-1,-1,-1,-1],"value":[[0.473958,0.526042],[0.153191,0.846809],[1.0,0.0],[0.082949,0.917051],[0.565217,0.434783],[1.0,0.0],[0.0,1.0],[0.025773,0.974227],[0.0,1.0],[0.555556,0.444444],[0.979866,0.020134],[0.875,0.125],[0.947368,0.052632],[1.0,0.0],[0.833333,0.166667],[0.6,0.4],[1.0,0.0]]},{"feature":[13,10,13,-2,-2,-2,5,4,-2,-2,3,2,2,-2,-2,-2,-2],"threshold":[174.154434,-173.952919,-178.787735,-2.0,-2.0,-2.0,-177.198021,172.540878,-2.0,-2.0,39.578037,-11.975616,-64.185438,-2.0,-2.0,-2.0,-2.0],"children_left":[1,2,3,-1,-1,-1,7,8,-1,-1,11,12,13,-1,-1,-1,-1],"children_right":[6,5,4,-1,-1,-1,10,9,-1,-1,16,15,14,-1,-1,-1,-1],"value":[[0.471354,0.528646],[0.979021,0.020979],[0.914286,0.085714],[0.625,0.375],[1.0,0.0],[1.0,0.0],[0.170124,0.829876],[0.857143,0.142857],[0.428571,0.571429],[1.0,0.0],[0.079812,0.920188],[0.062201,0.937799],[0.029703,0.970297],[0.857143,0.142857],[0.0,1.0],[1.0,0.0],[1.0,0.0]]},{"feature":[4,4,-2,-2,1,13,0,-2,-2,10,-2,2,-2,8,9,-2,-2,-2,4,-2,-2],"threshold":[162.639168,158.986008,-2.0,-2.0,174.783936,173.976578,-172.430252,-2.0,-2.0,-175.988007,-2.0,-62.99066,-2.0,-98.817326,100.672882,-2.0,-2.0,-2.0,168.022087,-2.0,-2.0],"children_left":[1,2,-1,-1,5,6,7,-1,-1,10,-1,12,-1,14,15,-1,-1,-1,19,-1,-1],"children_right":[4,3,-1,-1,18,9,8,-1,-1,11,-1,13,-1,17,16,-1,-1,-1,20,-1,-1],"value":[[0.513021,0.486979],[0.99187,0.00813],[1.0,0.0],[0.875,0.125],[0.287356,0.712644],[0.202586,0.797414],[0.857143,0.142857],[0.375,0.625],[1.0,0.0],[0.086294,0.913706],[1.0,0.0],[0.032258,0.967742],[0.5,0.5],[0.011236,0.988764],[0.005848,0.994152],[0.2,0.8],[0.0,1.0],[0.142857,0.857143],[0.965517,0.034483],[0.75,0.25],[1.0,0.0]]},{"feature":[4,-2,3,11,2,8,0,-2,-2,-2,-2,6,-2,-2,3,-2,-2],"threshold":[160.78611,-2.0,32.558107,176.863129,-11.656701,-98.022266,-101.526855,-2.0,-2.0,-2.0,-2.0,1.840034,-2.0,-2.0,38.614468,-2.0,-2.0],"children_left":[1,-1,3,4,5,6,7,-1,-1,-1,-1,12,-1,-1,15,-1,-1],"children_right":[2,-1,14,11,10,9,8,-1,-1,-1,-1,13,-1,-1,16,-1,-1],"value":[[0.484375,0.515625],[1.0,0.0],[0.258427,0.741573],[0.143478,0.856522],[0.07109,0.92891],[0.024876,0.975124],[0.005102,0.994898],[0.0,1.0],[0.2,0.8],[0.8,0.2],[1.0,0.0],[0.947368,0.052632],[1.0,0.0],[0.833333,0.166667],[0.972973,0.027027],[0.857143,0.142857],[1.0,0.0]]},{"feature":[5,8,8,-2,5,-2,11,1,-2,4,-2,2,-2,-2,-2,-2,-2],"threshold":[-162.228043,-97.354954,-130.212959,-2.0,-177.641472,-2.0,176.281219,126.128635,-2.0,163.01799,-2.0,-12.255444,-2.0,-2.0,-2.0,-2.0,-2.0],"children_left":[1,2,3,-1,5,-1,7,8,-1,10,-1,12,-1,-1,-1,-1,-1],"children_right":[16,15,4,-1,6,-1,14,9,-1,11,-1,13,-1,-1,-1,-1,-1],"value":[[0.484375,0.515625],[0.274725,0.725275],[0.112108,0.887892],[1.0,0.0],[0.070423,0.929577],[0.857143,0.142857],[0.043689,0.956311],[0.030151,0.969849],[0.5,0.5],[0.020513,0.979487],[0.2,0.8],[0.015789,0.984211],[0.0,1.0],[0.5,0.5],[0.428571,0.571429],[1.0,0.0],[1.0,0.0]]},{"feature":[7,9,-2,11,6,7,-2,8,-2,-2,-2,-2,12,11,-2,-2,-2],"threshold":[-173.942909,95.659786,-2.0,177.179306,60.160044,-177.480362,-2.0,-101.722553,-2.0,-2.0,-2.0,-2.0,-177.2192,174.135979,-2.0,-2.0,-2.0],"children_left":[1,2,-1,4,5,6,-1,8,-1,-1,-1,-1,13,14,-1,-1,-1],"children_right":[12,3,-1,11,10,7,-1,9,-1,-1,-1,-1,16,15,-1,-1,-1],"value":[[0.484375,0.515625],[0.160173,0.839827],[1.0,0.0],[0.058252,0.941748],[0.030151,0.969849],[0.157895,0.842105],[0.714286,0.285714],[0.032258,0.967742],[0.2,0.8],[0.0,1.0],[0.0,1.0],[0.857143,0.142857],[0.973856,0.026144],[0.714286,0.285714],[0.333333,0.666667],[1.0,0.0],[1.0,0.0]]},{"feature":[9,-2,5,13,2,-2,13,-2,-2,13,11,1,-2,-2,-2,-2,-2],"threshold":[95.659786,-2.0,-157.105232,40.151722,-16.598981,-2.0,-178.663055,-2.0,-2.0,179.067856,176.10231,172.471138,-2.0,-2.0,-2.0,-2.0,-2.0],"children_left":[1,-1,3,4,5,-1,7,-1,-1,10,11,12,-1,-1,-1,-1,-1],"children_right":[2,-1,16,9,6,-1,8,-1,-1,15,14,13,-1,-1,-1,-1,-1],"value":[[0.492188,0.507812],[1.0,0.0],[0.338983,0.661017],[0.170213,0.829787],[0.931034,0.068966],[1.0,0.0],[0.846154,0.153846],[0.666667,0.333333],[1.0,0.0],[0.063107,0.936893],[0.015385,0.984615],[0.005263,0.994737],[0.0,1.0],[0.125,0.875],[0.4,0.6],[0.909091,0.090909],[1.0,0.0]]},{"feature":[13,10,10,3,-2,-2,-2,-2,1,-2,5,11,9,-2,-2,-2,-2],"threshold":[174.391624,-174.239563,-175.220634,10.207089,-2.0,-2.0,-2.0,-2.0,120.925766,-2.0,-64.909174,176.926857,96.980793,-2.0,-2.0,-2.0,-2.0],"children_left":[1,2,3,4,-1,-1,-1,-1,9,-1,11,12,13,-1,-1,-1,-1],"children_right":[8,7,6,5,-1,-1,-1,-1,10,-1,16,15,14,-1,-1,-1,-1],"value":[[0.450521,0.549479],[0.966216,0.033784],[0.857143,0.142857],[0.964286,0.035714],[0.75,0.25],[1.0,0.0],[0.428571,0.571429],[1.0,0.0],[0.127119,0.872881],[1.0,0.0],[0.055046,0.944954],[0.032864,0.967136],[0.014354,0.985646],[0.6,0.4],[0.0,1.0],[1.0,0.0],[1.0,0.0]]},{"feature":[7,11,-2,2,-2,7,10,-2,0,-2,-2,9,-2,1,-2,-2,0,10,-2,-2,-2],"threshold":[-174.080605,160.123894,-2.0,-80.712223,-2.0,-178.43013,-174.557243,-2.0,-171.447693,-2.0,-2.0,97.159672,-2.0,174.025177,-2.0,-2.0,-171.524399,-173.952919,-2.0,-2.0,-2.0],"children_left":[1,2,-1,4,-1,6,7,-1,9,-1,-1,12,-1,14,-1,-1,17,18,-1,-1,-1],"children_right":[16,3,-1,5,-1,11,8,-1,10,-1,-1,13,-1,15,-1,-1,20,19,-1,-1,-1],"value":[[0.476562,0.523438],[0.160338,0.839662],[1.0,0.0],[0.123348,0.876652],[1.0,0.0],[0.074419,0.925581],[0.25641,0.74359],[0.875,0.125],[0.096774,0.903226],[0.428571,0.571429],[0.0,1.0],[0.034091,0.965909],[1.0,0.0],[0.005848,0.994152],[0.0,1.0],[0.166667,0.833333],[0.986395,0.013605],[0.9375,0.0625],[0.857143,0.142857],[1.0,0.0],[1.0,0.0]]},{"feature":[13,4,-2,6,-2,-2,9,-2,13,10,-2,8,-2,-2,-2],"threshold":[174.083984,176.07531,-2.0,178.26815,-2.0,-2.0,95.486214,-2.0,179.466965,-175.724495,-2.0,-98.526794,-2.0,-2.0,-2.0],"children_left":[1,2,-1,4,-1,-1,7,-1,9,10,-1,12,-1,-1,-1],"children_right":[6,3,-1,5,-1,-1,8,-1,14,11,-1,13,-1,-1,-1],"value":[[0.466146,0.533854],[0.992593,0.007407],[1.0,0.0],[0.916667,0.083333],[0.8,0.2],[1.0,0.0],[0.180723,0.819277],[1.0,0.0],[0.081081,0.918919],[0.033333,0.966667],[0.8,0.2],[0.014634,0.985366],[0.0,1.0],[0.6,0.4],[0.916667,0.083333]]},{"feature":[13,0,4,-2,13,-2,-2,-2,13,9,-2,1,3,10,1,-2,-2,-2,-2,-2,-2],"threshold":[174.083984,-158.606308,174.44915,-2.0,-178.356575,-2.0,-2.0,-2.0,179.750717,95.659786,-2.0,175.018517,33.763605,-174.94323,139.853592,-2.0,-2.0,-2.0,-2.0,-2.0,-2.0],"children_left":[1,2,3,-1,5,-1,-1,-1,9,10,-1,12,13,14,15,-1,-1,-1,-1,-1,-1],"children_right":[8,7,4,-1,6,-1,-1,-1,20,11,-1,19,18,17,16,-1,-1,-1,-1,-1,-1],"value":[[0.427083,0.572917],[0.984733,0.015267],[0.955556,0.044444],[1.0,0.0],[0.818182,0.181818],[0.5,0.5],[1.0,0.0],[1.0,0.0],[0.13834,0.86166],[0.117409,0.882591],[1.0,0.0],[0.056277,0.943723],[0.027397,0.972603],[0.00939,0.99061],[0.057143,0.942857],[0.0,1.0],[0.333333,0.666667],[0.0,1.0],[0.666667,0.333333],[0.583333,0.416667],[1.0,0.0]]},{"feature":[13,6,-2,-2,2,-2,9,1,-2,4,-2,-2,11,5,-2,-2,-2],"threshold":[174.050316,177.153748,-2.0,-2.0,-75.392393,-2.0,101.237541,170.109756,-2.0,171.645149,-2.0,-2.0,176.537689,-162.952065,-2.0,-2.0,-2.0],"children_left":[1,2,-1,-1,5,-1,7,8,-1,10,-1,-1,13,14,-1,-1,-1],"children_right":[4,3,-1,-1,6,-1,12,9,-1,11,-1,-1,16,15,-1,-1,-1],"value":[[0.486979,0.513021],[0.965986,0.034014],[1.0,0.0],[0.666667,0.333333],[0.189873,0.810127],[1.0,0.0],[0.111111,0.888889],[0.695652,0.304348],[0.333333,0.666667],[0.928571,0.071429],[0.8,0.2],[1.0,0.0],[0.041451,0.958549],[0.016304,0.983696],[0.0,1.0],[0.428571,0.571429],[0.555556,0.444444]]},{"feature":[7,5,3,0,4,-2,-2,12,4,-2,-2,3,-2,-2,-2,-2,13,6,-2,-2,-2],"threshold":[-173.225082,-162.171394,35.100399,-174.445679,172.425079,-2.0,-2.0,177.632996,175.727081,-2.0,-2.0,27.106279,-2.0,-2.0,-2.0,-2.0,-178.587952,-175.710114,-2.0,-2.0,-2.0],"children_left":[1,2,3,4,5,-1,-1,8,9,-1,-1,12,-1,-1,-1,-1,17,18,-1,-1,-1],"children_right":[16,15,14,7,6,-1,-1,11,10,-1,-1,13,-1,-1,-1,-1,20,19,-1,-1,-1],"value":[[0.455729,0.544271],[0.154812,0.845188],[0.110132,0.889868],[0.051643,0.948357],[0.333333,0.666667],[1.0,0.0],[0.0,1.0],[0.020833,0.979167],[0.006024,0.993976],[0.0,1.0],[0.166667,0.833333],[0.115385,0.884615],[0.6,0.4],[0.0,1.0],[1.0,0.0],[1.0,0.0],[0.951724,0.048276],[0.5625,